-0.38339627 0.5839688 0.4728699 -0.33126044 1.6361319 -1.1219201 -0.65915143 0.23301739 -1.4576402 -1.6870514 1.6189482 1.0843556 -0.84193945 0.39524114 -0.39390886 1.2198913 0.17419888 -0.12878028 -1.6143789 1.1285477 -0.32371566 0.10592267 -0.0041234023 -1.3177572 0.67545176 0.40925786 1.7831808 0.72676086 -1.1899383 -0.5664722 -0.08430576 1.7465065 

-0.031801827 1.1221238 -1.6851315 1.6752002 0.08765571 0.16909651 -0.39225185 1.0069376 -0.094646834 0.57129645 -0.66773415 0.10817987 0.4032643 0.6632162 0.6568675 -0.13294117 0.40164116 -0.6608287 -0.3668199 -1.1488655 -0.3574639 0.065447725 -0.47747958 1.3225179 -0.60473496 -0.5970323 -0.46850076 -0.22865678 -0.2029236 -1.8948568 1.527764 -0.07724671 

0.37650678 -0.6213169 0.70227623 0.7641556 -0.49511006 -0.74153215 -1.675698 0.058322556 1.5704887 -0.8180722 0.30775276 -1.4842749 0.37422967 1.325506 -0.05830786 -1.8269675 1.4253768 -1.4565784 -1.8580251 0.8065967 -0.48775187 -0.8138588 -0.76247895 -0.7030289 1.253213 1.3244694 -1.1496214 1.7451848 1.0796525 -1.2402308 1.6478596 1.7309449 

1.0620074 0.77888215 -0.08419524 -1.3658941 -0.76036173 1.0668181 1.0962389 -0.4457489 -0.81089425 1.0037062 -0.9165595 0.96892864 -1.3425149 -0.31010318 -0.09880597 -0.7258341 -0.59751153 -0.84518373 1.5795485 -1.0455229 1.2730048 1.112857 0.2643111 0.48904026 0.32497793 -0.7787242 -0.7962597 0.24071312 -1.6574175 0.39233762 -0.2807539 1.8507869 

0.4158971 0.015900925 1.075671 -0.3369303 -0.8919939 -0.35186478 0.7958124 0.29210985 0.7651079 0.9606859 -0.8964644 -0.6370022 -0.81140375 -0.4425803 -0.31324676 0.5202526 -0.06704456 -0.019113047 -1.2733448 -0.9006543 0.7414036 0.5886295 -1.2444626 0.39087245 -0.11731322 -0.6569128 -0.19925766 0.8775058 1.1122773 -0.10717076 1.3712156 1.3341097 


-0.9608265 -0.40290844 -0.8403214 0.22893158 0.58659226 -0.19232637 -0.13517511 0.4037431 0.6667299 -0.0010102376 -0.9430542 -0.16337521 -0.52270275 -0.5107843 -0.4081694 -0.57426816 -0.42102328 -0.8078695 0.5586192 0.5708507 -1.443062 -0.41019484 -0.72192824 0.83570325 -0.02254084 0.07744025 0.8940815 -0.4471259 -0.2103026 -0.09910178 -1.1685119 -1.5436178 

-1.3589946 1.0752381 -0.12601766 -0.4331176 0.93322116 0.264059 0.6665055 0.4103226 1.4452902 0.7979318 0.17628206 -0.65363663 -2.2662802 -1.4287115 -0.32803205 0.86570275 -1.4872621 0.51478183 0.29184827 -0.27181932 1.3056246 -0.51162547 0.17713058 -2.1265256 0.027581504 0.3155256 -2.0227332 -1.312348 -0.6535869 -1.1158961 -1.982915 -1.224652 

1.2677494 -0.24524266 0.30861482 -0.034931503 -0.75448173 0.20072308 0.2058543 -1.6421009 -0.27728638 -1.225434 1.5556419 1.7284564 -0.83671254 -0.8460521 0.56931067 0.89328516 0.59583616 1.0000101 -0.90901554 -1.3106763 -0.09468682 -0.43407118 -0.025547652 -1.2908535 -1.3190022 1.2317468 0.34916815 0.09674207 -0.4174403 -1.3080107 -1.3349675 -0.9238308 

-0.99365366 -0.70707995 -0.055327985 0.38799322 0.58986956 1.0568427 0.2745388 0.2109562 -0.08235778 -1.2891166 -0.9282393 0.16728072 0.32267207 0.24783628 -0.25038365 -1.2268885 0.5461935 -0.31472573 -0.16299954 0.45678484 -1.6095179 -0.46762654 0.8657737 0.455699 0.004658186 -0.44713196 -0.32142043 -0.85360503 -0.059559174 0.39247632 1.6669537 -0.1220149 

0.41734853 -1.1536391 0.059249785 -0.670551 -1.8500789 0.086412214 -1.4704962 0.97610784 0.3375913 0.7856671 0.26820618 0.46961507 -0.39750874 1.778236 -0.038803313 0.98441154 -0.35092115 -1.4147707 0.21458726 -0.34249714 -1.5810894 -0.049608797 -0.55281055 -1.1512461 0.41281483 -0.77357656 -0.66828126 -1.3944176 0.12542349 0.65486574 0.2619106 -0.98690844 


-0.17518212 -1.3129712 -0.5014518 -0.35328647 -0.3993178 -1.11502 0.7761833 0.32714757 -0.6145107 0.38424218 1.6571127 -0.8960207 0.29097506 -1.5765699 1.2889296 0.32614395 -0.2662492 0.70516574 -0.202263 0.4696282 1.3195702 0.10131803 -1.1267166 -1.1715447 -0.2467756 -1.2237712 0.41461444 -1.933461 0.24853967 -0.45666048 -0.63185817 -0.61508614 

0.44007808 0.10566934 1.3178607 -0.75850147 0.015718332 -0.049935192 1.116563 -0.060338 -0.026952114 -0.3153967 0.3394238 -0.6184486 1.4622227 -1.5667822 -0.10101921 0.3622516 -0.18348478 -0.12023769 -0.7155368 0.10253177 -0.075165115 -0.8985088 0.6277309 0.042776495 0.29782572 -0.34848002 0.08158371 -0.70303255 -0.8013024 -0.2804315 0.20801198 0.6373394 

0.09316761 -0.7040211 -1.3094331 0.6206777 0.39699182 -0.8505491 -0.8725521 0.45379522 1.4616325 -0.6870111 -0.3860935 0.682656 -1.5983369 0.97817916 -0.6287678 0.6143519 0.57209516 0.3261172 1.3964624 -1.2116205 0.35959917 -1.8905292 0.33324248 1.5080385 -0.3441812 -0.8465977 0.44532362 0.083035514 1.0565909 0.24787547 -0.9605998 1.3260497 

0.25472817 -1.5720234 0.6608038 -0.83094096 1.2885267 -0.4519424 -0.92485344 0.9567958 -0.9438974 0.69556814 0.6857144 -0.33407918 0.004405394 0.2799887 -0.48924056 0.018968424 -0.060516004 -0.8563682 -0.8966508 0.6436649 -0.6546911 0.49675217 -0.4730078 -0.09960734 -0.5250655 -0.03145362 1.6521715 -0.1605488 0.6396249 -1.0770552 0.18883798 -1.6944207 

-0.45205832 0.32509816 -0.10172739 1.783666 1.7166498 -0.79799145 1.2477239 -0.9999187 0.31550977 0.7723134 -0.46976015 -0.93854237 0.058828518 -0.62314135 0.25379658 -1.6866537 0.1121235 1.1074067 -0.36308903 -0.10097814 0.21718119 0.12069014 0.70349157 0.3053254 0.69605964 0.15197667 -1.2085134 -0.46096128 0.7182628 -0.028778607 -0.99677855 -0.5864718 


-0.24827567 -0.8753008 -1.7329531 0.97423905 -1.7591679 -1.3817903 0.2194267 0.31532377 -0.732963 0.0047551338 -0.8399809 0.09193085 -0.9834709 -0.47437793 0.25922075 0.9558016 -1.5074652 -0.5130574 1.6623571 0.31933388 -0.4805703 -0.17778546 -0.35913563 -0.83210784 0.11493421 0.17985567 -0.68928456 1.5593159 0.6171977 1.5021288 -0.46604493 1.5782844 

-0.6426019 0.094123155 1.7387928 0.22712407 0.7650242 -1.4152945 1.4201142 -0.44493133 -0.22717175 0.7760562 0.60132796 0.4283527 -0.04220597 -1.3560246 1.8052099 0.55481 0.6805474 1.1245832 0.27008253 -0.15888868 -0.38355353 -0.13499077 -1.1841927 1.3702544 -0.6831953 0.17731144 -0.38236904 -0.6067559 -1.0469207 -0.59461445 0.55339324 -0.69559014 

0.58809596 0.7719093 -0.42335942 0.33940288 -1.40672 0.431804 -0.042724803 0.9716655 1.3000265 -1.3863789 0.7503492 0.45184985 0.02385667 0.06807163 -0.36643052 -0.003996873 -0.32235005 0.4956476 -1.241688 -0.68564385 1.1759241 0.3292184 -0.16069855 1.318468 0.6456041 -1.0710677 0.59014964 1.0624045 1.1819826 -0.8746821 -0.5195473 -1.105036 

0.21030222 0.046799827 1.3180087 0.12307126 0.02360299 -1.1430609 -0.2388343 -0.46530232 0.19722708 -0.13817246 0.009038599 0.18238145 0.90961915 -1.354383 0.8176472 0.8109263 -0.085716136 -0.1666094 1.2955786 -0.11754695 0.25885803 0.6906289 -0.85509634 -0.908074 -0.24859758 -0.108406544 0.41066968 0.5457936 -0.63087887 -0.21658996 -1.1586705 0.538067 

-0.075717025 -0.71519053 1.1718515 -0.44586235 0.3006025 0.093280695 -0.55721396 0.49393895 0.5301159 0.86024386 -1.524562 -0.90343094 1.092168 -0.7613342 -0.8938795 1.0868071 0.10690072 0.9715393 0.17496783 -0.4955898 -0.60333264 0.07514026 -0.8104137 1.5626022 0.40347758 0.80604804 0.2733496 0.87558 -1.4994627 -0.5758167 -0.09081058 0.36792874 


0.78409594 -1.5077522 -0.91366404 -0.40383664 -0.32137558 0.18694982 -1.75127 -0.6979938 -0.010980504 1.0248462 -1.4056013 -0.6009983 -0.29087493 0.7841576 0.99099493 -1.1127049 1.6291263 0.26318195 0.62241 -0.6403512 -1.4040132 0.5145048 0.46161857 -0.28243867 0.59741175 1.092879 -0.12234364 0.2809892 0.24684921 0.8147854 -0.5043183 -0.33231735 

0.15379699 0.59409124 -0.16607498 -0.10566306 0.008269281 1.1850481 0.4771331 -1.7861294 -0.09591696 -0.41103145 -0.047000613 1.5713965 0.8910941 1.5302991 -0.102245085 -0.23571546 0.010864181 1.0559299 -0.51467186 0.9559068 -1.0172691 -1.500709 -0.19953382 0.32775494 -0.7440023 -1.0080421 -0.71832573 0.27925697 -1.9340732 -0.6499637 0.19849722 -1.4677032 

0.27748358 -0.37315658 -0.80341905 -0.6577191 -0.10584741 -1.5844914 -1.7352612 1.1894851 -0.34426573 -0.42158362 -0.053140044 -1.1605997 -0.16964531 0.17320132 0.693952 -0.2651215 0.044710364 0.50250554 0.63738745 -1.8873506 -1.808491 0.6540916 -0.40098014 0.2262318 0.12516095 -0.050332 -0.9127422 -0.43002442 0.08612355 -0.8351238 0.48225287 -0.34506017 

-0.025331104 0.37235406 0.6426663 0.19096406 0.96186846 -0.35342392 0.58910793 1.458203 -0.7155226 -1.0472847 0.12504636 -0.31663617 0.6597421 0.09553316 0.45959124 0.13983703 -0.09930254 0.12510745 -0.63717616 -0.22643374 -1.3636187 -0.8517111 -0.029655559 -0.8559454 0.81194407 -0.9360883 0.03695442 1.2870058 -0.30772632 -1.5804708 -1.7116144 -1.0850374 

0.7845443 -0.16400638 0.03172373 -0.8094303 -1.1210096 -0.4040584 -1.2427758 0.15475191 0.8811021 0.37817174 1.1666228 -0.39710915 0.03361128 0.3148176 -0.31385627 -0.29036295 0.3245811 -0.8230822 0.77459353 -0.46872866 0.7724098 -0.5866107 0.6563848 -0.7232929 -1.1656641 0.8019811 -0.28414205 -1.4350731 0.5463506 0.6106804 -1.3797926 0.6869457 


