1.1782951 0.2343562 0.2114376 0.5888363 1.8192228 -1.871762 -1.1758038 0.51948124 -0.39961192 -0.24821985 0.8269181 0.5569177 -1.15711 0.7167651 1.1952296 0.13082549 -0.9498541 -0.47589707 -0.04048186 1.791614 -0.9862779 -0.19538517 0.14368802 -0.1994835 -0.6064483 0.43890435 -0.035690926 -1.0994823 0.20821291 0.0739145 0.90588516 0.15813555 1.0049754 -0.87563866 -0.5845695 -0.7010571 0.15009251 -0.46298227 1.0991596 0.12567611 -0.7999934 -0.0029276032 -1.2637308 1.6184034 -1.6487653 -0.7121401 -0.18582357 -0.67730725 0.5523093 -1.0418303 0.33583364 -1.1815292 -0.95347863 0.62337875 -0.6723993 0.76401806 0.39549193 0.23287311 -0.83527327 1.4112788 -0.5240236 -0.9523556 -0.9528441 0.6034456 
0.30674115 -0.022690587 -0.33411142 1.2004892 -0.5867699 -0.41485864 0.66218376 -1.6682848 0.1939581 -0.6975176 0.3134104 0.13175838 -0.26428267 1.1705217 0.40514818 -0.035311755 -0.12086972 0.7293868 -0.8915528 -0.85148346 -0.14085242 1.2826488 -0.06257009 0.92945945 -0.7283576 -0.31634447 0.6444111 -0.12281338 -0.72648007 0.38886893 0.9637605 -0.56531495 0.93630713 -0.42982575 -0.08623004 -1.7020704 0.7610293 0.3964951 0.7781889 -0.59945244 -0.91656893 -0.7465775 -0.8453943 -0.8078986 -0.08061465 -0.789987 -0.2502483 -0.9086399 -0.0102483025 1.7398456 0.6228558 0.65524364 1.3315308 0.45328337 0.9904955 0.91460043 -1.2511786 -0.9103432 -1.4512972 0.29864758 -1.1855235 0.8998081 -0.43166092 -0.5183199 
0.6013176 -0.9994933 -1.5401535 -0.21119262 -1.4671667 1.5495764 -0.41683602 0.13272898 0.33576098 0.19433564 0.029016249 -0.6709629 1.2298617 -0.5498052 -0.18892966 -0.26216465 1.1806414 -1.3676548 -1.5760374 -0.0982403 -0.08056693 1.8346088 -0.7455125 0.8988451 0.2627764 0.3333177 -0.8042667 0.54858917 1.6511105 -0.3483004 -0.11776837 0.6090199 -0.6735972 0.4915753 -0.63288444 0.3323555 -0.36293173 -1.8156871 0.27744466 -0.88068783 -0.9335709 0.21794936 -0.34714887 -0.74248207 -0.33831146 0.47162554 0.8377353 -0.5093246 0.68730545 -0.30909413 -0.17675605 -1.064155 0.08780207 1.0221156 1.2660694 -0.71993196 -0.007473787 1.7181956 -1.5867409 -1.590673 -0.43684012 0.6647841 0.43259132 1.9148272 
-1.4027153 0.26330158 1.6276921 0.07209983 0.486527 -1.3520772 0.092407405 0.5570157 -1.5918572 0.6864255 -0.61833346 1.1091367 0.80252016 1.1476346 -0.55712295 0.30042914 1.2519006 -0.38075843 0.84840155 -0.2919386 1.3200017 -0.51807225 0.6531615 -0.7110556 -0.37484384 -0.009391932 1.653161 -0.45291793 1.7107528 -0.9290468 1.1984409 -0.3068422 -0.6741119 -0.048481654 1.177837 0.100848876 -0.38262987 0.039841436 0.97740024 0.056404933 -0.16677591 -1.1083654 0.18624885 -0.6211904 -1.3333225 0.40197557 -0.2821179 0.70863885 0.48845547 0.05542377 -0.68421966 0.03911429 0.03907798 0.9226959 -0.119730204 -0.3391073 0.7322782 0.35805848 -0.026111366 -0.062602066 -0.99845314 -0.8039762 1.0190248 -0.15809095 
0.13639413 0.072534055 -0.33751622 -0.6592546 1.1721042 -0.2084636 -0.71606296 0.53383154 0.9633732 0.5137931 0.261723 0.54274726 0.34460667 -0.6238853 -0.422912 1.3774314 -0.3258176 -0.4717995 1.4494623 0.0022092613 -0.8909666 -0.34977224 -0.5291362 -0.43333903 -0.26624483 -1.4225236 1.2161186 0.20213227 0.19484933 -1.0559025 -1.4236568 -0.0005120631 -1.1071339 0.94756013 0.620464 0.22528355 -0.2930013 0.83712804 -0.10503214 1.5461441 0.11405123 -0.053012535 0.882415 -0.41581962 0.1413779 -0.010223787 1.3697995 -1.1578362 -0.19978517 -0.80704725 0.30457753 0.17677577 0.38766596 -0.013831883 0.30029723 -1.4138509 -1.1726584 -0.61419886 0.44979778 -1.1879666 0.8393393 1.3940583 -0.3638818 0.8976737 
0.7728062 -0.2682337 0.7248933 0.7573761 1.2644137 -0.045291953 0.6010414 -1.5166953 -0.49276596 -0.4694328 0.47556794 -0.96708494 -0.14406766 -1.0677273 -0.08702541 0.7098053 0.062311288 -1.0721025 -0.5241939 -1.4243741 -1.0066714 0.4337858 0.7760928 0.6986 0.058190938 -1.2904085 0.0381743 -0.10954468 -0.105047986 -1.7575299 0.2846873 -0.8071205 -0.049386967 0.22280464 0.13854644 -0.5773131 -1.041783 -1.3103311 -1.4195129 1.2874373 -0.19093883 1.0605047 1.01444 0.69043666 0.067478195 -1.8145033 0.560416 -1.6966798 -0.5679162 -0.10689313 0.9905425 1.1973177 -0.62585175 -1.0948445 -0.12528385 -0.5851549 -0.8665147 0.38240537 0.46585992 -1.4257474 0.5452796 -0.8151051 1.2441474 -0.79999965 
-0.8447335 0.34233037 -0.06759964 -0.7832095 -0.28686285 -1.759032 -0.27437747 0.64365137 0.21836157 0.93794954 -0.97829235 0.95933247 -0.34232575 1.2277762 0.91813385 0.16469306 0.6307664 -1.6601491 0.31980667 1.1230904 -0.13052236 -0.83533233 0.8434203 -0.46619436 0.2674083 -0.030921549 0.6008894 -0.36150748 -0.07261984 1.7244898 -1.4490275 -1.2790563 -0.7867011 -0.5054189 0.8536916 -1.4618274 -1.8314033 -0.22468485 1.9805304 -0.34855947 0.8626443 -0.41723338 0.708354 1.653588 -1.0162051 -1.6769913 0.6450918 -0.42556077 -0.08758832 -0.07493365 1.121896 -0.8977652 0.37717825 -1.4798347 0.97445256 -0.9663556 -0.731281 0.7722403 -0.7815327 -0.05140769 -0.8892902 0.048802577 -0.5318724 -1.1609279 
1.6769238 -0.29614475 -0.76249856 -0.3999827 -0.54553616 -0.4177582 -0.122374184 -0.21877967 -0.7574527 -0.40104187 -0.06213135 0.4220193 1.0896817 -0.3895276 0.05059189 0.51401407 1.0075788 1.0044277 0.43182296 0.40607202 -1.2887669 -1.7792294 -0.02642311 -0.77274543 0.77662385 0.12080958 -1.3524449 1.1780164 -0.18623218 -1.9717867 0.6830225 0.45556986 -0.5167494 0.5893926 0.29816455 0.93271285 1.3669256 0.7188068 -0.026214112 -0.43467095 0.2530787 -0.78243464 -1.0470078 -0.11281226 0.38689423 0.6411102 0.19101104 -0.3359125 0.123979606 1.1785853 0.44914645 0.018669307 -0.888597 -1.1653023 0.79681844 -0.26871586 -1.2536288 -0.26270276 -0.65866804 -0.10344675 1.417052 -0.56281894 -1.9945893 -1.3101193 
0.12577309 -0.21288994 -0.73946553 0.8597211 0.3111673 0.6400322 0.054524485 1.7186418 1.6529951 -0.57187504 -1.1984982 -0.21969771 -1.4874084 -0.6894707 0.43252504 -0.47043556 0.27026775 -1.0428653 -0.8132582 0.3490803 -1.7270682 -1.0461589 1.0835755 1.0138555 0.08340258 -0.4944315 -2.0006263 1.0407922 0.31762344 0.45201242 -0.7658115 0.33139238 -0.0030749256 -0.28074905 -0.21354225 -0.07575204 1.1284411 -0.62064236 -1.2437204 0.59921896 -0.8126648 0.4716034 1.7212988 -0.36032107 -0.13516873 0.10169963 0.42416072 0.6611385 0.084240355 0.86019903 -0.1403082 -0.6532859 -0.69229615 -1.9897956 -0.10974995 0.35720414 -1.1359327 -0.361295 0.21140347 0.20174882 -0.9530727 0.36034003 0.52667123 1.5031611 
-0.837824 0.08752643 -0.4944118 0.16224527 -1.5448052 1.2389848 -1.6812314 -0.24452503 -0.53050137 0.7511059 0.9294369 0.4838156 -1.5381027 1.2430316 0.73285294 0.59552515 -0.47516283 -0.20692553 1.8071693 -0.5925688 1.3651897 0.09079618 0.6196126 -1.3366811 -0.26154518 1.3728079 -1.6044248 -1.0792667 -0.3540523 -0.23081598 -1.0421554 -0.76804656 -0.09941088 -0.14306177 0.82738066 0.5579636 0.010906517 -0.026653202 0.0622154 1.1703663 -0.24051324 -0.5644161 -1.1084517 1.4528155 -0.95348984 -0.6437243 -1.7657465 0.06135321 -1.7675546 0.37992293 0.75721806 0.9062564 -0.0963724 0.582102 -0.14288265 0.38469347 0.83552504 -0.4299498 1.0733206 0.35090888 0.48274282 0.19784383 -1.2357949 -0.68450874 
0.025349785 -0.24992691 0.08905327 -0.21326196 -0.8062744 1.2564703 -1.000171 0.96603817 1.4878061 -0.97604877 -0.6140357 0.18315957 -0.52679425 0.28083435 0.35626447 0.31537238 -1.0043082 0.63710415 0.03230401 1.9480424 0.51905876 1.0435004 1.1655061 0.5399543 -0.4754559 -0.68483585 -1.0575438 -0.4066112 -1.2873901 1.3439378 0.124652654 1.6862801 0.39911082 -1.7557662 -1.6440333 -1.2967411 -0.79735374 -0.0737892 1.0627564 0.054115783 -0.9945943 0.00470307 -0.73193425 -0.6050462 1.5254616 0.8920618 -0.18406095 -1.4740157 -0.24948554 0.2327663 -0.40394163 -0.19990349 -0.90089214 -1.8720965 -0.6206352 0.46389824 0.30828336 -0.1944711 -0.6303021 -0.111839704 0.4270189 -0.5774435 1.446949 -0.21576191 
0.8272382 0.32448593 -0.6969987 -1.4046686 -0.5055501 -0.28966987 -0.247031 -0.31353417 -0.02833632 -2.0609121 -0.8180645 -0.33574006 0.9170963 -0.23108418 1.3370353 0.52952164 0.2812665 1.4266467 -0.30603623 1.5560336 0.67345476 0.49694803 -1.4142654 0.8443078 0.818462 -0.08671309 -0.023553764 -0.5364818 -0.8925233 -0.021688612 -1.0009557 -1.6304588 -0.35280102 -1.8272384 0.28787586 -0.84867126 0.25826997 -0.3359381 -0.7791818 -0.479264 1.0508602 1.2226627 1.2906946 -1.4937963 0.24899724 -0.077220425 0.94498396 1.5315517 -0.43719363 0.19258459 -0.47894645 -0.68133014 0.94905007 -0.24153602 -0.7791279 0.28442568 -1.5245631 0.35054183 0.8228867 -0.041856237 0.10797662 -0.03451343 -0.4854053 -0.1871505 
1.4347204 0.4501874 -0.098770745 0.08978911 -0.19072135 -0.52620107 -0.38785028 -0.54847807 0.55470794 0.38028273 -0.9299326 0.025085177 -0.34436634 1.0585304 -1.1154468 -0.94401073 -1.770039 0.8576847 0.15532328 1.3104371 1.1744534 1.03705 -0.4653243 -0.3976541 -0.27228045 -0.115160435 0.09842381 1.0745343 -0.042593036 -0.15964945 0.32017058 -0.8622917 -0.34165955 -1.3809329 -0.53778106 -0.55756336 0.8004146 -1.9881806 0.35143307 -0.097231574 -1.2760394 0.12595916 0.5853407 0.25379822 0.072898045 0.5799832 -1.1118927 -0.602328 -0.42342243 -0.076234646 -1.363637 0.1273404 -0.62749696 -0.9007643 -0.4182498 -1.2139608 0.7885014 -0.08231441 -0.1630999 0.6708549 -0.3058083 0.082994156 -0.6233876 1.4241284 
0.7648909 0.72473115 0.29548797 0.33930433 1.2746185 -0.023591977 -0.30273673 -0.60356474 -0.85067785 0.7265606 1.0873857 1.2778906 -0.50776523 -0.26580346 1.0322783 0.15961285 1.6416507 1.1733105 0.42343357 0.9819446 0.5186871 -0.122958176 0.81711173 -0.7597528 -0.01822267 -1.0421145 1.2342144 -0.88539547 -1.7713082 -0.5688438 0.33221638 -0.9873796 -0.73163116 0.32360277 -0.7621325 -0.04702585 -0.10431363 -0.37846512 -0.56304157 -0.20358716 -0.4169136 -0.39358956 0.13936117 0.5130792 -2.0286899 -0.6300394 1.6501082 -0.10905599 -0.4870053 -1.037507 -0.060188636 -0.79310995 0.441761 -0.04929949 -0.9283122 0.099051416 -1.2113004 -0.1320208 0.07432201 -0.9340937 2.0726545 -0.6388808 -1.4453096 0.9287779 
0.48901752 -1.5721443 0.052371994 -1.438481 -1.8494655 -0.35060012 1.5267128 1.147742 0.81986976 -1.3141035 0.32783306 0.79361933 -1.6644106 -1.270497 0.78703845 1.7285033 0.94575477 -1.9699669 -0.031260848 -0.76019365 -1.8734361 -1.1328841 0.23805843 -0.74077237 -0.92782575 -0.4696084 0.6161836 0.14747737 -0.43408477 -0.48734912 0.07770521 0.68046457 0.14661404 0.15356563 -1.1789594 -0.11265988 -0.81233686 -1.1689343 1.5390456 1.1651173 0.020605037 0.8654132 0.5077039 1.1923778 -0.20961331 0.06074866 -0.44613194 0.6566046 -0.44842002 -0.47512823 0.37018326 -0.27131942 0.26138267 0.96443844 0.08157775 -0.6766128 1.2903765 -1.1786244 1.0096173 -0.50447387 -0.87380004 -0.35749954 -1.1696846 -0.72473335 
0.5908976 1.1528965 0.9829869 0.5461227 -1.513501 0.64964116 -0.4687207 0.64268124 -0.15495847 -0.24081655 1.1305122 0.12391282 0.15689218 -1.7501712 -0.74937934 -0.75236994 1.0451038 1.1347029 -1.8086942 0.2954799 -1.9058597 -0.4759015 0.54906577 -0.5062162 0.38243696 -0.14806971 0.7508675 -0.10312152 1.4592363 0.8173639 -0.69386965 0.98438597 0.20976286 2.044705 1.5652915 1.5088246 0.0818024 0.5633005 -0.17684825 -1.2216747 -1.4872 -0.055310067 -0.04991129 0.7692066 -0.67093706 1.006721 -0.7212718 -0.41573122 -0.28094643 0.79657906 -0.91403824 0.52554506 -0.90301144 0.6252924 0.54341406 -1.3936949 0.46409783 -0.6936503 0.8835114 0.099308915 0.47773707 -1.5768267 -0.6706963 0.29869783 
-0.92570263 0.049341515 -1.5687292 0.8651573 -1.4171987 0.2132771 -0.13137501 0.5878729 -1.2128795 0.36769706 -0.583791 -1.4977413 1.0394065 -0.8398157 0.6033598 -1.0975826 0.93857664 1.6125087 -0.71116704 -0.3507261 1.7278928 -1.5110636 -1.3427595 1.7616816 -1.1078776 0.5405037 -0.5478651 1.0806452 -0.6948904 0.29938114 -1.565501 -1.262429 -0.18286882 -0.4874031 -0.34685194 -0.62908834 -0.4718724 0.84736377 0.9363261 1.3616935 0.29352966 -0.17847921 0.35277653 0.39228335 1.5807124 0.70818937 -0.85524917 -1.2801794 0.7879881 0.8710423 -1.113632 1.0289618 -1.5247712 -0.7372253 1.157555 -0.7450333 0.0038291882 0.95567864 1.6113334 0.89219457 0.6611447 -1.9567786 -0.78556275 0.6004278 
1.2035629 -0.0035625976 0.5359406 -0.14332272 -0.72726655 -0.51128364 -1.0546625 -1.0871475 0.8724621 -0.020311018 0.32339332 -0.29942447 -1.1093258 -0.15629666 -0.036999334 -0.27907813 1.1472208 -0.06439337 -0.61654115 -0.40615302 1.8226563 1.3472859 0.59846103 -1.6645662 0.084646516 0.30120638 1.4625905 1.2307603 0.15174553 -0.8103543 0.9897851 0.75543666 0.3951354 -0.67252916 -0.029220585 0.648553 0.84760743 -0.59446627 0.5934163 0.35358194 1.6200409 -0.3573653 0.24543984 -0.27651447 -0.53026843 -0.6747501 -0.5059914 0.1506525 0.043167375 0.94468385 -0.517935 0.39438617 -1.2667094 -0.9099159 -1.4083103 1.4647505 1.2882704 -0.27722594 0.84079856 0.65740496 -0.8402565 -0.77908397 1.021884 0.4267607 
-0.5313603 1.5861583 -1.0791905 0.04169783 -0.47531146 0.3382819 0.699155 1.2911226 0.74465543 -0.4692927 0.515981 0.6596955 0.44944 0.91180015 1.0893474 -0.35688874 -0.2149389 -0.1266395 -0.50046283 1.7613862 1.7746619 0.60094374 -1.7868998 -0.83096135 -0.9161366 -0.37924668 0.39596677 0.44132102 -0.47341037 0.30560455 -0.98091185 -2.0008304 -0.9786091 -1.6143643 -0.10975629 -1.3807334 -1.0850067 -0.84947 0.7483113 0.97614866 0.057201825 0.6678652 1.25044 0.21515591 0.44174698 0.24516045 1.1031133 -0.40193945 0.21639259 -1.458631 -0.66093856 1.183996 -1.6165376 -0.3144563 0.41723815 0.74753463 0.22186427 -0.59037054 -1.0381179 0.82161325 0.41858432 0.8871823 -0.29290113 0.05513357 
-0.68994534 0.54390955 -0.2790485 0.15708622 -1.019578 0.77309114 -0.833137 0.43927518 0.1023373 -1.0165378 0.4903505 -1.6290668 0.31587312 0.07141059 -0.6551899 1.3272718 -0.09324708 -1.3528641 1.1705626 -1.0507526 -1.2742112 1.3443136 1.0550518 0.18708192 -0.0482311 0.8898365 0.6045841 -0.25033054 -0.113122225 0.8554816 -0.4512294 2.0961962 0.37962002 -0.52477914 0.3470613 0.46682277 -1.866835 -0.87716156 0.53786546 1.2708851 0.3260135 -0.06476373 0.88233554 -0.15866895 0.021510249 -0.24189201 0.23156212 -0.30568153 0.7869153 0.6884973 -0.42896837 0.0874406 0.93399245 0.4205629 1.1076913 -0.47539222 -0.03001895 -0.2672897 -0.81211996 -1.6820928 0.33092073 -0.5929894 -1.0616641 0.3458841 
-0.65978503 -0.7606006 1.5682797 -0.088289656 0.88932025 -0.41161928 0.9417061 0.44914278 -0.43544483 -0.10786302 0.8779851 0.21794963 -1.5285636 0.5037798 -0.7999501 1.0023055 0.45346352 0.5283785 -1.3028989 -0.49479795 -1.7064979 -1.7401942 0.24490969 -1.0722289 -0.8153372 -0.5998928 -0.5986721 0.5117167 -1.4060149 -0.0734907 -0.057064865 -1.0040613 0.17332453 -0.05107846 -1.1682951 0.11417694 0.17012969 0.7277707 0.28325772 0.7377116 -1.8697734 1.1195561 0.06403661 0.52571374 0.010669314 0.67858666 -1.2112039 0.793718 1.433103 -0.16193725 1.3288444 -0.7631541 0.68703043 -1.0504947 0.16600671 0.41358823 1.0817788 -0.14105251 1.4697015 -1.7037394 -1.6607144 1.5618328 0.61885536 -0.28457507 
0.6693961 -1.2537621 -0.99757665 -1.3150487 0.1260072 0.5993986 0.32535183 0.4476724 0.6939887 0.17718253 -0.24593234 1.0177629 0.9227551 -0.08901953 -1.1624225 -0.6812466 -0.8149252 -1.2197899 1.7874211 1.6981386 -1.2998308 0.67956173 -1.1200835 -1.1383464 -1.2573425 -1.7073929 -0.78165114 1.8205543 -1.2334611 -1.7458802 -0.009674219 -0.19677316 -1.2200136 -1.5627921 -0.17336655 0.055389926 -0.0238146 0.86951464 -0.6017379 0.8202355 -0.3138967 1.5462862 0.27778095 1.0360438 -0.039610695 -1.023369 1.2203535 0.9285025 -1.6389555 0.7149302 -0.6038227 0.31197083 -0.8569266 -0.4479667 1.0467854 -0.5117374 -0.6987737 0.36025074 -0.2315442 0.2719555 -2.0462985 0.17667922 1.0838003 0.28732237 
-2.6380809e-31 -0.0157661 0.017050602 -2.408063e-05 -4.0100975e-08 0.0021343126 0.00024899657 -0.049446084 0.1417829 -0.018143976 -0.17509614 0.031549737 0.007946117 0.009172878 0.598658 0.036715724 -0.03931701 0.004852169 0.03339669 -0.002941021 -0.020591563 0.09468485 -2.5136902e-05 4.0478287e-11 0.054912537 4.1538144e-05 0.03671725 -0.0003414264 -1.5779335e-07 0.45642278 3.559531e-11 -2.2997719e-23 0.06532232 0.052087218 -0.0046461653 -0.35633096 -0.13492402 -0.31384444 1.718688e-31 0.05751718 0.16851464 0.0017699474 0.5500027 0.01613138 -0.028043667 -0.09497474 0.20579743 0.06336951 -0.26927748 0.15087071 -0.08329455 -0.023689045 1.609708e-30 -0.04409824 -3.9970168e-05 -0.032046653 -0.13951433 0.018047035 0.02106771 2.9183176e-09 -0.025027175 0.11406443 -0.33406174 -0.03899879 
-1.6538826 0.4093355 0.45917264 -0.6640685 0.22254203 0.41257012 0.4044138 -0.280283 -1.1157886 -1.5712101 1.5558999 -0.45706382 -1.1069266 -0.3168526 -0.43229812 0.2125624 0.09113601 0.10102144 0.12773503 0.10714226 -1.2484802 -0.12512882 -1.8260163 1.080534 -1.2653034 0.2807653 -1.6354471 0.08126837 -0.3219249 -0.3074429 -0.40050521 -1.0013818 0.8094097 1.5081053 -0.76305807 0.65544647 -1.0000256 1.2386014 0.563084 -0.03980696 1.258192 0.2894831 0.66096926 -1.6049938 0.5536637 0.37907442 -0.9080321 0.43711808 -0.5965876 -0.19466493 1.440224 -0.7673182 1.3151675 -1.2408351 -1.1462294 1.8290973 -0.374568 0.16743232 0.6479255 -1.11464 0.5228052 0.24785894 1.716318 0.9406202 
-0.67965007 -0.05950886 0.046216898 0.83777595 -0.7547439 0.29131648 0.19099177 -1.2906971 0.17834447 -0.38183588 0.38229746 1.1190865 -0.20199952 0.60008377 -0.7580087 -1.058485 -0.9964873 1.5958612 0.28171405 0.050213117 1.1033703 -1.4406126 -1.2725772 1.1449827 -0.8931497 0.055741522 0.4484528 0.17563169 0.63645154 -0.55320513 -0.036715962 -0.38772592 0.21114689 -0.14519998 -0.6284915 -1.1363214 -1.0327437 0.19737269 -0.40379068 0.13299917 -0.89649713 -0.06139455 -0.01590663 -0.78075135 0.39176118 -1.1775998 1.2303838 0.42750537 -1.134527 0.29798195 -1.5923531 0.10063203 0.49002984 -1.4195292 0.9578007 0.5485683 -1.3915089 0.5186556 -1.5337569 0.33743474 2.035481 0.21918128 0.4477463 0.09991967 
-1.2614614 0.58927345 -0.6020185 1.5302811 -0.20959282 -1.3820816 0.6612187 -1.0103431 0.5555001 0.4091705 1.5453143 -0.9788277 0.45847973 0.6427711 0.7854653 0.2896196 -0.71502024 -0.47105095 -0.9067321 -0.0021306686 0.17378253 -0.50372064 -0.7620401 1.1033355 0.28406504 -0.43599874 0.10986779 -0.7310911 -0.643426 0.11580436 0.98502994 -1.4902506 -0.8180118 0.46134555 -0.29905632 0.2258299 0.3956813 0.6071862 1.7636635 0.37842068 -0.30918604 -0.36441556 -0.24267718 -0.7432679 -1.4217577 1.3825853 0.04810286 -0.6732024 -1.564877 0.34718508 0.26755285 1.7149978 0.21769062 -0.4391932 -0.18061404 -0.1557384 0.5669295 1.5080693 -1.4711167 -1.3024155 0.93083376 -0.4362694 -0.46793708 0.21231973 
0.52597475 0.175019 -0.20057398 0.6011277 0.4995116 0.43339297 -0.98918885 -0.62309057 1.0555136 -0.8774201 0.26922902 0.7364201 0.105217695 0.6872654 1.4118326 -0.36169255 -0.37049538 0.78371984 -0.8203727 1.1399212 -0.13112307 0.17055267 1.7379102 -1.2149891 1.6161779 -0.7378091 -1.3435433 1.3789834 -0.68028647 1.0799509 -0.28579023 -1.3564439 -0.6630583 -0.39095014 1.103447 0.7569029 -0.5594397 -0.941295 0.17049152 1.0712115 0.5736616 0.9494147 -1.3255582 0.08245264 0.28534725 -0.051856436 -0.22461185 0.18841727 -0.2403518 -0.34274822 1.1877445 -0.96901333 0.4751008 0.42932773 -0.59915197 1.2160988 0.9820444 -1.4242225 0.79077286 -1.2601035 0.17375949 0.61044407 0.8926749 -0.20299177 
0.60065734 -0.5425208 -0.54715383 0.03453574 0.40443394 -1.0797502 1.5654685 -1.1481283 0.87881774 -1.5719411 -0.396414 0.34051034 -0.24684903 1.0769634 -1.1861204 0.43288693 1.483556 -0.20592315 -0.025425443 0.941201 0.006478399 1.7098439 0.500195 1.8399081 1.396571 -0.15914097 -0.16484334 -1.5174139 0.3976313 -0.75814956 -0.29850948 -1.2012424 0.3266839 -0.54775 -0.5386955 -0.15146244 -0.32728165 0.2278539 0.0799668 -0.44464403 -0.37624362 1.1294701 0.27556196 -1.5442134 0.41427842 -0.65621245 -0.3799844 -1.1565087 -1.7765042 0.8750343 1.5855982 0.06701538 -0.71533877 1.064136 -0.19902152 -0.109471485 0.5524431 -0.90952325 1.5835123 0.4978565 -0.83295286 0.62408173 0.5525585 1.4447855 
0.63899225 -0.72636455 0.09524835 1.7167349 0.08657841 -1.7250857 -0.86913943 -0.2588691 1.5313997 -1.3959754 -0.08832664 1.0257608 0.59634584 0.37667587 -0.4774871 0.43369794 0.045838013 1.8435796 0.2854523 -0.27383983 0.35935035 0.6193101 0.26626053 -0.9706257 0.9844963 -0.19555265 -0.17151743 -0.84065616 1.8789322 1.4008284 0.10032599 0.75634396 0.7034946 1.0473895 0.21346276 0.98814976 -0.8424408 0.8252706 -0.47841245 -0.6447544 0.8254246 -0.3145601 0.9994257 -0.5426454 -1.8689203 -0.3606074 0.22552373 -1.020304 -0.5602761 0.7330235 -0.4767023 -0.24502029 -0.18998744 1.7144173 0.44284883 1.0022163 -0.7627066 -1.1318829 -1.1178424 0.14072175 -0.99320006 0.17914775 -1.0636343 0.1567635 
0.21579385 1.4674451 0.041138716 -0.016432142 -0.57393605 -1.018657 -1.3867776 -0.13678727 1.0109947 -1.4482834 0.7684626 -0.3396848 0.5612746 -0.20434135 0.49400455 -0.32701874 -0.45719692 1.0658937 -1.7964954 -1.2699422 -0.0041217506 0.83697975 -0.97479045 -0.3089239 -0.12634858 -1.578308 0.78090525 0.73731637 0.1907509 -1.0306543 1.1470871 -1.1373199 -1.2336956 1.0154734 0.89229876 0.71796036 1.7776191 0.28210428 0.3289932 -0.9461785 0.11335008 -0.4767905 -0.41814926 -0.4131213 -0.4658359 -1.5700065 -0.15550517 -0.6856851 -0.96963894 -1.865835 -0.8113745 0.24902138 0.64001787 -0.5063625 -0.10046051 -1.1862453 0.5068797 -0.04800105 0.0011438635 0.7576592 0.63490444 1.2999291 0.4041495 0.7624458 
1.1215402 1.2497022 1.4905028 -0.07098377 0.6418589 -0.49816346 -0.32606965 0.1600683 -1.0377973 -1.353838 -0.27013344 0.68656147 1.2265338 0.04398889 -0.6106853 -1.0952858 -0.66366607 -1.2783524 -0.29475066 0.6235226 -1.476445 -1.1011077 0.060905833 -0.5578041 -0.5472378 -0.42729706 -1.2642773 0.5451692 0.9816547 -1.6529592 -1.0092323 0.18354061 0.9904581 0.60315365 -0.8996676 -0.46462837 1.1440138 -1.3872181 -1.2278425 0.37375924 -0.7224056 -0.20898545 0.40466964 0.23502104 0.18288401 0.54253864 -1.3775374 1.1506547 -0.22865112 0.6279596 0.5187553 -1.2684281 -1.2983932 -1.4487559 0.37263533 1.036198 -0.39867288 -0.8923675 -1.3701158 -0.0364844 1.135217 -0.21906783 -0.6398053 0.68135536 
0.9739844 1.4179548 1.407489 0.35436586 0.91170245 -1.5984739 -0.063409664 0.43230453 1.7802066 1.1929382 0.07680362 1.3639953 -0.942171 0.19621724 -1.0345803 0.9929206 -0.73933136 0.29852796 0.43353334 -0.066027656 -0.35086003 1.4434294 -1.2022564 0.6673074 1.2113484 0.44910768 -1.7621378 -0.9604373 0.16467585 -0.7253219 0.2070153 -0.35656932 -0.56894964 0.7540854 0.06763959 -1.2507299 0.3721388 1.3238105 0.051108748 -0.49641767 -0.66732615 0.12174776 0.9099134 -1.1129078 1.0403509 0.3886463 -1.7019544 -0.35023075 1.0226661 0.15539588 -0.26485863 -0.47836897 -1.9599074 0.068251275 0.3102475 -0.2127829 -1.232923 0.65883756 0.19318773 -0.32587054 1.5486848 -0.32096478 0.08895877 -1.1675613 

1.197974 -0.0212117 0.020035213 0.22332968 -1.2317286 -0.20948672 0.52796793 1.035298 0.107145295 0.20434417 -0.28348172 -0.8662564 1.1775982 0.7701033 0.12727393 0.72244203 0.018352602 -1.1849996 -0.76910585 -0.931487 -0.30541435 -1.3576337 1.1112429 0.18441437 0.32093468 1.202397 -1.0742447 -0.9286328 -0.018542178 -0.39809862 0.5268625 -1.2606863 0.61616224 0.5075168 -0.4697705 1.0215561 0.52832216 -0.75614685 -0.4787629 0.12950943 -0.17343068 0.76360744 1.0076474 -0.09916837 -0.21239051 1.9872476 -0.29786268 1.1280596 -1.0474633 0.010272848 -0.5623827 -1.8381659 -1.7783805 -0.5105834 1.6218442 -1.172909 -0.20614824 0.5188625 0.68758994 -0.65870833 0.63901824 0.37176093 -0.37921253 -1.4126489 
1.1279014 -0.50905 0.19390774 1.4997435 0.75254124 -0.17916326 0.52705944 1.1743754 -0.21826394 0.10384241 1.3714483 -0.32287046 -0.62595624 -0.17632729 0.25543135 -0.5682353 -1.3268332 0.90694165 0.18137772 0.6285991 0.18058826 1.2642454 -0.65806 0.7261207 0.47439373 0.240315 -0.34356767 0.2046724 0.18263258 -0.31982023 0.039180283 -0.6616924 0.4888363 0.62006545 0.3889266 -0.9809389 -1.3663907 -0.15359353 0.9909557 -1.4529662 -0.00014159532 0.110901915 -1.2298267 1.6919876 1.1032355 -0.78347534 0.71661764 1.9499369 1.7556012 -0.5663548 -0.99307495 -0.67353153 -1.5683568 -1.1104044 0.39787015 -1.4020475 -0.76266426 -0.5915433 -0.19995515 0.22045471 -0.50357366 0.20126672 0.23735605 1.1197077 
0.94202363 -0.80192053 1.1765987 -0.34754795 -1.7230793 -1.390616 0.30726507 -0.3366055 0.36888835 0.6319214 1.3634982 0.5612742 -1.7229484 -1.4329674 -1.3907527 1.4177518 0.060540617 0.29602298 1.1351088 -1.356941 -0.8809486 -1.0137424 -0.5615255 0.4071015 -0.9233546 -0.9786557 0.1315909 -0.71218693 -1.3317811 0.275735 -1.1399156 1.1944468 -0.13549832 0.8680834 -0.97967935 1.1494176 -0.1985248 0.62491524 -0.21738535 -0.58392376 1.2588571 -1.4314108 -1.5628203 -1.0892416 -0.22029503 -1.0501094 -1.0560224 -0.50681 -0.93200755 -0.7452255 -0.39582855 -0.27370355 1.1206899 -1.096662 -1.2950633 -0.57791567 0.67192954 -0.59671974 0.8051183 -0.54408437 -2.1618705 0.2638572 -0.42175254 -0.56099355 
-1.6245263 1.7457329 -0.25123376 -0.316692 0.47328812 1.4780943 0.5069901 -1.4317195 -1.2091864 -0.185841 0.3396769 0.59293056 -1.6529186 -1.2296368 -0.8058464 -1.1435162 0.54976547 -0.25283456 0.06700928 0.91409147 -1.1817468 -0.310938 -1.6413804 0.053685855 -0.10161893 0.23789357 -0.3283529 -0.3574265 -1.0463052 0.08281929 -0.2834482 1.2199279 -0.21556781 1.7521815 1.597458 -0.33635345 -0.013208204 0.21811263 -0.6018824 0.8100455 -0.78980607 0.24743943 -0.24125099 -0.105594836 1.3425367 0.6244378 0.888173 -1.3956348 -0.1990308 1.6136615 0.9017643 -0.13205637 0.6329605 -0.644084 -0.42814797 -1.3624536 0.037358403 0.20430915 -0.5725883 0.29524174 0.57458705 -0.7482184 0.015945502 -0.57287055 
1.3755856 0.15261605 -0.5616751 -0.76012003 0.41615993 -1.2001039 -0.8937601 0.005459743 -1.5719607 0.79448116 1.1691955 0.35179797 -1.3442738 -0.21166137 0.32702744 0.29563105 0.90245366 0.65012103 0.4359159 1.0402173 0.5917104 1.2300584 -0.77280617 0.1486575 0.9315038 -0.68496877 -0.042915378 -0.85189617 0.89379525 -0.13391829 -0.6833948 0.93595946 -0.41227046 -0.17383076 1.8383962 -0.52524465 0.44359487 -0.2747799 -0.63879883 -0.21740839 0.8715523 -1.7716483 -0.0038454281 -0.46558666 0.6843084 -0.09938054 0.19940762 1.4135768 0.45509675 -0.9212886 0.45959312 -1.5581774 0.27489752 0.014880008 0.03184188 -0.7446318 0.27373222 1.189298 0.9738663 0.35176006 1.4290625 0.56851727 1.0907426 0.5135609 
0.66833407 -0.35110185 0.2904095 1.724193 -0.09932101 0.8740801 -1.0288208 -0.34988987 -0.5860181 0.5182645 0.65966624 -0.39027932 -1.09634 -0.6947015 0.005188656 1.2202241 -0.10613096 -0.09219884 0.48537564 -1.036595 0.5710264 -0.5106809 -0.5025858 -1.3907034 0.53306955 0.9934321 -0.02362972 1.3269299 1.2740186 -0.6011995 -1.1839173 1.243189 -1.7808137 -0.5476182 -1.7919834 0.6070885 -0.07656598 -0.7308863 1.9871448 0.47831815 0.4697404 1.0063233 -1.2560589 1.140938 -1.3594923 -0.50605285 -1.433814 1.8223816 1.0471971 -1.7797494 -1.6923548 0.107856356 -1.1225168 -1.762533 -0.64152664 -0.3707667 0.33352613 -0.37018389 -0.25822663 -0.459705 -0.3603702 0.91304785 -1.7142297 -0.56062794 
-1.6631112 1.7015982 1.5845382 -1.0028503 0.6112753 0.31881365 0.90569365 -0.0778498 0.25141597 -0.22905946 -0.96769685 0.9116342 -1.5188257 1.0420954 0.12353932 -1.1843523 -1.0224965 -0.12943038 -0.14400591 -0.8540867 -0.82722855 0.6341625 1.0418566 -0.42737913 -0.9357854 0.017970473 0.707649 -0.92870337 -0.54111683 0.3181166 0.011670213 -0.38987634 -1.0570546 0.17585069 -0.122448966 -1.5437088 -0.50396055 -0.01934987 1.4233221 -0.0753958 -1.4277225 -1.0850246 -0.2385788 -0.5308994 -0.46818748 -0.8952244 -0.10544342 0.9057535 0.35790157 1.5607646 1.1328223 0.49665108 1.2898272 -0.9250929 -1.4604332 -0.035011746 1.0405455 -1.004529 -0.14160167 -0.804601 1.1364253 0.35879344 0.68376493 1.156681 
-0.14542252 -1.6636492 -0.85569865 0.19079997 -1.2592487 0.26122707 -1.4314137 0.84712684 -0.7107275 0.30747277 0.5306949 -0.2913288 0.8488243 -1.0019494 -0.26044413 1.2860131 0.25388622 -0.019264776 -1.0663478 0.35970572 -0.38326463 -0.8615613 -0.28057396 -0.89712244 0.37889245 0.11131063 -1.9330388 0.47870633 1.656881 -0.45822787 1.090799 0.346284 0.42380944 0.67941386 -0.76791835 0.34213278 0.24375814 -1.7369657 -0.73594224 0.850449 -0.67986465 1.5987097 -0.202436 0.75044775 0.1438965 0.09839662 -0.5096884 1.5710473 -0.7271556 -0.38378373 -0.5030309 -0.55147094 0.14498979 0.33300856 -0.35357854 -1.1169354 -0.4467088 -1.4979998 -0.46697947 0.12503071 1.2507474 -1.1316147 0.29876944 0.12330593 
1.0972998 -0.05502235 1.1537961 1.4348369 -1.4787536 0.2174804 -1.2379049 0.34970862 0.6611886 0.44900247 -0.55317193 -0.024429139 0.5753904 -0.8712545 -0.62415904 0.40392172 -0.6122614 0.41108343 1.3641613 -1.8456422 0.98865944 0.63598526 1.2106704 -1.330882 -1.0162756 1.1034155 -1.3159555 0.7732465 -1.103185 0.62780297 0.88586545 -0.64569783 0.75164896 -0.018227402 -0.83144695 -1.2393439 0.44841334 1.3410536 -0.47466245 -0.051624004 0.38960147 0.29000908 0.7908209 0.59611744 1.1309369 0.46299836 0.83652204 0.48012644 -0.6366473 1.0352709 1.7884284 0.028809262 0.312151 -0.4672057 0.32113487 0.99960756 -1.1208289 0.0025457046 -0.9695265 0.9112924 -0.36103082 -0.71392614 0.52434856 -1.6385131 
0.057482608 -1.8012799 -1.1801834 0.12085367 -0.9942118 0.623283 1.584027 -1.0275499 1.1226896 -0.50994265 0.08458631 0.52646935 -1.4301618 -0.3603267 -1.4104624 -0.23059388 -0.7328686 -0.7398234 -0.26980078 -1.1638157 -0.35471007 -0.70327526 -0.26355416 0.044389457 -0.48455638 -0.88984334 -0.8469264 0.78840035 -1.0086093 1.0031315 -1.1351207 -0.4879419 0.9824645 0.48925766 0.32814652 0.22841752 0.9110005 -1.640813 -0.23814982 -0.60634536 -1.0801418 -0.58234525 -1.076072 0.012957555 0.21735045 0.110984094 0.60397273 0.42071483 -0.3694694 0.15429382 0.50239897 -0.16234705 -1.7499326 0.38722244 -0.9220909 -0.41396925 1.118596 -0.02905325 0.81080675 -0.58814937 -0.31767806 0.4306499 -0.026993815 0.30218896 
0.64479226 0.020065472 0.19549297 -1.0983384 0.67820746 0.94417024 -0.8954352 -0.9482852 0.9937934 -0.19807656 0.8352067 -0.9926606 0.05354591 -1.6426948 0.24392304 -0.06852183 0.1666946 -0.237976 -0.18326974 1.6974019 -1.437943 -0.39979097 -0.07826874 -0.73018473 -0.3785092 -1.2554431 -0.06869079 0.7229095 -0.6017413 1.1561768 0.7936667 -0.78524995 -1.3794689 1.3865751 -1.4532518 0.7219089 -0.515617 1.5103116 0.7555289 -1.5771781 0.93476874 -0.85361695 -1.0658683 -1.7837784 -0.53410745 -0.28428864 -0.6848205 -0.23273416 0.9996858 1.5617572 0.0025183973 0.870342 0.02577344 -1.1767688 1.5514227 0.012603913 1.9111937 -0.167928 1.3481358 1.534089 -1.4076569 -0.6531837 -1.3253589 -0.9662885 
1.663974 0.008603941 -0.10776856 1.0080618 0.3191517 -0.42497042 -0.523364 0.20282324 -0.126924 1.156254 -0.5107483 1.010817 1.8821819 -0.20900758 -1.0281131 0.86855996 0.76308495 -1.2800922 -0.42562976 0.24288708 -0.3127012 0.96616757 -0.17301758 -0.53991866 0.3277197 -0.57775974 -0.52304995 -1.1676883 -1.6571716 0.49525172 -0.8798809 0.8873959 1.0671777 0.51726943 -1.3567909 0.4624854 -1.7190937 0.7170122 0.7854217 -0.28144768 1.5086491 -0.1651014 -0.5179774 -0.08197143 0.31490326 0.63928217 -0.7964956 -0.06758603 0.7733704 -0.77093387 -0.579839 0.24350595 0.8147463 -0.5719815 -0.26810217 0.17110944 -0.512106 1.1934237 0.24351086 0.748631 -0.21177593 0.3669257 -1.1273912 0.49686882 
-0.6875535 0.033788785 0.27570105 -0.93158317 0.5462688 -0.7228266 1.0198876 0.03072032 0.22321413 -0.30701908 -0.10687166 0.7855319 0.03400979 0.53261274 -0.25464028 -0.41279823 1.413432 -0.6257805 0.62764746 0.20709945 0.0668944 0.14988896 -0.5874946 -1.1933236 0.73443246 1.8256193 0.124985084 -0.82241887 -1.1777073 0.01582292 -0.40091965 0.4529011 -0.1949487 -0.4588317 -1.2867361 0.24627954 -0.4572736 -1.4215698 -1.4364024 -0.6338542 -0.20922185 0.70672977 0.5109122 1.3999332 -0.50722134 -0.40618917 -1.0553783 0.94559664 -0.44370613 0.85397017 -0.6638058 -0.75440407 -0.14055257 -0.31402102 -0.65372753 -0.32722428 1.3094854 0.06443133 -0.34641215 -0.99229544 0.50758445 -0.8335126 0.21739638 -1.4715475 
-1.2769833 0.22062239 0.36761418 -0.84786737 -1.2407603 -0.023512226 -0.13187625 0.011837482 -0.3387613 -0.5646032 0.008793382 1.2992072 0.05741776 -1.6300452 0.49343303 0.077394776 -0.9224184 -0.091815606 -0.9250383 0.94450444 0.47225615 -1.030618 1.6108216 0.043473434 0.51293683 0.80681026 0.532186 -1.3737557 0.15557094 -1.4214166 0.54080313 -0.013377796 -1.1723586 0.3467716 1.5644778 1.0698458 -0.26468238 -0.32167298 0.47602263 0.3126787 0.8163182 0.0591492 0.11876473 0.5425568 -1.1960368 -0.29791626 -1.559434 1.3319758 0.63869286 -0.5754399 0.50494367 -1.025851 -0.24992435 -0.23509647 -0.5203095 -0.858191 -0.6923307 -0.08603212 0.20062771 -0.7573326 1.3737911 -0.008489658 -0.8362461 -0.045488063 
-0.10246965 0.78441864 -0.8792618 -0.8937196 0.9976922 0.30303383 -0.9849541 -0.9209372 1.511767 -0.77617604 -1.4323379 -1.4105837 0.35971004 0.09731757 -0.8809383 -0.6475979 -0.406789 -0.85006166 -1.939326 -1.0074526 0.9701652 1.2986239 0.6420261 0.46118098 -1.6418338 -1.995623 1.1351311 1.1267494 1.6459216 -0.018108321 -1.4892414 -0.67244077 0.62947524 -1.1549699 0.96453524 -0.18931425 0.16193984 -1.108052 -0.12597544 -0.9292629 -1.9458545 -0.7971432 1.3413442 -0.8936143 -0.13081977 0.16384026 0.17203365 1.7627565 -0.09562625 -0.8990763 0.57760215 0.55476356 -1.0676152 -0.3726921 -0.10270321 0.6070359 0.34338385 -0.5817711 1.4168444 0.44219515 1.4436636 1.0574982 0.10275368 -0.59292877 
-1.045342 -0.93706524 -0.6583415 1.3623511 -1.3990552 -1.7645543 0.038491037 0.793477 0.18534149 -0.8127456 -0.45066875 -0.27553552 0.40828282 0.30459586 0.08974355 -0.96804184 -0.434544 0.9284966 1.609725 0.33922827 -1.3059837 -1.2307379 -0.80289173 0.9360682 0.83205736 0.3529871 -0.82565945 -0.5686646 -0.6970315 1.4604956 -0.2584621 -1.272279 1.2941186 1.9314843 0.5767203 -0.3048216 -0.5108872 -1.2259386 0.2071651 0.5989852 0.14857055 -1.1376036 0.41686112 0.46146435 -0.06710157 0.34657127 1.947103 0.055353243 0.7171733 0.3602018 -0.14467151 1.4939933 -0.42767373 0.4041683 -0.40354082 -1.0521387 1.9412624 -0.9476038 -1.0577116 -0.46890107 -0.66428876 0.5501684 -1.2113217 0.4327662 
-0.20136979 0.55578554 0.0111946 -0.37144622 0.4400828 0.2673573 -0.3039978 -0.46422565 0.054678902 -0.10824177 -0.9313274 -0.7689794 1.7061996 -1.2578648 -1.2533519 -0.13886826 0.5735024 -0.6027224 0.62118125 0.62914246 -1.6508822 1.1589164 -0.43256813 0.70117074 1.0723892 -1.3993896 0.7759692 -1.0750674 -0.16889268 -1.4340792 -1.3772926 -0.82595986 -0.34670302 -0.3348248 -0.32795236 -0.40570304 -1.0058159 0.112213895 0.83153826 0.42459333 0.058175303 -0.395144 0.59430903 1.6425037 -0.785516 1.7175202 -0.06251012 0.16679943 -0.39610055 1.5149015 -0.2998682 -1.2411033 -0.60198164 0.050271574 -0.68853414 1.4600137 -0.19398344 0.89969313 -1.8029337 0.79303515 0.6015627 -1.3676008 0.48085266 -0.09328218 
-0.13452168 0.16541125 0.43928707 1.2258608 0.36709884 -0.52699685 -1.8190191 0.7739587 1.5315803 -1.3966638 0.40187097 -1.891522 -0.7177775 -1.3250147 -0.041518115 0.6674724 0.7027415 -0.7550975 0.3883944 -1.2074697 -1.2206408 -1.053939 1.0858319 0.73859817 -0.8455371 0.68366593 1.7804052 1.1252539 -1.0013471 -0.0015737334 -0.33261812 -1.4796803 0.4241242 0.7790876 -0.6040792 -0.59064597 0.4589635 0.90252906 -0.36051038 -0.26554248 -1.7100229 0.35220012 -0.19492713 -0.93462086 1.4638529 0.020448785 0.24854459 0.7758834 -0.52726126 0.21328953 -0.5668859 -1.3712884 0.47531718 1.1399513 -0.14866611 1.3734006 -0.050507855 -0.08056902 -0.42963633 0.91234505 0.40117955 0.68608296 0.02325412 0.39922833 
-0.6014018 0.7552271 -0.08967545 0.2765902 0.019632032 0.17533533 0.9947182 0.7612325 0.5546882 0.37033936 0.7421525 0.040847305 0.3853671 -1.6340992 0.5520851 1.2752045 1.2828915 -1.2887719 -0.54733723 -1.1524591 -0.84282106 -0.37279496 -0.4777022 -1.8313472 1.3016129 -1.0976063 0.84400225 0.0038189616 0.108442284 0.43427634 0.4288615 -1.9579349 -0.5850254 -0.65025425 -1.6472163 1.2294378 0.74598277 0.88666713 1.1381663 0.09495589 -0.066575944 0.8314866 -0.94819707 0.2069047 -0.19399425 0.18865137 -0.7306068 1.4212989 0.20868702 1.3192223 0.44820714 1.3789753 -0.26066348 -0.67517775 -0.15983842 -0.6782696 -1.4287673 0.9035873 -1.4415692 -0.24699162 1.1158937 -0.061658334 -1.3996204 -0.7238737 
-0.41844267 -1.2716763 -1.6872 -1.0340446 0.052207585 0.10941544 -1.6900051 -0.21064565 0.006208316 0.56940794 0.6649773 1.0139031 -0.4722597 -0.26143244 -1.0867717 0.046246435 -1.9334288 0.9604863 0.35454544 1.9106097 -0.24217407 -1.0260334 0.50747204 1.2440382 -0.59877664 1.3327259 1.2601546 -0.014910431 -0.38449398 -0.0040695854 0.24502417 1.2614841 0.35550523 0.1900724 -1.0544072 0.15588309 0.60198545 0.19456936 0.031290513 -1.1638185 -1.2044339 -0.670856 0.36748794 -0.28803724 0.6329103 1.8379836 -0.8106746 1.3297418 -0.34789914 -0.59342295 -0.46615887 0.41933668 -0.38673744 0.1734177 1.2340752 -0.015206727 -0.22598015 -0.8339908 -0.74515074 -0.31826228 0.28916156 -1.2600595 -0.8129242 -1.3756759 
-0.14452614 1.0653571 1.2686027 0.7717774 -0.23191208 0.12332165 0.6563847 0.5135269 -0.6712703 -0.15486924 -0.21711147 -0.29776207 0.14939071 -1.5191646 0.18517475 0.4408867 -0.89533705 -0.9551456 -0.7851133 -0.41518635 0.4492822 0.45365438 -1.1160419 -1.3865196 2.002555 -0.48845834 -0.35555634 1.0570657 -1.7479559 0.20804203 0.59097093 0.36416632 -0.08496928 -0.3218897 0.26637506 -0.5508218 -0.29869086 0.3734108 -1.2699331 1.0097232 0.055334892 0.37075186 -0.28200325 -0.37663788 -1.9496788 1.2031368 0.35208523 -1.3838627 -0.43608844 0.3540085 -1.1588755 0.8962717 0.12757073 1.5975266 0.2639306 -0.32001987 1.1759533 0.03365906 0.16243169 1.2919766 0.31300172 -0.078747205 0.64289623 -0.84239167 
-0.21571574 -0.58985865 -0.52645814 -0.053586584 0.08960973 0.2946499 -1.6311373 -0.78219515 -1.6223367 0.44930086 0.72765094 -1.5014294 1.2027005 -0.12349589 -0.5455774 -1.9265662 0.87620807 0.5222292 1.1400446 0.48115298 1.0216162 0.93397665 0.6248513 1.262658 -0.16968055 0.62686044 0.22553216 -0.3176531 -1.3791707 0.82321846 0.527407 0.24832325 -0.17674866 0.1673111 1.1598334 -0.39586008 -0.29509956 1.3329673 -1.019665 -0.14219311 -0.44082052 0.566454 0.5693234 0.75268036 -0.5939399 0.7769287 0.80976886 0.6724403 0.42433277 -0.8666512 -0.4602867 1.3478938 1.0462109 -0.5346876 -0.9030346 -0.4107507 -1.7811173 -1.7096093 -0.061682478 -0.80125135 1.1622764 -0.09941462 -0.3407278 -0.14466557 
1.8583061e-31 0.017119983 -0.003358821 -1.9828425e-05 -0.0068404195 -0.15417421 1.583055e-07 -0.045605253 0.21495335 0.02704207 0.00093060697 0.04522455 -1.0545514e-08 0.0037138616 -0.074058115 -0.0047585806 0.03762594 6.6247394e-06 0.0578341 0.0006980251 0.00023846947 -0.09397683 0.052739073 0.0066420343 0.022223525 -0.0175077 -0.035740115 -0.0034805054 0.017624836 0.00010525399 -0.0071656443 -4.4569504e-07 0.07895689 0.0447108 -0.00017187219 0.19157232 0.026461078 0.1529711 -1.48517e-31 0.26436645 -0.06390568 -2.8910494e-31 -0.3850269 -0.01836306 -0.017542109 0.0016337099 0.08587727 -0.6039736 0.06438524 -0.16026904 0.13427544 0.025362156 0.0017837925 -0.00874211 -0.24625458 0.0015496 0.0031496766 0.13111314 -0.010687842 -2.3626926e-31 -0.0030440239 -0.041374054 0.027071271 -0.014101518 
-0.9975465 0.4619917 0.24721575 1.3728302 1.2217966 -1.4243597 0.6178408 1.0136489 0.15814528 0.15075943 0.1139415 0.32936418 -1.8655436 0.87360936 1.2045965 0.6111015 -0.420605 -0.030539572 -0.0027022508 -1.4593356 -0.37852284 1.4515078 -0.6973503 0.8193766 0.59336513 -0.3375378 -1.4622368 1.5352495 1.657592 -0.74998015 -1.6699532 0.6340515 0.7939189 -0.7450949 -0.7336844 2.050387 1.5662856 -0.165305 -0.514505 0.33199057 -0.60839695 -0.8671957 -1.2238363 -0.5576389 1.0342878 -0.89861405 -0.7073638 -1.6327906 0.21747886 0.038013972 0.79213655 0.50150704 0.33624285 -0.5583153 1.398372 0.1986647 0.7826373 0.0035087357 0.7035322 -0.94719803 0.5877402 -1.6911192 -1.4853386 1.315777 
0.5107386 -1.5811675 0.6529167 -0.24279672 0.8211579 0.9977662 -0.6631249 -1.2497305 0.38891774 -1.7127668 -0.4331491 0.68045634 -1.083225 0.08903876 1.357066 -1.2010726 1.4542925 0.9213781 0.15686129 1.4650588 -0.6819617 -0.7781358 1.4075774 0.098028906 -0.69946635 -0.24998708 -1.624353 1.3565351 -0.88384247 1.6201327 0.7599219 -0.982577 -1.9527946 1.4578627 0.6473696 -0.032549866 -0.060690593 1.4882125 0.21730989 -1.003428 0.5625746 1.8962857 1.9143343 1.5028387 -0.9706977 1.1203573 -0.9641804 -0.44154388 -0.14995949 0.51962984 -0.66562414 -0.717042 0.5670457 0.5126393 -0.37611547 0.087202385 0.3080211 -0.9959824 -0.2260208 0.61286926 0.76815987 0.1334564 0.16936776 -1.1445184 
0.22627361 0.9116379 -0.32255912 0.6908828 -0.81159985 -1.0817655 1.7245443 -0.12900968 0.8093533 0.12053359 -1.0061404 0.5882213 -0.5631927 -0.07284204 -1.0911502 0.98152566 -1.0896974 -1.4651514 -0.9783802 0.009069374 -0.058802795 0.037990466 0.9389682 -0.13007788 0.42904463 -0.4699027 -1.0571285 -0.23557234 -0.24847609 -0.3983181 -0.13656309 -0.022311019 0.3288845 -0.22003336 -0.40113878 0.87605226 -0.4493663 0.78946334 0.7601194 -1.1790215 -0.32605028 -0.29659837 1.2712152 -0.7628652 -0.49691677 0.85838133 -0.6695596 0.17803998 1.7596383 0.91075337 -2.074216 0.93278706 -0.75053245 0.39021704 -0.44868302 0.5232346 -0.40390113 0.100342415 0.66725177 -0.8420577 -0.017734978 1.2001069 1.2870729 0.6762143 
0.8216858 0.35032257 -0.33624727 -0.3939967 0.9101832 0.6329691 -1.1155562 0.2495717 0.082079016 -1.2214538 0.37369823 0.9580473 -0.20051299 -0.27441224 -0.2101193 -0.5115477 0.41179815 -0.6514129 0.2805003 -1.0423218 1.4208057 1.430188 0.71325535 -0.1710901 0.46276987 1.1925458 -0.49924433 0.1631458 -0.7213256 -0.71806467 -0.03159993 0.47169918 0.9304496 0.21296644 -0.10127693 0.42070934 0.18357204 1.0667504 -0.23161612 0.12345187 -0.2890273 0.09685861 1.1429011 0.12946337 1.0391738 0.68862575 0.20495069 1.3028789 0.41548854 1.4698433 -1.3509443 -0.9323115 0.99418426 1.6285063 -0.46164113 -0.46581143 -1.1091577 -0.46775243 -1.3781304 -0.41225883 -0.4289639 -1.712098 -0.76168466 0.3395354 
0.8420376 -0.6228077 0.38002092 -0.5219018 -0.7747634 0.22285497 0.63795924 0.26280376 1.2604092 -0.012831649 0.32752082 0.5411589 -0.6700974 1.414655 0.3014973 0.20721851 1.1403315 -0.6694364 -1.1354833 -1.4172509 1.0401578 0.13975051 0.80488265 -0.71172416 -0.08892365 1.1098083 1.2354121 1.2115573 -0.2586712 -1.0049089 -1.3760005 1.0931236 -1.6710522 -1.111589 1.0849868 -0.06965677 -1.0192294 0.68036693 0.2242824 0.65175307 -0.7537171 -1.0347549 -0.44008818 1.2312295 -0.4552649 -1.0032505 0.54949516 0.515405 0.62797356 -0.88041145 0.9804856 0.25830215 0.3604666 0.15372284 -0.3447157 -0.34174505 0.22666699 -0.9869317 -1.5642003 0.7831774 0.20860149 0.27685174 1.9127034 0.8988149 
-0.59566414 -0.13210128 -1.6047959 0.92019355 0.5680153 0.35518795 0.17175187 -0.5116751 -1.716444 -1.2180742 -0.8460772 -1.2644062 0.3133678 1.1181189 0.12888849 0.16538928 0.11960485 -0.44742036 -0.6117116 0.49570757 -1.9124762 -0.2570366 1.6686052 -0.75121963 0.50550765 -1.632318 -1.3836778 -0.62894815 -0.6379286 0.6120045 0.12193613 -0.8294695 0.09406253 -0.7906407 0.29203022 -0.4486916 -0.76689476 0.3292651 0.26173025 -0.99766254 -0.47960466 -0.12320822 -0.41589692 -0.4602859 0.38039738 -0.79004335 1.2587023 -0.12851916 1.100064 0.24024177 0.56480074 0.3156029 1.3098208 -0.05533571 0.9535739 -1.1979765 -0.8137336 0.4991169 1.4817973 -0.25697067 -0.6187947 -0.40750268 0.29270175 0.34499475 
-0.32619524 -0.6383924 0.32389686 0.14219275 0.83585256 -0.07630853 0.955145 1.11221 -1.2387962 -1.0085777 -1.2921003 0.68909746 0.8732806 -0.018927831 -0.84099483 -1.5665735 0.30081338 -0.7262396 0.31815317 -1.1113676 0.7319458 0.74703836 0.95095193 1.8899702 -0.80696964 0.33570096 -1.4033002 0.16192512 0.21006046 -0.26792172 0.3439521 -0.25510153 -0.85054594 -0.3107677 -0.27465802 -0.5699911 -0.04097174 -0.45107022 0.6588199 -0.035934277 1.285262 -0.4607165 0.5744777 0.9421637 0.17182186 -0.6711149 -0.638858 -0.5741088 0.28692934 0.21765272 1.5189819 1.1545469 -0.85433537 -0.620058 -1.1210752 -0.61251926 -0.6673497 -0.8509514 -0.7997898 -0.35590038 -1.5356239 0.66999286 -0.93595994 -0.40596095 
-0.04456466 -0.4138582 -0.25685707 -0.6409591 0.17963402 -0.23736264 -0.8774367 0.018031597 1.6452948 -1.6147132 1.3138572 -1.6716146 -0.25497973 0.54033697 0.49423757 0.8433726 0.6453634 -1.1645488 -1.0031409 -0.6042199 0.42902336 -1.4486431 1.202752 -1.9863102 -0.2895315 1.6336037 -0.20674694 -1.4480146 0.42933053 0.033149097 -1.6949137 -1.1324809 0.29063317 0.59185386 0.33936575 1.2160547 -0.2941276 0.451247 0.7076898 -0.695505 0.06820786 -0.72475034 -0.4576656 1.3130146 0.6514689 -1.3015953 -1.2336586 -1.7477672 0.6266354 -0.34535223 -1.1476922 -1.5452846 -0.298839 0.4052335 1.3169628 1.3989389 -0.5267096 0.7395496 -0.93494636 -0.5467158 0.6524357 -1.5686502 -1.1181046 -1.0617906 
-1.2405767 0.28842446 0.53772104 -1.7838193 0.0332752 1.0033514 -0.8230515 -0.52625537 0.9147374 0.23338862 -0.32220218 -0.08928258 1.347417 0.8112807 0.54028803 -1.5935563 -1.0048577 -0.11384931 -0.47378805 -0.81172615 0.02345054 -0.27062353 0.46413392 -0.46130684 -0.2557443 1.05241 1.0134588 -1.0721544 -1.2504759 -0.61986554 0.6743478 1.3978965 1.7692573 -0.3318284 -0.6614825 -1.2819433 -1.4392152 -0.0117534725 -1.4146311 0.08216235 0.85036516 -1.910919 -0.77335536 0.19941722 -0.73781896 0.45550966 -0.6094547 1.3066077 -0.9584804 -1.3705703 1.4964685 -0.33027375 0.7868861 1.3510423 0.8531828 -0.9163273 -0.15050259 -1.759156 -0.75168097 0.32718217 -0.22652908 -0.31082827 0.95698184 0.30010542 

-0.41926393 -0.3900339 -1.0112331 0.5783906 -0.16961099 0.23671842 -0.7052601 -0.63324744 0.7550883 -0.9616756 -0.7800561 1.729362 0.06878852 0.5705695 0.087500006 0.9491509 -0.24958114 0.59656554 -0.49992993 -0.09290904 -0.6159175 0.69337994 0.86412895 -0.67186654 -1.4200318 -0.7297162 -1.2690663 0.68082273 0.48984513 1.0905421 0.25613308 1.2407007 0.22839843 -1.6654615 -1.1833705 -0.17642015 0.9137051 -0.065522306 -0.75255924 -1.6315634 1.2114017 -0.9459391 -0.82581705 -0.13024978 -0.3531126 5.197231e-05 -0.5378892 0.8866569 0.51744866 -0.012170689 -0.6268601 -0.11093399 1.1223329 1.0017192 -0.9610514 1.2458732 -0.04237651 -0.7357606 1.3214428 1.4916563 0.3163965 0.45647556 -0.19427897 -0.13501322 
-0.23586139 -1.0679319 0.645588 -1.0160186 1.2768819 0.21013685 0.91567314 -0.6953097 -1.085315 -0.9773452 1.8697529 1.0315121 1.4180217 -0.0688728 2.038058 -0.38299647 -0.20639679 -1.4455912 -0.14683071 0.45671824 1.4345337 0.18530649 -0.59084874 -0.044130933 -0.29788926 0.019870246 -1.4893675 -1.1724963 -1.2121481 0.35673925 -1.5157762 -0.39682066 -0.19654776 0.6989003 -1.4248003 -2.050014 0.485361 0.7434355 -1.1807783 -0.102844566 0.3206981 -0.8613296 -0.33761832 -1.0074952 0.18348624 -0.347947 -0.96858627 -1.4891676 -0.41801456 -0.49286237 0.7460462 0.17039071 -0.7640548 -0.69336194 -0.9309016 1.5711831 0.9160168 -0.4273505 0.7587117 -1.5516956 -0.30468065 0.2279013 -0.8375418 1.3048388 
0.16615582 0.02214218 1.227489 -0.24673864 -0.9842565 -1.0619886 0.7902007 -0.09399722 0.9186592 -0.7456338 0.18098012 0.28228348 -1.020421 0.7944088 -0.3233529 -0.91162646 0.21006005 0.622941 -1.7152654 -1.240234 0.52995634 -0.80482477 0.23952176 -0.56205106 -0.51573867 -1.5429456 1.6672686 -0.47822934 1.554489 0.61880255 -0.86238706 -1.3178803 0.7145921 -0.59123427 -1.1999425 0.9259087 0.4352906 -0.5848007 -0.29101723 0.23798658 -0.62417036 1.258257 1.5530142 1.2620591 -1.396642 -0.057501554 -1.3345852 0.90723723 0.9135616 0.11295346 -0.2065179 -1.5855916 1.0305281 1.17722 0.111042544 0.70367044 0.789078 0.1584294 -0.5448811 -0.6912896 -0.7172636 0.038664542 1.0682172 1.8107619 
0.14608052 -0.78928906 -0.50623316 0.7806919 -0.29546997 -0.806298 1.0239282 0.12423064 -0.21080291 0.381858 0.1256073 0.042872775 0.38135645 -0.56183004 0.37317878 0.40442333 -0.59766454 -0.18255688 -0.3712708 0.004866235 -0.4869558 0.07080144 -0.7182485 -0.5456468 -1.3045819 -0.11524674 0.72758055 -0.33557016 -0.6032439 -1.4112602 -0.53924435 -0.13870077 -0.64069086 0.43043688 -1.9234526 0.7708961 0.6420121 1.7023696 -0.42162356 -0.7929817 -0.22188891 0.37128544 -1.5663358 -1.5390534 -1.4510556 1.9429404 -0.10280689 0.054020405 -0.19160028 0.18298154 1.8743886 -0.5827035 1.6062442 1.7331828 -0.07673191 1.4391208 0.20301084 1.3479916 0.2610269 0.9490584 -2.0770283 1.2553037 -0.47184852 1.3367583 
1.0960197 -1.1103783 -0.78155 0.9146016 -0.71060336 -0.4877252 -0.86726344 -0.87516433 0.25692105 -1.5533298 0.26064205 -0.662394 1.0772824 -0.12953219 0.16102065 -1.2362311 1.5679955 0.44818816 -0.625017 0.31585628 0.33651808 -0.85103655 1.9129232 1.1497087 -0.059425436 1.3044963 -0.9890905 -0.025917692 1.6574235 -0.5849793 -0.14234482 -1.8543353 1.9201543 -0.7402449 1.1774403 -0.01473801 -1.1405857 -0.44048718 1.1027368 0.79991066 -0.5370677 0.28491062 -0.06729377 -1.2644576 0.15927768 0.30317008 -0.69903505 1.4286058 -0.661307 -0.046355296 -0.9041982 0.39491135 0.4876047 -1.1992815 0.21446757 0.11462655 0.17468834 0.38919833 1.3619188 1.0889931 0.51835835 -0.15162355 1.19486 0.71586716 
0.52341306 -0.83694005 -0.1433457 -0.14800963 -1.1059206 1.0989374 -0.32253307 1.626639 -0.454707 -0.13591263 0.047202908 -0.7679675 0.18778032 -0.47262147 0.62455535 1.0828315 -0.88401383 -1.3943869 -0.49795404 0.626106 -0.7108449 -1.5390962 0.01952319 -0.8155712 0.36767516 0.14818399 1.2204057 -1.1639674 -1.2956651 0.0099848155 0.054604035 0.5000039 -0.49737942 -0.63031524 0.49963844 0.40460095 1.2365603 -1.7788198 -0.05792544 1.2226479 1.534268 0.14199464 0.5670674 1.2890756 0.09573358 0.3545252 0.26454344 1.0967045 -1.0748376 -1.0091454 1.3493978 -1.2285753 1.2282676 0.5522262 0.5694128 -0.34703335 -1.3057156 1.1654676 -1.5421621 -1.4399331 -0.117784254 -0.36450204 -0.01919471 -0.3804383 
-1.7125767 0.09754407 0.9388893 -0.44446254 0.7895605 -0.61803883 0.7701346 -0.41593912 -0.63012576 0.6975404 0.6301898 0.97073275 -0.29682437 -0.07909382 0.40347412 0.021159712 0.73892784 0.60152626 -0.2368001 -1.222318 0.5746969 0.14313127 -0.9973708 -0.6249438 1.9632865 -0.8030618 -0.431703 -1.0075039 -0.71579707 -0.71495444 0.8296531 0.86301005 0.92627966 -0.7343685 -0.5747436 0.36503145 -1.4311465 0.845808 0.82444566 1.0605075 0.9923054 -0.48884588 0.4116666 -0.8287518 -0.244155 -0.8253786 0.4947912 -0.19501424 0.6509532 -1.1976985 -0.23105302 -1.1570241 -0.25479233 0.31359684 0.101134695 0.33935294 1.2138844 0.40387517 -1.4824651 -0.2269795 0.33450657 -1.5603724 -0.21993981 0.6072948 
0.86521983 -0.5121232 0.6868811 1.1275883 -0.3378224 1.2446733 0.7939691 -0.1762228 -0.8859915 0.33092603 1.0785226 -1.2816108 0.75165504 -0.78592527 0.8236903 -0.27778205 0.6605622 0.9216191 -1.5439981 -0.8742153 -1.2913939 -1.3714284 -1.4363397 -0.6018736 -0.27999082 1.4572405 0.04924995 1.0849606 -1.1944041 -1.0325071 0.5153497 -0.6457824 -0.560171 1.2197133 -1.4643062 0.65471387 0.012045342 -0.0627905 0.8052389 0.1025515 0.83601797 0.7279934 1.8915961 -0.017526831 -0.08985305 0.42133242 0.77110857 0.33546975 0.2529956 -1.2238209 -0.88089085 -1.9311924 0.3877458 0.4091987 1.7188759 1.0071454 0.5848712 -0.86814773 -1.4017494 0.8060833 -1.1765887 -0.67179704 0.61911356 0.57653546 
0.24909845 1.89527 0.24592926 -0.07674897 -0.6480028 -1.2198198 -0.59317565 -0.14651582 0.19446315 0.24458307 0.052183967 1.3875337 0.43740362 -0.5806738 -0.28447878 -1.4536936 0.7336266 1.4976645 0.14559235 -1.1726162 -0.18110599 0.85334384 0.7903295 -0.19276927 -0.15350322 1.1300266 0.37481132 -0.5886965 -0.5052183 -0.897296 -0.5798834 -0.7809352 0.44399193 -0.81657064 -0.9250299 1.4817939 -0.63742924 -2.0487566 0.74896777 1.2146897 1.0727304 1.0676479 -0.9168787 0.42381704 -0.12260483 0.93482745 1.8780694 1.6620407 -0.3570252 0.37050584 1.1969737 -1.0673641 -0.4937609 -1.4208015 0.12607571 -1.1518885 -0.3963104 -1.1629379 0.8648469 0.9269822 -0.5369774 -0.4328453 0.102892436 0.20813225 
-0.1455903 0.22288989 -0.7874564 1.1157243 0.08120075 -0.3621461 0.95000064 0.36079228 -0.10394055 1.5602211 -0.14762567 -0.10940281 -1.932541 -0.76929927 0.29772493 -0.8159114 0.016164571 0.06532959 0.6474974 -0.5726709 1.236567 -0.012309047 -0.6423514 0.50510204 0.5054152 -1.2827342 0.4949851 -0.49096137 -1.2383862 1.9369661 -1.342677 -0.73948324 -1.3909647 0.3956047 0.8194707 0.48980957 0.15998907 1.1418235 -0.95832527 -0.13268344 1.1244649 0.2821392 -0.4077835 1.3029008 -1.0323707 -0.5215912 0.8966894 -0.17407288 -0.483791 -0.29445213 -0.13057275 0.30145246 -0.4877797 0.78706723 -1.4137582 0.54864424 -0.47892043 -0.016513698 1.170555 0.16329446 0.5109456 0.9882067 0.25297904 -0.44565237 
-0.98620325 -0.49704897 1.3005202 0.41241705 -1.9057862 -0.32505745 -0.9915792 0.60825926 0.48230508 0.057294182 1.0515995 -0.27635545 0.44064835 -0.25070053 -0.4823409 0.54084647 -0.5278591 -0.9098513 1.2682214 -1.7573992 -0.28146356 -0.011467352 0.09152759 -0.90552336 -0.6638815 0.94323504 -1.4913014 0.20295677 0.35834235 0.2788941 0.45005944 1.2704077 0.29251796 -0.8962585 0.41779998 0.8309586 1.1411711 0.0947871 -0.17704257 -0.069721155 0.193895 -1.778893 1.1140112 -0.76022357 -0.9215346 0.16508734 0.3860944 1.2696793 -1.1903291 -1.832011 -0.46749225 0.9492533 1.4689492 -0.16108112 1.3695991 0.6072715 -0.700972 -1.4492971 -0.4915078 1.4721957 0.14988816 0.35431927 -1.2043418 -1.6357462 
0.29578942 -0.61788994 -0.7639189 -1.9624999 0.9681126 0.46753794 -0.26919878 -0.636431 0.11125618 0.60030365 -1.3648779 -0.05948826 0.92998797 -0.023677642 0.12596263 1.0662183 1.7679691 -1.1645318 -0.44142926 0.5481527 1.3291442 0.3633029 -1.7201535 0.28471407 -1.3051087 0.3546985 -0.08555675 1.0598477 -0.6639791 0.12784076 0.8109814 -0.68619055 1.3273873 -0.90987957 0.70121217 -1.2333698 -0.68404967 -1.0404147 0.5640257 1.0864637 1.1211655 1.1441479 1.0502197 -0.82907313 1.5772941 -0.120738946 -0.37182343 0.8829684 -0.23506479 0.45486182 0.6025728 0.86890817 -0.278695 -1.6827959 -0.11270578 -1.1402919 1.2827494 -1.2219493 1.49319 -0.67186356 0.29779443 0.8411343 0.1631836 -0.6960151 
1.1740316 0.5747788 -0.15499887 -0.67809033 0.009324855 0.9330665 0.70517004 1.8639714 1.1522864 -0.010634447 0.42242673 0.6883969 -0.60054094 0.628999 0.1790405 0.4294215 1.5431112 0.5474779 -0.66793853 -1.4686183 -1.1933235 -0.24806385 -0.54923034 -1.5004697 0.97698385 -1.3113432 -0.4568508 0.10357486 0.54175687 -1.3874297 0.29751754 0.16948408 -1.4527647 0.42340934 -0.81252295 -0.18988149 0.8012034 0.1917074 -0.024223771 0.64997065 -1.8329806 -0.25642648 -0.26591694 -1.1695548 -0.953846 0.031935778 -0.5838228 -0.7483828 -0.6185687 -0.11999751 -1.3438388 -0.66924155 -1.1565162 0.013029044 0.64640677 -0.19435427 0.50085706 0.029974725 1.0924441 0.1452823 0.1978199 0.7993956 0.3855894 -1.0975099 
0.6368152 -1.1102194 -0.92497724 0.33538407 1.400881 0.47250712 0.041449886 0.75571156 1.2967257 0.19394045 1.2849841 -0.48546815 0.09230298 0.09169545 0.41276962 -0.62539625 0.27140346 1.0157213 1.7763435 1.4576895 -1.7024908 -1.1822542 -1.9791168 0.4040896 -0.58396965 1.1115959 -0.4135343 1.5612271 -0.21871322 -1.0070896 0.7125955 1.8624129 0.9017793 1.0870442 0.37993827 -0.34020105 0.10088719 0.6833506 1.4815902 -0.36522123 -1.0684336 0.4388178 0.60147166 1.3758582 1.2174796 1.2029598 -0.21404375 0.08709311 0.78827864 0.4584707 -0.24434489 -0.48774114 0.08456192 -0.9695467 -0.95663226 0.24728066 -0.3243556 -0.30572984 -0.40851685 -0.84113103 -0.79670304 -0.9907857 -0.5362698 0.12507567 
-0.8328751 1.454053 -0.9221174 0.26890293 -1.3716815 1.2539293 1.3991413 0.2392046 0.093136124 0.99552065 -1.0171213 1.3202116 0.08537694 0.62854517 -0.13552503 -0.14779648 -1.267797 -0.564495 -1.5907527 -0.84674686 0.23864296 -0.3014158 -0.9088508 1.3709437 0.4393317 1.0921693 0.013935884 -1.1036963 0.96002716 -0.683614 -0.45563543 -0.5828182 -1.3281171 -1.2531905 -0.064039685 -0.039500862 -0.676794 0.7039613 -1.1037836 -0.37919152 -0.71754014 -1.5924252 0.8469527 0.6223357 0.80364424 0.3503605 0.38819513 1.1667612 -1.1918275 0.84912837 -0.19528235 -1.6951668 0.47917944 0.95187145 -0.64886105 0.0050125816 -0.03623632 0.38524517 -0.38061947 -0.2562293 1.8203912 -0.6037456 0.523335 1.4688642 
-1.6716188 0.079083085 -0.52332693 -0.082409404 -0.39772618 -0.8237656 -1.174609 0.033267554 0.51138395 -0.37801903 -1.8026352 -0.7327457 1.4893975 0.22694352 1.4817966 -0.12949471 -0.31540123 0.54119074 -1.3954731 -0.42470258 -0.003942333 -1.1549383 1.0089049 -1.2374231 0.92635083 -1.3985108 0.10908254 -0.11397844 -0.076470055 -0.30045113 0.48547697 -0.25421274 -0.24509618 0.4776919 0.5215031 -0.25477156 0.5426832 0.7747051 -0.051794287 1.4640678 -0.6312738 -0.9608822 1.0326978 0.53819543 1.081113 -1.388379 -1.2152318 -0.14356704 -0.21608998 -0.32395127 -1.0483718 -0.64502734 1.6888753 0.08494418 -0.3356403 1.1609433 -1.2385492 0.7222574 -0.8764302 -0.0038614622 0.31917748 0.5478626 -1.0479242 -1.6375602 
-0.9129971 -0.17459919 0.41076654 0.7815521 0.018637897 0.7580634 1.0930467 -0.77913916 1.5518874 0.71151984 -0.60737723 0.9928714 1.2251186 -0.8393984 0.6229713 0.94192547 1.514 0.054526076 -1.6596773 0.79337656 -0.62198734 0.60014606 0.021603009 0.38582993 -1.1044192 -0.638122 1.8051939 -0.56606835 -0.98210216 -0.7956132 -1.0252503 -0.014240265 -1.0346932 0.010753868 -0.7043295 -0.73929113 -1.3165599 1.4557892 0.55301625 0.48663697 -0.885991 -1.2455671 -0.9579367 0.67409 -0.5751469 -1.0905955 1.1225429 -0.059224032 0.5635343 -0.4798344 -0.042729046 -0.0022057449 0.22015505 0.22777452 -1.3951515 -0.18840918 0.03299403 -0.1043384 1.8348846 1.6915431 1.0625263 1.2313361 0.9550053 0.35283503 
0.48557046 0.3414364 -0.3714485 -1.2181988 -0.40776154 0.766893 -0.4672603 0.56710076 1.2053915 0.2458558 -0.067127466 0.66956836 -1.0770606 -0.82531923 -0.68280977 -1.1799248 -0.8265553 0.64798194 -1.6880453 0.16840896 0.6725451 0.04738509 -0.51953197 -0.2672497 -1.374129 -1.0170373 -0.379539 -0.97482777 -1.018657 -0.15192862 0.4865551 -0.27198163 -0.5322318 0.8892691 0.82379085 -1.2423288 0.8126361 -0.07621111 -0.58579737 -0.2659994 -1.9867173 -0.8966867 -0.5700999 0.1927814 1.3297322 -0.86139333 1.0547562 0.06450197 0.02558222 -1.2907109 -1.0309088 -0.5304122 -0.2168832 0.5985476 -1.0247352 -0.96149117 0.8067866 -0.49030945 -1.4407881 1.8269364 -0.07451697 -0.05048098 0.10233007 -0.70316076 
-1.0514984 0.4251187 1.5642254 0.25750142 1.454668 0.49874175 -0.9442992 0.60021394 0.4638569 -1.5146388 -1.5059601 1.426109 -0.48717085 1.400319 0.62284607 0.06900369 -0.9352212 -0.9176428 0.34824562 -0.7776162 -0.24801615 -0.8954746 -0.6727453 -0.22896333 0.25906166 1.5807478 -1.3901016 -1.6617948 1.3275684 1.0453254 -1.7591853 -1.5084894 0.5163805 0.22120267 0.26403627 0.37246245 -0.18092768 -1.456741 0.18093729 -0.20708573 0.9718234 -0.46552324 -1.041306 1.4142213 -0.28195065 -0.37097424 -0.19498168 -0.17384322 1.1163914 -1.4110683 -0.70672834 0.34971052 -1.3419555 1.3192893 -0.6724608 -0.062057413 -0.8704394 -0.17685871 -0.1286386 0.48186874 1.3489308 0.5751487 1.6136924 0.900059 
0.067711905 -1.1744109 -1.1333138 0.96891475 -0.30215824 0.37996206 0.19781615 -0.19236448 0.15431534 -0.12598984 0.91005147 0.65438044 0.3920411 -1.060314 1.1336087 0.22231759 0.5387372 -0.6821227 -1.103989 0.28734788 -0.46932098 0.1476305 0.91598636 -1.5135069 0.48323932 0.19065215 0.09927376 -1.4343953 1.5153216 0.531927 0.37734097 0.81282043 0.26614058 -0.5186987 -0.6456228 0.7204249 0.7933235 0.42265713 -0.5208452 1.8362861 0.67849076 -0.13069601 0.59706575 0.261203 0.98072004 -1.1938528 -0.43948135 0.6297788 -0.38082644 1.0550506 -0.46848917 -0.7306553 -0.57867986 1.4723105 0.04923942 0.5186496 0.16844912 0.52822024 -0.7268694 0.02231279 0.98355126 -0.6822372 0.47309342 1.8580288 
-0.5731343 0.81390643 -0.5402444 -0.7266312 0.44799814 -0.4457919 1.2680458 0.27842066 -0.16564342 1.5349652 -1.6468796 -0.12618473 0.63330823 0.97030616 -0.67350876 1.485782 0.556209 0.62330645 0.6304429 -0.058894873 1.3282763 1.8263738 -1.0033563 1.4442998 0.95506024 0.9877412 -0.5105219 0.80348706 0.6803113 -0.1210136 -0.695588 0.9261278 -1.4789677 -0.3943659 -0.56251734 -0.30385867 -1.1189227 0.31633162 0.008110044 -1.3008434 -0.35794294 -0.30962938 -1.1172326 -1.0987585 -0.88648677 1.3111947 -0.70156467 0.51291865 0.59775 -0.17807493 0.7301454 -1.8412591 0.098188736 -0.4298694 0.712484 -0.9258761 0.1131779 1.0733618 -0.33370656 -0.3291442 0.32789552 -0.7977475 0.9343874 -0.22825739 
-0.060348697 0.13804245 -1.6701666 0.44087607 0.9129171 -1.2893063 -1.2167202 -0.12886062 -1.1386926 -1.1298459 -0.7453201 -0.7657362 -1.3619814 0.12508489 -1.2104297 -0.0049827085 0.6460335 -0.5229948 0.5041997 0.57362264 0.38600346 -0.47445562 0.012292347 -1.805346 1.2828794 0.8037261 1.3570433 -0.040594667 0.03654717 -0.79442585 -0.4763979 1.4424889 1.0303954 -0.62072647 -0.83037436 -1.5483391 -0.41950223 -1.9613858 0.16736388 -0.6802034 -0.5347004 0.8611331 1.121044 1.2512647 -0.17941625 -0.29715163 -1.4701022 0.4069952 1.3214434 0.5957385 -0.9237329 -0.64512336 0.48157343 1.7714076 -0.22434404 -1.0907221 0.8576275 -0.027896414 -0.68043983 0.7128698 -0.7431282 -0.59891635 -0.61266637 0.59532106 
6.259269e-28 -0.09826364 0.07009678 4.2821615e-05 -0.11883956 -0.12232446 -1.1355492e-19 -0.053432167 0.065464556 -0.2849427 0.009221342 0.039177135 -1.09949445e-10 -0.08558875 -0.08489716 -0.10237167 0.23747155 -0.011882542 0.08611464 0.0061316746 0.13315362 -0.034300268 -0.18839465 6.398807e-10 -0.063372895 -3.6811776e-05 0.03679261 -0.035239596 -0.063581556 0.07316301 1.137967e-09 -0.001448075 0.49322033 -0.0044169077 -0.33431786 -0.06182433 -0.064103015 7.2403025e-05 -1.4298776e-08 0.26727524 0.03368355 0.0003730307 0.1267914 -0.14044753 0.061599366 5.99971e-06 0.008155341 -0.19985774 -0.13111211 0.28458863 0.11955915 0.069403425 -0.009857655 0.04978793 0.0009328183 -0.003009742 0.38179743 -0.38189334 -0.31567866 -2.3833946e-10 0.0010013813 0.0046757306 0.32467353 -0.0053256606 
0.013470029 0.7774102 0.28972307 1.1020046 -0.6776607 -1.8878267 0.86845183 -0.8724162 -0.84485817 -0.3412025 -0.11698347 1.8394791 -1.822123 -0.42989218 0.63015515 0.22433539 1.7015642 -1.9558384 1.3058672 -0.37579915 0.996444 1.2676762 0.20876835 0.14571661 1.5446723 -0.988168 0.93557954 -0.4300563 -0.22646543 -1.6593133 1.1196676 0.28869736 -0.17382778 1.1093035 1.9325235 0.5565943 1.1989931 1.7500881 -0.23149593 0.9902225 -1.4835182 -1.0123628 0.7550266 -0.31436625 0.19925587 -0.12283379 -0.8944518 -0.18724293 0.11320894 -0.5949445 -0.2813998 0.9819316 -0.29862556 0.52866 1.418735 -1.3035059 -0.73950684 0.6582495 -1.5030832 -0.49269703 -0.31261235 0.77602994 -0.052842736 -1.3026192 
0.22387163 -1.1357962 0.77899843 0.2666858 -2.055951 0.272324 0.64026743 -0.96945566 0.024504796 0.09962271 -1.0902594 -1.0968516 1.1444293 -0.57040274 0.09028826 -0.101543255 -1.4597036 1.2947422 0.47799858 1.4583155 1.8948176 -0.5586913 0.3237957 0.39645517 0.7562414 -1.6883293 -0.27196783 1.7720829 -0.91349703 0.36763412 0.8638901 0.18033269 0.014637604 0.053492945 -1.287284 0.105779655 -1.1399999 0.49647626 0.50342417 1.2725714 0.5947776 0.53900826 0.08051333 1.5774586 -0.7843607 -0.044478208 0.08075931 0.008240867 0.28786665 0.88198507 -0.44465226 1.8257811 1.0369478 -0.42193052 0.06907544 -1.6797054 0.46388614 -0.7251807 0.19192867 0.21048743 -0.6166983 1.6013337 -0.35978052 -0.8479543 
-0.9465636 -0.6679831 1.6811289 -1.0807103 0.30741918 0.8424232 -0.38930047 -1.2179737 0.69662416 -1.31405 -1.2084394 0.39713895 0.09920153 1.7872816 0.04004894 -0.21663752 -1.0741372 1.2296532 0.13135834 -0.80665225 -0.7433752 -0.544533 0.90512633 0.93618846 0.26766217 0.90609795 -1.0471529 0.13537985 0.741227 -0.50679326 1.2921237 0.06629852 0.4139648 1.7813643 -0.051511206 0.8253677 1.2313287 -0.4420852 -0.37902755 0.8012185 0.50343174 -0.14835453 1.9042544 0.8948101 -0.3240485 -0.55258393 0.6409409 0.586192 0.47747546 0.76940453 0.44482768 0.087512664 0.2697997 -1.2613509 0.08557181 -0.59044147 -0.5883295 0.20892295 0.6635024 1.0143793 -1.3353199 -1.4402503 0.016047105 1.4486895 
-0.55129087 -0.5869332 0.13429964 1.6053731 -0.036322825 0.8889317 1.6506027 0.8244388 -0.33695978 -0.46665475 -1.6707088 -1.0101439 1.1640377 -0.96353596 0.958026 1.0597849 0.99996984 1.5919471 -0.8974385 0.4517801 -0.40482607 -1.2714593 -1.2355332 -0.4061088 -0.5437658 -0.81781596 0.060143888 0.49679196 -0.34851912 -0.0038507716 -0.33171627 0.94228077 1.1695601 -0.03490501 -0.0804054 0.84459573 0.2363536 0.37798396 0.8795773 -0.6151515 -0.90695 -0.16571124 -0.28798902 -0.9422674 0.738856 0.7369213 0.51340556 0.27964643 0.05673455 -0.9682812 0.40248644 -0.3691921 0.06870093 0.05548426 -0.49697065 0.95584875 -0.88283426 0.8294725 -0.40461314 -0.22155823 0.73295605 0.0075209523 0.015643729 -0.52829325 
-0.5345872 0.8785787 0.6380691 0.94150496 0.30163467 1.073908 -1.4760653 -1.9180537 0.8104285 1.1092436 0.43467957 -0.94462526 -0.65778786 0.4940326 -0.60769814 0.8332925 0.4315182 1.6165137 -1.7988719 0.4323263 0.012920481 0.80238444 -0.5309547 0.24479437 -1.1185157 -0.7395142 -0.5989122 -0.5014705 -0.36518124 -0.7650982 0.26161453 -1.0497409 0.4033372 0.16525881 -0.11686424 -0.37291557 1.8205899 0.8189736 -0.6455489 0.027139738 -0.19099079 0.99903363 1.2207487 1.6166071 -0.04520627 -1.0682979 -0.23123585 -1.9864408 -1.2957485 -0.14174902 -0.13633212 0.1532904 0.8820884 -0.4969605 1.0072235 1.314415 1.2790014 1.3575951 0.20735213 1.4865308 -1.3389755 -0.47576526 1.0349064 -1.0684147 
-0.52826124 -0.46667558 0.49738196 -0.0851188 -1.2627257 -0.097444326 0.25870457 0.82057875 -1.0834428 -0.27747634 0.06822656 1.0211651 0.80922335 0.5092872 0.4755431 0.22785674 -0.4147247 1.0185103 -0.08575237 -1.6126348 -1.6444967 -1.3567382 0.7621067 1.4116406 -0.83139354 -0.31796613 -0.41166186 0.4217138 0.65833837 0.13333772 0.13833833 -0.7876868 -0.42089984 0.2354164 0.4641152 0.32788396 0.16366488 0.1065633 0.34972057 -1.5190235 0.35732841 -1.2245053 -0.60074425 -1.2069662 -0.38374272 0.2829629 -0.25493032 1.0395819 0.26172948 -1.1987379 0.003371911 0.6359542 0.1154045 -0.062302176 1.4388914 0.50734663 -0.8972272 -1.1562382 0.50441 -1.9790419 -0.39949054 -0.757722 1.3137366 -0.029598601 
0.98840314 -0.65268177 0.006956555 -0.74048424 -0.31812617 0.32490188 -0.47723016 1.4609699 -0.32305023 -0.23302394 -0.12546894 0.20611188 -1.3622692 0.3489348 -0.7013652 0.3025985 -1.3857893 0.7495294 0.35612833 -0.45358202 0.536434 0.49938175 -1.2599468 0.054760754 0.6440201 -1.9318787 1.4220059 -0.25090042 0.5573416 -1.3502172 0.7912861 -1.1821715 -0.61451036 0.1732263 1.5436893 -0.51829994 1.551714 0.83648235 -1.1075605 -0.20703931 -1.7405237 -0.37836468 1.1174018 -0.4197953 0.3654065 -0.5280191 0.21987897 0.18400523 -1.6189231 0.4436779 0.6233262 -1.6633526 -0.016342042 0.6661041 -0.52855194 -0.5553041 -0.13467108 1.7985271 0.85981995 0.3693281 1.2999907 -0.24273723 -0.86074966 0.4976045 
0.55905694 0.3899364 -0.6675964 -0.31865504 0.8305934 0.5987652 -0.88473934 0.98210764 0.05575491 -0.57034826 -0.5137924 -1.7602389 0.0016451274 0.05096595 1.0029947 1.2746396 0.94603866 -0.35221764 0.6251066 0.7120501 0.8009504 0.36550337 1.0024767 -1.1929809 -0.3199377 -0.49208245 -0.17501837 -0.46536767 0.5108584 0.06202658 0.27523556 -0.7338024 -0.54996616 -1.9773527 0.807605 1.8456899 -0.9253215 0.121127255 1.2113007 0.2799676 -0.6470457 1.5141661 -0.43788612 -0.85998976 -0.25631884 -0.5599592 0.40737948 -0.8316757 0.4692433 -0.2702267 -1.5693343 -0.08311816 0.23859832 -0.30627733 -0.21068656 -0.071374714 0.5252388 -1.3886851 0.49288884 1.2000899 -0.32450837 0.11579989 -0.63472056 -1.4207631 
-0.18545046 -0.4841699 -0.9563559 0.7481291 0.7389789 -0.370055 0.3137642 -1.5567335 -0.25035924 0.92942786 0.9407396 1.1872483 -0.8915579 0.43615973 -0.06544965 0.89384323 -1.8559747 -1.5265995 -0.8768072 -1.6325779 1.4617989 -1.4482386 0.10988498 -0.06449616 0.22826102 -0.21513833 -0.67157555 -0.72855484 -1.2840799 1.377499 1.7746588 -0.8851838 0.27001733 -0.6767653 1.2115533 -0.62858814 -0.8602085 1.262327 -0.6686626 0.9540037 1.5878384 0.46764398 -1.2105935 0.25103927 -0.59754026 -1.1699712 -1.0457696 0.34948152 -1.8383774 -0.080961235 1.1933494 0.9920688 0.9242779 0.7986795 -0.5622255 -0.30402935 -0.7323884 0.15891764 0.9873948 -0.54289997 -0.40879664 -0.2674088 0.068367325 -0.4116059 

1.0277354 -0.6687224 0.4493341 -2.0368516 0.32436118 -0.038448844 0.49431178 -1.8191376 1.4401525 0.78686434 -0.21888164 0.4452293 -0.6850403 0.35390833 -1.6146632 0.042510226 -0.20220397 -1.6373571 -0.16149352 -0.73776364 -0.15878181 -1.5340784 -1.5276941 0.6281055 0.42163464 -1.0491982 0.5681457 0.63990206 0.7307147 1.8459876 -0.083049625 0.9546769 0.60497445 0.12636927 0.29281884 -0.2885542 1.1220723 -1.0697751 -0.3991841 -0.3117754 -0.34486848 0.7309268 -0.15684555 0.33107468 -0.7731777 0.48028117 0.74805397 0.60449135 0.97041225 -1.6790925 0.6186266 0.919823 0.7467394 1.7239611 -0.11771873 -0.0842851 -1.4125345 1.1660855 0.07538883 -0.3800145 1.636631 -1.0699316 0.36362964 0.39706036 
-0.64651555 -0.46880028 0.013367292 -0.6664329 -0.6522083 0.4494347 0.47786966 0.16739242 -0.97136784 0.016694203 0.0018411399 -0.9413099 0.690015 -0.5721178 0.6705871 1.7317148 1.303427 0.30724123 1.527984 1.0924538 -0.5400378 -0.5771774 1.235348 -0.43924645 0.04741563 -0.96852475 -0.2156141 -1.0849941 0.534721 -1.2179496 -1.1655769 0.12921941 0.10077613 -1.1302779 -0.42285198 0.38732073 -0.6147765 0.24036051 0.72148 -0.7597948 0.37225688 -0.07847476 1.7371866 -0.6965284 1.8325446 0.72784746 -0.2644069 0.010720449 0.6475472 0.82645476 0.89989924 0.26990142 -1.4536878 0.6612417 -0.9519532 -0.30371025 -0.9575854 -0.54126745 -0.28116193 0.49528423 1.8582753 1.3016711 0.049575385 0.39478278 
1.3711253 -0.06896228 -0.70021355 1.1533037 1.7628874 -0.23839259 0.8137019 -0.14218214 0.4685627 0.2709923 -0.08022575 1.528547 -1.9777964 0.22826202 -0.84099704 0.6896938 0.830956 -0.6554122 1.5403364 -0.16116658 0.37068775 1.1549269 -0.395423 -0.2838185 -0.38887155 0.8250332 -1.6341646 -0.4641801 -0.22603713 1.3742461 0.8322962 -1.1220824 -0.92806494 -1.0796592 0.16704613 -0.79228705 -1.9229718 1.7660213 0.58035773 -0.9036011 -0.43996075 0.22805004 1.2544436 -1.3690668 -1.7481446 1.2582809 0.56726193 -0.055263672 0.23855808 0.28336573 1.4416354 -0.45217687 -0.80742294 -0.2771448 -0.05306066 -1.8125933 0.09477983 -1.3093764 1.2010512 -0.84792966 -0.87478715 0.3894915 -0.98916537 -0.0074175242 
0.6621366 -0.8021041 0.047181834 0.061866015 0.4900206 -1.1961681 1.4027985 -0.6411242 -0.3436939 -0.3992485 0.43666118 0.11804628 0.54652905 0.81591004 0.3685923 -0.76877636 1.1842054 -0.94033295 -0.3829092 -0.37372592 0.13114522 -0.9874327 0.3186944 0.58308977 0.86009026 -0.98671705 0.8980033 1.1800151 -1.0653324 0.85581213 -1.5668861 0.94769275 -0.54897916 0.78897136 -0.25871396 -0.45488662 -0.01369257 -1.8664286 -1.4302833 0.19299915 -0.7596104 -1.3917491 0.066115014 1.407356 1.1469487 0.9971449 -0.59246105 1.0556307 0.7279097 -0.17039506 1.428772 0.3740302 0.22087263 1.0752411 -0.32320467 0.6617324 1.1997622 -0.7133682 0.7406462 0.77844584 -1.1490577 -0.47592798 -0.38484696 -0.34929535 
-0.61752456 1.0685937 0.8766017 0.41324803 0.3985928 0.018005 -1.8859175 -1.6381136 0.78194886 -0.4043156 -0.5454199 0.93946767 0.7977073 -0.40204158 -0.25609404 0.44712484 -1.1956884 -0.1318764 0.99683756 -1.412103 0.35148364 -1.6017872 -0.16895063 -0.43343624 -0.61815536 0.76262444 1.2504166 -1.7780344 0.11766671 -0.020856084 -0.8516099 0.6012238 -0.026612654 0.52485174 0.15961248 1.6306885 1.126172 0.293521 -0.09275294 -1.071119 0.074762575 -1.1194497 1.2989931 0.38566768 0.73484224 -1.1506811 -0.7288359 0.73569965 0.97226065 0.9104956 0.6644067 -0.64026284 -1.2713796 -1.4589957 0.28561363 -0.90151685 0.4142051 0.377914 -0.21846221 0.43721735 0.14343683 -1.5657876 0.3323855 -0.5381191 
-0.72050667 0.35003233 1.5740794 1.8456154 0.28509903 1.0079612 0.16863863 0.6502226 -1.1775182 0.4554678 1.3089877 -0.43620786 0.11490128 -0.4216348 1.8720479 1.1381397 0.8280735 1.7136313 0.07874428 -0.72037023 0.8087699 0.27933884 -1.7932643 -0.9159243 1.0369958 -0.17126346 -0.68432516 -0.44849536 1.6508871 0.046536602 -1.1974704 0.50542617 -1.0896773 -1.5677446 -0.30397075 0.39982048 0.18729956 -0.7888407 -1.3162521 0.90067095 0.95088476 -0.22535741 1.2740535 -1.5213864 0.74930686 0.080906354 0.3035437 -1.4111227 -0.5586621 -0.33312732 -0.706366 0.90357655 -0.8213476 -0.4554469 1.0653429 -1.739895 0.6283902 -0.6370523 0.9142996 -0.8180287 -1.1966815 1.6064966 -1.5238547 -1.1447375 
0.38943934 -1.1964632 0.2959145 -1.6491101 0.031706087 1.4318559 0.60404056 -0.091325544 0.4192459 1.4832094 -0.6613048 -0.17418545 0.07551277 0.14848052 0.23428577 0.6740914 -0.4424681 -0.8101075 1.3780212 -0.6404574 0.54399514 -0.8327381 0.6005867 -1.5312706 0.62940687 -0.35284835 0.7288026 0.6436376 1.0760435 -0.9548028 0.24102233 0.5663392 -0.8989038 -1.2294163 0.77724385 -1.2259026 1.3528427 -1.0358665 1.5218809 1.2110773 1.5640657 0.10431325 0.091253385 0.76775765 0.70613635 0.22098398 -0.6211527 -0.6762382 1.0816597 0.50463814 0.37483215 -0.32274377 -0.14369966 1.1225833 -1.3726691 -1.269138 -1.2121687 -1.1064287 -0.16700506 -0.02247456 -0.36012307 -1.4180568 1.3896405 1.1798335 
0.20180519 0.24665335 -0.72323674 -1.896055 -1.4782679 -0.6205617 -0.43946472 0.68206626 -0.5669479 0.4865956 0.052616797 -0.67034346 0.5684658 0.13113968 0.1477659 -0.10078938 -0.57665753 -0.21134952 1.1665124 -0.746939 -0.12808333 -1.0409434 -0.25761193 0.80336267 0.013002766 1.2366307 1.0740472 -0.2029549 -1.4940383 -0.73696494 -0.30367187 -1.5501446 0.01139088 0.3850505 0.39077526 0.43750107 0.07642238 -1.4248803 -0.17464064 -0.413312 -0.8104914 -1.5183723 -0.57120246 0.343319 -1.2613114 0.29486677 -1.0917355 -0.5205639 0.12849808 0.12960503 -0.6839139 -0.2062831 0.83456755 -0.4137853 0.95571804 0.589758 -0.044438567 0.63174194 1.7701149 0.16021758 1.1272912 0.16838078 1.2956071 0.37697518 
-0.31530872 -1.0654504 -0.1825144 0.10208778 0.023456844 0.5029997 -0.9422919 1.7821746 -0.93866944 0.03600842 -0.26347768 -0.15599377 -0.7056124 -0.52946913 -0.21864712 0.9430598 1.1811208 -0.76068854 0.6686807 -1.3181477 0.5583338 -1.7679621 1.3342072 0.99079365 -0.4334498 0.50399107 -1.2682065 -1.615379 0.454681 1.5195342 -0.3180876 -0.80673623 0.0024273694 -0.8177231 -0.5646315 -1.1970574 -0.9444326 -0.34133473 -1.1112344 1.6189612 1.7002128 1.0538778 -1.0523818 -0.41634414 -0.54890794 0.40539277 -0.13372906 0.40243617 -1.2537123 0.32757396 -1.2060218 -0.8794399 -0.92363924 -0.11282746 0.2956107 -0.4937873 0.9810155 -0.010077613 0.86203724 -1.7239763 -0.3393883 -0.07611572 -0.28463623 1.1677184 
1.353747 1.895204 0.20180173 0.7973496 0.14396514 0.664621 -0.90625626 -1.3259629 1.3772036 -1.7735282 -0.85184675 -0.22396067 -1.0483689 0.21875957 -0.3507063 0.38010246 0.39192286 0.5902655 0.34049347 1.5026699 -0.73630273 0.84822696 1.1253659 1.5365252 0.14978597 -0.5617845 1.8858684 1.090685 -0.7807329 -0.05762798 0.07500255 -0.6010007 0.15158583 -0.23804015 0.29340306 0.20764516 0.80716133 -0.65681577 -0.7302632 0.6739989 -1.7613218 0.2580078 -0.9513305 -1.0047319 -0.585019 -0.17494886 0.28365704 -0.33018574 -0.13280156 -0.3501761 -1.0306535 -0.49488425 -0.060938794 1.72074 -1.3729222 -0.015622218 0.0702569 -0.016991267 -1.9318614 -0.5225274 -0.44275323 0.35806373 0.18217391 -0.7498131 
-0.42195243 -1.3750094 -0.81721604 -0.8760857 -0.801926 1.274778 0.63003284 1.1650563 -0.49398977 1.7593259 0.86839956 1.0426427 -0.44728473 -1.371467 -0.07308681 -0.42039338 -1.6502187 1.1484787 -0.18411641 0.2678832 0.597139 -0.5081947 -0.3286208 0.09736869 0.7174961 -0.4301067 0.4264195 -0.97469693 -0.5950317 -0.24360253 -0.25291345 -1.0453963 1.0736538 0.21772447 0.99488705 0.2371801 -0.7705864 0.19282818 -0.32801682 -0.33013955 -0.9267591 0.26673123 -1.4956475 0.69351405 1.0134491 -1.5011611 0.2988142 -0.8947004 -0.3716802 -0.23942024 0.26685238 -1.3772377 -0.75166386 0.39671138 1.2469846 1.2261164 -1.011802 0.07396757 0.7085938 -1.0082976 0.6344736 -1.188526 1.3919518 0.23277304 
0.9318066 -0.1637989 -0.07053037 -0.40268153 -0.6868717 -0.6518358 -0.14109877 -0.6414169 -1.610768 -1.2871265 0.26036122 -0.7971481 -0.8705963 -0.052605692 -0.47118592 1.003284 -0.6956457 1.1333644 -0.0027930867 0.037403964 -0.36385968 -0.40405694 -1.3024216 1.8557513 0.8593689 0.1833512 0.031600073 -0.6478957 0.5131707 1.33846 0.14275143 -1.4788594 0.55745363 -1.1810415 -0.48788416 -0.6702827 0.5142955 -1.6936822 1.5700668 -0.2539641 -0.57259357 -1.1977829 -1.7716223 0.3734322 -1.6013807 -1.2489573 -0.9772391 -0.3604634 -0.8669043 -1.072897 -1.6957487 -0.13423105 -0.48677334 1.3471109 0.41173276 -1.4071286 0.08261719 0.5928081 -0.8867899 -0.2393165 -0.19096763 1.3814175 -1.2205476 0.71350586 
-1.3145665 -0.19361965 -1.4361603 0.5475971 0.31550682 0.3281149 -1.3169929 0.5670606 0.27759293 1.4751235 0.5829828 1.3314542 -1.0504568 -0.44497848 -1.3521 0.44978675 1.5804178 -1.7745984 -1.4025933 -0.8415398 1.618237 -1.0492828 -1.02473 -0.8898298 0.059955463 -1.3576128 -0.130083 -0.7738951 -0.13120466 0.8885417 1.2982087 0.99087405 0.2744029 0.31813183 -0.43820682 -1.1035587 -1.2052207 -1.1994289 -0.7465122 -1.3041561 -1.3308825 0.04534602 -1.5018466 1.0626502 0.16922532 -0.35297936 -1.1559435 1.1484922 1.1503739 -0.9213849 -1.3140461 0.18254927 -0.7126267 0.29311273 -0.7452453 -0.1147377 1.4517707 -0.05402932 -1.100085 1.9437624 -1.082457 -1.7678326 -1.281582 -1.4174979 
-0.30101058 -0.69641834 0.29488575 -1.9347724 -1.82976 0.1039641 0.52899677 0.5461397 -1.867893 -1.6385515 0.8121961 1.1197473 -1.4587665 -1.6637602 -0.64842284 0.20006351 0.29821202 -1.1647464 -0.9233282 0.37369972 -0.8866841 0.14849985 1.450027 1.1346067 0.23683684 0.4641294 0.6483127 0.26955536 -0.8370656 0.5617061 0.5033949 -0.18111609 -1.334488 -1.1941317 1.4082562 0.8818759 1.3776474 -1.1951828 1.2962888 0.47587335 -0.08410018 -0.16282716 -0.2665049 -0.41210034 -2.0185099 0.7582884 0.14967985 0.26053306 1.100546 1.6061343 1.6048257 1.4682486 -0.22653432 -0.4761597 -0.54487103 -0.43787426 -0.092384465 0.6817405 -0.9655209 -1.2767712 -0.6526292 0.45263994 1.2801836 0.49617153 
-0.46749818 -1.6510055 -0.49506307 1.5934454 0.48120105 0.6518506 1.3917276 0.9229933 -0.10934084 0.18233824 -1.5928166 -1.6892271 0.19061184 -0.8755485 0.44074312 0.1038525 1.6734976 -0.57353246 -0.86257714 -0.0034447885 -0.7772923 -0.7506714 0.8536137 1.2360718 0.30601966 -0.87801874 -1.2263845 0.8982918 -0.79014856 0.1765555 -1.4174093 1.6905234 1.6827179 0.5699437 0.16898218 -0.121621005 -0.00894621 0.81021225 0.15977213 -0.2535836 -0.12699005 0.6350992 -0.13524738 1.0618361 0.045016732 1.2604235 0.32117647 -0.72238433 -0.9532029 -0.06730076 0.33057755 -1.9829535 0.85994965 -0.6837535 -0.58865243 1.2148596 -0.7581353 1.2693651 -0.8961728 -0.3087547 1.6620957 0.36339703 -0.51913726 0.13641351 
-0.5588571 -1.0453587 -0.4109412 -0.7024275 -0.5042885 -0.55526483 -0.22459292 1.5434133 1.4290142 0.29394928 -0.22854653 0.13057867 0.022965528 0.7207527 0.2690183 0.06078828 -0.021742139 1.2579612 1.5009156 -0.09843416 1.6762266 -0.82954323 -0.67086923 0.9037714 -0.85123223 0.022818184 0.5895471 1.0008833 0.76970446 0.3252484 -1.3028643 0.52981764 1.9787003 0.22091104 -1.2698609 1.495761 -0.7072062 -0.45412526 0.5425623 0.83093053 -0.052531224 -0.12759386 -1.9064016 -1.3059982 -0.23260814 0.8258752 1.0177186 -0.5845319 0.033186138 0.04225378 1.0444735 0.08487998 0.31354275 1.4654464 0.42876524 -0.45318902 1.563717 0.36007437 -0.8433551 -1.3720894 -1.2263639 -0.35618606 0.48677486 1.1428452 
-1.7397431 0.50306034 1.2267978 -0.19154963 -1.079824 1.2316067 -1.2465606 -0.8006305 -1.1785102 -0.2147505 -0.07155245 -0.74757785 -0.13004753 0.7202981 0.9031433 -1.581916 0.2011494 1.1821235 0.08346364 -1.7445112 0.033885717 0.22679673 -0.36292958 -0.03675173 0.08562047 0.80478007 -0.53649026 1.1925995 -1.1586655 -0.12926953 1.4133918 -0.39113048 -0.1821865 -0.8991075 0.8042681 0.19057722 1.3694369 -1.3245015 -0.056983214 0.20643057 0.7296496 -0.45392874 0.033582736 1.3056544 1.4213426 -1.1237668 0.15223996 -0.23794948 0.6950736 0.8231327 1.2760015 0.9657971 1.79452 -0.7913955 0.5532154 1.218357 0.33313307 -0.044985287 0.08435987 0.90391505 1.484462 -1.3135082 -0.037679005 -0.013346242 
-0.53642255 -0.18363562 0.30885643 -0.5773968 -0.59147215 0.28729177 0.009264079 -0.26240554 -0.7241085 -0.66037303 0.23017032 0.45028087 1.1385343 -1.7568053 -0.02383661 -1.4109583 -0.095180705 -0.12813184 -0.63012344 -0.5243226 -1.0980248 1.1915586 -0.814721 -0.880908 -0.6248466 0.5878288 0.3404417 0.8119173 -0.6640365 -1.1737838 -0.13641806 0.10574911 0.46829394 -0.13036665 -0.828542 0.8473716 -0.14021403 1.0811715 -0.18491036 0.5120702 0.31677616 -0.16262627 -1.1346303 -0.77195585 0.53758377 -1.395514 1.7611777 -0.5694446 0.40241992 1.319721 0.043132447 -0.5989074 -0.20451145 0.6098879 0.37898153 -0.7062186 0.42435658 -0.9481938 0.26559207 -0.51433975 -1.1897547 0.983218 0.8740742 -0.06353897 
-0.15637748 0.6450418 1.2578758 1.1062481 -0.048277322 -0.05130332 1.4859552 0.68526757 -0.3347438 1.3028572 0.2577586 -0.54900306 0.99246246 0.31516692 0.16302751 0.7496193 -0.7120044 -0.9461574 1.1251099 0.4164193 -0.4887046 -0.16098255 0.45236492 1.3741853 1.4782287 -0.8674719 -0.80214775 0.9278472 -0.083685815 0.6235606 -1.0019146 -0.9131961 -0.11129059 0.997621 -0.7574158 -1.2364496 0.89086163 -0.043399815 -0.93223846 0.74361944 -0.636067 -1.1682479 1.5402461 -0.8476855 -0.40560925 -1.8904109 -1.8848189 0.9946376 0.02479643 0.7897458 -0.41701505 -1.2308862 0.7412531 -1.7287183 -1.861652 -0.49768987 0.0540044 1.0324203 0.5611594 -0.27425492 -1.1727949 0.010428444 1.1905144 0.22546758 
0.15055126 0.03757877 -0.6337076 0.59361464 -1.6468427 0.13515182 0.45556706 -0.38435462 -0.17745121 -1.0915735 1.1952808 0.37454394 -0.6629244 0.23258592 -0.35450396 0.24388592 -1.3436085 0.4034571 -0.53141713 -0.76446146 0.91294384 -0.7179339 -0.84015924 -1.2347263 1.2557642 0.0456897 1.1848593 -0.8819734 -0.02414949 -1.1845969 -0.6900221 1.1130639 -0.84937805 0.06475804 1.0800986 0.9224101 -0.2844018 1.0221647 -0.31545934 -1.7617033 1.7398936 1.1095573 -0.88057595 -0.4864285 0.046160907 -0.9478896 0.7869479 -0.85885996 1.2751887 1.3524193 -1.3303021 0.2371441 0.14439596 0.8738465 -1.6134076 -1.0388016 -0.6246972 0.36867937 -0.9705081 -0.8060645 0.3152751 1.4501674 -0.040225282 0.6127111 
-1.1562402 0.15671128 0.44962838 1.0885897 -1.6733259 -1.4408408 -0.69861066 0.9674276 -0.32666144 0.80800563 0.032535527 1.7561957 -0.30898187 0.37166506 0.5667085 -0.5348582 -1.4541569 0.8155601 -1.0244162 -0.9249026 -0.9845772 -0.568291 1.0096934 -0.6238788 0.6406318 -0.41708714 -1.2194028 0.4136366 1.1258616 -1.9178705 -0.46398368 0.9311392 0.950855 0.25435778 0.85675305 0.14712681 -0.13549161 1.5071135 -1.2116073 0.8789309 -0.049940888 -0.9319169 -1.6955488 0.2844046 -0.67820984 1.6794035 1.1146469 -0.041518338 -0.005908139 -1.4695215 -0.3538733 -1.6249529 -0.051895812 0.24788563 -0.4016208 -1.0981798 -0.31572738 0.55477506 -1.9274392 -1.352235 0.9362297 0.3116619 -0.5620665 0.95590407 
1.278331 0.5379896 -0.3466966 -1.0559164 -1.3287219 -1.4941028 -0.2891214 -0.9601977 -0.8243262 -0.16410051 -1.8544226 -0.49890342 -0.9409253 0.8416078 -0.1564475 0.8261565 0.7127056 1.3793256 -1.8610263 1.6910579 -1.6409194 0.6907422 -0.0738414 -0.8781632 -0.20108184 -1.6004913 -1.3474876 0.6881726 -0.13887887 1.3492597 -0.8916357 0.790505 0.63393617 0.25590092 0.18424109 -0.20757829 -1.0268334 -0.39807546 0.10340276 -0.16347718 -1.0178351 0.3670064 0.6942259 1.7899566 1.5819519 -1.8896728 0.43129817 -0.99944705 -0.33748 0.57975024 -1.2391069 0.2616455 0.9037268 0.35433173 0.31165603 -0.47839704 -1.0351188 -0.22580855 0.21536316 1.7931361 1.7679625 -0.63872665 0.04167288 0.9463242 
-0.008287754 -0.085002586 0.07752706 0.027262472 -4.928606e-13 -0.0064254156 0.050990086 -0.14316207 -0.102735475 -0.1122601 -0.055418037 -0.008057685 -0.043475572 -0.06836005 -0.17463571 -0.030597975 4.749612e-26 0.030735264 -0.10096838 -0.05060938 0.3920142 6.3370646e-07 0.19830623 -1.7416436e-31 -0.017437812 -0.11073458 -0.00655201 -0.19511268 -0.38970563 0.00601812 3.861958e-06 0.0015746368 -0.017106572 0.000655974 0.0046962583 -0.031332456 0.010462199 3.8592148e-06 -1.2793354e-31 -0.004295462 -0.10326313 0.052645765 0.05846761 -0.087208 -0.05707331 -0.0017802644 -3.003528e-31 0.12334704 0.02732242 -0.04881279 0.07971 0.0841687 -0.015040456 -3.8777865e-12 -0.18016356 -8.032122e-17 0.046973806 -0.046818733 -0.06317544 -1.7165347e-21 -0.0015114921 -0.05875265 -0.012028517 -0.025518978 
-1.8404725 1.1817023 0.20954452 -0.7658169 1.1249354 0.51011735 -0.82691723 -0.070754744 1.3609264 0.35841373 0.7841913 -0.4914105 0.4023344 1.1058725 0.30889085 1.5478761 0.029928684 1.248448 -1.2263287 -0.67382425 1.3473504 0.8194473 0.8529277 -0.10344464 0.299293 0.4820559 -0.0058026514 -0.5554195 1.1370851 -0.24500501 1.7986267 0.109459855 -0.021748459 -0.43631846 -1.8160938 1.3131853 -0.7446863 0.1712652 -1.019143 -0.15641324 -0.3443881 -0.062165532 -0.052582193 -0.21089165 -0.68556076 0.08816829 -0.17521298 -0.12132636 0.2644515 -0.52027196 0.98208004 0.36316276 -1.8040588 0.8065079 1.0342624 0.13990635 0.4272429 0.70784223 -1.0059958 0.18974088 0.65708214 0.2795642 -0.38007435 -0.11125234 
-0.38502854 -1.0785843 -0.1821347 0.30704755 0.6991619 1.4297587 -1.1327703 -0.8107643 -0.4701636 -0.7827524 -0.39615813 0.7945322 0.5650892 -0.43235338 0.8554472 -0.20663638 -0.496083 -0.1416455 0.35058132 -1.0402026 0.29860416 -1.3633069 -0.9080802 -0.2159094 -0.18210663 -0.536213 -0.8859372 -0.008682554 0.4283013 -0.31722492 -0.51066124 0.19100802 0.25498146 0.3203381 -1.801245 0.44255883 0.7605369 -0.73392314 -1.5512753 -0.002821567 0.4647323 0.49299017 -0.30558765 0.073835105 -1.1754798 0.14640978 -0.3630088 1.6206288 -0.07430728 1.0016702 0.38148955 -1.1409874 -0.2307531 0.41740337 0.71534085 -1.0618587 0.52721107 -0.2081333 1.25602 -0.059145004 0.86284316 0.63799465 -0.9766889 -0.41247365 
-0.23657271 -0.36403224 -0.23306003 -0.11662399 1.6699486 -0.8496174 0.19850187 -0.15025307 -0.400515 -0.66928375 0.16853946 0.41718516 -0.47628608 0.32565913 -0.3092475 -0.7584702 1.3582166 -0.13392578 0.68364185 -0.93806916 -0.50617415 1.2766752 0.39910707 1.3619968 0.9570017 -0.5079566 -0.47101077 1.4770842 0.3462197 -0.97049224 -0.28450343 1.0611639 -0.9026756 -0.44053727 -0.26757446 0.7321441 -0.39927134 -1.1654996 0.70089984 -0.89040476 0.103457525 0.5202855 0.5468848 -1.499045 0.86815745 -1.9907156 0.79593396 -0.24579112 0.159289 0.13221753 0.07142252 1.2325 -0.08596253 0.41437185 -1.152283 -1.1942928 1.1447579 -0.15084916 0.98588604 -0.8565177 0.03791769 -0.9612966 0.98558676 1.6562599 
1.696594 1.614542 -0.48103264 0.20781456 -0.29973516 -0.83932674 -0.5973169 -0.5686073 1.2992975 0.40949515 0.53388596 1.7834368 0.2465337 -0.36954248 0.84298944 -0.5376169 1.7772232 -0.33186993 1.5554185 -1.4679838 -0.5032002 -0.48943964 0.84398574 -0.9185526 0.8832113 -0.26119906 0.15395458 -1.750295 0.94248235 -1.0925468 -0.094248906 -1.2129781 -0.6426949 0.1730067 -0.36801854 0.665943 -1.619112 0.017863315 0.5598762 -0.27321512 -0.43961072 0.48473382 -0.4346063 -0.46661416 -0.82109153 1.5213606 -0.12872432 -1.1659794 -0.37054554 0.38532558 -0.22724181 -1.2675048 1.0520923 0.6429985 -0.44151893 -0.6487003 -0.21722737 0.048239518 0.35031214 0.28836074 1.4150666 1.5205677 -0.57066715 -0.6697562 
-0.41107467 -0.90247405 0.13041009 1.0463364 1.8020782 0.3168719 1.3648578 0.9057805 0.92807645 0.93765134 0.58733964 -1.1416129 0.652898 -0.783765 0.32684115 -0.7593275 -0.62503874 0.48602954 0.55087125 -1.3079393 0.7651 0.2390015 -0.4719618 1.5182638 1.3809838 0.14762528 1.1163849 -0.25633273 -0.14992128 -0.62508017 0.3258103 -1.6461074 1.627563 -0.010641203 -1.016768 1.6684244 -0.5612873 0.86047596 -0.04522545 -1.4543352 -1.2484279 0.95790654 -0.30769014 -0.24302657 -0.07865111 0.75250244 -0.1490791 0.42733422 -0.6853064 -0.9360025 -1.0846357 -0.32206267 0.37342444 0.8381176 -1.069991 -0.4033017 0.29540992 1.2620355 -0.15160944 1.3548567 -0.06437346 -0.6644981 0.525814 -0.7412746 
-0.09791757 -0.68489814 0.56756544 1.761405 0.42657915 -0.46094817 0.17699435 -0.1911929 1.6583463 1.16134 -0.8464751 1.3437722 -0.35831746 -0.19314218 0.26750374 -2.0153363 0.884383 -0.40865025 -0.15753227 1.2850314 -0.2397511 1.0534106 -0.84912145 -0.43619218 -0.010181564 0.5727631 -0.13426498 -0.81173384 -0.35411155 -0.05196016 -1.501569 1.0236219 0.3773622 -0.55068666 1.1884539 0.82807493 0.46855766 -0.27541563 0.070517845 1.2909914 0.79802454 0.75656193 -0.04449788 -1.3281884 -0.8626941 -0.5997838 -1.2965659 -0.93041724 -0.998363 -1.1234088 -0.646694 -1.5648403 0.010943103 0.16362402 0.013222529 -0.1321626 0.17611016 -0.81870574 0.71375966 1.2135991 -0.17481661 1.8452586 0.42330155 -0.46256173 
0.29133812 0.02507242 1.305081 1.1064805 0.6520871 -1.5357207 -0.35174468 -0.62712157 -1.160521 0.81260425 0.178762 -1.8349657 1.5833305 1.2377682 -1.923554 -1.294998 -0.54929066 -0.043415595 -0.7136041 0.46417254 0.9928704 -0.027295439 0.49259004 -1.0760179 -0.81669194 0.8933374 -1.0547768 0.9524773 1.1563095 1.1456991 0.32459348 -1.7320058 1.5629209 2.044383 -0.33334967 1.6584383 0.8766339 0.65527505 -0.83286417 0.4811173 0.8493638 -0.90492094 1.945542 1.1875817 -1.7367247 0.07645217 0.009963462 0.23025534 0.09193946 0.27637535 -0.21702006 -0.16446835 1.1199099 -0.07535422 -1.8164524 0.18522677 -0.45448008 -0.19281021 -1.4435203 -0.4569209 -0.045117784 -1.614236 0.29080206 -0.32299584 
-0.15916526 1.0355166 0.64495534 0.12166411 -0.3313363 -0.046749495 -0.9127379 -0.4988802 0.527731 0.68920326 -0.1166709 0.3434293 0.09642148 -1.1383021 -0.3107585 -0.34497708 0.9322369 -1.1833497 -0.6591108 0.0005734331 -0.8607631 -1.8503301 0.3449961 1.5827706 0.74412817 -1.5478178 0.078578115 -0.75977594 -1.2253275 0.17761166 0.5307015 -0.8219916 -1.3947026 0.50264376 0.041508276 0.09607255 -0.19644119 -1.52392 -0.8504815 -1.5410485 0.6309076 -1.3107688 0.4117675 -0.12735389 -1.0261097 -0.18068205 0.6660381 0.5238723 -0.3939751 1.1515981 0.34273323 1.5313056 -0.4024631 0.042623725 0.2786207 -0.4285236 1.9807965 -1.07921 -0.543208 0.57670015 -0.34431008 -0.6973636 1.1529952 1.4898971 
0.5578833 -1.4690871 -0.7755784 -1.1860582 0.25373682 -1.0606498 -1.500259 -0.612129 0.49134764 -2.050216 0.8232178 -0.22256261 -1.3712043 -0.65400386 -0.30207783 -0.584166 -0.9627268 0.5560626 -0.59978986 -0.20361632 -1.0657022 -0.22030413 0.7984382 -1.397191 0.68833506 0.06426387 0.45508286 -1.1287562 -0.8825309 0.4387798 -0.23998404 -0.26798344 -0.3674077 0.7007828 -0.86011523 0.25823897 -0.16693342 1.2967014 0.14300779 0.10379534 0.9613448 -1.6219769 -0.8015608 0.7715803 -0.36972433 0.5313784 0.23661448 -1.6091161 -0.75800735 -1.5624799 0.8272929 -0.23964965 0.0488599 -0.049709816 -0.503643 1.6523925 1.8718193 -1.0012957 -0.59691656 -0.10220349 0.35859233 -0.5279572 0.5318883 -0.5326533 

-1.2906009 1.8526592 -2.151722 0.97353464 -1.1530304 0.5484208 -1.4255102 -0.04555189 0.66106695 1.6222918 -1.0218452 0.014508489 -0.34214112 -0.17652567 -0.74331367 -1.5237898 -0.9060049 0.877633 -0.44356972 0.40436077 0.8660999 1.8624129 0.032240577 -0.36454478 -0.5115114 -0.13669994 0.13568847 -1.2893564 -1.2271258 -0.40674543 0.7480857 0.37356266 -0.16417457 -0.8808356 0.5695449 -1.3535875 -0.14373745 0.2535246 0.76086205 1.0187044 -0.060273476 0.13619736 -0.3152768 0.8453392 0.45811376 1.3586227 -1.467023 0.43951246 -0.71177834 -0.9802714 0.11216473 -0.7025317 -0.32535622 0.511095 -1.1761434 0.89858574 -1.5749295 0.20230193 0.46787742 0.07378687 0.0055325683 -0.16938482 -0.20255512 -0.86731046 
1.2786633 -1.2017536 0.37422583 -1.3010645 -0.7703855 0.6813525 -0.5145704 -0.10402191 1.09327 -1.2593448 -0.3744607 0.010293613 -1.1155174 -0.7325504 0.46379295 -0.36619937 0.52854115 1.5991973 -0.9756293 0.4509474 0.279117 -0.44270393 1.0334224 -1.3012722 1.0836165 -0.2953383 -0.52425826 0.18920386 0.05975955 0.8481465 0.6225624 0.42170593 -0.39319992 0.76171905 0.5172509 -1.574431 0.7955368 0.08570622 -0.07451251 -0.2874455 0.05280023 0.9204547 -0.10204185 0.35298893 1.40565 -0.32078952 1.252965 -0.8660942 -0.52905244 -1.0933044 1.8565229 0.022721322 -0.39372736 0.5476999 0.5797801 0.50486374 0.66414815 -0.11534929 -0.2221916 0.55767787 0.27762964 -0.9500565 0.7657634 0.5433841 
-0.78372914 -0.69590425 1.5084039 0.56143814 -0.12347238 -1.7970159 -0.51444626 1.2414411 0.3262099 -0.24983545 0.4265718 -0.19043395 -0.3597385 -0.19486113 -0.084785014 -1.2687896 -0.1406928 -0.3970923 0.6411946 1.6071712 0.07484154 0.7655537 0.50028247 0.29496637 -0.68265903 -0.84289414 0.33292377 -0.6454652 0.38423553 -0.4429664 -0.7373708 0.70207435 -0.46412307 -0.0032777346 -0.6107643 -0.20491056 -0.561054 -1.4092318 0.15372123 -1.2958394 -0.17181666 0.95353425 0.15975548 0.49757516 -0.76206553 -0.94559836 -0.74063337 0.8943466 0.21949051 -1.169602 0.35326573 -0.49913788 0.6465167 -0.14713791 -0.87189054 0.31681868 0.2789311 -0.59114945 -0.80296427 0.56524116 1.0378276 -1.4306252 0.86314845 0.7975875 
0.589449 -1.7991893 -0.613748 0.10773039 -1.9509218 1.2796174 0.4675606 -0.8981732 -0.25537238 -1.9709116 -0.33675104 1.2663897 0.7447854 0.5983896 0.03188657 -0.6816883 -0.9413469 -0.43691924 0.5702381 0.7552737 -0.8429314 -0.9805342 0.453619 -0.82668746 0.1279944 1.5990657 1.9052069 1.3912444 -1.838313 0.06236916 1.3556064 0.19834523 0.40824175 0.6640502 -0.6846066 0.4770851 -0.5783522 0.09340994 0.064855255 0.6570742 0.6584146 0.28664395 -0.080837674 -0.050024442 0.49681857 -0.12951249 -0.57487357 1.0809962 -1.5644429 -0.9324116 0.627939 -1.6480592 0.5025584 0.7150395 0.25593054 1.0904331 0.13425258 0.63615507 -0.15665437 1.3610771 -0.73628455 0.2433258 -0.7413949 0.92819846 
0.682582 0.7307721 0.65213144 1.20504 -0.40320823 0.30080268 0.6532227 1.62988 -0.23407356 -0.3773426 -0.32796696 1.1471555 0.9390219 -0.4935823 1.3293455 -0.8054448 -1.1792781 0.7060981 -0.14093207 0.32202804 1.5933543 1.4513568 -1.7388635 0.15627849 0.7837921 0.022055278 -0.62442476 1.2940637 -0.44207752 -0.572634 0.72423875 -0.477285 -0.07701545 0.6198776 0.19174574 1.933231 0.056626678 0.65908265 -0.27457836 -0.7352856 -0.53673714 0.1517775 0.92558783 -0.17058276 -0.72900474 1.3897446 0.008944387 -0.83812344 0.36913672 -0.41449234 -1.3671858 1.7196755 1.1651893 0.865401 1.1688396 0.5927181 -0.47308972 -0.8182467 -0.88716084 0.08170842 -1.4898118 0.15304625 0.45347244 0.4158836 
1.6925584 0.2423154 1.4532572 0.7323417 1.2605381 -0.5173868 -0.57777166 1.187995 0.5111682 -0.5053078 0.5262653 0.042037778 0.6932355 1.0554916 -1.2024428 -1.9627341 1.61717 0.21090569 0.9850319 0.2960743 1.6543916 0.38126215 -0.4731505 -1.5285299 1.4263066 -0.49455142 -0.77791935 0.0024765052 0.5730249 -0.6807878 0.4101404 0.8062888 -0.8569605 0.3395094 0.60491675 -0.33827582 0.32942826 0.7838339 0.78809017 -1.2773988 -0.011832878 0.36414465 1.783185 -1.9800141 -0.8997531 1.6339209 0.98206013 1.2323635 1.1923062 1.377769 -1.207288 -0.48931384 -0.7403964 0.5483002 -0.100135796 -0.5054175 -0.65405506 -0.17762877 -0.31763422 1.1652684 -0.06223745 -1.8006632 0.919398 -0.5681058 
0.92425007 0.6998281 -1.0823059 -0.20217322 1.3795215 1.2261022 -1.1829255 0.17952026 1.0818204 0.5348354 -1.5113909 -0.063847855 -1.3370781 -1.0713017 0.50785816 -0.98757035 -0.25408265 -1.227859 -0.25640586 -0.42789 -0.33738327 1.4531142 -0.82993513 -0.95179194 -0.91327876 0.54374266 0.9401231 0.6146714 1.2789965 -0.0058265952 0.9366688 -0.96006984 -0.88648987 0.2887295 -0.9569231 -1.565712 -0.41696566 0.48650688 -0.6323337 0.46414098 -0.55018353 -0.82818586 -0.46471894 0.06992313 -0.5168102 0.7033057 0.08870803 0.22721797 -0.018707322 -0.39666384 0.52629405 -0.05515729 -0.75902426 0.34306464 0.3469907 -0.77570164 1.1166748 0.06203441 -0.23144254 0.86078453 0.5878854 0.9712841 -0.76879543 -0.25908256 
0.3082849 -1.63274 0.50353163 -1.494467 -0.09233793 0.6661918 1.2728776 0.36834654 -2.0282638 0.68759924 -0.73909223 0.40012404 -0.42936113 -1.0180424 0.511306 1.2476485 0.24957798 -0.33700266 0.34982574 1.2930126 1.3965659 -0.11639665 0.0030762157 -0.5357304 -0.5701804 0.83859855 0.59732765 0.18503082 1.254851 0.81064457 0.6017509 0.2842537 -0.32814792 1.2209361 0.38211238 0.54307806 1.4100947 -0.29160947 -1.4476084 -0.014045497 -0.72246844 1.1449318 0.85491276 -0.48104054 0.81076473 0.71515626 0.8338552 0.31473935 -0.75612307 0.6577055 -0.39340258 -0.4290868 -1.3624977 -1.3208716 -0.48404303 0.14182334 -0.52933455 -1.8424424 1.3161318 -0.435707 -1.1433008 -1.787915 0.20081459 0.6067439 
-0.49781433 0.7381416 0.7044589 -0.25346637 -0.15458214 0.014237559 0.34983274 -0.6269665 1.3496928 1.2559828 -1.0153102 -1.5269389 -0.25323403 -1.595909 -0.47610044 0.33684433 0.18260528 -0.50177187 0.3019013 0.36041275 0.011634979 -1.3925931 0.18732099 -0.3880486 -0.6420425 1.2797195 0.12254838 1.5646482 1.6456255 0.9687372 -0.6938837 -0.7782775 -0.8863621 -0.6930116 0.75891113 0.15516677 0.19831342 0.5463289 1.2203407 0.022469604 1.5164284 1.1655464 1.9618905 0.8940178 0.11960617 0.60947746 -1.1378195 -1.3080673 -0.7460248 0.09882576 -0.0775068 0.770487 0.4714838 0.92845476 0.1079882 0.739463 0.61867166 0.0073230932 0.3682722 0.51119745 -0.34759578 -0.16830377 -0.8991237 0.779201 
-1.153625 -0.73494774 -1.6183071 -0.50290656 0.236033 0.20150274 1.1202831 0.50749576 0.5965438 -0.8414689 -0.5507237 1.2124335 1.2882724 -1.0972656 1.3319752 1.7614639 -0.25171274 -0.052520018 -0.25781485 -0.5180261 -0.4814154 -0.2866864 1.7009203 -0.065969296 0.38735512 -0.04339099 1.3698906 -1.1706325 0.28799736 -0.57769847 0.21346132 0.17797023 0.45030415 -1.5919224 -0.79456615 1.0450492 -0.5501895 -1.0569047 -1.3799363 -0.7265036 -0.7587751 0.83341765 1.6293428 0.70533913 -0.6316521 1.1912373 -0.503378 0.8348389 -0.60822296 -1.9283713 1.9448729 0.27626914 1.0275391 0.83558124 -0.21776518 0.82349664 -0.41342068 0.7976693 -0.19998208 -0.60092366 -0.020634172 0.9639046 -0.64343065 0.23687059 
0.43270415 -0.8372463 -0.7539547 -0.12493793 -0.80481887 -0.44918776 1.1986737 -0.49022752 0.81095165 0.9725743 -0.07357497 1.5844394 1.43612 -0.16020223 -1.5886701 0.017697185 -0.7056957 0.6863136 -1.109828 0.5553958 1.607892 0.98950076 1.0405579 -1.0521284 -0.21614756 0.83475 0.15474954 0.5534193 -1.3118228 -0.403133 -0.79134506 0.98107284 0.66080296 -0.30677545 0.59956336 0.6104029 0.92505336 0.21039198 -1.0543847 0.6171563 -0.8798713 -0.2829486 0.40227765 0.7535668 -1.2869314 -0.9326559 0.3852034 1.3161087 -1.4827441 -0.7900338 0.3780236 -0.32000923 -1.5180495 -0.21284515 -1.2217555 0.41110763 -0.4447557 -1.8701618 0.024982926 -1.243951 -1.8524731 -0.9140363 0.16432486 -1.3482208 
0.73552454 -0.66506636 -0.65785617 -1.7615244 -1.9221641 0.58328515 0.03075305 0.59681106 0.014273453 -0.17788236 0.75614464 0.0964591 -0.011943414 0.74389505 0.17046869 -2.0681891 0.24663213 0.6227969 -1.1449213 0.6371581 -1.7860821 -0.11262358 -1.8611635 -1.4983921 0.5037953 1.5313047 -0.69798696 1.8282849 0.7660823 -1.4441448 0.19925833 -0.5796553 -1.1156416 -1.1444782 0.9039605 -1.0086234 -0.8113062 0.10144695 -0.31632417 0.42637044 0.37603715 0.015358125 0.6242286 0.46363503 -0.8842383 -0.72882867 -0.7682269 0.7262731 -0.9739744 -0.05411008 0.13232684 0.9763666 0.18518108 0.061042063 0.7606835 -0.5801213 1.3447151 1.4915686 -0.29970652 -1.0647684 0.21330173 -0.5736238 -0.9566018 -1.9368732 
0.72832173 -1.0704397 -0.74093044 -0.8686179 -0.9991897 -0.64429194 -0.36302418 0.40411994 -0.68251526 -1.2894202 -0.030225668 0.17948046 -1.0483992 -0.9920357 -0.9517115 0.47013065 1.1972259 1.5693191 -0.9392662 -0.99299294 1.2381649 0.1249325 -0.16460611 0.6239571 1.4828248 1.6033655 -0.95009446 0.6616181 -0.33694673 -0.5516396 -1.1381376 -0.64686096 0.23842566 1.2813909 -0.7576584 -1.5609771 1.2402866 -1.0061855 -0.27500483 -1.5380933 1.1533253 0.4073102 0.7005934 -0.023345426 0.11927107 -0.5644293 -0.32814932 -1.2874501 0.2276259 -0.24683318 -0.25311026 0.58785444 -1.2833743 1.059273 -0.0070223045 -0.018039607 1.1538798 -1.2950524 -1.0324953 -0.10836524 -0.69720393 -0.14725204 -0.93881696 -0.020968322 
-1.0063524 1.1915195 0.14190267 -0.9785525 -0.22969124 -0.31149235 0.062838286 -0.6524829 0.7349817 -0.43843004 -0.113259085 -0.55186266 0.7797788 -1.7863095 1.0012248 0.09077748 0.07422174 -0.5759925 -0.09493265 0.39336744 0.48233187 -0.14700589 -1.6214497 -0.40235218 -0.0792761 -1.037637 0.6773081 0.06482539 0.14591563 0.7945981 1.3982122 0.028316943 0.63917196 0.40924388 -0.4291323 0.7357547 -1.3268274 -0.0027792004 1.2221268 0.33583322 0.39568117 -1.3995552 0.5315378 0.94087136 0.008692109 0.6719503 -0.17060247 0.29786187 -1.3533604 0.036707893 0.5184235 0.36222985 -1.1265988 -0.3980511 0.849153 0.5823954 0.60545933 -0.29384857 -0.13255826 0.592588 -0.8867012 0.94598895 0.3463886 -1.2874918 
