0.15279247 -0.005753453 1.4676291 0.8701635 0.031019194 -0.89768595 0.1234227 0.3348993 0.7663039 0.5420706 0.845447 -1.0420151 0.76536375 0.34273317 1.3574692 -0.06316037 0.5699801 -0.22008385 -1.155942 1.6957483 -1.5910249 -0.86193764 -0.081755675 -0.18728527 -0.0448335 -0.7278855 -0.5054023 1.436984 0.044220712 0.83058596 2.0919449e-32 -0.2503711 

-0.16857015 0.8445872 0.3354637 0.16074228 0.23161253 0.17864272 -0.24896324 -0.42790458 -0.6534759 -1.6380856 -0.604447 -0.03471547 0.57535416 0.45089298 -1.1665174 -1.5416576 -0.42963898 -0.2291518 -0.14974116 -0.9238598 1.3781652 0.4620436 0.37163928 -0.91564673 -0.47978142 -0.45755154 -0.21375671 0.08034398 -0.7214134 0.66863775 -1.6074537e-32 0.7829688 

1.1600785 -0.27120885 0.17168245 0.48093313 0.6010112 -0.7381788 -0.042561647 -0.031045295 -0.55680704 -0.06247101 0.4902004 0.7589358 -0.24814776 -0.5748996 0.33668458 -0.7556566 -0.18605971 0.1500896 -1.011911 -0.9870024 -0.16487944 -0.842368 -0.1764237 -0.94174844 -1.4843335 -0.9857677 -0.6297676 -0.8411204 -0.7293927 0.33776182 2.7970162e-32 -0.41948766 

-0.80299723 -1.0871468 -1.5908942 -0.63025075 -0.32097316 0.23427454 -0.20699687 0.70328134 0.019222662 -1.6671653 -0.3453071 -2.0057642 -0.15381746 0.8433577 0.06161748 -0.8287928 -0.8946364 0.09877841 -0.4392714 1.0181326 -0.69717467 0.38971728 -0.16864294 1.1162686 -2.1026132 -1.3329186 -0.17891085 -1.1075357 -1.1673167 1.705783 1.7520082e-34 -1.3879342 

0.06491126 1.2620375 0.6796857 -1.5608423 -0.2847382 -0.5268994 0.94986206 0.44069073 0.05011369 0.23042713 -0.28538266 0.37650758 1.1020166 -0.70441324 0.29672587 0.2220729 -0.44628096 -0.7811738 0.24484892 -1.1312332 0.8805027 0.6957198 -0.69202316 -1.2042314 0.4922632 0.54500633 -0.35855028 -0.2889764 -1.352375 0.6551357 -1.9778576e-32 -0.8181141 


-1.4731255 0.964929 -0.2073345 -0.82798105 -0.34107304 -0.7496738 0.24903497 -1.948594 -0.54512477 -1.0227436 0.6913718 1.4451795 -1.2253534 0.781674 0.82479525 -1.5478485 0.44093838 0.15870114 1.1766622 -0.6437207 -0.07280812 0.72330725 0.8024372 0.24358602 -0.23439763 -1.1320039 0.86888444 0.4865991 -0.38263258 -0.86006635 -7.580501e-33 0.68407696 

-1.4812797 0.89835685 -0.6828921 -0.009710469 -1.6713822 0.043880235 0.543331 -0.073900424 -0.43998227 0.0068384013 0.26211897 -0.67537415 -0.08085675 -0.17658524 -0.27626988 0.17249238 0.63547695 0.6245102 -0.39866978 -0.75514364 -1.1518838 0.08673244 -0.94632214 -0.2988982 0.10485795 0.61108696 -0.79966074 -1.5780731 0.42875892 0.19425172 1.4582936e-32 -0.033891346 

-0.12284383 0.19677295 -0.5452883 -0.1320638 -0.20607503 -1.4491503 -0.50562876 -0.23569696 0.6086567 1.0770186 1.0093168 -0.059569184 0.21456335 0.76148486 -0.10987562 1.0733143 -0.9749159 0.59933555 -0.47804305 1.1469673 -0.21438988 0.82282573 -0.18348657 0.25213572 -0.89567524 -0.6499058 -0.12187804 -0.6612334 0.5919334 -1.4466137 4.106195e-33 1.1283563 

0.68377346 -0.32114214 1.0132788 -1.1732701 0.3531488 -0.6384493 0.42228937 -0.40960193 0.4386003 -1.1276658 0.88476825 -0.015239004 -0.2552703 0.37118235 0.4066229 0.8462474 0.7642961 0.6984052 0.3578159 1.6909782 -0.393914 0.5681419 -0.534718 -0.004898282 -0.30097002 -0.61314875 -0.15905207 0.37678185 0.781052 -1.5081303 -8.1009024e-33 0.45216817 

-0.7137992 -0.21100852 -1.2228718 -0.81599826 0.37859625 1.6971062 1.4550009 1.5222595 -0.7002482 -1.8460379 -1.4803433 1.6475492 -1.0320201 0.13155317 -0.24662666 -1.4691169 -1.1804925 0.65228766 0.30853742 0.25720817 -0.025072323 -0.703992 -0.31006172 0.0021412913 0.71817654 0.44820568 -0.58523476 -0.058206443 -1.3665882 -0.85342157 -1.419018e-32 -0.42393252 


-0.13200477 -1.8906583 -0.24295512 -0.73217744 0.76882344 -1.1678836 0.52150375 -1.6697174 0.13513963 -1.2226806 0.6897502 1.0921034 -0.31135827 0.89506 -0.16094993 0.9881845 0.27306286 -0.94007236 0.30830148 -0.033906817 -0.16121577 0.12055464 -0.53454155 1.3729535 1.1084232 0.40433943 -0.07608472 0.74949205 1.170299 -0.68830967 -2.4779237e-35 0.6325609 

0.53993434 0.0892233 -1.6090125 -1.5295552 -0.35640764 -0.5140407 -0.042796806 -1.3627149 1.254118 1.1991163 -0.22474605 -0.73245305 1.2502806 -0.86263067 -0.9608715 -0.35812634 0.2777227 -0.27802718 0.24352103 -0.041174177 -0.26010805 0.8300382 0.3095899 0.3600048 2.020991 -0.8154901 0.30320084 0.1122575 -0.49308434 0.15498905 -9.6638015e-33 0.98188657 

-0.067831226 0.69668746 -0.6524086 -1.1511265 0.62842363 -0.750864 0.5949781 -0.8300872 -0.057865735 1.1567758 0.21062082 -0.47355565 -1.2391 -0.87449735 1.0189326 0.65623426 0.27593115 -1.5708874 0.83748907 -1.4662185 0.22797358 0.9886356 0.2385359 -0.5864501 -0.9096043 1.3535823 1.0393229 -0.8852966 -0.5121216 0.31185225 -4.929977e-33 -1.5189097 

1.7683544 -0.6943618 -1.258995 -0.60823965 1.2711476 0.5603575 -0.33715793 -1.5693614 0.4623261 0.14854057 -1.2373534 1.30529 0.76260436 0.45509532 0.09898621 0.647225 1.3380374 0.8756474 -0.28289792 0.8023722 -0.6931221 -1.6153214 -0.18445966 -0.48011228 1.6683341 -1.5135885 -1.0865798 -1.2556298 0.9073962 -0.8948251 -1.4259898e-32 -0.32869127 

0.034029968 0.4201491 1.4505874 0.25769112 -1.1808474 1.3285437 -1.0428455 -0.26694015 -0.17254409 -1.0587538 -0.14452967 -0.28088596 -0.3082747 -0.5569668 -0.27000055 -0.7130315 0.21249543 -0.51192814 -1.0197303 -0.8304978 -0.3357169 0.08033375 1.4786948 -1.526096 0.4143362 -2.055936 0.10107224 -1.706361 -0.37053284 -1.5220274 -4.0858516e-33 0.6844635 


-0.20478639 -0.3138134 -1.8445271 1.3748677 -0.698007 0.02212601 0.053463485 0.662079 1.244131 -0.5521499 0.08684151 -0.3374151 -0.835997 -0.62830925 -1.2640057 0.67277366 1.0221357 1.5008471 0.48826578 -0.24923027 -0.54117405 -1.1701763 0.1601198 1.515633 -1.1897037 0.59659266 0.050011307 1.0007939 0.10361054 -0.91870826 -3.0655177e-33 0.91609937 

0.98446417 -1.034927 1.1424311 1.6936944 -0.3906655 0.8412658 -0.39020622 -0.78448576 -0.16014066 -0.71927446 -0.5507643 0.32488763 -0.36925974 -0.3483813 0.2670197 -0.21309312 -1.0506846 0.12250118 0.94661057 0.75288963 0.8619756 -0.22307278 1.4469537 -0.20957312 -1.335502 -0.11724515 1.072318 -1.281237 0.01553299 -0.56048125 3.3410888e-32 -0.5175111 

-0.37700605 -0.084270984 0.0031312227 -0.61019874 -0.7366228 1.3733456 -0.36262307 0.13380553 0.9305477 1.0776371 0.36028355 0.96011794 -0.87134236 1.1175714 -0.47888508 -0.6069058 0.7869408 -0.6570916 1.0096425 1.5035809 -1.3734341 0.42083696 -0.4439751 0.19476551 0.9427921 0.2427756 -1.2639236 -1.1499112 0.19621916 1.1535631 -1.0870922e-32 1.6485165 

-0.3840356 -0.32729483 0.45312274 0.27015445 0.5397144 -0.17297101 -0.8865923 -0.047990672 0.009319004 -1.047383 0.78524584 -0.9926901 0.39916912 0.009231935 -1.6403662 1.6295596 -1.6674538 0.19290616 -1.8264129 -1.2129104 -0.15855937 1.5408756 -0.22144166 1.3785775 -0.7720955 -1.2638581 -0.31671846 -0.36873612 -0.5354102 0.24395716 1.6453753e-32 -0.24775581 

0.87694633 -0.9951998 -0.52704656 0.31476372 0.31513953 1.2415725 0.7771858 -1.1173596 -0.5553782 -1.9829521 -0.41665813 1.192626 0.33547604 0.33220673 0.24110381 -0.50502354 0.72702307 0.4339361 0.6469361 -1.4583892 1.2454885 0.8944443 1.6115746 1.1663525 -1.7288456 0.38516665 -0.48373935 0.7996373 -0.58535284 -1.0788224 -2.614611e-33 0.8918501 


-0.31355357 -0.386908 -0.5227606 -1.7170671 1.0348765 0.9299172 0.9216876 0.34632745 -0.28490523 0.17473899 -0.12350493 -0.7634701 1.3560289 -1.2889543 0.47590354 0.47091138 0.4767777 -0.75382686 0.7726857 0.8189802 0.71181774 -0.18828906 -0.21184385 -0.31522176 -0.7637859 0.10495622 -1.268157 1.288267 -0.5682106 1.3252556 -2.521846e-32 -0.6226089 

0.6759116 -0.96181536 0.6316534 -1.2338349 0.19357082 -0.26113257 -0.9247834 -0.04949943 0.7153169 1.758191 0.1365702 -0.025808522 -0.7522064 -0.9173176 -0.6838032 -0.3325213 0.15749907 0.96287876 -0.21071103 -0.51541656 0.6523567 -1.7859305 -0.034335 -0.07359288 -0.70426583 0.14794387 1.4314349 -0.6987428 0.4174145 -1.0103128 2.5042097e-32 1.0038315 

-0.5156173 -2.0823226 0.24783786 0.7815026 -0.16680995 -1.3419625 -0.65964496 -0.2275505 -0.68147373 -0.95624304 -1.207039 1.4762682 1.8834399 0.3650677 1.2622864 -1.0461931 -0.36387926 1.086705 -1.2027813 -1.1981772 -0.33513966 -0.21826856 -0.30667716 -0.32668084 -1.6072657 0.035715416 -0.75550455 -0.17583597 0.35257787 -0.31970608 -5.4429767e-33 0.33336335 

0.55287474 -0.5448014 0.51829076 -0.44312248 0.2469133 -0.31792754 -0.85696876 0.9549656 -1.8126496 -0.7812322 0.6787046 0.7731495 -1.1491499 -0.49682167 0.95713264 0.65141356 -0.5161668 -0.7784201 -0.5718558 -0.7765703 0.2617031 -0.38879672 0.3758703 -1.0071783 -1.7469848 0.50264543 1.0262774 -1.0702826 0.64911073 -0.6119793 -1.5532386e-32 -0.575744 

-0.6357918 -1.907357 -1.9487745 1.5570238 -0.3218891 -1.1885858 -1.0428184 -1.3451941 0.7147848 0.12146896 -0.820242 -0.7940707 -0.9416626 0.0010141118 -0.81659925 0.3880226 0.10388772 -1.2248554 1.1951845 0.93493074 0.62875205 0.87705827 0.60556823 0.7751831 0.68156946 -0.20390035 1.2187858 -0.44090438 0.75064164 1.282941 -1.4411334e-32 -0.15977104 


