-0.9603571 0.33085772 0.08544069 -0.32883722 0.3204415 0.35852143 -0.6879959 -0.94997555 -0.31836903 -0.60626125 -0.5643667 0.6860272 -1.0446492 -0.46421382 -1.0780362 -0.9143918 0.51596355 0.5681087 -0.20583671 -0.35683462 -0.08637362 -0.3974663 0.31579697 -0.16374545 2.0913475 -0.9845332 -0.14307491 -1.8402344 -0.08807046 0.26129532 -0.57249373 0.0808057 

-1.1714196 -0.7127181 -0.1631313 1.40343 0.1041024 0.89705515 -0.68885326 0.105686866 0.65447617 -0.54442257 0.86812747 0.64717335 -1.1701648 -0.404151 -0.9658534 -1.294831 -0.3239639 0.1656661 0.53240585 0.023413088 -0.05303595 -0.5571981 0.30870518 0.95188445 1.6024573 0.69577724 -0.5882619 -0.7163005 0.25164366 0.6615005 0.84588534 -0.6421451 

-0.57383215 0.20130588 -0.8937206 0.06226197 -1.2096035 -0.94519174 0.6826344 -0.4970601 0.33358648 0.052378763 -0.0838393 1.268052 -0.11773955 0.39246526 -1.3839425 -0.118586056 2.9725235e-05 0.2013067 -0.31736502 1.2772092 -0.95021844 -0.84045833 -0.25737616 0.06829215 0.19283688 -0.27625522 0.10853474 -1.1793008 0.90471935 -0.6997151 -1.7939473 -1.3832432 

0.40042862 -0.3905537 -0.12836531 0.8318064 0.5756943 -0.23368394 0.3441831 -0.6806942 0.60389626 -0.24691698 0.25182343 -1.2147121 -0.48863712 0.13819824 0.9079117 -0.28027913 0.0010257621 0.23959215 -0.9215314 -0.43470988 -0.62479204 1.5540302 0.3179766 -1.0448698 -0.72528005 -0.26094666 -0.43085864 1.3743078 0.12894717 -0.31658775 -1.3055439 -0.021848135 

1.2889048 0.28835532 -0.24066603 0.64647704 1.0183015 0.8128729 0.38536733 -0.8918791 -0.44277263 -0.68256193 -0.399371 -1.0021055 -0.7271702 -0.9477681 -1.1378165 0.63948864 -0.007246228 -0.6226965 1.3945267 0.4256484 0.70124733 -0.1712087 0.34993547 -0.288478 -0.51398724 -1.1259296 -0.16767363 -0.932616 0.72658867 0.9540051 -1.3109016 -0.7795094 


0.703933 1.0697327 0.0034446423 -0.11327267 0.18292251 -0.2587095 0.47625792 0.27239984 0.11524293 -0.58518624 1.0234358 -0.7577184 0.185612 -0.8164208 -0.028998662 0.3559556 0.06271559 -1.1226324 -0.4765601 0.09791998 0.3384567 0.90833884 0.124474436 1.7563158 1.4907153 -0.17146403 -0.70596576 -0.73205876 -0.030533552 -0.2673355 -0.13709499 0.6302196 

-1.2299153 -0.4650652 1.267189 -0.6815657 0.12148881 0.18435329 0.3213896 -1.6464657 0.97946143 0.09037055 -0.57160735 0.8466359 0.5263328 -0.850571 -0.60910463 0.07028956 -0.102716036 0.18318036 0.03569534 0.107415155 -0.22984174 1.0180172 0.17143288 -0.21067047 -1.0732732 0.501839 0.34754243 -1.0805455 -0.00684417 -0.06569894 -2.0283895 -0.79602027 

-0.6927128 0.012457338 -0.10681226 1.5265163 -0.02943113 -0.67775404 -0.41960666 0.49561968 0.43245038 0.41620517 0.0051569 -0.4180555 1.431007 1.6141152 -1.9011092 -0.83712083 6.3679056e-33 1.0488687 -1.9247508 0.050114118 0.8262875 -0.79098105 0.35536522 -0.89750063 -0.9570654 -0.86325955 -1.3865054 0.8803558 0.1575665 -0.6753648 -1.1870899 -0.5198282 

0.8458183 0.5728847 0.4898453 -0.6013898 -0.6859165 0.41652337 1.0273376 -0.40692523 0.48400795 1.0564264 0.8090462 -0.59860283 -1.8025659 0.6171663 -1.0596801 -0.6808161 -1.1041177e-11 0.30287123 0.64152837 -0.56621057 1.1843778 -0.8451425 0.29899812 0.83407384 0.34468856 0.12917885 -0.59945405 0.4733859 1.283072 0.079874106 -1.3842747 -0.98939776 

0.67094076 0.91365385 0.24943617 0.18522957 1.3579916 1.7140541 0.2316613 -0.034175284 -0.23653905 0.8783535 -1.228205 1.1803133 -1.1097356 -0.78071475 0.7148069 -0.1285176 0.018123478 0.2336931 1.0708973 -0.37351575 -0.88314736 -0.15801327 0.0047120703 1.0359445 0.110013604 -1.1959251 -0.29404464 0.9935247 -1.5676783 -0.5049822 -1.0950401 0.7034798 


0.0058843903 0.12618975 0.108657055 -0.48142388 -0.90124226 -0.6608267 -1.2340224 -0.23398814 0.6275404 -0.5109272 -0.7815601 0.43396842 1.1981306 0.10878267 -0.889576 1.0728776 0.30293247 -0.06304431 -0.75670093 -0.48150584 0.65781313 -0.77528846 -0.76854753 -1.0407494 -0.39425084 0.83618647 0.26876596 0.17770626 -0.5240516 -0.31530795 -1.0774261 -0.7143146 

-1.5434328 0.5589373 -1.3360757 0.41659138 -0.79305226 0.10182817 0.53936887 -0.128017 -0.1268059 -0.6394217 0.10877742 -0.514514 -0.10753562 0.7226889 1.2786996 -0.44431484 -0.045852896 -0.9066555 1.2170151 -0.42345515 0.4997509 1.7021359 -1.3727822 1.0877489 0.46936104 0.3957873 -0.4923432 0.25316635 -1.0002991 -1.4589665 -0.008369409 -0.58603346 

-1.4406843 -0.8332047 -0.15367252 -0.5623654 0.1459272 -1.5089824 0.65661573 1.229258 -0.5102147 -1.4917705 0.6841306 -0.826903 -1.5209887 -0.9448228 -0.16014585 -1.779075 -4.309e-05 0.11599378 1.50022 -1.30244 0.22030409 -0.34377012 -1.363151 -0.97722 -0.99867934 0.790107 1.750784 -0.06950444 0.7144598 -0.5855384 0.21042386 -0.9950452 

0.13072692 -0.0782159 -0.09159023 -0.68192804 0.6143449 -0.30711892 -0.65211666 -0.101199694 -0.405841 0.20056623 -1.5733836 -0.09635894 -1.2508161 -0.44412723 -0.3334519 0.62759906 0.015511101 0.65734005 0.7868752 0.6821933 0.8716536 -0.122083426 -0.8145957 -0.33997715 -0.102282465 1.3348562 1.8471109 0.028173504 -0.1660963 0.1508339 1.5476171 0.161216 

-0.6567798 0.2735647 -0.12497303 -0.62977886 -0.01611997 0.38523886 0.9596327 1.1982746 -0.8970092 0.59086007 -1.8524226 -1.1177148 0.77981776 0.5204418 -1.345465 -0.5110799 0.022772912 -0.78082377 -0.7944219 1.4621967 0.015089172 -0.38093886 -1.2809819 1.1792159 -0.78233033 -0.70075494 0.61436164 -0.09350263 0.5067716 -0.34502658 0.5875109 0.7991932 


0.2794585 -0.403685 0.8455796 -1.4904563 -0.32366312 1.775715 0.3536104 0.41764054 -1.6533529 0.9819378 0.34555745 -0.3022562 0.8286434 0.009258117 1.069546 -0.28932717 0.23287457 -0.28140497 -0.4310612 0.17063339 -0.1031275 0.0107068075 -0.6575828 -0.23206095 0.14418028 -1.0289437 -0.0018723533 0.05231139 -0.687336 -0.01137368 -0.8052279 -0.8185084 

-0.10752729 0.6490051 -0.53784496 1.4883522 1.5252995 -0.9488597 -1.3546025 -0.0843293 1.4889369 -0.3951493 1.7409167 -0.77632296 -0.46766236 0.5516762 -0.34878337 0.5811852 -0.03886772 0.1700428 0.90979725 -1.3635699 0.24522631 1.0805877 -0.71612847 1.415676 -0.051669534 1.1946925 1.0544794 -0.68425614 1.0201429 0.7567976 -1.2033131 -0.017712412 

-0.87335384 1.4359949 4.8134378e-32 -1.306456 0.84887844 -0.9840029 0.092234515 0.46508974 -0.7289232 -1.2040373 0.24662237 1.1590371 -0.16669254 -0.32761714 1.6781096 -0.26361728 -0.021711113 -0.43146747 -1.3439163 0.5071039 0.19124644 -0.51047015 -0.545962 -0.33837813 -1.8373078 0.69190204 -0.35437536 -0.14767702 -1.721445 0.12175543 1.4035163 -0.42787328 

0.46009645 -0.12598999 0.009098222 0.18133458 -0.011453748 -0.59629965 -0.0016844624 -1.0028123 1.8348374 0.351312 -1.5202764 -0.7210919 -0.17646442 0.08713533 -0.29817593 -0.017191472 -0.032951687 0.22808862 0.6652088 0.31898746 1.0643721 0.48018315 0.840528 0.68083453 -0.24298954 -0.23658642 -0.7649135 -0.8370804 0.927392 -1.6260564 -0.01659799 0.274611 

-0.3578499 -0.7383797 -0.2342155 -0.8339734 -0.86502844 -1.0016899 -0.110341385 -0.79345644 -1.3702749 -0.19997396 1.1947014 1.7512319 0.11502426 -0.68268955 -0.5516461 -1.4566059 -0.29431736 -0.35705623 -1.2701361 0.03447996 -0.023970248 -0.024554472 -1.5330468 -1.842178 -0.7785212 1.3762078 -0.09825024 0.0051307017 -0.3117485 0.21456972 0.6549381 -1.016361 


-1.0620022 0.21496278 0.41249168 -0.19688259 -0.0935003 0.17008312 -0.14567982 -0.38055018 0.6513376 -0.15545855 -0.5428026 -0.74716514 -0.07369679 -0.43685207 0.19291025 -1.0643485 -0.100832045 -0.41101438 1.5753945 1.0006349 0.5168121 0.11481991 1.2116077 -1.052032 -0.22577868 0.24642219 0.5602551 -0.57083917 -0.6697476 -0.87657213 -0.4120613 0.17299578 

-0.20689394 -0.9630247 -0.6775084 -0.13049509 -0.5976187 0.052204322 0.47637975 -0.48235965 -1.0989754 0.983966 -0.78070194 -1.8855435 -0.92273945 0.42900145 -0.015907453 1.4121473 -0.20535597 -0.34957337 -0.8890077 0.79261196 0.19871227 -1.3186957 0.31575465 -0.1310097 2.1914842 0.40371796 -0.37960675 -0.57606333 1.0440654 1.2530091 -0.8134233 0.15138365 

1.3604609 0.26767522 -0.00769294 -1.1182313 0.17656358 0.8710727 0.3500162 -0.5961895 -0.24651417 0.6862426 -0.6594798 -0.6427465 -0.53755057 -0.59757644 -0.88779444 0.6221756 -0.46750027 1.0842131 -0.9667882 0.4373747 -0.010888631 0.46877125 0.8363907 -1.1979201 -1.0058559 -1.3662354 -0.87427735 -0.41529888 -0.058094367 0.58269936 -1.0191325 0.36905643 

-0.3724274 -1.3986921 -0.27786532 0.4515118 -1.2164751 0.23480196 -0.33056107 -0.21298608 0.87593126 -0.9948116 -0.9610978 0.3029432 -0.46689558 0.42792943 0.31570053 -1.0894165 0.7588815 -0.70721394 -0.1232402 0.44356525 -0.6832351 -0.3138306 0.57844913 -1.4696012 -1.0354989 -0.7072727 0.056347203 -0.52291596 -0.98045343 -1.5952432 1.6936318 -0.12218986 

0.40172696 -0.56900245 0.31423217 -1.111051 0.78397906 -1.0329382 -1.0259787 -0.7696968 0.32289958 0.6568601 0.14377615 -0.15327975 0.43687248 -0.85358256 -1.7317939 1.1699995 0.5420215 0.5126238 -0.29022524 0.49739867 -0.43558288 -1.0744133 1.0171089 -1.051259 1.3744026 0.9894461 -0.5573905 -0.63137496 -0.19108409 0.3169675 -0.60933346 1.1045337 


