0.081350245 0.77130777 -1.6560614 -0.8444931 -0.6917513 1.0060122 0.17936178 1.4332838 1.4021653 1.4656805 1.6361535 -0.63502485 -0.816237 0.9247728 0.33106723 -0.7900843 -0.02093858 -0.57270217 -0.17962252 -1.2321601 1.017704 1.474837 0.8544187 -0.40967 -0.5646475 -0.80865335 0.7331914 -0.5945391 0.8376117 -0.3858376 -1.0192989 -1.2345877 -0.65280247 0.2557808 -0.90357155 -1.2847366 -0.08884973 -0.54668784 0.08914414 -1.6576782 -1.9503711 -1.1421679 -1.3452706 -0.09819428 1.6237468 0.5720123 0.68161535 0.71025807 0.7613799 -0.27478066 0.5331693 0.4153265 -1.289701 -0.556493 1.7049749 -0.5090936 0.80440736 -0.3611516 -0.8551687 0.34192717 -0.28855628 -0.4629397 0.6998589 -1.8532282 
-0.88917965 0.32815766 0.14313248 -0.17047551 0.9115012 0.49083507 -0.71975684 -0.6195725 -0.04461357 0.5415004 -1.0324512 -0.5048694 0.4492581 -0.7733628 0.716687 1.0104512 -0.47144923 -0.33633056 -1.4680742 -0.1403736 0.40542835 0.22273216 0.7395658 -0.54727715 -0.8294272 0.023160895 0.10059384 0.4139987 -0.93329453 -0.87102294 -0.5134591 -0.33573097 0.7758114 0.41795403 0.85189754 0.024544805 -1.002111 -0.2097659 0.018708194 -1.4259071 -1.2302916 -1.4616909 -0.10165674 -0.63671863 0.29687136 -1.3458515 0.096387535 1.6453692 -0.47127837 -1.3750142 2.0777123 -0.13373674 -0.29052538 -0.39811113 -1.1837915 0.11472367 -1.4550139 0.8908849 -1.2552438 0.42805618 0.587589 -0.6557007 -0.28055498 -1.4620267 
1.320143 0.21931024 0.83299875 0.39586967 -0.7522564 -0.999024 -1.31322 -0.13740532 0.1720825 -0.068227306 -0.44399947 -0.1814057 -0.7713507 -1.1057876 0.44652504 0.2895831 -0.4631969 -1.7316132 1.264451 0.41473207 -0.052993886 0.18263781 1.5379703 -0.9728506 -0.58623314 -0.067285694 -0.9435185 0.14122215 -0.06821213 -0.2729518 -1.1362667 -0.04960122 0.74390703 0.115790196 0.5498223 1.2731766 -0.041852903 -1.6655068 -1.2184949 -0.26663676 -0.16499546 0.8929704 -0.6548867 -0.4276751 -0.5026995 -0.96027994 -0.100949 -2.0215306 -0.36466485 1.082954 -0.5020155 0.37671292 -0.87752324 0.36125246 1.6807233 1.4670999 0.40734932 0.37749282 -0.43403712 -0.27119064 -0.6669706 1.7471875 0.3862616 0.54412943 
-0.8675943 1.2382876 -1.0003753 0.8508137 0.79294956 0.8588846 1.4523789 -0.59891975 0.0634585 0.09161255 -1.243887 -1.5678822 -0.5292579 0.2765165 0.70427394 0.037957016 -1.3110083 -0.5031839 -0.37777245 0.8726793 -0.31003663 -0.051528413 -0.1973432 0.35490778 0.93468887 1.9682081 -0.20454885 -1.4805149 -0.053185668 -1.5989232 -0.6882192 1.0933982 0.70019704 0.9245988 1.4538194 0.14819063 0.2861833 -0.41667154 -1.412023 1.1970719 -0.07723376 -0.6097968 -0.6773098 1.5007461 -0.5016616 -0.8922649 -0.7094601 -1.255145 0.2490479 -1.2850399 0.72787577 -1.3363202 -0.3756928 -1.5950593 -0.5102788 0.5026515 0.08342934 0.14675923 0.03498755 0.9591503 1.0377772 -0.9209655 1.1393615 0.16715816 
-1.3961434 -0.76712114 -1.1772996 -0.65980744 -0.6905816 -1.2275844 0.5313363 -0.42822084 1.4200326 -0.29589728 -0.04474887 -1.2710071 0.05467696 -1.2499591 -0.4913715 0.9365602 -0.112963125 0.28714398 0.13114908 -0.014573555 0.694388 -0.50260943 1.3688567 0.5737265 -1.63771 -0.23108272 -0.98583776 -0.36625025 -1.1968466 0.3728944 -0.26531932 0.64734614 -0.58688825 -0.53486 0.80707896 0.42119718 -0.019164944 0.93787384 0.29516268 0.34776935 -0.15092546 -0.466634 -1.3992573 0.80057454 0.076970585 0.57520443 -0.08677143 -0.65513176 -0.9546239 0.10607776 -1.724775 -0.008383137 -0.43550226 0.58621305 -1.3977813 -0.59855396 -0.38896367 0.39169288 -0.17244935 -0.20637065 -0.8268177 -0.13030991 -0.21888623 0.46822217 
0.26290625 -0.12545764 -1.733337 -1.2013968 0.056098297 -0.56392074 -0.037060913 1.2509807 -0.55037695 1.4041932 -1.7391734 -0.11822184 1.1713655 0.25892326 -1.4949477 0.8479254 -0.23331219 -0.19011241 0.36029208 -1.2833602 0.19992313 0.67287606 -1.5275546 0.40427577 -1.3064108 0.42356864 0.6659591 0.7537611 0.06986339 1.7992086 -0.7804838 -1.2106564 0.27664492 0.48441008 -1.3854779 0.80409485 -1.0439719 -0.7185759 1.5933368 0.009937493 0.007573019 -1.5445899 -0.43752712 -0.24953994 1.4422742 0.18824236 -0.29626143 -1.4601865 0.46626678 -1.143194 -0.8945854 0.1240723 1.0839689 0.2563651 -0.41628176 0.2521182 -0.2945818 -0.548266 0.047134113 -0.9537705 1.3956982 -0.040860064 -0.49304268 0.5333152 
0.29331067 0.25075194 -1.0264689 -1.5112869 -1.1434201 -0.14612463 0.24705127 -0.01489738 -0.32034275 -0.30083597 0.34997964 0.20620301 1.0126868 -0.93450207 1.0451328 -0.88715905 1.2904694 0.90697634 -0.27890208 0.104687065 1.7662085 1.405854 0.5616677 -1.8350978 -0.72494054 -0.5404099 1.2023989 -0.5240712 1.1592858 0.1011162 -1.0784032 -0.15987585 1.2833556 0.14350428 -1.7553586 1.2062895 -0.7546497 -0.18562306 1.413949 -0.23922339 -0.22162901 -1.0729562 0.17253175 -0.7933162 -0.37066925 1.2838117 -0.95058304 1.0114194 -0.6177733 0.45989877 -0.33727655 -1.0538702 0.7421026 -0.6647754 0.1843386 -1.4200795 -0.39427832 -0.5674877 1.0687019 -0.076610036 -0.07005095 -0.8445258 0.4174668 -0.5929208 
0.70099276 -0.37233678 0.5078117 0.80122447 -0.045097474 -0.331379 1.5858831 -0.09816479 -0.081825316 -0.9209366 -0.11850807 0.9799689 1.0911824 -0.09831295 -0.79613054 -0.122680396 -0.9463911 -0.38038042 0.12398959 -0.3400476 0.3658627 -0.006012551 0.1280744 -0.75501704 -0.81665516 -1.6343961 1.5485708 0.35230938 0.15686937 0.3441134 -1.048857 1.7668463 0.9938719 -0.14182642 0.11198703 -1.4937508 0.910678 0.25121057 -0.62024087 1.5990038 1.0987 -0.65779155 0.6378093 -0.46568903 -0.45934469 0.8603354 0.02078977 0.4495958 0.71600443 -0.5418609 -0.052691545 -1.137344 1.0456507 1.4716451 -0.69312465 -0.12970978 0.46487057 -0.5069948 -0.5511834 0.55221456 -0.62786394 0.77971417 -0.83066225 0.84033686 
0.80712885 -1.0721241 -0.6908841 -0.20450678 -0.33279738 -0.2628817 -0.9719327 0.83853126 -1.0890219 0.61622554 0.22635584 0.24420047 -0.22632883 -0.086811595 1.5742413 -1.4706701 -0.98061293 0.5872625 0.59741795 -1.6098804 -1.2113765 0.17360108 -1.6684481 -0.55826515 -1.2151132 0.016623821 -0.42106873 0.19302219 1.158704 1.0930579 1.2830175 -0.42299065 -0.059307892 -0.9538258 -0.6304936 -0.551942 -0.9495384 0.32284498 -1.3785615 1.5636055 -0.42459568 -0.75526 0.41775382 1.5420786 0.061295528 -0.12790194 1.1373681 0.016270839 -0.19720402 0.5707504 0.9740457 0.032623783 -1.2041026 -0.0064217877 0.8971032 0.49494922 -0.37480542 -0.010668302 -1.2004638 1.0041344 0.5098065 -0.55579996 0.810471 0.30712393 
-2.1917508 -0.05037732 1.4217421 0.9601525 -0.22134794 0.7854459 -0.8645358 0.7033039 1.0190518 1.117904 0.68949705 -0.3251358 -0.4100925 0.35290378 -1.9955904 0.16696297 0.13204868 0.82777274 -0.6651396 -0.880765 -0.27847612 0.12560503 -0.06329113 -0.76864344 0.45375398 -1.5295762 -0.14389606 -0.8853417 0.15472803 0.047830988 -0.13895892 0.015852066 1.5702801 -1.2833635 0.0066954484 0.24098893 -0.16451117 -0.9363361 -0.43688434 -0.03305486 1.2048578 1.0062275 0.46402428 0.76600534 -1.5018189 -0.31380442 -0.023090707 0.76749283 -1.2447342 0.42217132 0.49161324 -0.16081487 0.57415396 0.59772956 0.024387632 0.48626158 1.2921687 0.9250545 0.42237073 -0.98299783 0.7427958 0.27652788 0.4496645 0.47447914 
-1.529898 -1.0622785 -0.3260538 -0.47557205 -0.3357709 1.054241 -0.6525228 0.7135162 1.4070094 -0.4407374 1.5331349 -0.13420501 0.3423998 -0.18581711 -0.15350968 -0.29830536 0.81446034 0.8420787 0.152559 -0.085932024 -0.8894457 0.3988334 -0.44797093 0.26956958 -0.5872224 0.2992631 0.05115325 -0.8079013 -0.32940382 -1.2658601 0.32077613 0.41971615 0.1371395 -0.7951084 -0.6461561 1.0375181 -0.042980794 -1.337472 -0.90395385 0.23779939 0.10697915 1.3278518 0.33098495 -0.92815745 0.30268133 1.2676045 0.99253 -0.4015559 -1.0345395 0.1567042 -0.12823442 -1.9590857 0.4183307 -0.60485965 -1.6796767 1.2232283 -0.90078694 -0.7079945 -0.7251631 -0.43454525 0.033016454 -0.14427103 0.18815054 -0.4096121 
-0.14743705 -0.23965034 -0.0029424848 -0.8002378 0.7673177 -0.24420282 -0.9828177 1.1001045 -0.3033057 0.21862806 -1.790275 -0.2183155 -0.73751134 0.537274 -0.4698551 0.5221949 1.1531537 0.43422 -1.2289915 -0.21142198 -0.71495503 0.33977497 -1.4028094 0.67108256 -0.23315844 0.44256648 -1.4204546 -1.2939514 0.4761203 -0.81760997 -0.9100451 -0.9399594 0.31394583 0.39111987 1.1420887 0.89376587 -0.3596814 -1.3169575 -0.50006026 -1.3267655 0.77296984 -1.3212765 0.98749137 -0.7487443 -0.21813749 -0.5669297 0.27446383 1.1355355 0.85892016 -1.5574018 1.4268314 -0.1600837 0.33424065 0.9724602 0.5175561 -0.32511973 -0.95178336 1.2545816 -0.5795668 -0.8535803 0.75763977 -1.1206071 -0.47954988 0.20612712 
-0.4372494 1.3281826 0.97515905 -0.72355753 -0.62429446 -1.1240368 0.67520475 -0.21182151 1.4397784 0.17520618 0.22609377 1.7070554 -0.9772537 0.53087986 -0.28808793 -0.8211685 -0.28353825 -1.1427132 -0.50316167 0.07510559 -0.951921 -0.675497 -1.1514429 -1.0159572 0.6399141 -1.110947 0.6821199 0.80700094 -1.1303666 -0.3382604 -0.2992443 -0.24949972 0.13895357 -0.49593627 0.7584375 -0.32708913 -0.24228361 -1.3860435 0.31126064 -0.523986 0.0027444204 -0.17669702 -0.976874 -0.9676182 -0.26312345 0.41622415 1.3082321 -0.13306673 0.4729686 -1.5834477 0.05747414 -1.7820456 -0.47096175 0.13209055 0.17694631 -0.7467478 -0.26148123 0.88819325 -0.438613 -0.38207716 -0.38040078 -0.033055764 -0.20394762 -0.45315108 
2.0618613 -0.15141878 0.6040359 0.8645065 -1.3370906 0.22697642 0.19823088 -1.9859463 -0.24658382 -0.5619294 0.22311482 -1.0294373 0.24117863 1.5015935 -0.17616971 -0.8047819 -1.047373 -1.6301869 0.480764 -0.81285006 0.34951678 -0.29693985 -0.42099404 1.3800901 0.4660414 1.800231 1.0108141 -0.4542152 -1.1766623 -0.025862707 -0.8567097 -1.7101434 -0.3410535 -0.07341173 -0.79035544 -0.7503833 -0.36932513 -1.705407 -0.86242884 -0.29418594 0.6402589 1.0760931 -0.021952989 0.45312667 0.4833169 1.3644502 -0.74268264 0.58759916 -1.0340697 -1.4197288 -0.0053860317 -0.8933151 1.6153458 -1.7502041 -0.15296856 -1.6263063 0.2664652 0.2820949 0.6218068 -1.1098458 -1.2316344 -0.105695285 -0.02267421 -0.169608 
1.5269775 -0.07023576 -0.12148422 -1.6515329 0.47631812 -0.47690752 -0.413515 -0.043446194 -0.99527985 -0.854635 -1.2822886 -1.0572587 -0.69196165 1.131517 0.6286599 0.037072275 0.90364236 1.2126967 -0.5165564 0.46073732 1.7299079 -0.5578936 1.3804495 0.6538634 0.4173691 -0.037720006 0.2635438 -1.216946 -0.14900032 0.353899 -1.4275045 -0.26879743 -2.0442512 -0.58985025 -0.9690952 0.7578543 -0.1574405 -0.43769062 -1.2224278 0.23580664 0.9169236 -1.3641351 -0.96119046 1.0503596 0.15774381 -1.1960353 -0.801755 0.89112246 -0.90830773 0.17571427 1.1930698 -0.24233669 0.231669 -2.044043 -0.57574743 -0.17934826 0.47681916 -0.7762132 -1.1880118 -0.084022 -0.09769723 -0.18175547 0.39205366 -0.4839458 
0.14389493 0.22710168 -0.010597727 0.4582604 0.7836488 -0.3422095 1.1585 -1.2745845 0.7370297 0.57349145 -0.87549806 0.12779915 -0.6761438 0.054830648 0.14917241 -1.0602045 -1.3684766 -0.24239552 -0.27873853 -0.011856398 -0.0098362565 0.016176496 1.5497252 -0.8472548 1.2412076 -0.20786645 -0.16915141 0.0055354233 -1.0880407 0.6014539 0.6914762 -0.31166378 0.40787295 0.039986238 0.55774236 -0.40101272 0.38214952 -0.3083531 -0.43035534 0.042856902 -0.6045941 -0.95102215 -1.1381601 0.4439642 0.43861917 -0.2124698 -0.47326282 -1.2298257 -0.4525252 -0.04270566 0.36629897 -0.99441296 -0.72035706 -0.13563475 -0.8149323 0.008577768 0.99416584 -0.19826087 -0.4397235 0.35040224 -0.08853661 0.99402386 -0.72876775 1.1734223 
0.8806576 -0.9690746 0.14082322 0.09593237 1.6549312 -1.2629995 0.76836216 1.266099 0.81123334 -0.6841083 0.5013868 0.57047474 -0.6399844 0.63048863 -0.82526606 -0.8826609 -0.44498402 -1.1023655 0.9798759 -0.91963845 -0.12469518 0.33291262 0.99447924 -1.4920782 0.8151316 -1.3067842 0.54264 1.6425024 0.04882043 1.2394357 1.0491792 0.29240215 -0.7694506 0.64550185 -0.6658552 1.2535257 -1.0572537 0.037491027 0.274268 -1.7212259 -0.60205317 -1.3868537 0.53586304 1.0458944 0.9080833 -0.3268582 0.29718673 -1.1582432 1.5780331 -0.53772974 1.3096876 1.5875521 0.2203053 -1.1673205 -0.6511216 0.5248565 1.4880244 0.028258918 0.39848232 0.21666181 0.9675251 0.6885587 -0.21623823 -1.0712342 
0.17675953 -1.8511037 -1.604493 0.5498501 -1.0144724 0.75287455 0.26198167 -0.21559921 -0.08074869 0.74541944 -0.06907719 -0.96501625 0.3508068 1.3445796 0.66710126 -1.2577707 1.0593373 -0.23325826 0.6223111 -0.6587812 0.51159275 -0.81919104 0.8193349 0.22997826 0.72514755 0.15522018 -1.1841537 -0.5434242 0.24059446 0.43911168 0.18965973 -0.0063736383 -0.2291898 -1.167449 -0.44066802 1.1896955 1.1471267 -1.0480098 -0.044753823 1.1304082 1.112444 -0.020630527 0.7779274 1.6958504 -0.70734316 0.6239217 -1.344176 -1.2913063 1.0087827 1.0314975 -1.484268 -1.9678098 -0.7910748 0.2265377 1.0937408 1.4142499 0.14510196 1.175273 0.5399131 0.114413925 -0.6576149 0.5040668 0.39264756 -0.0629544 
1.0161017 0.98094314 -0.14319344 -1.1073949 -0.8668046 -1.6930642 -0.05261173 -0.51458937 -0.094734564 -1.3446505 -0.14654855 -1.3784068 -1.412984 1.5844274 -0.54215366 -0.3537274 -0.9192582 -0.0484119 0.3335095 1.4996445 -0.68193686 -1.0442464 -1.3582832 1.1370304 0.74754053 0.42674425 -0.6270874 -1.312542 -1.0466696 1.4660234 0.5038707 -0.3186466 0.20217691 -0.1608726 -0.48094946 -0.9502545 0.16728617 -1.2158267 -0.7883717 0.13936797 0.11728113 0.7032067 1.699525 0.0115785785 0.47260845 -1.5916103 -1.8031721 -0.036181413 0.10319153 -0.9369117 0.6007184 -0.7154757 0.5787403 0.7948952 1.1171627 0.6397703 0.51414204 1.0200945 -0.19596271 -0.87852955 0.8890292 0.6328434 1.1281419 0.32026803 
1.5361922 -1.0617509 1.0943247 1.6272858 0.32840654 0.12486526 0.74989533 1.1072568 -0.17867246 -1.4424664 -0.7109052 -0.16074972 1.4759578 -0.027519362 -1.315479 -0.34294936 0.48613 0.7274086 0.1647205 -1.0719244 -1.0651375 -0.001470415 0.39363277 0.63285494 -1.2222276 0.4419233 0.020914407 0.19037336 0.4665232 1.6006898 1.5885214 1.3844062 1.5689211 -0.38104618 0.30541623 -0.013373339 0.917462 -0.3491647 1.7758547 -1.5200193 0.13610603 0.19388011 -1.1935089 0.75287676 -0.24207354 -1.4065709 0.5803791 -0.41600746 0.75356954 -1.1062589 0.28716362 -0.54810774 -1.515417 -0.10001885 0.9117334 -1.0230095 -0.4699521 -0.625544 -0.6875358 -0.4062298 -0.2092848 1.6496348 -0.5851925 0.1728336 
0.3718318 1.8123711 -0.18194401 1.4773906 -0.51125336 -0.36336902 1.0514237 -1.0091798 -0.037208065 0.32626486 -0.5097826 0.0533314 -0.30041403 -0.3962357 0.39033327 0.97596693 0.20785506 -0.87553906 0.40856752 -1.3336328 1.1708627 -0.46112734 0.7325649 -1.6454083 -1.5047134 1.5402046 -0.4753411 -0.110631056 -0.06617043 0.34480476 -1.0011897 -0.76522 -0.9961273 1.2728807 -1.9497832 0.3880511 -1.141645 1.0640976 -1.7458817 0.44864467 0.60093397 1.8617823 -0.19924077 0.64816797 -0.34579873 -0.05726256 -0.9959026 -0.21434097 -0.007206939 0.71098125 -1.741813 0.31685567 0.16700117 0.0902822 -1.5765382 -1.8265632 0.9598629 -1.3449091 -1.3015027 -1.7250501 0.83446383 0.58888984 1.2974848 1.0468507 
0.62082857 -1.2211831 0.30863738 0.4058373 0.68936765 1.117322 -0.33412725 0.7450413 0.9332422 -0.15176888 0.3734992 -0.54547656 -0.64954704 1.9354506 -0.8131312 -0.8375901 -0.2451069 1.0011706 0.7817 -0.55841875 0.2119903 -0.7779679 1.9440789 0.18964042 -1.6434644 0.46441916 0.35370013 0.17899801 -0.06600319 0.9789598 0.63166976 -0.9692142 1.7097304 0.34118137 0.6473556 -0.33381826 -0.21425474 -0.4199871 -0.48345342 -0.50849247 0.9023535 -0.40848327 0.14094816 -1.5237569 -0.30521107 0.59757614 0.62638974 -0.28827378 1.0275346 -0.051707063 0.3073759 -0.5689972 0.21958211 -0.6522822 -0.118056424 0.7113472 0.41383192 0.15176578 0.51262325 -0.8237399 -1.5315123 0.6363427 1.8953034 0.38548398 
1.0636739 0.12702656 -0.5655113 0.32359764 1.6213902 -0.31043404 0.018502805 0.46201327 -1.2909983 1.4612192 -0.21985368 0.6365717 -0.6745502 -0.28586257 -1.3341305 0.093432344 0.0794885 0.058822203 1.5618778 -1.8555481 -0.64216065 -1.0035241 -0.8449908 0.89600384 0.6344202 -1.453626 -1.3617274 0.6523142 -0.19833197 0.9735936 -0.33173883 -0.71336365 -0.11276808 -0.10232461 0.23319142 -0.9330972 -0.4913814 -0.40728575 -1.1758671 -0.64187247 -0.10981096 1.2686467 0.8565809 -1.1346344 -0.20374408 -1.594015 -0.11928399 1.6639096 -0.41506198 1.1426798 -0.41597432 -1.1109675 1.1160502 -0.023102028 1.4034331 -1.1126645 -0.53918636 -0.42344013 -1.8441418 1.0773911 0.4885512 0.7188514 -0.5253172 0.6575604 
0.6035698 0.100387625 0.8152439 0.16523461 -0.48473567 -0.47589007 0.5338182 -0.34180304 0.4389822 0.1957924 0.20101972 -0.83020973 -1.4240539 1.5257494 -1.019236 -0.2516182 0.41614372 1.4219298 0.06593095 -0.3081538 0.19108412 -0.113134526 0.7470119 -1.9902675 0.6106502 -1.0872344 1.1015176 -1.4701409 0.06118758 0.57365125 0.8935048 0.9250803 0.28126323 0.9188164 -0.6138424 0.54404813 0.6498182 1.4538572 1.0872339 0.10131002 -1.2383957 -0.9906629 -1.1449174 -0.0785749 1.1700592 1.2406046 -0.8878411 -0.32899365 -1.3252126 -0.1228979 -1.308079 -0.70133054 0.166231 0.19262686 0.01292995 -1.0071657 -0.5732259 0.35438555 0.9364207 0.8198965 -0.0055871224 0.043976724 -0.70706046 -0.7801494 
-0.80119467 1.2629669 0.21507096 1.9356252 0.1253736 -0.19898367 0.13801025 1.3760525 -0.011020996 -0.0049448777 0.18322101 -0.26413828 -0.27269208 1.0637792 -0.7769518 -0.99701947 -0.07215332 0.5511065 0.90723044 0.18572564 -1.0090259 1.1455051 -0.33865768 -0.38926813 1.3521404 -0.43632224 1.0521051 -0.36539486 -0.32649276 0.29967993 -0.36064863 0.3824569 0.63199216 -0.13630085 0.95552117 0.0041991463 0.69511324 -0.043696746 -0.40513173 0.2808607 -1.4016169 -0.7887957 0.416852 -0.91469014 -0.4577186 -0.027913803 0.16250016 -0.44626343 1.103297 0.04713073 1.1356802 0.3480837 0.11823029 -1.1611731 -1.0602427 0.16006671 2.107729 -0.9426096 -0.6102104 0.2424872 0.9651829 -0.4891869 -0.6552658 0.16110876 
0.013941766 -1.1467044 -1.0528325 -0.5213172 0.15459478 -1.1778105 -0.9294058 -1.1335943 -0.11577052 0.3368474 -1.2388318 -0.5468623 -0.44505483 -0.28070012 0.6251391 0.22354405 0.78108335 -0.9110532 -1.2308134 1.2924864 -0.6361186 -0.66951984 0.44474846 -0.74466777 -0.05701479 -0.33024544 -0.1773713 -0.07799767 -0.4321252 1.2037022 -1.696113 0.2835068 0.18609107 -0.67548895 -0.12621479 1.7750471 -1.2055346 -0.23420744 -1.0725298 -0.0422321 -0.16516547 0.54586107 -0.11653862 0.5984617 0.19739993 -0.7293539 -1.1266316 -0.48816523 1.0583469 -0.9605797 0.3617268 -0.8359909 -1.3288159 1.4996887 -0.49070615 -0.15187787 0.7952376 -1.3223785 0.2829656 0.44979072 0.40146676 0.37021565 0.024593297 -0.60885155 
-2.0506122 1.2056398 -0.0021685066 -0.58591163 0.08685888 -0.8868337 1.5092857 -1.2654502 -0.69471705 -0.8876934 -0.026427254 0.5526671 0.97174865 0.28653207 -1.455447 0.5523046 -1.6730571 0.9764614 -0.72782457 0.067074984 -1.7638029 1.5124063 1.8443673 -0.58676744 0.4469769 0.29898345 1.8426586 -0.8181613 -1.7113454 0.54377747 0.07741308 -1.8861883 0.769385 1.1389028 -0.22709586 0.97156 -0.5503508 0.2689771 -0.8872099 0.32024604 0.11229449 0.007525058 -2.0271568 -0.3742975 -1.1675392 -1.4083873 0.6874941 0.038346298 0.61465836 -1.9405601 1.385457 -1.707529 -0.11246683 0.12005127 -1.0762697 -0.3825082 0.7834341 -0.34299323 0.03831019 -1.1395315 -1.0932555 -1.5318345 -0.59484285 -0.59476453 
-1.8520164 -0.19004776 -0.63788086 -0.6185302 1.1836207 -0.3731107 0.039977662 -1.073896 0.3671399 0.5691821 -0.329002 0.19389379 1.1416237 -0.43087968 0.647928 1.073302 -0.18769817 -0.6308396 0.7592869 0.6954037 -0.51198804 0.3512816 -1.1263413 1.117248 -0.121213935 0.82937545 1.1427829 0.42672032 -0.28433985 -0.42320788 -0.31073588 -1.1408514 0.2747897 -0.4302707 -0.5539887 -0.5611945 0.36407256 -1.165707 -0.6303102 -1.7438295 -0.43957597 -0.53578913 0.22186707 -1.363529 -0.35067225 0.8870146 -0.2423934 -0.16165279 -0.096661344 -0.27840403 -0.067772485 -0.45472857 -0.02983194 0.57160294 -0.029278051 -0.49421608 0.106189705 0.024231523 -0.4982824 -0.8932653 0.8518472 1.673549 0.07218145 -0.1537815 
1.16004 -0.48267293 0.9260694 -0.6425436 0.18187939 0.27644458 1.0614737 0.98682356 0.059547022 -1.8101069 -0.6094097 0.70212144 1.5661907 0.25708708 -1.2281495 -1.1217828 1.1696672 0.028883515 0.15911245 1.1288139 -0.06319598 -0.07352618 0.5885064 -1.0979989 -1.1839422 -0.4378226 -1.685801 1.3585262 -1.9278914 -0.87688 -0.34906617 1.3527328 0.7109049 -1.4301673 -1.5603756 -0.6155532 -0.521464 -0.8076031 0.33106837 0.31415588 0.41117263 0.17133611 -0.92653024 -0.7963848 -1.711171 0.8966839 0.3410701 -0.59542847 -0.014831151 0.37185428 0.17301656 0.43427217 0.299685 -0.7608171 -0.24545267 -0.5339152 -0.5699631 0.41093266 -0.8342742 -0.7146938 -0.7667358 0.7119226 0.66265595 0.51915383 
-0.9296921 -0.8810086 0.27444232 -1.3004833 0.14565328 0.37901863 1.5562999 -0.4372582 -0.86174333 -0.56866056 -0.86319196 -0.48323038 -1.5645639 0.38405365 -0.0032580285 1.2772633 -1.3134695 -1.7820581 0.8785607 -0.23807923 1.3625523 -0.21389833 0.9288109 -0.2412187 -1.2436541 -1.7164378 1.1772481 0.44917 0.806698 -0.43607345 -0.65933704 0.95904434 -0.89294136 0.005273872 -1.6086051 0.4648848 -0.4046875 -1.8950222 0.4574969 0.21460752 0.3055742 -1.8112726 -0.018257892 -0.15095447 -0.549062 0.12759982 0.5804704 -0.7851475 -1.1895039 -0.48681623 -0.4874013 -0.49289986 -1.6084632 -1.2417041 0.5972725 1.3563182 -0.49960858 0.6485661 0.06699467 0.3514861 -0.17086527 0.52273774 -1.1118788 -0.52872217 
4.774157e-33 2.1011687e-32 -2.3994943e-32 1.2171934e-32 1.665022e-32 5.7669106e-33 1.7620431e-32 -2.4936508e-32 -1.5437534e-32 1.8134278e-32 1.7182432e-32 -1.64807e-32 8.530002e-34 -2.4065595e-32 -1.590142e-32 9.092941e-33 1.589201e-32 -1.10531734e-32 6.172906e-33 -2.871672e-32 2.6519473e-32 -2.1242041e-32 -2.7994175e-32 1.16800895e-32 2.869303e-32 -1.1908291e-32 -5.042037e-33 -2.4886602e-32 -9.48245e-33 -3.1289523e-32 2.503622e-32 -1.7377411e-32 2.3950474e-32 1.1008524e-32 2.5487715e-32 -3.135202e-33 2.1240807e-32 5.0413783e-33 1.7429253e-32 -7.0340656e-33 -1.18365794e-32 -1.4940366e-32 -2.7684027e-33 -2.7101963e-32 1.0279695e-33 -9.728346e-33 1.8666859e-32 2.9481548e-32 4.075671e-33 9.346203e-33 -2.578806e-32 -1.4103242e-32 -1.2009054e-32 8.618709e-33 -1.2669995e-32 2.5519192e-32 2.2943228e-32 8.0575245e-33 1.3814025e-32 6.676961e-33 2.7391196e-32 3.3231218e-33 4.7631472e-33 -1.249189e-33 
0.015632968 -0.5913727 -1.4142538 -0.31697848 -0.039620165 -0.009523049 1.5906948 -1.761198 -0.575524 0.27848867 -0.25245005 -0.031143978 -0.40295905 0.7016786 0.9010409 -0.20566384 0.9596845 -0.8381499 -0.7017293 -0.730736 -0.41456082 0.9909965 0.08907059 0.7428164 0.6757256 0.5364204 -1.0750711 -0.88795316 0.96164757 -0.095139265 1.9423672 -0.00053423236 1.2180402 0.21605727 1.2922118 0.52913773 -0.47317466 -0.10724233 -0.37251976 -0.40640596 0.2996234 0.3163351 -0.08076052 -1.0684084 -0.022418233 0.05318197 0.26445547 -0.1631684 -0.5472705 -0.95966643 0.78403497 -0.31727242 0.27959636 1.4461517 -0.33530375 -0.8772052 -1.708225 0.32019153 -0.09119024 0.45338312 -0.47574893 -1.1671792 0.25896972 1.4965245 

-0.07776681 0.9746627 -0.34090996 0.420184 0.37075382 -0.51342046 -0.09735979 0.8458338 0.35956547 0.021793583 -0.75326145 0.5310686 -0.3522331 1.29043 -0.53070647 -0.012605327 -1.4443294 0.3595764 -1.9870288 -1.493197 0.09247536 0.7993378 -1.4800429 -0.041117474 -2.1185768 0.5231398 -0.59802204 -0.009768082 -0.43880254 0.5263064 0.051588424 -0.55655056 -0.18538123 0.25674275 0.8702368 0.11950667 -1.6868573 -0.1305209 -0.256373 -0.49228162 1.8283212 0.21965887 0.257626 0.14088377 1.1283363 0.29597571 -1.9167571 -0.40503365 -0.5069751 0.83149266 -0.66583014 -0.034359887 0.8453866 0.73871946 -1.4893159 -1.2560074 -0.83456427 1.2745796 1.7076212 0.22414453 0.96567917 1.6482744 -1.8698812 0.6574652 
0.78187704 0.06570246 1.0895624 -0.55871356 -0.41489774 -0.49592087 -0.16967604 0.87515193 1.293289 -0.13914736 0.80712944 -0.46333015 -0.5739073 -0.34836936 -1.0897042 0.76432914 0.35979912 1.2428452 -0.5504663 0.5484264 -0.4132774 0.16609555 -1.3865755 0.7389895 -0.4348942 -0.13495238 0.7270838 0.075391345 -1.4310863 0.05632113 -0.3281911 1.93902 -0.82110465 -0.40490055 -0.38754055 -1.1394424 -0.47518867 -1.0062315 -0.7730597 0.76954675 0.083161086 0.84550196 0.8917196 1.8327503 -0.36665884 -0.33533147 -1.1610464 -0.41804948 -0.19666179 0.09723493 -1.3775102 -0.46829405 -0.70606136 -0.7807465 0.71567374 -0.9490383 0.13381423 -0.6414376 -1.0576396 0.036182232 0.5896748 -1.0942324 -0.094223075 -0.24797915 
0.89117247 -0.9112029 -0.89817333 0.5109962 0.8827517 1.4748002 -0.40301073 -0.36165485 1.3643383 -0.4227526 0.8694118 -1.5381566 0.20420033 0.56649077 0.27482647 1.6241391 0.21171817 1.4678544 -0.049026433 0.9803958 1.2408 0.33202624 -1.3581903 0.80996984 -0.066170655 0.9349463 1.6415632 0.5665173 -1.2987067 -1.0805855 0.14351194 0.31937364 -0.41781676 0.09671663 -0.11857379 -0.90594685 -1.1620096 0.092856854 0.5353086 0.71043515 -0.49120274 0.65335727 -1.0613238 -0.6692672 0.0992352 0.9257993 -1.3965068 -0.86537904 -0.55322284 -0.1353806 -0.07478078 -0.28149554 0.6679607 -0.21705168 -1.2743077 1.3064051 1.628199 -0.06886116 -0.7542606 0.19584753 -0.27990115 -0.24372216 -1.0923212 0.41293857 
-0.6518237 0.9725642 0.059181698 1.1919913 0.81603837 -1.0740964 -0.4603231 -0.898132 -1.6031111 0.17872857 -0.40649965 -1.245795 0.1459838 -0.49399394 1.7233064 0.5256406 -0.17428905 -0.9309215 -1.2751551 1.0268877 -0.96423036 -0.65519094 0.5302697 0.31638363 -0.60049945 -0.9918785 -0.590789 -0.7133358 -0.13134815 0.46669877 0.8941583 0.44037154 -0.18873021 0.10588508 -0.88140225 -0.25948176 -1.1390839 0.5554775 -1.3870755 0.9829375 -1.4263543 1.7325321 1.4982462 0.3574266 1.428235 -0.30250856 -1.0445389 -0.29986376 -0.39927512 -0.47898933 1.3915141 0.052881077 -0.6655118 0.8148626 -1.3752834 -1.1367851 0.23478311 -0.96075314 -0.377196 -1.0142373 1.9184855 -0.85618144 -0.7302253 -1.2194693 
-0.66075873 1.7296573 0.07096806 -0.20372696 -0.04612062 0.37714154 1.1281927 0.36484292 1.0373036 1.2553145 1.12744 -0.4090427 -0.27958903 0.9625842 0.5802582 -0.19635573 0.32216313 -1.5916752 -0.50842994 -0.54349434 -1.2104093 1.4937825 -1.0222771 0.32923943 0.17396729 -0.78883976 0.124161355 0.8254029 -0.92748564 -0.89773846 0.21684296 -1.0677327 -0.16143097 -2.0114233 0.45113987 -1.0090901 -0.62513703 -1.6522171 -1.333908 0.04175776 -0.8698972 -0.34649816 1.5721695 0.32005548 -0.7077945 -1.0361261 -1.6571543 0.4660207 -0.75982887 1.0993648 0.19576806 -1.2711643 -0.25476503 0.2290788 1.4591404 -1.4516337 0.8588317 0.098651126 0.16229248 -0.44403607 0.24183817 -0.62326497 -0.677405 -1.3045121 
-0.3825118 0.27273738 -0.5582131 -0.16839299 0.114145644 0.4721793 1.2906059 0.3029242 -0.13297275 1.1752985 -0.2875519 -1.3743037 -1.0074352 -0.8554196 1.0389144 1.1963826 0.023494052 0.6504844 0.28340253 0.49419892 1.1478094 0.43111843 -1.0857406 0.13239111 -0.6623734 -0.40212914 -0.86201954 -1.1078345 -0.50989735 1.635413 0.8948614 1.2703528 0.38274083 -0.84458786 -0.555581 -1.0514171 -0.82864475 -0.61340886 0.10169911 -1.13427 1.1692954 -1.0833503 0.4643294 0.4036411 -0.009161479 -0.62439394 -0.09828802 0.262273 0.22513919 -1.4725748 0.513082 -0.22893289 1.8992596 1.5740458 0.18269971 0.925893 -1.7987285 -0.35282502 -0.038722876 -0.77924484 1.0033293 1.3956203 0.37519205 -1.5825733 
0.27786598 0.27330524 0.83587533 1.032015 0.56203055 -0.09964408 0.64709455 -0.9362511 1.1281866 1.3153118 -0.9819953 -0.5780495 1.8156176 -0.59620607 -1.1056142 -0.16482717 -0.5378684 -0.22166432 -2.1363165 -1.8023508 -1.7714647 -0.17413823 -0.80304486 1.1371021 0.48787838 1.0122268 0.12959236 1.1742278 1.0023991 1.7285919 0.5759129 -0.20749165 -1.3341539 -1.1445253 -0.38938522 0.11339081 0.24967346 -0.966284 -0.6487383 -1.0990223 1.4317724 -0.2209746 -0.4277756 -0.4276971 -0.2174931 0.5039298 -1.5379214 -0.30053443 -0.7423361 0.10237443 1.1442801 0.3348912 0.29892087 -1.1277913 0.3341935 -0.57983506 0.52319753 0.74231225 -0.7917196 -1.44593 -0.6116891 0.1862919 -0.25146416 0.5107207 
1.2298304 -0.3175648 0.17238867 0.043972015 -0.15542585 0.09965296 -0.16286227 -0.7116374 -0.63765407 -0.20682016 1.2241707 -1.3400489 0.41308144 -0.20476107 0.5280061 0.2029389 0.057834327 -0.18160613 0.42306703 -0.11027847 1.0553963 1.1641661 -0.66885364 0.018135566 1.5578623 0.16336131 0.10574763 1.018671 -0.48774394 -0.18995664 -1.8716352 -0.6700824 -0.09036222 -0.037814207 -0.98671985 -0.04924513 0.19818453 -0.3160933 0.21200348 0.73372424 0.1437116 1.4406456 0.25456473 0.16187105 0.81874 -0.3351675 -0.71830934 -0.5154107 -0.94925165 0.19940749 -0.42012143 0.89855593 0.30399352 0.5864969 0.92870134 -0.34425297 0.1860401 -0.6891763 0.39248747 1.2974852 0.3121152 1.2090114 1.0745536 0.20267674 
0.6519298 -0.4373103 -0.20174633 0.26484707 0.27518964 -1.2958263 -0.031008907 0.65490365 -1.3016274 -0.65593004 -0.98740536 0.101140656 -1.5338881 -0.6408682 1.2673752 0.43752286 -0.786333 0.62235767 0.6024993 0.36694026 -0.36487067 0.021959156 0.020772127 -1.0605321 -1.3817989 -0.43661335 1.2494663 -1.3673126 -0.33951813 -0.14308326 0.768702 -0.49133182 -0.2360427 0.059854914 -0.7735202 1.1325151 0.9678836 1.1451132 0.6240664 -0.5470157 1.3401101 -1.0680658 -0.024225708 -1.5738922 0.6187886 -1.0657786 -1.026904 0.98726577 0.8245468 -0.5459769 0.8456136 -0.5129869 -1.9194198 0.54870486 -0.35572192 -1.2164383 0.45298186 1.4961331 -0.35202855 -1.6484385 1.9032719 0.5971307 1.5359205 1.1005347 
1.0736558 0.2476279 -0.11779246 -0.24852617 -0.4956011 -0.4457505 -1.396169 0.3073623 -0.54193234 -1.0197017 0.04184775 -0.1152345 0.6398992 -0.50628227 -1.3415575 -0.34667698 0.9205712 -0.4488837 -0.58261335 -1.1243217 0.57576716 -0.21950647 -1.0295279 0.81027335 -1.5985657 1.1005167 0.5236506 -0.5484024 -0.89892465 -0.011792614 0.89397335 0.5028459 0.12233698 -0.58822936 -1.7786533 -1.0262111 0.099989824 0.4572796 0.098735854 -0.6800134 -0.8798206 1.1355202 0.27385637 0.98653775 -0.13210332 0.10463486 -0.95493644 -0.9686961 0.37950143 -1.1143308 1.8894435 0.6054664 -1.9134957 -0.86579794 1.4652927 -1.5469916 -0.9393279 1.6300098 0.66709644 0.37114578 -0.65384346 -1.2414948 0.19304387 0.70985913 
1.6818852 -1.2273573 1.070234 -0.17808174 0.42418596 -0.15308496 -0.00976553 0.6703862 0.03711726 -0.9065603 -1.192411 -0.9206164 -0.3413704 0.58349776 0.2769805 -0.2549462 0.047130994 -0.27629468 1.1194222 -0.068780735 -1.0873724 -0.95544 -0.6492661 -1.6649225 -0.07577276 0.5989946 -0.07038009 -1.185005 1.5060188 0.17469983 0.55259544 1.2386352 -0.09880578 -0.2529455 0.379302 1.0164311 -1.3609664 0.16474608 0.082363814 -0.88943106 1.1806718 0.72215486 -1.0198328 0.84722316 0.4108739 0.7362526 -0.29273215 -0.9654288 -0.99377567 -1.1968193 0.08744811 0.88241464 -1.5067545 0.034854814 1.1087162 0.024249522 0.5592242 -0.2778568 -1.2731069 1.109809 0.65521526 0.9601176 -0.3933227 -0.39971325 
1.0002726 -0.6735383 -0.070995875 -1.2660112 1.0131437 1.0291984 -0.17001766 -1.2061641 -0.12667479 -1.004749 0.80804116 -1.9788567 -1.1192086 -0.13715547 0.025234926 -0.055305142 -0.63935417 -1.1210263 0.5030313 0.79603404 -1.4506475 -0.9447748 0.27013537 -0.5426511 0.83746517 1.3186321 -0.41355893 -1.2719873 0.03651748 0.42475617 1.6734012 1.299425 0.02859991 -0.6070912 0.5349145 0.31617695 -1.2236362 0.13663287 0.40224913 0.7724374 0.9772973 1.5273349 0.38525492 0.019512946 -0.77845377 -1.8722359 -0.03270404 0.75427973 -0.09796515 1.1226391 0.69552207 0.75100964 -0.3152602 -0.6368401 0.84324366 -1.3817301 -1.6180204 -0.22035874 -1.2625095 -0.20992856 -0.36778325 0.045448933 0.6445938 0.43660477 
0.30257308 -0.7438092 1.0797483 -0.9306937 0.15415742 0.07935521 1.146043 -1.4207414 0.036592316 0.42269132 -0.56599873 0.14255986 0.23365168 -1.525023 0.99677944 -0.6962334 0.6987814 0.4935842 -1.0595834 0.05938887 -0.6304251 0.6744592 1.6318587 0.8334676 1.4091066 0.7219384 -0.44077903 0.8592161 0.911299 1.680649 0.94151694 -0.7314153 -0.64360774 -0.72447544 0.22265182 -1.3261153 -0.50826275 -1.5382576 1.059343 -0.5017157 -1.8567122 0.818594 -1.4795531 0.2497292 -0.10231352 -0.41011578 0.62504494 -0.88019663 -0.27497578 -0.24430646 0.30832216 1.0440884 -0.01390131 -0.017501418 -1.2519312 -0.162149 0.7106734 0.12692101 -0.7962442 0.12475634 -1.4081118 -0.38995773 0.6718577 -1.8322707 
0.7342305 1.1932092 -0.6411013 -0.9489172 0.96794367 -0.3247186 0.65246093 -0.91761845 -1.3050665 -0.99310225 1.1574854 0.93787575 -0.50506467 -0.47789815 0.14063974 -1.8707839 -1.2969879 -0.0991507 0.018491853 0.3576463 0.5407718 0.41588503 0.27471563 0.21241653 0.27098846 -0.8038652 -0.7871304 0.2462365 0.26062125 -0.6132213 -0.73588127 -0.47930261 -0.21888237 -0.68444836 0.21501581 0.66330105 -0.39246088 -0.6873178 -1.34497 0.10964508 -0.27370328 -0.13816123 0.63024646 -0.08440361 -0.69927204 -1.6121178 -0.39945763 -1.0971357 -1.0699723 1.1801114 -0.97829586 0.28459096 -0.93049145 0.5248578 -0.0015551383 -1.6466221 0.79279387 0.8782018 1.7158067 0.13846448 -0.096819825 -0.5493193 1.263431 0.6903776 
-0.69389266 1.0626844 -1.476449 0.7521314 0.4281753 1.3735014 0.77976733 -0.7569288 -0.26622272 -0.18351728 0.4118691 -0.57917863 -0.60470295 1.0448552 0.080619335 -0.12509525 -1.0822765 0.4983897 -1.3655239 -0.23021281 -0.028373713 -0.8644593 -0.54129165 0.5156857 -0.14324361 1.0998372 -1.1784962 -0.6030332 -0.84438366 0.6247996 -0.20521122 0.7403724 -1.4578189 -1.0352759 -0.022847975 -0.21981347 1.1788913 0.7675696 0.63162297 0.15838033 -1.37235 -1.2997135 -1.4126763 -0.9392549 -0.6649822 0.057074863 -1.6547368 0.24440935 -0.09277384 0.5998526 -0.4790852 -0.96396154 0.025399787 1.4272826 -0.39692461 0.26774555 -0.19254184 -0.35275796 -1.1188201 -0.59013563 -0.69232404 -0.58580893 -0.9939784 -2.0048904 
0.04659912 -0.39243472 0.22273888 -0.17668845 -0.051484343 -0.080640614 0.47969517 -0.19513835 -0.14342387 0.28028512 -0.0049952455 -0.067008816 -0.39299846 0.91515976 0.4916235 -0.5874346 -0.96474165 0.9761641 -0.8304016 0.18779774 0.33455896 -0.43447194 1.184818 0.27523166 1.1930475 0.046745185 0.32977682 -0.22044507 0.379345 0.49563512 0.45774707 1.4176774 0.22920673 -0.7354479 -1.0708879 0.31187898 0.3790376 -0.007971754 0.93575054 0.2133047 0.058384504 -0.839967 -0.15156965 -0.71062404 0.797489 0.11553454 0.50312024 -0.7497689 -0.174636 0.1310268 0.85862327 -0.4317198 -0.3608469 -0.39080608 0.3331914 -0.00021790298 -1.0333769 -0.22307286 -0.9927754 -1.4529799 -0.08337629 -0.61519194 0.30671617 0.8297514 
-0.6685501 -1.440551 0.010262145 0.25214183 -0.8864209 1.5561119 -1.2379566 1.9723392 1.3374938 -0.081911795 -1.4444352 -0.7908775 -1.0991542 0.74157155 0.24728385 0.76229155 -0.5039398 -0.58377314 -1.5954958 -1.1705765 0.4935514 0.847994 -0.30816892 -1.0592065 0.9762669 0.34742215 -0.41163743 0.89265454 -0.23186056 -0.6966636 -0.574091 0.90761966 -0.5981816 0.42172164 -1.0868405 -0.36671767 -0.87899363 -1.1180644 -1.0775641 -0.57677156 0.75294894 -1.1448263 0.34898996 0.07530296 -1.0391656 0.18653071 -1.3433983 1.8077615 -1.4952404 -0.28589657 -0.5138364 -0.8804612 -1.0072753 0.26914015 0.9690844 -0.6488736 -0.4404144 -0.121426895 -0.57045156 -0.9403323 -0.6031098 -0.8360163 0.0533217 -0.2705508 
1.3687286 -0.10309079 0.87529737 0.32569483 0.24914828 1.2649533 1.042708 0.35672933 -0.7690422 1.7818478 -0.17549802 -1.3063821 -0.2735796 -0.86378616 1.0079594 0.59156716 1.1992314 0.6638419 0.68241894 0.639442 -0.32515505 0.7065714 1.7709064 -0.057289317 -0.25733545 1.4146391 0.52879614 -1.3482507 0.10613554 0.13005671 -0.084634386 0.77287126 -1.2783061 -1.1237804 0.60192424 -1.6024065 -0.46034205 -1.1291467 0.20011823 -0.97606677 -0.26293653 0.75876564 0.26309514 -0.09884514 1.474268 -1.5137198 -0.7965529 -0.9597254 0.21984777 -0.40041885 -0.7357207 1.9016256 -0.031184934 0.030777905 -1.132731 -0.30261835 -1.7934932 0.35326588 -1.8036051 -0.4620568 0.9033789 -1.4579483 -0.09201707 -0.5426091 
-0.32340243 1.3209366 1.694191 -1.0068799 -1.4996378 0.14920402 0.3217529 -0.53762484 -0.045060694 1.3169365 -0.09915304 -0.2963718 1.8367269 -1.0396874 0.43890703 -2.0670445 0.9550536 0.28762695 0.21133652 -2.2031171 -0.5307566 -0.9096145 1.8009901 0.2497064 -0.91755545 -0.6586356 1.2734742 -0.486194 -1.0727876 -0.44030565 -1.5777588 -1.2899067 0.44759312 1.3570913 -0.5086598 -0.5040443 0.46516314 -0.74432033 -0.9124001 0.9436138 -0.4333246 -0.32218504 0.6305402 0.42796695 -1.0896256 -0.32377073 -0.425064 0.46983153 -0.45316434 1.2227018 -0.36322677 -0.97889376 1.396211 -1.5067363 0.74162424 -0.25878412 -0.38821545 -1.2279459 -0.03246099 0.46946284 -0.372143 0.112936 0.41916788 -0.59448254 
-1.2518023 -1.5172276 -0.09909377 0.97899634 -1.021272 -0.63262486 -0.4685611 0.60245943 -1.1011801 0.75557095 1.0215449 1.3119869 -0.20245579 -0.1332036 1.6488554 -0.85022885 0.117552 0.5940764 -1.487447 0.55724716 -1.2234656 0.3572588 0.33379903 -0.106271066 1.2261945 -1.5615411 1.2983788 -0.7598498 0.16812907 -0.5349065 -1.073064 -0.47768536 -0.10798069 -0.63572085 -0.8351998 0.25626516 -0.83389676 1.1443856 1.7995044 -1.6457087 -0.46509838 1.6102135 -0.98323953 -0.34689716 1.2403843 -0.36559945 1.3609124 1.1392267 1.0379288 -0.6031042 -0.75335836 0.49062887 -0.81687915 -0.33617768 -1.1947612 0.31784096 0.088008 -0.1953505 -0.9514091 1.610402 -0.04728968 0.37938565 -1.0093158 1.2978531 
-0.4174913 -1.0042167 -0.33048412 0.37986833 0.002396851 0.017650088 0.9057112 1.0229372 1.137746 0.40279725 -0.8669049 0.017222285 -1.2909455 -1.2734166 -1.1018227 1.2754865 -1.1131268 0.08006096 1.4515684 0.04840628 -1.5900773 -0.49157637 0.20783336 0.7761437 -0.15500993 0.1952494 0.22493611 -0.3570958 0.7437639 -0.46695128 1.7926244 -1.4549366 0.44305122 -0.74968326 -0.2460883 0.009698194 0.9112017 -0.70817834 0.3706318 -0.71836555 1.0459995 -0.25130263 1.5521114 -0.50304747 -0.016311796 0.06744919 0.25960815 0.0922258 -0.80503345 0.5227051 0.390622 -0.33856976 -1.7538351 1.182653 0.03259928 0.16081595 -1.3927736 0.54201335 0.6784542 -1.7494835 0.8149808 0.13671705 0.57391864 0.2135682 
-0.64874846 -0.28664905 -0.38104677 -0.8144254 -0.28526267 -1.5179722 -1.2761505 -1.1108261 -0.5289653 -0.8086423 -1.352799 1.0107125 -1.9268678 1.4630266 0.23238637 0.9800683 0.22359183 1.2900026 0.64693326 -1.2412744 -0.8093472 -0.16408347 1.2800049 -0.41867593 1.7206639 -0.35518605 0.3519359 -0.15932648 1.0621715 -0.90556824 0.043882243 -1.5965028 -0.9574404 1.5650091 0.7886579 -0.35979795 1.4497945 -1.3263223 0.71124744 -1.4895955 -0.10057286 0.14567204 -0.8892369 0.27358183 -0.4489561 0.101745985 0.3423897 0.087413855 0.036236648 0.31788445 0.34932533 0.3112075 0.33696848 -0.9898174 0.26966232 -0.56011146 -1.1883729 -0.7029238 -0.81661505 0.42396507 0.24456681 -0.9399768 -0.44848448 0.6430713 
-1.0302016 -2.1950526 1.0828016 -0.34956053 -0.725158 -0.36662495 -0.4779301 0.3389175 0.96991956 -0.17465419 0.07745983 0.40677673 0.19049618 0.364356 0.10925262 0.54307705 -0.533415 -0.84794426 -0.8857623 -0.03549961 0.8086663 -1.4314035 0.42233557 0.61743534 1.2180833 -0.50000834 0.42435923 -0.86373025 -0.7200779 -0.029624607 -1.8248221 0.92232007 -0.32202557 -1.3391085 1.2968043 0.5540723 0.8200016 -1.0029715 -1.676683 0.21783237 0.27516323 0.9624467 -0.48214617 -0.2089184 1.0935296 0.023555588 1.2828475 0.57242835 -0.7086724 0.5900808 -1.6440367 -0.3308597 0.6832168 -0.8050404 0.7608113 -0.6525847 0.23791702 -0.64349484 -0.7936113 1.5069667 0.21045136 0.30933878 -0.47107625 0.9723281 
1.5742362 -1.0076153 -0.55353993 -0.51702017 0.99422485 -1.1292834 0.51615703 1.2348529 1.8384008 -1.9770907 0.6500415 -0.41420528 -0.25640783 0.5191468 0.21786962 -0.03905818 1.425724 -0.51938313 1.8196495 -0.097439356 -1.3251777 0.7706401 0.118726276 1.2787575 0.8892444 -0.47763875 -0.41932002 1.4682605 -0.59437233 0.60102034 -0.0992513 1.0271277 0.048206706 1.2294898 -1.0296402 -1.1434435 0.4467458 -0.9718102 0.7541047 -0.13522783 0.9994661 -1.5872358 0.25385103 -0.1150624 -1.0686792 -0.43955168 0.5591931 -1.0938581 -0.48744056 -1.8543404 -0.41364887 -1.0994234 -0.744896 0.9585785 -0.83322674 -0.70702744 -1.280376 -0.52600574 -1.2911856 0.83160675 0.12735364 -1.0150765 0.16031927 0.33175984 
0.3296904 -0.78616095 -0.62941885 -0.01807911 0.05682147 0.21776654 0.18617941 0.1242433 0.059039026 0.41372427 -1.2705715 -0.059854932 0.65070885 0.07811175 -0.73718685 -0.12054356 0.23427336 1.1024925 1.5266782 -0.14952765 -0.10475117 -0.25972477 -0.76019317 1.8108121 1.4368927 -0.09757618 0.4779036 1.0231956 -0.38446403 0.6182718 0.25170812 -1.1192042 -0.4587313 0.5114193 -0.74424505 1.5052341 0.21157706 -0.5404261 -0.561726 -0.18280353 -0.47698307 0.026751205 -0.5381832 0.92256135 0.23362932 -0.082995884 -1.4613013 -0.45594963 -0.349925 -0.13376528 -0.12856315 0.088437885 -0.8589276 -0.08268211 -0.87873816 -0.20053568 -1.6228536 0.54691416 1.1328968 1.0519233 1.2279658 -0.48197985 0.14548878 -0.98687184 
0.08436541 -0.3901392 0.31678718 0.29697487 0.3064263 0.5691828 0.41250056 -0.13686869 0.02105406 -0.8761425 -1.1344855 0.13764305 -1.1172743 -0.49427104 -0.84881485 0.08305742 -0.19188258 -0.870623 -1.9498905 -0.704144 0.13109395 -0.81664586 0.19469434 -1.0453537 -0.017991407 -0.05090388 1.6502608 0.28739926 -0.45521766 0.8300087 0.35356048 -1.1063397 -0.271044 -0.82596004 -0.53769016 1.1318086 0.31775993 -0.20752837 0.32982516 -0.19805855 1.0404791 -0.6236828 -0.010800714 0.19273444 0.56875944 -0.44948167 -0.7383319 -0.32096624 -1.4158304 0.1319163 0.023052463 1.4898204 1.5240273 0.50228894 -0.6071908 -0.210458 -0.27717876 0.7869042 0.14918925 1.26503 -0.20805736 -0.43341252 0.08740487 -0.4055135 
-1.2556154 -0.6894712 -0.74213666 -0.23835874 -0.2042089 0.5919484 0.0021921182 -0.16973338 -0.15523475 0.2400871 1.7433176 -0.9510173 -1.0856997 0.057411727 -0.9800907 -1.7535698 0.7850555 -0.88405883 1.2513044 -0.57578194 -0.28765967 -0.95893943 0.7763111 1.3459163 0.05501176 0.7894019 -0.77126396 -1.1722041 -0.8473497 0.785527 0.19040349 1.474103 -0.7203025 0.4100478 -0.97034436 0.7026574 0.13786644 1.4542682 -0.39950666 -1.0885732 0.33437833 -1.0254548 -0.18496442 -0.49775645 1.628704 -0.68557006 -0.925418 -0.70808166 0.44982663 0.3999487 0.1784984 -1.6353346 -0.77212155 -0.5357041 -1.0915738 -1.4688879 1.3185087 -1.574413 0.012439855 -0.2286794 -1.2882957 -0.26041436 -0.22714446 -0.82664883 
-2.4682405 -0.81151915 0.48882607 -0.12324705 -0.709181 1.5042986 -0.63155866 0.5230026 1.8429273 -0.8489732 -0.4386693 0.2621851 -0.3799075 -0.48866025 0.2780033 1.1159327 -1.6727718 1.0205276 -1.1432294 -0.920615 -0.87303567 -1.0540704 0.11976159 0.7536281 -0.030833177 -0.22839434 -0.16780299 0.8151245 -0.20489891 0.4583507 -0.838526 -0.2355507 1.0268315 1.2355993 0.13886051 0.9310983 1.5801506 0.4441898 0.6374103 -0.3077927 -0.8133973 -1.2266326 -1.1373016 0.8655208 -1.0735924 -0.93540335 0.63176244 -0.0125788115 0.25286737 0.13424838 -1.1071655 1.3267387 0.9348397 -0.59959245 -0.308118 0.8373775 1.0040841 0.070115976 0.2104093 -0.33084702 0.49956167 -0.8981953 0.15769628 -0.9607156 
-1.183833 0.16028151 -0.065836 -0.05983485 0.008702176 0.28367734 -0.9418761 0.07608647 0.22992852 -0.06344262 -1.6065474 -0.6744204 0.00097031856 -0.60662293 0.16161236 -0.85562253 0.5655346 -0.34297678 1.2643776 -1.2439238 -0.023322605 0.15457457 0.45722473 -0.59401983 -0.80447215 -1.0399355 -0.5787822 -0.1607065 0.53349704 -0.97145563 -0.8409661 0.87979233 -0.110717535 -1.0343788 -0.8005376 -1.6569678 -0.5098091 -0.8492408 -0.5135876 0.72290576 -0.37768987 1.4928917 0.7367543 -0.82138443 -0.40222052 1.3098372 -0.2689375 0.95218784 0.321194 0.42912567 -0.78620523 0.31157306 0.2686946 -0.045382712 1.0305206 0.32102177 -0.5596279 0.23717974 0.99430275 -1.6382523 0.029265974 -0.23608518 0.08974316 -0.35209557 
1.4029272 -0.68413347 1.1219107 1.1770623 -0.90964574 1.2478858 -0.043484617 1.0037426 -1.3037225 0.8518349 -0.9923533 0.6094473 -0.3575886 -1.2196454 0.2901991 -0.464028 -1.4212658 0.34584823 0.8833265 -1.632361 1.0439788 -0.13758853 0.56736505 -1.7900615 0.65656424 -0.2524704 -0.9685439 0.35743114 1.0060184 -0.877501 1.1877109 -2.054512 0.4473476 -0.3946459 0.23317237 0.6173631 0.20240608 -0.28263372 1.258746 -1.5237304 0.3059647 -0.059145343 0.62760055 -0.6115903 -0.5540701 -0.6811736 -1.792167 -1.6398438 0.6055829 -0.16897587 0.98317724 0.8498488 -1.1531531 -0.716445 0.04914756 -0.39048007 -0.035123948 -1.5121557 1.2049904 0.69196236 1.523717 -0.24446851 0.004219058 0.08652164 
-2.488576e-32 2.2781114e-32 2.1357915e-32 -1.6740278e-32 2.765888e-33 -2.867737e-34 -3.2701143e-33 -6.838933e-33 1.1978633e-32 1.12573384e-32 8.366006e-33 1.7148668e-32 4.297387e-33 7.9490616e-33 2.4778949e-33 1.8433116e-32 -1.6957151e-32 -2.1033576e-32 -2.3295123e-32 -1.2203848e-32 -9.039379e-33 -6.05683e-33 2.6255663e-32 -1.6495963e-32 -2.5332215e-32 -1.4182336e-32 5.0560833e-33 5.0983254e-33 1.17254496e-32 5.122501e-33 2.4270974e-32 -1.14789815e-33 7.7861484e-33 -3.2690598e-32 6.8717335e-33 -1.8236572e-32 -7.361486e-33 -2.8554868e-32 -1.4152656e-33 -2.0136305e-32 3.0611336e-32 -1.8229228e-32 -1.4642901e-32 2.5136154e-32 2.756808e-32 -1.0524663e-32 2.2420952e-32 -1.9714749e-32 1.9444028e-32 2.6825307e-32 5.9612544e-33 3.4629454e-33 1.7372543e-33 -5.5531823e-33 -1.5647076e-32 -1.8864789e-32 -2.81568e-32 -2.6385367e-32 -2.0256402e-33 7.218421e-33 -1.2079443e-32 -1.685884e-32 -3.0854858e-32 -1.4433897e-32 
0.043185815 0.35875422 0.5316276 -0.8576387 -0.31983116 1.4091074 -1.216339 1.0085227 -0.20060882 0.023332343 0.6315014 -1.0193919 0.5610529 -0.9922062 1.1241418 -1.2445843 1.4398029 -1.208182 -0.8182374 -0.017037967 -0.20195837 -1.349586 -0.9180056 0.6868245 -0.2936125 -0.3285645 0.64601856 -0.7549521 0.59218854 1.5767994 -0.16576406 -0.4487024 -0.16352786 -0.78621507 -0.32352588 -0.72788376 -1.1035241 0.58060884 -0.42402378 0.5322341 -1.6644735 0.7025454 -0.83342147 0.77004004 -0.25565165 -0.14017336 1.3504597 -0.44476694 -1.4591343 -0.4533306 -0.40598953 0.084301665 1.5935655 -0.87343746 -1.5738847 0.8934982 1.5010722 -1.9793147 -0.05502249 0.02048349 -0.5644471 -0.083820015 -0.75469625 1.0697327 

1.1687 0.3589166 1.5545087 1.5379355 0.0053290236 0.4595512 -1.3134242 0.038236275 -0.8386404 -0.03379105 -0.47537535 -0.7571689 -0.55394304 -0.45636535 -0.5662956 0.3992862 -0.3889271 -0.36442965 -1.195433 0.5878539 -0.8624059 0.3748264 -1.3536445 0.40343285 -0.51493007 -0.15414062 -0.2511664 -1.2405533 -0.22272415 0.96498305 -0.29765865 0.64247185 0.7829028 0.4151023 -1.0165639 -0.002101393 -0.43938294 0.7465337 0.07368909 -0.4281775 -0.6064152 0.3555332 0.13377197 -1.1277509 0.1965586 0.7740467 0.70867056 -0.87813026 0.28702584 0.042421974 -0.8275125 -1.2822112 0.01958001 -1.9766219 1.237348 -1.5281361 -1.2859514 -0.7896807 1.0851593 -1.3471879 -0.6643312 1.3139266 -0.68657315 -0.5833308 
-0.37698784 -0.48094457 -0.020834826 0.67375994 0.55433995 -1.2970608 0.113926604 -0.6435492 0.5442534 -0.70671374 1.2767514 0.5840283 -0.61006725 0.65341336 -0.20461716 0.23255633 0.23430477 -1.2998432 -0.65845865 0.43048534 0.53460693 1.0565965 0.46625346 -0.10496546 0.13228595 0.37359086 0.75861233 0.86196715 -0.34295484 -0.9561823 1.0343819 -0.8788595 -0.62133914 -0.037433088 -0.06874902 0.65849775 0.95692647 -1.6981465 -1.0418744 0.83147806 -0.36172417 -0.7576862 -0.81044745 0.5659003 0.662777 -0.17003393 -0.43914667 1.6456372 0.31420827 0.014529306 -0.868409 -1.1564918 0.1609862 -0.18841156 -0.915946 -0.4571004 -1.4844685 0.5742768 -0.2365061 0.45660958 0.03382494 -0.079004616 -0.38618153 -0.4446091 
0.59949267 1.3772454 -0.6135476 0.3903955 -0.53776306 1.3440288 0.3219644 -0.8235917 -0.017907634 0.0075607505 -0.5636786 -0.11593633 -0.7886224 0.12697972 0.43980923 -0.35784453 0.65039885 0.06628201 -0.34457782 -0.6843956 -0.24524722 -1.5985996 0.55926996 -0.6509423 -0.51206297 -0.49673513 -0.6813591 -0.34040707 -1.0980178 -0.82976687 -0.47032374 -1.172819 0.86196864 1.03698 0.062158722 -0.34383172 -0.76568097 -0.5975332 1.130023 1.1373285 1.5790899 1.340926 -0.09339895 -1.316733 0.2780371 -0.52273184 0.039180603 0.36711237 -0.04866913 1.4571192 -1.1919804 0.618658 -1.2575312 0.2648893 0.103363834 0.6908581 0.14052431 0.8396088 0.44345304 1.0025442 1.0360417 0.44751957 0.026903316 0.8931161 
0.90661675 -0.6071995 -1.3792547 -1.9948803 -0.6884921 1.1769922 -0.48388287 -0.45111346 0.19249283 -1.5290799 -0.0940177 0.27777869 -0.10939355 0.6733052 -1.1774796 -0.16387245 -0.3530377 -0.08490817 -0.53007764 -0.8149311 0.18888062 -0.13942751 0.0652212 0.06983666 0.49939898 -1.5041414 -0.3558947 0.027267758 -0.4234125 -0.8245187 1.978465 -1.5892332 -1.3675165 -1.1145408 1.2117549 -1.4720836 0.7687149 -0.5458123 0.57522553 1.2489755 -0.31874433 -0.9116286 0.9300513 -1.3336009 0.88895696 -0.7028858 0.7261222 -0.7714057 -0.71120834 -0.9997161 -1.119289 -0.77441645 -0.32117236 -1.5337262 -0.23987952 0.29508588 0.82459956 0.5490968 0.6627167 0.5803277 -1.0608425 -1.3023533 0.05847134 -0.83836025 
0.96350706 -0.75936013 -1.4789621 1.7197337 1.2997314 -0.93810636 0.18162812 -1.7709346 -1.0643001 -0.61118823 -0.53357553 -0.49046987 -0.003070821 -0.9545095 0.6138778 -0.08917469 -1.305999 0.9464732 -1.8058016 -1.1636075 0.7195339 -0.070812315 -0.24718535 -0.5358454 1.5524 -0.20563887 0.95631045 1.0653286 1.0652126 -0.6443126 -1.7226726 0.37257022 0.12140217 0.59934735 -0.2067877 0.37897626 -1.3382583 -1.451013 -0.053087678 -0.925549 -1.9964322 0.20596877 -1.3166599 1.7294436 -0.9300568 -1.454352 0.9437626 -0.60740453 0.4252384 0.5385309 1.0517725 1.5903419 -0.22084586 -0.35432446 -2.0599158 -1.0915596 0.15163374 -1.2721949 0.51636565 -0.96878546 -0.91449696 0.34582567 1.4085937 -0.11343423 
1.5084578 0.04076343 -0.35888633 0.38580066 -1.0250114 0.52194065 0.7783675 -0.03640007 1.3230319 0.30085534 -0.9037155 -0.5615132 0.37466085 0.9123273 -1.0967722 0.042775188 1.126106 0.63691294 0.24984944 -0.44845232 -0.355618 0.106177725 -1.2674308 -0.86160004 0.58203363 -0.6996218 1.3178796 0.46698335 1.2305286 -1.3150139 1.7765104 -0.25325862 -0.5850805 0.7938842 -0.34745362 1.3014416 0.18834776 -0.78773 -0.5907573 0.427112 -0.7760731 -1.0493277 -1.0194267 -0.6830718 -0.08818861 -0.056799095 -0.9351662 1.0284679 -0.6218198 0.5146277 1.2547098 0.18130012 -1.0017792 -0.9900519 -0.5975576 -0.04169822 -1.0387816 -0.5769185 0.05688104 1.4927415 -0.69015163 -0.019767642 -0.08105664 0.19058934 
-1.528647 -0.35386086 0.4779749 -0.12551372 -0.09083074 -0.038237102 0.7606437 -0.15986802 -0.2399989 -1.3502071 0.22395585 -1.2934785 -1.2287799 1.0943571 0.80365807 1.1940249 -0.7118937 0.75473344 -0.34442016 -0.15831958 -0.67399395 -0.015166026 -0.23630355 1.0345106 -0.41412923 0.6886798 -0.10569514 -1.3148688 -0.29684958 -0.12772647 -0.7948065 -0.9385916 -0.55385005 0.38626716 -0.12954545 0.040666986 -0.12198641 -0.26013324 -0.76391554 -0.11650898 0.2861522 0.09706459 0.7173349 -0.2730572 0.48524213 -0.92629856 -0.5038059 0.6426618 0.45115784 0.5020474 -0.49805257 -0.7037178 -1.5533923 -1.256758 -0.33919394 -1.2450187 -1.0320283 0.12061202 0.68953276 -0.21540484 -0.06895963 0.16109659 0.17143242 0.30272937 
-0.53429085 -0.36500448 -1.015824 -0.3412511 -0.08964087 -1.1258942 -0.8198479 0.4797398 1.0443947 0.1873485 -0.3657755 0.6768603 0.8656767 0.29359388 1.7634078 -2.155652 -0.38989624 0.09825639 -0.08964735 -0.36852068 0.3595796 -1.2596402 -1.0619214 -1.2165911 -0.94397986 -0.15978491 0.4440407 -0.8830343 0.6984881 0.36118153 -0.21697566 0.45682368 -0.7484802 0.3469409 -0.9298505 0.016279107 -1.6260635 -0.45193893 -0.024713691 -0.74334943 -0.84261954 0.624839 0.27597785 -0.682581 -0.4773042 1.1708047 0.086545736 -1.3453157 -0.21731867 -1.0203025 -1.1867154 -0.13590287 0.23655719 -0.5506893 -0.2171439 -0.22716494 -0.4270213 0.73192984 0.28023523 -0.5977956 0.36156207 -0.93491125 -1.0593164 0.23354106 
-0.48517632 0.3053719 0.14621897 -1.1762829 -0.5483359 0.6945109 1.4075868 1.6604656 0.14733829 0.1770192 -0.52181333 -1.2296398 -0.7328714 -1.0660269 1.2234101 0.57585174 1.2591588 0.2380111 1.1672207 0.5940357 -0.52568185 0.10310791 -0.59080356 -0.3138031 0.27345443 -0.5439492 0.8328132 0.3025419 0.2791452 0.46802846 -1.6703115 -0.18082626 -1.2426056 0.3311323 -1.1906747 0.69948184 -0.92899984 0.03169306 1.5571184 -0.33044118 -1.1843547 -0.71709675 -1.5563622 -0.14286135 0.7465565 1.582347 -0.25457227 0.2616659 -1.0550007 0.4531067 0.4180719 -0.9319084 -0.29532257 -0.36322612 0.8625326 1.0472095 -1.0260757 -0.95427877 0.32463628 0.5206487 -0.47462606 -0.8036076 0.86320317 -0.8847875 
0.19019885 0.42682043 0.032648053 1.2197547 -1.4422644 1.1433061 0.75660884 -0.8186162 0.59126824 -0.15543175 1.0798877 -0.38930288 0.932948 -0.3773144 0.15145425 0.38537434 0.15819846 0.4790479 0.97026426 -0.50738174 -1.8697435 -0.16603808 0.08805419 -1.3360362 0.6858189 0.99480486 0.4326292 0.50379807 -0.53429645 0.035106406 -1.5181818 0.63893956 -0.35102725 1.439033 0.24319042 -1.9840531 -0.15835246 0.0729813 0.5636291 0.45003968 1.2374972 -1.5587871 -1.3611966 -0.30417514 0.5660836 -0.97958815 -0.3726377 0.5207356 -0.9837521 -0.17489949 1.0521395 -0.6076018 -1.0415924 0.9995467 0.326623 0.3480757 1.0099556 -0.4367069 0.28083536 1.5223935 -0.57990485 0.38090354 0.710275 -0.22055656 
-0.16585417 -1.7522691 -0.65711766 0.9296823 0.54624605 -1.479564 0.51769304 -0.5796099 0.65513754 -1.4608772 0.057466492 0.44779414 0.35590604 -0.16921496 -0.7903562 1.1071665 -1.4894203 1.3090864 1.0393863 0.58488816 0.52356994 0.84466106 0.09599932 0.5608878 -0.1764144 0.3722055 0.20605505 -0.34226552 -0.49590725 -0.30553448 -0.85423976 1.316335 0.038589686 -0.9698718 -0.013546313 -0.8980907 -0.46636212 1.1333325 0.947472 0.47137105 -0.41371933 0.42572713 1.2336849 0.5373453 0.34069932 -0.466885 -0.925556 -0.3552396 1.0898551 -0.71191376 -1.2326137 0.099671215 1.638823 -0.5238133 -2.002383 -0.8529019 1.8376204 -0.4319623 0.45764995 -0.43301412 -0.7022308 0.75876194 -0.6716167 0.024429705 
1.1943743 1.6843194 -0.93732375 -0.94892406 -1.1111897 -0.26658383 0.13392602 -0.79696816 0.6470736 -0.7472834 -1.151955 -0.37099844 -0.5616427 -0.38183185 0.5388893 0.2573925 -1.2515898 0.89972174 1.5511866 0.42267892 1.1672705 -0.26572338 -0.083301626 -0.8693968 -0.11751942 0.26989612 -0.62249905 0.025092592 1.0161221 -1.6884392 -0.45371145 -1.4938351 1.1419517 -0.48997405 -1.2930688 0.45052227 -0.82695997 -0.21634722 -0.82649773 1.0877333 -0.7453879 0.3862351 -0.42291796 0.2374047 -1.1509517 0.18412411 0.57823604 0.37815905 0.9732322 1.0399686 0.0062219445 -0.1658382 -0.22664586 -0.21250354 0.21851967 -0.6102595 0.4657766 1.5112661 0.7033031 0.41154552 -0.37307596 1.2229483 -0.15039323 -1.1216683 
-1.3204739 -1.7538878 -1.0325931 1.034287 -0.53573304 1.5739354 0.06177161 -1.2421099 -1.3089405 -0.26047352 -0.09431347 0.39109084 0.78746414 0.21412349 -1.6040134 0.0026403908 0.38875845 -0.89888865 0.77953273 0.9603055 -0.5880277 0.38623264 0.5743922 1.3837236 -0.004142494 -0.37900963 0.24251851 1.0467341 -0.46132213 0.8537839 1.810652 -0.77852714 -1.7899225 0.4972001 1.5391246 -0.3157483 0.5204599 -0.60851264 0.58930564 0.41149673 0.07066916 0.19262865 0.11511788 -1.2278706 -0.43334454 -0.7414025 -0.0005972048 -0.8085426 0.120012835 -1.5480312 0.45646608 0.549807 1.2902821 -1.4635991 0.710286 -0.1926542 -0.5354788 1.3200963 1.0273787 -0.2879927 0.24739973 -1.5354515 -0.41071907 -0.017762993 
0.9916969 -1.2467322 -0.09063374 -0.2783038 0.9320545 0.93225 -0.8211628 -0.7074969 0.64393157 -0.38668013 -0.81377447 -0.89709085 1.223236 -0.14155494 -1.0082953 0.41253617 -0.4004372 0.26066962 -0.64766777 1.0143104 0.17039594 -0.048651185 0.50013006 -0.7256581 1.3300784 -1.4536512 -0.21319371 1.5665435 -0.19805121 -1.4303486 -0.16978003 0.6343922 0.0787465 -0.13566694 0.82542753 -1.2724024 1.2181729 1.0232117 0.36192662 1.3278537 0.47826967 1.4002672 -0.71424305 -1.0461607 -1.9472109 0.6833596 0.08605328 -1.0759449 0.4633466 0.6105233 -0.94843787 -0.8616128 -0.24696204 1.1259722 1.0029849 -0.34325683 0.55641377 -0.79385924 -0.27680397 0.5829454 0.6948608 -0.01747169 -0.5007113 -0.5634004 
0.2169767 -0.040073745 -1.142922 -0.3154813 0.5286044 -1.3548875 -0.6146668 0.671892 -1.6745843 -0.038596142 -0.9275149 -0.030409155 -0.22341764 0.50128907 -1.1128495 0.95357794 0.8504417 -0.27014807 0.36567444 0.80758697 0.015643187 -0.18497151 -1.3806759 -1.3157692 1.3387629 -1.0468073 -1.4004925 0.10378848 0.65150946 0.72058296 0.7082704 0.7749508 -0.30770537 0.6082584 0.16038415 0.60475266 0.4951407 0.39508542 -0.19482148 -1.7160975 0.18284205 0.1720221 -0.4509406 -0.283454 -1.1549785 -0.17141603 -1.052992 -0.89548624 0.93959665 -0.6490306 0.59148663 -0.18775061 0.0710587 -0.39905384 0.099376716 -0.012301179 1.3593329 -1.3162196 -0.9884399 -0.41905984 0.27130768 1.0982993 -0.29383475 0.7581275 
-0.071627975 -0.46628526 -0.23505014 1.6574281 -0.93279004 0.12734845 -0.14823315 -0.2389712 -0.97148603 0.12760249 -0.2133535 0.32461852 -1.1467022 0.46359763 -1.115516 -0.16593239 -0.008453098 -0.34893176 -1.4382173 -0.42637008 -8.0310194e-05 -0.23762216 -0.10835315 -2.089291 -0.39519244 -0.00035738977 0.83171433 0.640837 -0.47157514 -0.56342494 -1.4883864 -1.3039798 0.017832201 -0.1841788 0.8035023 1.1291233 0.084653996 0.3886349 0.7723923 -0.09533933 0.32416525 0.13284506 0.27147034 0.7919326 -1.3215836 -0.4904368 0.03680607 0.03091701 -0.09285781 0.05805771 -0.28516272 -0.6863515 0.6306873 -1.6786286 0.7970829 0.03971019 0.10291269 -0.6135885 0.07204934 0.16241175 0.43627852 -0.9383915 -0.13166222 0.5201534 
0.25153756 0.12339697 1.0358464 1.3507652 0.27059776 -0.4669975 0.39462796 0.060789447 -1.3716445 0.44103357 -0.82034904 0.28862485 -1.0400589 0.56784254 0.1833376 1.1952276 0.3978476 -1.4710798 -0.84251636 0.6084688 -0.048062924 -0.5745923 0.24204935 -0.57386893 1.5608517 0.77275306 -0.5712919 -1.3491133 -1.306207 -1.5249214 1.2855667 -0.76906145 -1.2359129 -0.18491182 1.0211413 -0.2701065 -0.59861547 -1.6017591 1.5459473 -1.9717578 -1.4587405 0.29414704 -1.0225565 0.54113495 0.34699887 -1.2903862 2.0202448 0.1217833 0.18528567 -0.3923659 0.12559374 -0.7933444 -0.38159984 -0.765076 -0.84938365 0.12215202 1.0925294 -1.6558478 0.042743128 -1.2191842 -0.6509063 1.0627927 0.79441583 0.16701645 
-0.23276772 -0.28084233 -0.41587788 1.2099977 -1.2801161 -0.53163034 0.21838367 0.1559727 -0.25657097 0.7902699 -0.635693 0.370021 -0.70777184 -0.2859692 0.29524463 -1.2039847 0.69380355 -0.18066554 0.735947 0.44045743 0.84970695 0.64192486 -0.5658272 -0.51587594 -0.21930222 1.1882004 -0.18761173 -1.1520591 -0.82336056 -0.077280454 -0.12368802 0.035860952 0.9275315 0.3279775 0.10140571 0.55723745 -0.079663575 0.63148767 1.4030536 0.31935686 -0.711059 -0.80063075 0.04624115 -0.26243994 -1.541387 -1.3921905 1.6367776 -0.21365163 0.6582301 0.5452543 0.18594888 -0.013092016 1.8276557 -0.07994634 -0.21925172 -0.45796117 -0.19982195 1.5335175 -0.5700569 -0.065950416 0.9001998 -0.59975284 1.4898446 -0.002572296 
-1.2540563 -0.16846864 -0.7569059 -1.6447183 0.45057774 -1.1081061 0.042256538 1.1894771 -0.010508913 0.62511367 1.1936272 -1.1741803 -1.6199721 1.1203909 0.50642645 0.5736442 0.084500216 -0.2611154 -0.8857571 -0.16457886 1.3269339 0.22510101 0.922003 -1.2449505 0.7103894 -1.7179387 0.029808324 -1.1887057 -0.22253463 0.8261383 -1.3645715 -0.16274735 -0.7975687 1.4392443 -0.238312 -0.5530535 -0.51156116 -0.119457595 0.6312319 0.48221356 0.46609017 0.53551435 -2.000082 0.48349503 0.45597112 -0.5727577 1.4761405 -0.18549694 -0.6974609 0.45848098 0.3152593 0.964174 0.15249158 -0.2913231 -0.76042104 -0.323314 0.32944518 0.81798863 -0.16232839 1.9951726 0.81372434 -0.39088258 -0.38856953 0.4132436 
-0.7093933 0.13194953 -0.6357376 -0.1456961 0.12190013 0.08346595 -1.1742477 -0.08740429 -0.29055923 -0.51024693 0.6260175 0.12443112 -1.5952886 0.8942323 -1.2317008 -1.1112697 -0.6291397 0.07652892 1.2648258 0.6121693 -0.4838334 0.8069879 -0.68719333 -1.864692 -0.9117967 -0.06576464 -1.0244242 -0.07483267 -0.10602085 -0.25409433 -0.54097193 0.5963344 0.02660742 -0.22517721 0.4989268 0.29021245 -1.325935 -0.24855019 -0.3450895 0.7273428 1.2329593 -0.24919623 0.9266301 0.5692813 0.010586027 -1.3195876 -1.8461356 -0.5134868 0.21339606 -0.05805502 0.24404956 1.6177571 0.564915 0.16407932 0.20303641 -0.5878766 -0.29258466 -0.53482884 -0.24485901 0.5560613 1.544705 1.5808163 -1.0329844 -0.29661196 
-0.22453639 0.6212186 -1.8718092 0.5342559 -0.23677106 0.9579353 -0.51162547 1.0016602 -1.7576303 1.7020468 -0.4632747 -1.0614487 1.8569448 -0.093201645 0.19864626 -0.6816799 0.68690145 0.5567418 0.3377344 0.06445225 -0.82376504 0.97340804 0.75952953 -0.99044526 0.8233219 0.7832989 -0.17409602 -0.9114497 -1.0652066 0.5473331 -0.001687237 0.869405 -0.40414748 1.3679756 0.04725564 -0.07229667 -1.0671434 0.59896445 -0.66178626 0.34078157 0.62355393 0.31812495 0.5333318 -0.20731644 -0.6507387 1.1754248 -1.1191056 -1.8548114 0.42840588 0.6273593 -0.3181763 0.15888219 0.49546853 -1.4224532 0.30091968 -0.5476422 -0.10324356 -0.3001692 0.23155905 -0.71069306 0.38820547 1.05568 1.2285222 -0.26044947 
-0.42018554 0.44314 0.79700047 1.0858579 -1.4201524 -0.92416215 0.45983925 -1.6416796 -0.20427802 -0.25020808 0.02707674 -1.3281989 1.2045616 -0.95127594 -0.11332448 -0.8050212 -0.32084456 -1.1158298 -0.41493714 0.62088186 -0.86978126 -1.0535576 -1.7502296 -0.77430135 -1.6470473 -0.40030414 0.5672515 -1.4761215 -0.57628095 -0.48753527 -1.057411 -0.57728326 0.1555753 -1.2333472 0.15568808 -1.4222832 -0.004814769 0.73061526 -0.91887456 0.23503272 0.4998896 1.0011594 0.6940215 -1.02299 1.000765 -0.5454686 0.099302374 -1.6097337 -0.34285474 0.23511094 -0.0788883 -0.6846528 1.3671345 1.0237893 1.3200113 0.6489989 -0.68266314 -0.81410104 -0.49196458 0.36070296 0.8157532 -0.667986 0.72318 -0.09024126 
-0.12234013 0.2581771 1.2564167 0.37397325 1.2361821 -0.6851489 0.4769454 0.5996523 0.2578116 0.12811942 0.7500622 1.268226 -0.50980747 0.19954634 -0.48642632 0.2894567 -0.56830245 -1.546423 -0.18469042 0.72235245 -1.4840968 0.30841056 0.35832542 -1.7998415 -0.4443282 -0.10044093 -0.20861368 -0.4816694 -0.55058694 -1.0874509 -1.3668333 -0.86630523 0.037641313 -1.0416831 1.0903652 -0.656126 0.79291695 -0.048156578 -0.5259513 0.78143346 -0.78407115 -1.3470148 0.58247674 0.20619497 1.081366 -1.4251959 1.1893694 -0.2221718 -0.5372316 0.8188513 -0.5953325 -0.38763905 -0.18788469 1.5352541 -0.7073113 -1.0517275 0.29857135 0.8055334 0.19953716 -0.2579543 -1.6292942 1.0167962 0.39396542 -0.6286218 
-0.92924225 -1.0256855 0.19687048 -0.2023585 -0.7847728 0.50283194 -0.59327686 0.1265117 -1.4904056 -0.27421135 -1.0860229 -0.3765239 0.3298347 -0.37019283 1.542171 0.27290362 1.1686394 -0.60610497 0.6598162 -0.31728706 1.7558062 -0.9364233 0.57856745 0.86993515 -0.065315716 -0.06923202 1.0735823 0.83689797 -1.4343785 0.31155637 0.19495246 -0.65464205 0.21448448 0.2438887 0.4369976 -0.3566781 0.6546302 1.439369 0.65303457 0.81852156 1.2992522 0.04290435 -0.93247217 -0.1272015 0.6718452 -1.1371382 -1.5252733 -0.12293396 -1.6043979 -0.35844082 0.8811333 0.23866491 1.0460303 -1.0317147 0.67452955 0.36501494 -0.55912185 -0.14761245 -0.64617753 -0.6521269 0.7605152 1.6529626 -0.09809744 0.61029553 
1.1915622 -0.032039326 -0.6266759 0.22830355 0.2062205 -0.834241 -0.18733242 -0.57838655 0.7120784 -0.6126432 -0.18376409 -0.83856374 -0.15094975 0.6847403 0.15885967 -0.022182936 -0.21133962 -0.04720962 -0.6401091 0.32593313 -0.90786904 0.21290904 1.5614488 -0.7533068 -0.14566295 -0.54395765 -0.9600416 -0.30480933 -0.10168309 -1.1033021 -0.18826628 -1.892668 0.07079212 -0.581889 -0.57205266 0.5499341 -0.042926002 0.36411807 -0.4599139 0.30574155 -0.3974872 0.29679248 -0.21103312 -0.510669 1.4143311 -0.03373932 -0.9119945 0.3418678 -0.345937 0.02550051 -1.251656 -0.00014294236 0.2947096 -0.7803011 0.6867656 0.029109167 -0.6937022 -0.18381803 1.0324814 0.20477284 0.46665195 0.30325976 -0.95129573 0.6473819 
-1.090057 -0.39630634 0.28754482 0.40120873 -0.052645136 1.3722543 1.432447 1.7348588 -1.4071205 0.89197326 0.894439 -0.15387875 -0.6786976 0.062108167 -0.17753173 -0.3888453 1.013742 0.073773 1.6418043 0.7224956 -0.68681085 1.1943473 -1.533743 0.5772296 -0.16214111 -1.6282067 -0.8964677 -1.3477968 -0.051179737 -0.40780583 -1.4857131 0.03775643 -0.77877134 -0.9142537 -1.6419818 -0.93138546 -0.89767414 0.1958734 0.5229573 0.09523399 1.1129082 -1.0326194 -1.1545795 -0.84124666 -0.031675924 0.5206348 -0.4349252 -0.046491988 -0.07375039 -0.4073237 -0.7331006 -0.6587681 0.6426128 0.43237045 -0.6354028 -0.7914469 0.51131994 -0.002037919 0.37926045 -0.70646524 -0.70672 0.47528225 -0.34272897 2.008743 
-0.33370396 0.06830876 -1.0825644 0.24952139 -0.54735345 0.70956266 1.228493 0.3411839 -1.0593845 -0.91837835 1.4522694 0.021933272 -1.1095638 -0.6327574 0.30117005 -0.44143188 0.17906831 -1.4286672 -0.13446277 0.30328652 -0.5433538 1.1950611 -0.10581476 0.08710899 -0.65464133 0.57222337 0.16529912 -0.1355541 -0.04576812 0.86748946 1.0741309 -0.17376097 -1.5729343 0.22896385 1.1595306 0.38099325 0.2953335 -0.9076902 0.5225716 -1.3196372 0.9157465 -0.09970181 0.80965114 -0.09827681 -1.1451449 0.5395624 1.6555367 -0.96084553 0.3852642 -1.1103997 -0.8541843 -0.42366216 -0.2733518 -1.3115681 -0.35889807 0.24664073 0.2676897 -0.05038521 1.7098424 0.5290832 -0.39941156 0.00849027 0.35817218 1.2497902 
-1.1681479 0.9141452 1.1338694 -0.8923817 0.39816457 0.9764808 0.5187927 -0.18651499 1.2325182 1.0719932 -0.5207759 -0.5249758 -0.5015388 1.3796848 -0.56300265 1.4545518 0.032652896 -0.036985226 -0.47831792 -0.2286734 -1.2479929 -0.8104653 -0.8179136 1.078776 -1.4087292 -1.2126004 0.11263107 -0.82653666 -0.28050888 0.62465376 -0.4732686 -1.5087974 -0.29028994 0.8460773 -1.5717676 0.74732584 0.8563276 0.115681216 -1.0901595 -0.45684466 -0.090473495 -0.9032792 0.5772116 0.5678635 0.8934253 0.6203177 1.4381204 0.3154596 -1.0964819 0.49366748 0.5056821 0.52512354 1.1793615 -0.16380495 -0.2699457 0.067519434 -0.588089 0.8053154 0.38655657 -0.77656436 0.3656428 0.052403532 -0.1718707 0.86133254 
0.9481993 0.5000469 0.38969976 1.2722768 0.23050496 -0.051654346 0.15332755 1.0824258 1.17658 0.19572948 0.18349071 -0.8351998 -0.95383614 -1.4934536 0.16191365 -0.41269687 -1.3128549 -0.21324402 -0.7679467 0.6748215 -1.501187 -0.782225 1.0228213 -0.32149923 0.61807704 -0.37098846 0.6581833 1.3965268 -0.5744072 0.4344044 -0.61156523 1.2157574 -0.43666184 0.060570337 -0.10261773 -0.7033392 -0.37726465 -1.3324925 -0.16544203 0.4607852 -0.29074422 1.299222 0.4490684 -0.3781249 -0.27815834 -0.58447915 0.3286617 -1.2424549 0.86362463 -0.9593184 -0.47614092 0.24659312 0.7719097 -1.5763154 0.98675025 0.24125972 0.21020073 -1.1333069 0.36506182 0.26965946 0.48631883 -0.8273539 -0.50761765 0.03792891 
0.4068446 -0.41636905 -0.5547658 -1.7223318 0.19157255 -0.38716847 -0.42363268 0.34837952 -0.15322547 0.933797 -0.46214393 1.785093 -0.96586835 0.28465158 -0.7917047 -1.4165802 -0.54214513 -0.3129308 0.5750901 -1.2518852 1.1920421 0.67792463 -0.23265184 0.4759174 0.06819039 1.6112808 0.75706804 0.029926559 1.3503792 0.20674567 1.3550996 0.63268596 0.6948598 -0.6913655 -0.00894128 0.33519873 0.5367608 -0.50844234 -0.52934253 -0.34994408 -0.3177724 -0.011103761 0.50323606 0.04690813 0.16361311 0.31069884 -0.8256862 0.11912484 -0.20245087 -0.43653685 0.58745277 -0.17505923 1.0393226 -0.09284211 1.6232713 0.056197118 1.3486967 1.0518172 -0.6514425 -0.55214167 -1.3341899 0.5871076 -0.40105072 0.743919 
-1.21653446e-32 -1.8464665e-32 2.6309397e-32 2.0088424e-32 1.4346017e-32 -2.1449611e-33 1.4523202e-32 1.8669169e-32 -2.9013734e-32 1.6008546e-32 -7.192791e-33 -2.8042796e-32 2.1407414e-32 -2.9791644e-32 -8.5458895e-33 -5.6029193e-33 -2.858887e-32 -1.2925501e-32 7.839237e-33 -1.3268442e-32 -1.899765e-32 -6.2895795e-33 -2.8933398e-32 -8.926941e-33 1.3017567e-32 1.2631686e-33 8.206686e-33 1.8668256e-32 -1.741265e-33 -2.3793259e-32 2.698446e-32 -1.827427e-32 -1.9762618e-32 1.2600794e-32 7.440703e-33 1.5961906e-33 2.6228479e-33 5.417266e-35 2.0217266e-32 -1.3302529e-32 1.810681e-33 8.2174035e-33 -1.0025654e-32 2.471682e-32 3.5823363e-33 -3.9274978e-33 6.3323734e-33 8.872155e-33 3.1116896e-32 -2.1817181e-32 1.8935897e-32 1.7983028e-32 -2.588033e-32 -1.3040414e-32 1.6683865e-34 -1.5799881e-32 -1.4240083e-32 -1.3146135e-32 -2.6883086e-33 -1.09421024e-32 1.3901903e-32 -9.757553e-33 7.945763e-33 4.0607856e-33 
0.6165352 1.0000453 -1.4186987 0.02904912 -0.13964768 0.03554132 -1.1860304 -1.5165802 1.0718634 0.43942153 1.1627468 -0.92679405 1.0826281 -0.75298566 0.22647218 -1.4963341 -1.2424426 -1.0262961 -0.94070053 -0.21869989 0.097978614 1.4639559 0.1562653 0.64403427 0.37132883 -0.3023724 0.27185076 0.51416165 0.7706304 0.28213033 1.4642311 -1.996738 -0.25781915 -0.1426938 -0.23362187 -0.09032055 1.828585 0.68279654 -0.4395228 0.34251156 0.29874521 0.36222053 -0.19543068 1.0016066 1.1155318 -0.91445464 1.3701104 1.5009497 1.4306548 -1.024572 0.22997998 0.28785637 1.0744252 -1.4468913 1.3186512 -0.37234202 -0.86790866 0.6716707 0.083255485 -0.2847618 1.0887282 -0.74937063 -0.24285285 0.28133395 

-0.82767504 1.0448185 -0.22028385 -0.65001225 -0.052016553 0.7851875 1.690171 0.35544053 1.5909847 1.195222 1.2171773 -0.12760302 -1.2921984 -0.36528063 0.488871 0.062509604 -1.3218161 0.124155484 0.1498462 -0.014509882 -0.033560082 1.8469132 0.14873947 0.8390045 0.5020009 -0.16274546 -1.7159197 -0.80123824 0.27844697 -0.9893646 -0.11928482 -0.23296289 -0.7140285 -0.6671916 -0.07471846 -0.2998593 -0.7185372 0.1332753 -0.36192632 -0.6433326 -0.89695805 -0.36265805 0.0067520323 -0.0014890862 0.7787376 -0.1931257 -0.48665538 -1.0772198 -0.5862107 -1.6684536 -0.78399444 -0.24254052 0.8298082 -0.09555303 -0.11992873 -0.1316605 -1.7887906 0.8795128 -1.793807 0.9752133 -0.43061522 -0.1034 -0.77857935 -0.37359115 
-0.42595738 -1.3610228 0.013218534 0.2454656 0.17219163 1.2421697 0.16102134 -1.8081989 -0.4550978 0.12878866 -1.0840805 -0.25131965 1.0961502 -1.5300401 -1.3628907 -0.46003616 0.7836778 0.7555129 -0.012978224 0.28449294 1.707398 0.10475273 -0.056212254 -0.60949725 0.093963265 -0.067560144 -0.7804851 -0.23528385 -1.7272478 1.719695 0.17850204 -0.53992516 -0.08803781 -1.4596418 0.13058081 -0.30195153 0.031776693 0.9578697 -1.1246212 1.6303014 -0.5859284 0.5279899 0.9719864 0.7272082 -1.7269927 -0.24192359 1.1153328 1.4218855 1.3240839 -1.2865069 1.5417681 -1.0371879 1.5134255 -0.45597446 -1.4484121 -0.02873096 -0.28735873 -0.9543162 -0.7304283 0.20864154 -0.46207646 -1.7094526 -1.1165711 0.7855222 
1.6483337 -0.66223025 0.8078634 -0.26213682 0.21714449 0.3859929 0.7394912 1.6075654 -0.025606383 -1.1439598 -0.82543653 -1.5171806 -1.0103421 0.31980315 -0.12528664 0.9471839 -1.2716472 1.0039885 -0.416934 -0.091690674 0.46840036 -0.024034632 -1.2672478 -0.20397633 0.84222966 -0.5050655 -0.47871375 1.258507 -0.4913735 -1.1913656 -0.052302454 -0.31071296 0.9671107 0.54227567 0.80538917 0.7210248 -0.5899979 0.98657256 -0.54058415 0.9741638 -0.9103827 1.2085218 -1.8092089 1.3773205 0.94159776 -1.1474915 -1.0769082 -1.7639074 -0.6530187 0.51549435 -0.57758033 0.83954567 0.3206284 -1.2678003 1.2486972 -0.43804222 1.6984811 1.3022406 -0.6229314 1.9961371 -0.64122784 -1.1807836 -1.8478335 -0.56990355 
0.87220454 -0.85401595 0.6629197 0.5602585 -0.6884124 0.24936779 0.5141722 0.14361984 0.7599388 0.7807046 -0.9824602 -1.7046664 -1.0380518 -0.24683872 -0.5500529 0.15570062 -1.2081957 -0.56465334 -0.6964074 -0.493968 0.22414465 0.27854636 0.09534347 -0.20105909 -0.2371338 -0.4284873 0.6832794 1.1228154 -0.25152388 0.52742255 0.5655844 0.52303445 0.8031263 1.1701443 0.10907108 0.39587733 1.9260378 -1.1299136 1.0331678 -0.13935693 -0.7178382 0.9695292 -1.522567 -1.4671183 -0.002994313 -1.2760739 1.045216 0.678919 0.78948283 -0.52046895 1.1494685 0.8637814 -2.0033898 -1.8377243 -0.5861532 -1.3009764 0.375905 -0.8550123 0.27958053 1.1879708 1.4366434 0.45833775 0.5960706 1.3109074 
0.7110746 0.92673737 -0.07086348 1.9255993 0.15111488 0.48410496 1.4023694 -1.0433733 -0.4905172 -0.68693316 0.508655 0.18991831 -0.58027554 -0.5172024 0.45568684 -1.4233818 0.16216303 -0.83088917 -0.9930295 -0.71552086 -1.1136309 1.7683709 -1.1968404 -0.3631743 -0.3011961 0.18868609 0.847159 -0.18820782 -0.17086351 0.3404086 -1.7059572 -0.3876235 -0.8461665 0.76249456 0.8217447 -0.073927484 -1.017097 0.3596843 -0.07072169 1.5513408 0.5239643 -0.09125514 -0.22052665 -1.0127466 -0.015591858 0.5552306 -1.4318619 0.041572012 0.74989855 -0.411128 0.87798154 -0.5256129 0.27251664 -0.5571037 -0.6923764 0.91601366 0.7581751 -0.18565997 0.6071504 -0.31157285 0.3046396 -1.4873451 -0.91890806 -0.3413725 
0.6754244 -0.08197535 -1.179867 -0.1057003 -0.07904125 -0.50266373 0.97330266 -0.12253571 0.7423165 0.68707347 0.16781639 1.3048126 -1.3790013 1.1154356 0.5981782 -0.36682776 -1.309048 0.14195713 0.3130348 -0.059199728 -0.1058123 0.35646966 0.5619574 -0.52241933 0.2829677 1.6296437 -0.98321855 -0.9798375 -0.4639479 -0.41724536 0.7325306 1.2328086 0.064820886 0.17500636 -0.97383094 0.7674141 0.61016107 0.6195285 1.2637057 -1.1669425 1.2279332 -0.6568458 -0.24741782 1.1558435 -0.24958034 -1.3896605 -0.42632818 -1.6507642 0.26718 0.6287029 0.45811486 -1.0522575 -0.34595102 0.47351086 -0.27023655 -0.5697378 -0.26093146 1.1396711 1.6809876 -1.6043166 0.3820731 0.5627195 1.0304593 -0.21362418 
1.2836542 -0.2930048 -0.5107156 1.402715 -0.4133834 0.62740105 1.4897478 1.4860843 0.18975395 -1.716951 -0.88391006 0.54267716 -1.14878 -0.08677455 0.917674 0.6994711 -0.60043555 1.4130454 -0.11337929 0.10371154 0.17726405 1.0678728 0.7130729 0.52430063 -0.064613 0.93746454 1.5989981 -1.1761276 0.3243936 -0.7017742 0.37122425 -0.4144884 0.009361701 -0.5579368 -0.13762112 -0.80259365 -0.9090922 1.0789917 -0.05790325 0.39698565 -0.19749455 -0.31444925 -1.1995445 -0.55970246 0.40405932 -0.71326244 0.46984157 1.4797378 0.3158081 0.42303377 0.30671516 1.3100474 -1.1198617 -0.22380807 -0.81237733 0.7174722 -1.0340606 -0.06817448 -0.19626081 0.9305824 0.09289691 -0.23040238 -0.3975782 -0.52508515 
-1.1250134 0.6410875 -0.8742355 -0.17877977 0.16749233 0.44900182 -0.49087843 0.8926603 1.5416558 -0.4187059 -0.73705345 1.485227 -0.8840099 -1.2758602 1.0597944 -0.31608707 -1.0907044 0.42642778 -0.02138741 -0.19909269 -0.5249071 1.184263 0.11267018 0.15807211 0.19773386 0.28724387 -0.51369965 0.5980167 -1.2682984 1.1710218 0.60235316 -1.127608 -0.03993555 -0.5127639 0.8673284 0.84797555 1.1455522 0.091100335 1.0987188 -0.531941 0.09868975 -0.05845626 -0.2613982 -1.1219785 0.7572028 0.2740852 -0.1502412 0.88941413 -0.9188101 0.061244775 0.63672894 -0.3732006 -0.52141494 0.3370514 -0.9322676 1.8304361 1.1017672 0.33819026 -0.22620754 0.11281786 -0.19907962 -1.1313958 0.8972725 -0.8007745 
-0.083199844 -1.3016007 0.86993426 -0.6558045 1.037658 0.112817116 -0.38672954 0.010624548 -0.47181743 -1.6621501 -0.31330088 -0.516009 0.4017581 0.82264864 0.90157557 1.7015438 1.007027 -1.4549841 -0.3231332 -0.02826588 -0.5799728 -0.63728505 -0.20236854 -1.1710304 -0.17215018 -0.15998296 -0.2792291 -0.83794177 0.7926848 0.5614547 -0.68226 0.17537598 -0.8023724 -0.45458934 0.64261264 0.3846092 0.48986125 -0.4334577 -0.45156738 -0.1913567 -0.41348052 -1.0517476 0.92859614 -1.0817955 -1.3082106 -0.74140716 0.4206116 -1.4504753 -0.7691057 0.2725574 -1.9360746 1.2462144 -0.08825383 -0.00053788867 -0.61417633 -0.70299137 -0.648672 0.27251276 -0.7787955 0.12678239 0.0545668 0.12123435 -1.0208974 -0.30173367 
-0.19664414 -0.34859255 0.7983225 0.90451 -1.2090452 -1.4890088 0.034034725 -1.1044139 0.073487476 0.8093807 0.696943 0.19954912 -0.74367124 -0.52902395 -0.07072959 0.14189912 1.0472833 -0.12357418 0.14210431 -1.369802 -0.48098403 -0.705778 0.81343573 -0.9836763 -0.8933537 -0.5566973 -0.73656267 -0.42688707 -0.18462534 -0.18305838 0.34406883 -1.4945005 -0.08136479 1.0942717 0.5252605 -1.0266368 1.0062778 0.1882053 -0.042384736 0.7051248 0.7464327 -0.50184244 0.835104 0.84603024 1.3533124 -1.5369189 1.3322401 0.35655072 -0.5460874 0.67466825 0.09035754 -0.46951297 -0.8584717 -0.26305142 0.65049964 0.6710466 -0.03085303 0.7814488 -1.3684157 0.5372512 -0.19219936 -0.14226557 0.2471001 1.606842 
1.8073356 1.5072899 -0.5468075 0.65569216 -0.35330188 -1.5948266 -0.7345991 0.84921277 0.32265055 -0.6830642 -0.6478059 1.0085193 -0.7851468 -0.6238473 -0.5262502 0.099398114 -0.07484016 -0.14500946 -0.86117584 -0.7682468 -0.05763746 -0.061347988 0.06290185 -0.9212839 -0.83478177 -0.5606584 0.54555243 -0.62447 -0.40840933 0.6610111 1.2689215 -0.56756365 0.7255173 -0.40650168 -0.9020863 -0.05703786 -0.10654077 -0.16711894 -1.6555572 0.6362369 0.32315245 -0.44607928 0.15572476 0.27939877 0.28945053 -0.5158815 -0.23792225 -0.11960868 1.3102033 1.2226353 0.25357866 -1.9417043 -0.58585006 1.0198905 0.42277214 0.73174757 -0.11546963 0.55283165 0.30769187 -1.0306189 -0.36940083 0.98506075 0.5662249 -1.3092209 
-0.7729431 0.54206693 -0.49665633 -0.8582703 -0.18307237 -0.32555884 0.30869162 1.8452097 0.86451495 -1.3854247 -0.871734 0.7001382 1.8026993 -0.4014401 -0.4828583 -0.58144265 0.15607475 -0.66601306 0.874061 -0.026170794 1.3945858 -0.78830516 -0.53601027 0.88714385 -0.7708933 0.8695149 -0.4066108 -0.89097184 1.2859224 -0.25687572 -1.2514076 1.1858106 -1.5776063 -0.2722105 0.8229725 -0.2782735 0.601183 -1.622551 -0.12703218 0.36522272 1.2800562 0.842063 -0.3445381 0.13254361 -1.7113972 0.83596486 0.4629402 -0.90553576 -1.7061342 1.3463137 -0.49796268 -0.36778206 -0.24837114 -1.5352546 0.9076767 -1.828866 1.110498 0.04219866 1.1186192 -1.786009 -0.6009681 0.17287096 0.8477694 0.24866177 
-0.19130728 -1.4791497 0.4703722 1.5724597 -1.3401847 -0.74318737 -0.11653274 -1.5997078 -0.3968808 -1.6187981 -0.5486691 -1.4290973 -0.85581565 -0.28991732 -1.5942801 0.30081436 -0.49197224 0.16493274 1.0092766 -0.7852152 -0.7872997 -0.7038198 -1.2285535 1.2372245 -0.22624211 -0.48922005 -0.2657907 0.24325454 -0.87901163 -0.32607123 0.8266552 -1.7667718 0.85196644 -0.57652545 -0.65463275 0.12027803 0.2296314 0.10461608 -0.390974 0.45262358 -0.109632224 0.7337759 -0.6477505 0.33127955 0.23762608 -1.3195978 0.3038881 0.61078376 0.7666688 -0.5412073 -0.2627089 1.1623255 0.09511097 0.27939844 1.1186138 -0.108505644 0.9199411 -0.222077 -0.64486116 -0.55480057 0.1944328 1.0859826 0.5094674 1.1205951 
-0.3621362 -0.4010326 -1.0362514 -0.78754354 -0.943781 0.97991717 0.48168683 0.9353696 0.26959017 0.77656347 -1.0037671 0.21971431 -1.1127192 1.1863153 1.0897566 -0.18944968 1.2590369 -1.2705115 -1.1213003 -0.808556 -1.2155693 1.1840936 -0.7074341 -1.1919605 -0.8427708 0.124135554 0.1027611 -1.3957556 -0.9856137 -0.4123034 -1.4859699 1.0337093 -1.2014961 -0.99659324 0.9123258 -0.15128651 0.7460419 0.7790996 -0.9558701 0.56763184 0.15321085 0.36929888 -0.45674363 -0.1522982 -0.6799313 -0.042918123 1.1839572 0.4437671 0.6102987 -0.5128713 0.4273309 -0.669972 -1.3635473 0.31210428 -1.0011358 -0.7077526 -0.89724284 -0.6093912 -1.2163941 0.75261647 0.75459754 0.93227124 1.1357707 -1.6650316 
0.18639748 -1.0753496 -1.614798 0.14218079 0.16836688 -0.10101042 0.21191825 -0.25620744 -1.2901177 -1.6221411 0.4298944 -0.35445112 -0.85603905 -0.5682501 -0.1655826 0.974818 -0.28357607 0.16689368 0.061979275 0.13790621 1.570962 -1.1933337 0.27208656 -1.0507365 -0.61390823 0.11090039 -0.6339537 -1.51243 -0.9889319 -0.8307998 -0.3287166 -0.5699103 0.22711492 0.81706715 -0.36619732 0.13891688 -0.16068785 1.0278033 0.008379615 1.5310844 1.1743891 1.597724 0.0753163 0.05794526 -0.7353874 -1.5706173 -1.4837524 0.9381517 0.46844992 -0.3959147 0.49295172 -1.2601846 0.058621276 -0.31253585 -0.9713596 -0.08636668 -0.7169774 0.53585696 -1.8656799 1.1831754 0.32511127 -0.9414026 -0.53734475 0.9753168 
-0.8588264 -0.91598713 -1.5218818 0.13444366 -0.15421453 0.2641894 -0.38841093 1.7078207 0.5521573 0.32279268 -0.23671381 -0.52715486 -0.8864509 -0.22151291 0.3885008 -0.99590474 0.30137035 0.94200855 -1.2644382 -0.61925036 0.09955599 0.16643603 -0.30943802 -0.5241248 0.8604908 -0.5751935 -0.7004341 0.22350176 -0.02377341 1.0991809 0.61755896 0.5863897 -0.6582268 -0.0058737453 -0.22115512 0.3254451 -1.5301977 0.65516883 0.44550878 0.8092757 0.35063556 1.4190552 -0.050199635 0.69104046 -0.16297418 0.64267063 -1.7080976 0.33562607 -0.039354756 0.47564846 0.5667622 -0.21880116 1.007714 0.19157529 1.7449859 -0.18224862 -0.6969267 -0.5194962 -2.0313017 -0.48086238 -1.4460008 0.37496874 -0.67566556 -0.2934062 
-0.9620151 1.1377788 -0.18572512 -0.37576917 -1.4434294 -0.39268455 1.3527012 0.6524712 -1.8204792 0.1026311 -0.24816145 -0.8729041 0.12128211 -0.84226424 0.44292945 0.52447253 -1.3210226 -0.7522861 0.30813575 0.039543845 1.0744832 1.0875428 -1.3281106 0.64045733 -0.8078845 -1.1177726 -0.19815415 1.8041329 0.30506754 0.43964374 1.6485722 1.2123688 -0.568933 -0.088667944 -0.814121 -0.5705871 0.9189873 -0.11173208 -0.9950993 0.21159104 1.5441517 0.67709315 0.82619476 -0.53326714 -0.14373347 0.8932577 1.8837852 -1.363825 0.86132205 0.29617557 0.02036225 0.4432512 0.14738137 0.013090797 0.5123212 -0.826566 -0.6588716 0.42535457 -1.1515915 -0.7173331 -0.55733645 -0.057463277 0.26755995 0.73222136 
-1.122669 0.37900475 -0.0727365 -0.06366043 -0.13653927 -0.7498115 -0.8279211 -0.9271021 0.21132325 -1.1515392 -1.5907115 -0.5499144 0.006344748 -0.32357 -0.0926085 0.59300804 0.6557149 -0.7878567 -0.62723404 -1.3216716 0.01184984 1.5838828 -0.6145793 0.5555187 0.9138952 -0.034638524 -0.39830706 0.3318442 0.39402786 -1.0190039 1.0089788 0.5306845 -0.036137637 1.4241241 -1.046189 0.88404155 -0.84390783 0.3618637 -1.1763028 -0.02154367 -1.3372393 0.42318556 0.17497161 -1.3579856 -0.5254644 -0.15759803 -0.6676742 0.3850375 -0.29417 -0.9851166 0.2946875 1.2383999 -0.6126218 1.1508983 -0.16196886 -1.2372413 0.029396515 0.6182805 -0.034430176 0.56965226 0.48991248 -1.1745336 -1.1820705 -0.27244046 
0.7785697 0.12588085 0.81728005 0.52977276 0.78563976 -0.34896073 -0.07051536 0.20566021 0.26139897 -0.3077212 0.42338377 -0.9353321 -0.3931683 -1.0611893 0.17515782 -0.954958 0.52974397 1.2259287 -0.43422413 0.4053708 -0.7174725 -0.96643716 0.9745503 0.7580521 -1.127283 0.5063404 0.9481159 -0.7221918 0.89487696 1.0340189 0.15737747 0.25887883 -0.42727095 -1.1596887 0.39814043 -0.3493423 0.40354347 -0.13807665 0.8047366 1.0669311 1.2324461 -0.3989743 -1.1620116 0.07303754 -0.74277 -1.2211392 -0.3231813 -0.18748075 0.5429612 -0.6201022 -0.89311886 0.44394797 -0.19362329 -0.16353308 0.7197317 0.52482516 -0.70369595 0.45988643 -0.9594648 1.0374684 0.40262416 1.4011167 0.21902415 0.46949542 
-0.90239555 0.9190348 0.5612189 -0.47775343 -0.62937707 -0.15621476 0.6109325 0.20345148 -0.41224954 -0.5863382 -1.4843789 1.4833966 -0.6827008 0.5082097 -0.31718114 -0.6131838 0.7950925 -1.231239 -0.0106610255 0.100827724 1.3055301 0.6497569 0.9695171 -1.0337338 -0.9135657 0.5333207 -0.3916682 -0.021085516 -0.7934062 -0.3972787 0.10150386 0.1107398 -0.3386377 -0.7594847 -1.0858687 1.1645638 0.7568731 -0.035771355 0.4765363 -1.0869062 -0.91353303 -1.4247755 -0.45759317 0.50230163 -1.5156399 -0.9358328 -1.5100007 -0.94260186 0.5119901 0.8758504 0.3447416 -0.18636675 -0.21732545 -0.39813802 0.2766156 1.4107066 -0.45071092 -0.48178926 0.2910399 -1.117612 -0.109733544 0.5120777 -0.5451936 1.2612698 
-0.7502468 -0.7137016 -0.78608936 -1.1875154 -0.8459793 0.52711564 -0.14088483 1.2525725 0.43175626 -0.19623397 1.5000317 0.39873722 1.1037321 1.3489445 -1.0304413 0.05994023 0.8720739 1.1273857 -1.143786 -0.7310638 -0.16901672 0.32661602 1.0240667 -1.0427725 0.28068933 0.72183394 -1.3527067 0.40325248 0.4774716 0.24948558 0.7112305 0.52102315 -0.0044795997 0.39507613 0.42945686 -0.9202858 -0.18734282 0.34568048 -0.61508226 -1.3688977 -0.7613998 -0.24074489 0.9743784 -0.8811891 -0.19216704 1.1203697 0.11993773 0.6698845 -0.4325952 -0.015380669 -1.3217641 0.16133986 -1.2597706 -1.1742325 0.662005 -0.048434224 1.0449363 -0.53448486 -0.72592765 -0.51796025 -0.18805775 -1.2455966 0.056603547 1.1548947 
1.7929536 0.3724347 -0.91965884 -0.64574283 -0.45430073 -0.28250155 0.528687 -0.55614525 -0.33719176 -1.1566167 -0.37811443 -0.090197995 0.35276204 0.42470366 -1.1844877 -1.4036559 0.68987405 0.42092568 1.04993 -0.09696487 -2.0282564 0.07672195 0.90214956 0.83998007 0.1504318 -0.4515143 -0.0073877047 0.4528539 0.18775581 -0.58133876 -0.50484407 -0.42298785 -1.4762698 -1.4505643 0.24628064 1.5390766 -0.019982759 -1.2777337 0.8032221 0.7478644 0.39556533 1.7367079 0.8182061 0.8998921 -1.0742126 0.46064258 -1.9247667 -1.0943762 0.030214883 -1.3025169 -1.5450423 -1.1958194 0.7651652 1.2354465 -0.8109425 0.15749443 0.90718377 -0.7090325 0.7101034 -0.15773724 0.15586747 0.41118655 0.29341516 -1.2805294 
0.76341015 -0.8310562 -1.6638329 0.23790468 -0.23616569 0.39360073 0.45601973 1.2322608 -1.443548 -0.17812723 -0.5026328 0.08351414 1.5111117 -0.97184855 -0.443629 -1.4138241 1.1285625 -0.95177263 0.9261635 0.39934227 -0.35198638 0.2601178 -0.22780977 0.8533664 -0.6652339 -2.1368527 -1.0706551 1.5705794 -0.02675645 -1.7173023 -1.2266804 -0.3401619 0.2720107 0.60330856 -0.30447006 0.4738957 1.1239663 -0.58944803 0.42450988 -1.0509412 -0.8135742 -0.22145864 -0.85633993 0.42825803 0.29339746 -0.049096685 1.228413 -0.19817595 0.10591706 1.3094736 0.48752928 0.32623363 -1.774798 -0.0772234 0.42462534 -0.1660766 0.33422795 -0.99828005 -0.34283507 -1.0717872 1.1581802 0.16574083 -0.54164803 -0.91936046 
1.439587 -0.023907172 -0.53815055 0.36329487 -0.46819994 -0.034675103 -0.10299241 1.6925459 1.6643227 -0.48423883 -0.7689264 0.5668233 -0.6084715 -0.020798752 -0.94522727 -0.59494245 -1.5467194 -0.059476167 1.6790855 0.07714502 -1.3343822 0.87179357 -0.56847525 0.27792165 -0.28863072 -1.3218935 0.5928146 0.5536578 -0.3269337 -0.7005022 0.6777324 0.4652212 -1.0733539 0.41596356 1.3073393 0.10884035 -1.4763274 -0.04968123 0.35623604 1.1803885 0.5296072 0.9998695 0.29859224 0.43373838 -1.2183495 1.4102286 -0.4294145 -0.9139955 -0.7646924 0.13686433 -0.55367863 -0.87114847 0.34413642 1.3632867 0.908783 1.0338824 0.11124267 1.0675356 -0.055468343 -0.2933227 -0.44073907 -1.5391074 -0.7621997 -0.08374444 
1.3493769 1.50173 -0.12311212 0.68523085 0.07840819 0.3310585 -0.09115403 -0.64925605 1.0768945 0.29861915 -0.39809757 1.0950716 -1.0866191 1.0771476 0.50806564 -0.9394745 1.3830998 0.1453513 0.5125832 -0.15146495 -1.1763203 0.07927984 -0.111116 -0.9812946 -0.39708546 0.32123265 0.8130832 0.20088938 0.11978023 -0.35942072 0.5107696 -0.5314342 -0.006664406 1.3265481 -0.73055595 -0.308584 0.4528168 1.3015642 1.0500983 0.50446653 -0.2608855 0.5622188 -0.8691991 -0.0067309886 1.2079499 0.14666922 -0.18162428 -0.69524956 -1.2454312 -0.11123169 -0.13845481 -0.15253593 -1.473454 0.31836024 0.36586928 0.13118608 -0.39986342 -0.1907301 0.24947387 -0.5449814 -0.031526923 0.4900701 -0.66870356 0.5780226 
-0.020872 1.4581856 -0.64023715 0.7951828 1.1912537 0.3087688 -0.22453861 0.26131102 0.555494 0.38607523 -0.03090898 0.3358526 0.57759064 -0.08893933 -0.5678732 1.1237592 0.23330195 0.5895408 -0.3974995 0.75276375 -0.467558 1.124431 1.0296857 0.33435118 -1.016556 0.2937192 -0.8577322 0.67608875 0.08373352 -1.4408603 0.89640456 0.22087291 0.17913982 0.45084298 0.24297604 1.5917885 1.1293108 1.7046779 -0.37463716 0.6311906 -0.45515853 0.5946011 0.7057761 0.37905726 -1.7043717 -1.0481229 -0.9112278 -0.8015432 0.8671929 0.7346503 -0.71868247 -0.3823509 -0.44426286 -1.3259486 0.917027 0.38065168 1.3804055 1.4799693 -0.41785207 -1.5215267 -0.917445 -0.050500948 0.8592206 1.8544332 
-1.3129022 -1.2431166 0.61621785 -1.027034 0.6571953 -0.0958184 0.13289444 1.1331091 0.9297338 0.105126925 -1.188676 -0.95736164 -1.4050034 -1.7516649 0.87001693 -0.57719666 -1.1391519 -1.0312299 1.1803824 0.014135517 0.0523809 -0.45758718 0.54917026 -0.96670467 -1.0192035 -0.033868082 0.61149013 1.145588 1.2765194 -0.88250947 1.5767926 -0.57507765 -0.42581922 -1.2036686 -0.6661371 -1.241102 0.27737933 1.0101842 -0.3507256 -0.49021536 -1.7286336 -0.5848788 -1.3366835 0.2695378 0.79373765 -1.9941984 0.28567144 -0.042306352 -1.1559803 -0.5855897 -0.48195407 1.3101523 -0.56666136 1.0178742 0.57182497 1.0190139 -0.12688543 -1.5180655 -0.33348238 -0.8070516 -0.36162454 -1.9951558 -1.6220623 -1.3228391 
-1.9745626 -1.4215963 0.06899089 -0.46638605 0.32810304 0.017112248 -0.11258116 -1.2241668 1.3741807 -1.1796577 -0.5528895 0.1141011 1.2353644 -0.916341 -0.34247684 0.39188024 0.523342 0.8661921 -0.92632675 -0.8724345 -0.5517734 0.9517823 0.12546293 -0.55988836 0.7578441 0.55700606 0.27370697 -0.40503472 -1.1007345 1.5588732 -1.4266278 1.1585493 -0.61900866 0.34768674 0.90187144 0.5840285 -1.1850019 -1.0312012 0.86503357 1.5001146 1.4938709 -0.6629925 0.99184984 1.1649975 0.27512184 -1.2672114 0.10537005 0.23005384 -0.6570966 0.051750667 -0.3557214 1.4513092 0.7448669 0.7944699 0.8778925 -0.5204515 -0.38157234 1.5132319 -0.24025232 0.62438786 -0.05721468 -0.5915998 0.07832937 -1.0515071 
0.16079661 -0.16151221 -1.4620103 0.44396695 -0.2260675 -0.75286525 -0.027460724 -0.6286604 -0.5622608 -1.2808425 0.7126466 -0.89113843 -1.2771441 -0.39485732 -0.90633595 1.5440044 -0.80552983 0.41969013 -1.0726037 0.8767323 -0.19840753 -0.101145156 -0.5803456 1.055435 0.8496271 -0.62080216 -1.006726 -0.6508988 -0.38121927 1.0167327 -0.21196526 -0.5911662 0.5658892 -0.16328503 -1.0346627 -0.15483324 -0.789107 -0.19479924 -0.033522177 0.2411007 0.43554613 0.1766247 1.2576007 1.1407491 -1.1597579 -0.078999035 1.1095076 1.4471269 -1.4357154 0.9078725 0.038521577 -1.0356666 0.9822265 -0.44062626 0.33085272 -1.0389956 -0.46729073 -0.1257309 0.027465776 0.6956634 0.55343443 -1.6612064 1.5272063 -0.84743035 
-0.28645283 -0.28237513 0.30413654 0.33037394 0.5848097 -0.43053073 0.85040706 0.13477363 -0.15955201 1.2573608 -0.5083345 0.5486638 -0.029223377 0.69791037 0.45603737 -0.5818893 1.2619756 -1.6266518 0.8548571 -0.40620127 0.27550104 -1.5462612 -0.82510126 0.53575903 0.7812528 0.7432829 0.21854056 -0.90541387 -0.75688607 0.88727635 0.85785735 -0.011111668 0.12911536 0.34319192 0.49273136 -0.6012338 -0.8119544 0.2714682 -0.17433468 -1.2074473 -0.07368594 0.9174947 0.7006991 0.29790208 1.3821316 -0.43621755 0.9152666 0.87573785 -0.2591586 0.45328203 -0.25011104 0.46360153 0.205888 0.04157853 1.0777626 0.08618851 0.9042799 0.9169406 -0.3091362 -0.84331185 -0.21452804 -0.48896018 -1.0316573 -0.4126735 
-1.0573914e-32 3.402146e-33 -1.8172347e-33 -1.9399627e-32 -2.9266497e-32 -1.6657609e-32 2.528886e-32 2.8997744e-32 -7.259772e-33 -6.7194615e-33 -1.6183319e-32 1.379806e-32 -1.7342118e-32 -9.733709e-33 1.9361115e-32 3.6886344e-33 -2.8186677e-32 -2.719168e-32 -7.373623e-33 4.2382486e-33 -3.1758942e-32 2.6853398e-32 2.341623e-32 3.9057445e-33 -2.5248346e-32 -1.03068924e-32 1.6014593e-32 -1.0755489e-32 -1.4122446e-33 -1.2180149e-32 -5.2058138e-33 4.102252e-33 1.641113e-32 -1.8176093e-32 -2.6110104e-32 1.8281764e-32 2.3707389e-32 2.2501946e-32 -1.2013331e-32 1.3689801e-32 4.851568e-33 1.6834509e-32 1.652229e-32 1.1747144e-32 -1.7221777e-32 8.379835e-33 -1.6053215e-32 1.2648055e-32 -1.920308e-32 9.809436e-33 1.0855759e-32 1.0893891e-32 9.946462e-33 -1.4649662e-32 1.2864792e-32 -6.0161316e-33 -8.838797e-33 -2.5943425e-32 1.8115762e-32 -9.573645e-34 -2.7705482e-32 1.4784101e-32 -2.8311764e-32 1.3524615e-32 
0.08227235 -0.96771944 -1.4898618 0.34084487 0.47144964 -0.56826514 -0.9239299 0.8847018 -0.7385057 -0.41177243 -0.6170157 0.6170944 1.5306708 -0.32282126 -0.2476713 -0.51368266 -0.26657915 1.5205966 0.3566966 -0.5736852 -1.7330308 -0.985155 -2.037369 1.0299386 1.3315178 -0.79612345 1.0448117 0.6075481 0.70988244 0.32787484 -1.2703933 0.14326707 -0.56468505 -1.7473196 -0.38414595 1.7868245 0.74667025 -0.49023592 0.83138865 -0.39622805 -0.5733193 -0.29725802 0.94317394 0.23120275 -0.14210172 -0.99915195 1.071332 1.221847 0.44528756 -0.8136532 -0.73324543 -1.0377628 -0.1603913 0.44875845 -1.2048482 0.09145387 -0.88310975 -0.3109812 0.9721362 -0.6984076 -1.1730883 0.7841472 -0.80406696 1.2519091 

-0.64258987 0.73185694 0.24640842 -1.2265558 -0.36772886 0.11968413 -0.42371985 -0.3562192 -0.22052267 0.7880313 0.13870509 -1.6384193 0.016015174 -1.2443869 0.38248268 -1.112677 -0.80366147 -0.30887616 1.1693461 1.3835435 -0.5371933 0.21217279 1.5543286 -1.4678354 1.8140029 -0.38383055 -1.6523823 -1.335675 0.015891239 1.8286884 -1.0057306 0.1773718 1.0897162 0.58963376 -0.04031157 -0.28163576 0.93827444 0.7978966 -0.46476486 -1.6708864 -0.26859695 -0.97801197 -1.2914367 -0.24111012 0.027695736 -0.016820481 1.1437004 0.31344092 0.35666424 0.6485753 -0.4397249 -0.14703794 1.6454825 -0.62312526 1.7037344 -0.22532134 -0.613815 -1.0160819 -0.22365583 0.044565387 0.34495175 -1.4678499 -0.5607071 -1.3516372 
1.4700278 -1.1572272 -1.6208072 -0.61436886 -0.56666255 -0.9329953 0.27984315 -0.989447 0.8661809 1.4663491 0.45290133 -1.9031923 -1.2806294 -0.0812665 0.055217043 1.2356231 1.1703984 -1.8845971 -0.7602943 -0.04027082 -2.0515373 -0.67451537 -1.21841 0.9341081 1.1784585 0.8865902 -0.8059663 -0.7479966 -1.3036772 0.8636747 1.1509533 -1.1414785 0.5656822 0.20129906 -0.97846913 1.2646314 -0.009896934 0.77890676 -0.27476767 0.051913314 0.85648257 -0.08969489 0.8838716 0.3089068 -1.4063197 -0.8657925 0.9492963 0.9155058 -0.9246713 -0.52340794 -0.1500431 -0.30450806 -0.30067888 -0.30055118 1.1150475 0.56877255 1.5070201 -0.21542163 -0.1680893 1.0682036 0.746936 -0.3121271 0.6934498 -0.0664218 
-0.86844355 0.034086622 -1.3479362 0.69354075 -0.18788527 1.6006861 1.8329608 -0.59808475 1.1417507 1.1123908 0.15726458 -0.20526692 -1.0466856 -0.18264678 -1.106338 -0.21706289 0.70896953 -0.12556705 0.1708539 0.19867463 0.63674235 0.777539 -1.6410185 1.8829558 -0.502219 0.32648078 0.5399505 -1.4927008 0.19527861 1.4047742 0.057303928 -0.8433181 0.37863722 -0.4272536 0.0777805 0.7465972 -0.8204081 0.20423284 -0.62666714 0.28718457 -0.23957054 -0.27269226 0.42327964 -0.49586642 -0.9691562 -0.83411 -0.910685 1.0475929 0.8054923 0.7805314 -0.40312293 0.15718254 -0.5834617 -0.77212363 1.4371358 -0.11904648 -1.0508088 -0.9351929 -0.30009842 -0.6130912 0.7831605 -0.14577106 -0.19733424 -0.4829127 
1.0168706 -0.78759664 -0.92295516 -1.6886001 -0.3692006 0.5118569 0.22578901 -0.6599058 -0.95102215 -0.12277458 -0.78499436 -0.22777534 -0.5772207 -0.41023767 -1.0568696 0.41284284 0.46604052 -0.8597391 -0.059542976 -0.20457229 -0.1721338 1.3227181 -0.7325421 0.9019005 1.1148559 0.5767252 1.498343 -0.94142145 -1.159209 0.2636733 -0.01831482 0.44720972 -1.1976634 -0.33951747 0.7280125 1.1587846 0.21021669 -1.1838135 -1.0046827 -0.99648434 0.9286891 -1.1572263 -0.44417766 0.059308533 -1.8780547 -0.7022043 1.6226236 0.8995607 -0.67098016 0.026514608 -0.75304216 1.0229737 0.4711217 -0.9039116 -0.0828773 -0.44008315 -1.2530127 -0.23392655 0.35235628 -0.40148172 -0.28725287 1.2132044 -0.21348414 -0.057882257 
-1.3515276 0.6866514 0.7040817 0.6298807 -0.6579058 -0.6485123 -0.5833329 -0.5809006 -0.6681455 -0.102399826 1.3173829 -0.99543244 -0.8692936 -0.07380543 -0.2992642 0.026281027 0.5900414 -1.422432 -0.20181924 -0.12047712 -1.2827201 -0.7104282 -0.07010115 -1.2140006 1.6575072 -0.48052138 -0.6793569 0.23115605 1.151612 -0.111430265 0.67702675 -1.1755122 0.5635097 0.66594446 -1.2843891 0.34441715 -0.18575361 -0.31099236 0.32730964 0.26410243 0.40354103 0.41678783 0.71568507 1.0766727 -0.82867354 0.97620916 0.72676975 1.0799642 -0.71705556 -0.9722423 -0.7502661 -0.5037328 -1.2296772 -0.08407693 0.6872442 0.43448675 0.27229163 -0.9216039 -1.3063794 0.592327 0.38213974 0.010855247 0.33206832 0.68110406 
0.76944774 -0.66762817 0.6432821 -0.3613192 0.99046016 1.7721497 -0.2219688 -1.470758 -0.61276835 -0.03030289 -0.49823293 1.2228408 0.2443641 -0.32001323 -0.10795413 1.3250098 -0.71691066 -1.0104868 -0.5369934 -0.31684786 -0.30387208 0.137853 1.2630625 -0.521975 -0.64436746 -0.64059126 -0.4196293 0.32406458 0.5486744 -0.7896825 1.3998398 -0.50425076 -0.602254 0.10186391 0.025463553 0.64952445 -0.6087679 -1.165311 -0.9416923 -0.3258447 0.9927974 -1.6090066 0.11478327 -1.2336935 -0.91162294 0.5487514 0.21622421 1.4008697 -0.45835498 0.3625333 0.72481143 0.24682158 -0.09032378 -0.21413809 -0.01981511 -0.026082914 1.2633214 -0.67421854 0.5953565 0.12607363 -1.1945965 -0.40755707 1.7277672 -0.166179 
-1.176033 -0.36086303 -0.8171234 0.4724498 0.38830078 -0.58269876 -1.3168684 -1.8111467 0.74085975 -0.7714302 0.6411749 0.3508189 -0.31843847 -0.95501107 0.8695754 0.3195716 0.66864806 0.75597996 1.5631253 -0.032299142 -0.3851705 -0.14536688 0.53874713 -0.4134256 0.33556136 1.4284233 0.20913608 -0.47713202 1.7306594 -0.7465227 0.7151372 -0.636171 0.39210328 0.039525263 -0.67705667 -1.3343759 1.15714 -0.7465957 1.5671028 -0.039464556 -0.11890851 -0.5828795 -0.06881783 -0.3685362 -0.16035418 0.5796129 -0.8151147 -0.6843478 0.16877352 -0.32377103 -1.3285551 0.4177284 -0.561532 -0.22718339 1.4121894 -0.12594761 -0.1636354 -0.3478884 -0.6585402 -0.51670164 0.9222932 -0.721195 -1.8867664 0.15692428 
-0.4531895 -0.22487739 -1.7750146 0.81574064 0.7004701 0.9564118 1.9297608 -0.7974928 0.3045795 0.667449 -0.53715307 0.47272852 -0.3121604 0.08595006 0.17615908 2.4787128 -0.8179087 -0.2814051 0.55267835 0.8235179 0.8550525 0.58886915 -0.75618386 -0.6132247 0.21785066 1.2992978 0.879863 -0.6624639 -1.1267716 0.48694813 0.20572954 0.09552923 -0.7526246 0.13509992 -1.8656617 -0.8485166 0.5713313 -0.93193704 -1.5050598 -0.479181 -0.4962497 -0.2507451 0.46373934 -0.5408011 0.08291225 -0.21421652 -0.67793876 -0.016378539 -0.24080876 -0.13901024 -0.66109806 0.6228123 0.69765776 -0.68993545 -0.42237344 -0.5665511 0.34776232 0.9356662 0.40742368 -0.24036942 -0.078801304 1.2619262 0.39091948 0.4704345 
1.5554144 -0.9156675 1.5461389 1.6517968 -0.5775813 0.038470317 -0.54404396 1.7542297 0.64862585 -0.988896 -1.1664149 -0.36735067 0.7270191 1.6218812 -0.9118359 -0.48902726 0.59385026 -1.2725118 -0.47347313 -0.4107415 -0.5503501 0.3129151 0.052719936 -0.44535527 -0.69948924 -1.6161511 0.48017022 -0.033530306 0.4786115 -0.24533887 -0.022544561 0.52256554 -0.21663192 -0.85701877 -0.048000593 -1.8178151 0.51423067 -0.41561526 0.70254695 -0.31597596 -0.23244049 0.8351687 -0.921654 0.6888251 -0.29851422 -1.151646 -0.76005334 1.3031533 1.0334388 -0.10600325 -0.6669004 0.39124402 0.83077145 0.24610877 -0.07011759 -0.09443441 0.07023373 1.8694224 0.32196337 0.73033357 -1.1292683 0.22567447 -0.677544 0.5793353 
0.36069262 0.7490365 0.049572356 -0.24899185 -1.3923905 -0.25720346 -0.17075887 1.1786723 -1.4800525 -0.78588825 0.6434902 0.009959566 -1.0576462 -1.044412 -1.1361579 0.86755973 -1.2274665 -0.87776566 -1.1828775 -0.2842254 0.025834251 -1.037095 1.7247146 0.07525624 0.6913765 0.35335615 -1.8792143 1.1351198 -0.25764692 0.0027686334 -1.1718208 -1.2733331 -0.5996328 0.1950964 -0.9828073 -1.6411902 -1.2686768 0.4442839 0.23386864 0.92087126 -0.15147181 -0.8322162 -0.3157616 -1.2877982 1.2869157 -0.60116297 -0.39182755 0.87946993 -0.4592204 -0.3139353 0.34785905 0.87261903 1.2832328 0.6671157 0.056946404 0.7540267 -0.0531434 -0.09136393 0.0029529617 1.1854817 -0.44928378 -0.71351165 -0.86338633 -1.149052 
-0.26040828 1.3520706 0.08292426 -0.9273019 -1.05433 -0.20237795 -0.41067314 -0.10790952 0.5243238 1.6417983 0.0043416745 -0.56324327 1.6113554 -0.20437422 -0.66526973 0.18141025 -0.82945544 0.056780327 -0.27885652 -1.1148812 -0.35287046 0.5250878 0.8834339 -0.9367258 -0.2235466 -0.3326794 -0.66218984 0.09091026 -0.05927997 0.12559688 1.4502419 -1.6006925 -0.088347346 -0.04529571 -1.423343 -1.0991274 0.92191666 -0.088338815 -0.3302559 -0.53563875 -0.3739761 -1.3497725 0.41849703 -0.21755835 0.40469396 0.12152908 -0.60724044 0.067821786 -1.0291857 0.4391948 -0.5947986 -1.1629511 -0.3629609 1.9796242 -0.81098914 -0.5703827 0.3170204 -0.23773892 0.92496043 0.8234813 1.3490798 -0.30277446 1.1142015 0.99504745 
0.55686057 0.24902163 -0.14970842 -0.63399196 1.7539836 -0.09375865 0.4398004 -0.09648988 0.31496376 -0.7849571 -0.23863983 -0.7384492 -0.14201933 -0.7814057 0.34416494 -0.118625134 -1.0365547 -0.48885706 -1.8439713 0.5911099 -0.25555515 -0.72643423 -0.15764892 -0.6793981 -0.1513969 0.014453609 -0.41091806 0.021487977 1.165174 -0.8283617 -0.95103467 -0.8711974 -0.38873568 -0.11660904 1.4879904 1.7218022 1.066786 0.11614507 0.23240715 -1.7628132 0.27786064 -1.3239607 1.1231194 -1.1737812 -0.38943154 0.021271037 -0.22993834 -0.60321176 1.1329474 1.623587 0.34468216 -0.14660814 0.6740777 0.55548424 1.3505512 1.5674621 0.62907875 0.06221116 0.010251011 0.35991043 -0.31237566 -0.0015658471 0.7162421 0.41895744 
