0.6979613 -0.20970815 -1.2361002 -0.33897248 0.12069937 0.2115048 -0.013811224 -0.5835741 -0.63921183 0.9889173 -0.4967926 -0.62195516 -0.24232814 -0.013562757 0.35084286 -0.083158426 -0.12565567 0.034739424 0.31642017 -0.41272727 0.29853553 0.5812014 -0.66577 0.44570482 1.082897 -0.7890326 0.7651158 -0.48577496 -0.18726887 -0.40069628 1.9578179 -0.44130298 0.37230968 -0.3510458 0.044986382 -0.3051655 0.4782469 0.9592592 1.0781397 -0.08241678 -1.0870105 -0.50176585 -0.15115432 -0.31479004 -0.55116284 -1.2102576 -0.7971523 1.4504514 0.5034744 -0.94568187 0.16962062 -0.98337394 -1.871552 -0.34059206 -0.3660448 -0.5017375 0.92169094 -0.11899929 0.1631433 -1.1099082 0.8517953 -1.0495635 -0.36836636 -0.016099164 
-0.79448485 0.05055776 0.9026867 1.0724869 -0.46918532 -0.6455653 0.0748151 -0.80003613 -0.19541766 0.1268059 -0.97932196 -0.57694703 0.05107741 -0.04718594 -1.6549209 -0.710875 0.5379037 -1.6923628 -0.52364033 -1.225435 1.3735763 -0.80774504 0.19729577 0.52051723 0.48613733 -0.20774253 -0.23612393 1.0640873 0.014608421 -0.18854363 -0.032241922 -0.35928708 -0.6468645 0.14749824 -0.060091354 0.37352246 0.77657723 1.0396993 0.35887703 -0.15131319 -0.9004867 0.28030792 -1.5597098 -1.6712075 -0.010108222 0.4611146 -1.1186873 -0.30562872 0.4496327 0.2902251 -1.5951837 0.94520926 -1.3101501 -0.32589278 -1.4206567 1.6297495 0.25747108 -1.1405859 0.027664948 -0.7685019 -0.02430309 1.723376 0.26211044 0.5249746 
-0.010112674 -4.736979e-09 -2.2658377e-20 -2.883507e-05 9.8216366e-11 0.020632418 -7.17146e-18 0.007878361 -4.4981915e-10 4.5377536e-22 0.00021601653 -0.026247473 -8.211465e-06 4.946441e-32 0.0083547905 0.0069691683 -4.4780074e-05 0.011140227 -0.0025239757 -8.4473775e-32 -1.539246e-09 0.008867321 3.4783404e-18 1.0069312e-12 -0.00025753054 2.451728e-06 0.00069038343 -1.5198524e-31 -1.0691734e-30 -9.7224585e-32 8.7468004e-05 3.9074656e-08 0.0047529833 -0.00011670809 -1.0736814e-31 -0.0011101507 -0.0008615287 5.4156924e-08 -0.17363073 -6.406225e-07 -2.6932998e-06 -2.4860947e-05 -0.000112725545 1.5700311e-07 6.91816e-07 -2.1620095e-09 -7.78018e-14 -2.9390192e-05 -0.017965851 -0.005127119 -5.062577e-07 5.7031913e-28 0.14341505 1.7255215e-11 -6.785958e-13 -0.014049344 0.016639264 -0.0028881563 -4.561489e-07 2.4454975e-11 4.36945e-09 0.0019138206 -2.1393065e-12 -3.592089e-06 
1.215924 0.5912731 -0.16046521 -0.026470331 -0.0020550196 -0.5166628 0.7850797 -0.19055052 -1.1017295 1.1604484 -0.38491347 -0.6403591 -0.5468822 0.07209654 -0.45505875 0.26078424 0.58813953 -0.20880462 -0.26528364 0.5085935 0.062265404 0.42301014 1.2253873 1.0839012 0.11752752 1.1401662 -0.76569104 0.5540348 0.023220634 -0.22760814 0.8886706 -0.9500504 -0.746839 -0.065308616 0.8655672 0.24672166 1.231476 -0.23591623 0.60150707 0.41045564 -0.6174793 -0.02146668 0.5211071 0.23822129 -0.26271155 -0.8012817 -1.9114826 0.2026864 0.21208172 -0.1042074 -0.5061546 -1.0572823 0.36455375 -0.103472166 1.7200208 -0.44728005 1.3617437 -0.055453233 1.2587961 -1.1438897 -0.5835034 0.9948241 -0.011359151 -0.7977065 
-0.11062562 0.12139121 -0.25255868 -0.1378649 0.08336541 0.4449898 -0.21634607 -0.06602219 -1.5623307 1.1469526 -0.31676424 -0.07772063 0.38967308 0.18136059 -0.46850672 -1.2168043 0.5647647 -0.37198958 0.19781876 -0.22041279 0.67777026 0.65381086 -0.15961657 -0.81392 -0.5045198 -1.5023106 0.5409457 0.90648687 0.0009685093 -1.1079288 -1.0280502 0.0067448015 0.0039782277 0.42307386 -0.3992192 -0.3416965 0.40065923 0.28510582 -0.2701374 0.9466563 0.27423012 -0.05399942 -1.3087159 -0.5126599 1.0975198 0.10618665 0.15520261 -0.47829717 -0.63838094 1.1708235 0.3949558 -0.11688768 -1.1389339 -1.552447 -0.19329886 0.1662537 -0.6215767 0.553748 0.17926364 -0.26966134 0.034285747 -1.5917127 -0.46744868 0.757529 
-2.1108668 0.38442948 0.47800007 1.098844 -0.47169322 -0.47796705 -1.1578587 0.8493346 -0.23158157 1.0052067 -0.8206719 1.1912583 -0.83405954 -0.013784725 1.0683271 -0.26201063 0.80743885 0.63138443 -0.33531684 0.49715993 -0.38416085 -0.509913 -0.29140714 -0.5540509 0.30011743 0.7291167 0.78301656 -0.0473701 -2.1293676e-05 -0.24856147 -0.5731463 0.31086245 -0.8614078 0.6101641 0.33866185 0.16156834 0.8599827 -0.7309925 -0.10118308 1.4110886 -1.354527 -0.8535039 -1.0158356 -0.28149417 -0.7301817 -0.29410776 -0.027592849 1.2521586 -1.5952654 0.99362975 0.8166365 -0.14417244 -0.3082977 1.0806687 0.5773367 -0.009830365 0.20197704 -1.8864766 0.8305944 0.45799324 -0.35829 1.2592843 0.036703516 -1.5921843 
0.4722924 0.7446701 0.25443387 0.7782441 -0.69735855 0.5091728 1.2929499 -0.8711115 -1.0376126 -0.42805845 1.777295 -0.08447575 -0.6673165 -0.22281893 1.1127864 -1.2618835 0.29596058 -1.1332012 0.7434593 -1.071857 -0.035019413 0.9267923 0.21915892 -0.04295731 -0.9865848 -0.20372058 -1.961771 -1.4673887 -0.2176878 -0.034899756 1.9239717 -0.410481 -0.20216854 0.39089212 0.67554533 0.08490874 -1.7660161 1.1808501 -1.5858905 -0.068901435 -0.69932485 -0.15904084 -1.4117371 -0.3896559 0.49112463 -1.4869467 -1.4927943 0.07909646 -0.06580983 -1.1412671 1.2405047 0.8474013 0.46373856 -1.1559306 0.95552725 0.23867108 0.30265588 -0.2520387 -2.1042907 -1.3028245 -0.6486947 -0.5235339 0.8424225 1.2657006 
0.32288086 -0.20061684 0.039418366 0.92297196 -1.5473092 0.3091279 -0.030317856 0.064106904 -1.0255941 -0.13883336 -0.8721963 -0.07713629 -1.4454213 -0.0023812975 -1.0404222 0.28885242 0.65587753 1.8504122 -0.65792114 0.028257327 0.090807214 -0.71178347 -0.08737009 0.07678024 -0.9345862 0.07000729 0.63702774 -0.23784272 -0.0014881371 -0.050473373 -0.19319645 -0.31985882 -0.2734898 -0.6409177 -0.52877396 0.101631366 -0.6723412 -0.39481723 0.29122368 0.3721116 0.4519804 0.08859774 0.5397094 -0.7223083 0.97607654 -0.2134507 -1.1074367 -1.3904505 0.6936499 -0.3219167 -1.4274935 -0.018064968 0.38216928 -0.10887189 -1.4033338 0.69889665 1.1646012 0.7049489 -0.901373 0.9207124 1.1118282 -0.38424864 -0.088999525 0.96757096 
-0.5801833 1.6391565 1.5189595 -0.7566502 0.4064071 0.3962376 -1.1789937 -1.1635629 0.4691858 -1.6873331 -0.3486628 0.30217925 -0.44759572 -0.032073542 -1.7453935 -0.16278742 -0.8057609 -0.7010337 0.32080877 0.9781023 -1.0081636 0.2029676 -0.7392096 0.6786409 0.45224887 1.3375438 -0.98043144 0.7074378 0.2481075 -0.45390964 0.1940385 0.3619342 -0.79772747 0.7951451 1.4285249 -0.5022282 -1.0047699 -0.36609355 1.6150236 0.210715 0.050920144 0.6625042 -0.7510009 0.27579823 1.9497021 0.69526696 -0.49671042 -0.5290651 0.28634652 0.5867495 0.009151466 -0.9168293 -1.1931188 -1.5936761 0.4942397 -1.468795 0.5628875 0.8906261 -0.15277192 -0.25434744 -1.0075586 0.9554892 -0.85702133 -1.496632 
1.2126714 -1.5361192 0.14750639 -0.61769676 -0.14266285 -0.070720114 -0.9111181 0.8354742 -0.16992986 0.6889719 -0.19653267 -0.91746855 -1.2957776 -0.040712565 0.13698211 0.65017396 -0.40358114 0.5278925 0.6541762 0.48861948 0.84588015 -1.4387878 -0.8597657 0.25646022 -1.08363 -0.13600662 -0.101304196 -1.4540466 0.040310413 -0.8586734 1.0012239 -0.27939323 -0.5175618 -0.35808343 -0.70666015 0.72703344 0.027372807 0.014462047 1.3477874 0.56920046 -0.9480683 -0.5646617 -1.5394133 0.78042924 1.9093934 -1.3400469 0.2209422 -0.96497935 -0.6002214 -1.3880334 1.0822235 0.34484404 -0.6085269 -0.22237608 -0.7346498 0.013391478 -0.47512043 -0.3042282 1.1431124 -0.08027461 -1.3712947 0.46058935 0.8691976 -0.12019537 
0.94086695 -0.24817984 -0.1509549 0.27288938 -0.56086993 0.8792066 -0.71964365 -0.8920567 -0.9298673 -0.88163793 -0.22198601 -1.2665377 0.9845215 0.1692344 1.7098513 0.73288345 0.08543272 -0.4646284 -0.68800974 -0.57682174 1.0708439 -0.83013815 -1.2776916 -0.9215468 0.7350314 0.82392484 -0.52341014 1.4794103 -0.047605306 -1.149876 0.326376 0.95224625 0.95695686 0.12444891 -0.96274036 0.7978096 0.7592692 -0.819803 0.05362799 -0.27583864 -0.37768525 0.682894 0.39851785 -0.1642379 1.8112874 -0.7674588 -0.17267774 0.35295898 -0.87393886 -1.0094253 -1.3113071 -0.6474135 0.50745004 0.79824287 -0.7526931 0.5832918 -0.711894 1.6844933 1.3009211 0.25128102 -0.7243151 1.5445389 1.3534234 0.54846257 
0.25475317 -1.4337658 -0.3265025 0.29401425 0.97647846 0.41186774 -0.6996182 -1.3295895 1.0291581 -0.8596843 -0.6377206 1.0296285 -1.2148362 -0.035109445 -0.28186417 0.5844094 -0.6670544 0.9030024 1.025196 -0.34107152 -0.045232136 0.32083642 -0.31129688 0.2987804 0.19869684 -1.218783 0.14955781 2.1366687 0.098631136 -1.0208023 -1.5620086 0.53148174 -1.159809 0.86295426 -1.3564236 0.7466315 -1.2088012 -0.17269838 1.4046364 0.35454088 1.2234547 0.3045625 1.3276577 0.09928768 0.7837647 -1.0698612 -0.95125693 0.5766691 -0.3224712 1.1759604 -0.8187753 -0.6763659 -1.7510583 -0.2084705 -0.16699928 -1.101698 -0.8780136 -1.9931976 -1.4111732 -0.13893959 -1.3187735 -1.1252388 -1.501575 -1.3966107 
1.2415767 0.65804183 1.1639612 -1.283691 -0.23014894 -0.18520619 -0.9138823 -0.43838662 -0.32931715 -0.7742603 1.2368033 0.1817274 -0.0969861 0.45008913 -0.571127 1.0740036 -0.3174766 -1.4868093 1.1596686 -1.7639424 1.2555176 1.2342045 -1.3593335 0.49401054 0.7988379 0.036219407 -0.54733753 -0.63052285 0.22730318 -1.2213898 -1.1131275 0.45624653 0.17983761 -0.28789908 -0.83682394 0.88523334 0.28783253 -0.163494 0.057738338 0.58258873 -1.1572567 1.2261196 0.65940684 -1.0371804 -0.11195051 0.14009021 0.23312292 0.57110196 -0.42570305 1.4949539 0.42720836 0.015340136 -0.30750984 -0.024744473 0.49664158 -1.0149388 -1.1115558 -1.4761263 -0.15316108 -0.10544854 -0.60550004 1.1176167 0.8724459 -0.5091835 
-0.33301243 -0.7145574 -0.24623889 1.2214113 0.025486818 1.5115014 0.980153 0.26630834 -1.1482849 0.6653552 0.63244545 -0.7323469 -0.13594875 0.053015944 0.16903318 0.5443168 0.60785973 0.65249014 -1.521695 0.61353415 0.6643973 0.26519877 0.011920564 0.7098477 0.61399466 -0.5403662 0.100868054 -0.6746845 0.5467853 0.16670582 0.55584747 -0.92907304 1.0836536 -0.5369648 -0.059518773 0.24728851 -0.51564443 0.074035175 0.82419306 0.3345905 0.63666093 -1.431175 1.2020586 -0.9559616 0.9059824 1.0290855 1.1764832 0.47040892 -1.0873467 -1.1444367 -0.62653077 0.26268724 1.3557478 0.14540789 0.6264243 1.3648605 -0.9644912 -0.5838083 -0.920057 0.9419752 0.5759157 -0.48436293 0.44285628 0.26486868 
-0.016309714 1.1923687 -0.32613876 1.7980344 0.94006646 1.1838381 0.9809436 1.6613388 0.39566028 -0.20791046 -0.20098643 -1.7802856 -0.15182884 0.13038135 1.1039922 1.0640153 0.7207498 0.29010382 -0.43370318 1.0866541 0.14087565 -1.7539568 0.02056112 0.02440129 1.430605 1.1307509 -1.0815859 -0.5057903 -0.2463956 0.16822425 2.230102 -0.92506003 -1.6767914 0.8002617 0.9630513 -0.45837185 0.42891243 0.54296094 -1.6583304 -1.5962703 -0.25477418 -0.651114 0.8262853 0.6889084 0.99279344 0.47077402 -0.44011235 1.6397523 0.6186292 -0.66714454 -0.9157649 0.029757133 -1.4348465 1.5126936 0.18655331 0.75511634 0.19726798 -0.6612024 -1.234866 0.8345445 -0.6293695 0.7016538 -1.0243961 -1.8904265 
-0.163284 0.1492743 0.029846758 -0.30602545 -1.143078 0.6966339 0.3226534 -1.4300543 -0.840125 -0.6882747 -0.79114056 0.4172611 -0.8005413 6.1400794e-07 0.024325226 -0.45396647 1.0526242 0.199301 0.7354913 0.0001385101 0.004903903 0.16617616 -0.19246346 -0.3186679 0.0015485948 -1.2404141 -0.059546646 -1.1825514 -1.8622282e-13 -0.8900177 0.74305785 0.07774611 -0.74991196 0.15057531 0.02135 -0.86541975 0.0082231015 0.30144593 -0.33580276 -0.30180183 0.28410998 -0.84647954 1.0048229 0.37922865 0.31756735 0.0612875 -0.02827823 -1.0597653 0.50460607 1.098573 0.6110805 -0.31841218 -0.34009206 -0.61350465 -0.587981 -0.69133574 -0.9132493 0.60332745 1.3649207 -0.0072368253 0.31661296 -1.1767014 0.35984302 -0.21546303 
-1.1329841e-31 1.179627e-31 4.0526546e-24 1.2090794e-31 9.0302205e-32 0.020843597 9.1657044e-32 -0.014766925 8.58651e-06 7.840004e-28 9.89937e-32 -8.8360894e-32 4.9093514e-32 3.0346874e-32 0.010814902 8.245781e-11 -7.313065e-17 -3.351997e-08 0.000876819 -4.299765e-32 -6.8290115e-32 -0.00656351 0.0087649245 -9.814766e-32 5.6853284e-32 -1.1884096e-06 0.0070701493 -0.008810165 -2.6616148e-32 3.5001629e-32 -7.334128e-32 4.921934e-06 -1.886072e-08 -0.0015752997 -1.142521e-31 -0.015347706 5.109335e-32 7.317324e-32 0.01889771 3.3533486e-12 -0.021098385 0.009218085 -8.7450485e-32 -2.2919678e-18 3.700883e-32 -6.473353e-27 -6.2691385e-29 -5.573826e-24 0.019074544 -1.5642195e-08 3.3334537e-30 7.7004754e-32 4.448761e-08 2.9959946e-09 8.115782e-32 1.01940565e-11 -4.048625e-32 -0.0166877 5.116855e-17 0.007892938 -1.011445e-31 9.243639e-32 1.0776758e-31 -3.472802e-19 
-0.59099954 -0.291706 0.11820032 -1.3726918 0.6049776 1.0546145 -0.6203878 0.91106135 0.8398231 -0.17066136 -0.71905077 -1.3678479 0.047278136 0.4921342 -1.893598 -0.26560342 -0.15924105 -0.1052546 -0.0792199 0.27280113 0.69598466 -0.46637106 0.09178066 -0.965651 -0.83747154 0.7709078 0.019070273 -0.071099065 -0.56456405 0.8379693 -0.06768518 -0.4673478 -0.9550133 -0.13723248 0.7164342 0.22595216 -1.7515026 -0.6051263 -0.39773428 0.6090778 0.34819123 -1.0437113 -1.1172389 0.46340513 1.4546874 -1.1152701 -0.25982657 -1.3381848 1.4757999 -1.1975039 1.0517919 -1.353168 -0.2047522 -0.43145636 1.0655745 -0.48939094 0.55694264 -0.60578144 -0.66283065 -1.6207781 0.37754208 -0.021447856 -1.7058954 0.08329244 
0.4351108 -0.58095515 -0.9438975 -1.3452386 0.014253584 -1.853037 -0.1837231 0.83858126 -0.8693482 0.34807885 -1.1921082 -0.72539055 1.5296272 -0.080254436 0.28203988 -1.6447145 1.3276932 0.5227058 -0.1680973 -0.42220342 -0.39800477 -0.3826179 0.5407696 0.22156294 -0.70120376 0.13632165 -1.4821576 -0.57548654 -0.10923804 -1.439375 -1.7055252 -1.0249046 -0.06784513 -0.03237699 -0.6161576 0.56366026 0.5963306 0.21820986 -0.6784701 0.10269281 -0.7867079 -0.481817 0.3951843 -0.07611868 -1.7118818 1.5747494 -1.4819859 -0.74282956 0.50416356 -0.68471885 1.3606809 -1.1658769 0.62927383 -1.4348131 0.9770173 -0.00444202 1.6720394 0.9399208 -0.26366794 0.04518843 0.10143078 -1.0069244 -0.695207 -0.39963076 
-1.0366673 -0.25219268 -0.3073845 -1.3710446 0.4344697 0.8875294 0.8002516 -0.56585085 -0.8191861 0.18467237 -1.0520946 -0.9610111 1.6335243 0.005780455 0.93442386 0.7609122 0.73040766 -1.0722722 1.3346181 0.58510333 1.0796207 0.2926202 -0.22086832 -0.44184178 -0.060773026 0.17065819 -0.6730854 0.5681756 0.009839683 0.8189554 0.2507011 -1.1700177 0.33665362 1.6198667 0.39130515 1.0871395 -0.6791236 0.048066795 -1.5763359 0.37739268 1.2979046 1.2690437 -0.7356765 0.21155791 0.6638862 0.9892963 0.7697435 0.69216406 1.3229057 0.32917884 0.2101522 0.31130627 -0.8967797 -1.2598528 1.4987268 0.35801733 0.2769663 0.8772014 0.14985004 0.2123361 0.04941139 -0.07209891 0.1823705 0.21667254 
0.13748533 0.046350893 -0.5029779 0.96793324 -2.053341 -1.3366677 -0.5055512 -0.048454836 1.1560493 -1.0539058 -1.4072783 -0.8351485 0.42602104 -0.4291108 -1.3071929 1.1995529 -0.40138602 -1.029973 0.7294549 -0.31231654 -0.9192396 0.2524687 0.48333067 1.460624 -1.6477544 -0.026140736 -0.53681135 -0.25466987 -0.16030271 0.57426363 -1.1500639 -0.79517627 0.06633228 -1.1768794 0.66199476 -0.22533405 -0.8704594 0.87633044 0.84564847 1.757862 -0.5439445 1.7266098 0.4984668 1.4328517 0.25979143 0.32362226 -0.97516525 0.56871563 -0.75326085 1.3172481 0.18562254 -0.84206307 -0.43825293 -1.6510063 1.8779335 -1.0915337 1.0354857 -0.7691895 -0.6351697 -0.35637105 -0.01433 -0.3580175 -0.9918603 0.4254018 
-0.9469998 -0.6830773 -0.051362555 0.76989955 -0.35340115 -0.27974507 -1.0986692 1.1953896 -1.215057 -0.067981586 0.69402456 -1.7999663 1.8312356 -0.059488144 -1.0097439 -0.21482946 0.6809348 0.4544917 0.6869259 -0.9567127 0.6418425 1.0162593 1.0641284 -0.93129456 -0.024840174 -0.32825 1.0986534 -0.27923733 0.26506916 0.4650593 -0.51226526 -0.70758635 -0.7456322 0.08810338 -0.19031262 -0.43895563 1.3191681 0.7867228 0.13736035 0.72539383 0.3978872 1.0068326 -0.2877317 0.53759086 -0.08052082 0.49862212 -0.89708936 0.27719516 -0.022305628 -0.3624276 0.4678164 -0.3280468 1.3487424 1.5276645 -0.10272894 -0.60448045 1.9770583 0.37389916 1.2293149 -1.0928298 1.7372458 1.6664225 -1.6706036 -1.9911809 
0.25634542 -1.1270336 -0.028290406 0.9075298 -0.23962608 0.108048625 0.4082453 1.0364828 -0.6932911 -1.0763212 -0.36623707 -0.78492653 -0.9499915 0.0010821468 -0.7420596 -0.9167787 0.20697355 0.73546547 0.6612993 0.45045042 0.7745629 1.620445 -1.1048249 -0.5263195 -0.66709566 0.43211934 1.0704374 0.63399976 0.0031744817 0.71839094 -0.36821505 -0.44759515 -0.21732955 -2.1929328 1.0744653 0.07819843 0.88392717 -0.111443534 0.092877716 -1.1359249 0.8669957 -1.0670584 -0.6780109 1.302457 0.8266745 -1.0674992 -0.26806474 -0.6099573 0.4602727 -0.6496264 0.23122947 -0.26472586 0.69444156 -0.84446347 0.34871435 -1.0316265 -0.86777836 0.4149813 0.77965003 -0.025874821 0.1721765 0.78074294 -0.097186096 1.3028572 
-1.124907 0.10840591 -0.41141388 0.60219485 -0.3322702 0.9934067 -0.8380134 0.8544961 0.6383101 -0.11678975 0.025419109 0.30375063 1.4281774 -0.002675609 0.1720392 -0.27055994 1.8724724 0.042230867 0.603221 0.06741573 -0.10220233 0.90173835 -0.57767564 -1.56623 1.0232038 -0.8004026 0.60556775 -0.6318419 0.011111035 1.5430957 -0.32694322 0.018550126 1.1615953 0.15238865 0.9325028 0.97299814 0.11260807 -0.26902777 -1.6868719 -0.66668886 -0.33035126 -0.2772751 -0.5288141 -0.26913998 1.0953455 0.07001035 -1.1896565 -0.25530896 -1.8383129 -1.413391 0.09246188 0.7344273 -0.62525505 -1.361405 -1.0198756 -0.3489091 -0.53034663 -0.68985814 -1.1078961 0.1858133 -1.1676 -0.32058218 0.9781607 -0.6901403 
-0.26858988 0.10511687 -0.2491694 -0.6012598 -0.67283374 0.20118135 1.9125259 -0.42143673 0.06657103 0.11716344 -1.6490692 1.0862551 0.9085845 -1.3243602e-08 -1.653256 0.7906382 0.6668703 -0.9824325 0.2169317 0.099364944 1.3053154 0.90956736 -0.63177395 -0.13951927 1.3825055 -0.7307543 0.34138846 0.19381836 -4.127163e-05 0.96287197 0.6526054 -0.3433197 0.6244932 -0.0883054 0.8088187 1.5887221 1.7421288 0.23257634 -0.28278157 -0.3584031 0.81626874 -0.6458058 0.42785132 0.24644998 0.8775694 -0.16289687 -0.3255151 -0.35944062 0.93377537 -0.19986513 -0.12410068 0.07348777 1.0443176 0.4063481 0.23286037 1.2171696 -0.14314544 0.3726222 -0.32681856 1.0723047 0.7175941 1.5448146 -0.94324046 0.22763631 
-0.60312736 0.5592546 0.63291484 1.4962428 -0.036941458 -1.0338482 -1.1152072 -1.3228002 -0.8584202 0.1616183 0.2917093 0.06938133 -0.040097054 -0.3169776 0.14965501 -0.243269 -1.6131474 -1.0355766 -0.31346506 0.04468356 0.3041485 0.9487465 0.36658502 0.48303384 0.71224314 -0.11273782 1.6512028 -1.0911874 0.23753892 -0.5313377 -0.15489393 1.6627115 0.29615617 0.44984472 -0.58950746 -1.6983742 -0.31374177 0.58907783 -1.1440846 0.77561724 0.7515965 -0.66728526 1.4714969 -0.313926 -0.0509517 0.77478373 -0.7233848 -0.7063485 -1.875495 -0.5266082 -1.0016402 0.7535322 -0.4168209 -0.8042054 -0.46769872 -0.39224023 -1.7919818 -1.0925324 0.11558425 0.15977024 -0.55889624 0.22205256 -0.8121128 1.0921516 
-0.27661052 -0.8967399 -0.15445885 -0.53401285 0.9608554 -0.5427086 -1.6483855 -1.4899079 0.24009968 -0.6470678 0.36740732 -0.94380224 1.3371124 0.46595094 0.802654 1.5823046 0.65889287 0.8834117 0.34891158 1.0773317 0.91566455 0.6524598 1.1524699 0.019880561 -0.41456646 1.4877074 -1.5664074 -0.5434766 -0.16803554 -0.9648131 0.8195558 -0.061570693 0.59613436 -0.2139223 0.37506446 1.5057684 0.37208828 0.91329235 1.9438539 -0.44976836 1.1542344 0.20361951 0.50031495 -0.6390333 -0.14740106 -0.9960973 1.3937019 0.5205455 -0.0004933252 -0.7562672 -0.36978582 0.70519686 1.0309597 1.0989515 0.404943 -0.32013983 0.89055306 0.35856095 -0.96031064 0.07994587 -1.3084491 -1.0362833 0.30910975 -1.1983532 
0.8755385 0.59883946 -0.16547868 -0.15775725 0.30319932 -0.2562166 0.48856774 0.08274928 1.0267996 1.1503597 -0.54316646 -0.83758205 -1.3421297 -0.026078127 0.41244492 -0.6961143 -0.26669496 -1.3813193 1.3858677 -0.15323412 -1.9612087 -1.413263 0.39434767 -0.17234427 1.0031611 0.44973436 -0.41809532 -1.6265395 -0.0059449375 0.4925802 -0.16602519 0.0886516 -1.7487769 0.4416355 1.0263135 0.02028574 0.9681566 0.5538466 0.3457752 1.3830512 -0.64489096 -1.1189134 0.9063357 -0.49707013 0.50923467 -0.7852864 -1.1006854 -0.62035024 1.3750765 0.7401668 1.0476954 -0.36651927 -1.4431335 0.007412778 0.87566614 0.67550635 -0.5524203 0.6251455 -0.53979397 0.45659754 -0.040912714 -0.5697099 -0.2693934 0.9650276 
-0.28234613 -1.3284682 -0.790366 -1.4319773 -0.40428916 -1.5049344 1.1457251 -1.8268495 -0.5084562 0.40194914 0.51794326 -1.5935591 0.9490632 -0.3650183 0.39328358 1.0545723 -0.11767971 0.25555372 0.37637028 0.3446083 1.0001501 -0.45342848 1.1159565 0.7552321 1.159619 0.14616065 -0.7219659 -0.4385156 0.23338176 1.871654 -0.14591654 0.17538805 0.97562724 -0.51628965 -1.2344564 -1.1791214 -1.3434582 -1.8626952 -1.0258831 0.75401264 -0.0007739322 -0.02388855 -0.12974444 1.0862193 0.09973298 -0.9027184 1.3598384 -1.0273439 0.35646704 -0.04538796 -1.7285088 0.91696566 -0.6250586 -1.4857782 0.35791895 -1.1141231 0.058158584 1.0360087 0.48307496 -0.1436127 0.36421072 0.43007034 0.51188356 0.28328356 
0.9206916 -0.8130793 -1.1161829 0.22779907 -0.62026584 0.22969085 -0.2849332 0.4654129 1.4267908 0.3232061 -0.3365324 -0.609677 -0.30295998 -0.08123005 1.9473597 1.1700013 -0.08129457 -0.4015215 -0.51718 -1.2129818 -0.90831286 0.99036986 -0.07355642 -0.096971445 -0.053385522 1.0183816 1.3325386 -0.6277343 0.520488 0.32302606 1.7103903 -0.6757063 1.0248268 0.14206512 -1.424423 0.6332794 -0.45952642 -1.4767852 1.084996 -0.97747976 0.39150763 1.0774822 -0.07836316 -0.059261557 -0.14167766 -0.33516997 -1.1859777 -0.0006794137 1.496472 -0.5461314 0.753764 -0.2375966 -0.3416369 1.1267762 -0.08614441 1.5776514 0.59737325 0.44033414 -0.6041878 -0.8251253 -0.40112686 1.3078197 0.77143043 -1.5411285 
-1.8507506 -0.3217483 0.40526485 -0.07668234 -0.36402094 0.33172524 0.8034016 0.89419305 0.36148426 -1.4960008 0.13763277 0.19674484 -1.1258541 -0.04360394 -0.19241151 0.13471642 -0.77057713 1.8750335 0.11221217 -0.5098185 -0.27009654 0.18338974 0.114267 0.4043746 -0.52346206 -0.98956686 0.010379343 -0.27719408 -0.22912711 -0.59335136 -0.6001682 -0.18287422 0.79678863 -0.81419855 -0.23080374 -0.06390361 -0.394238 0.49206966 -1.3526396 -0.018077722 -0.8268651 -2.0740786 -0.27931118 0.35283053 -0.90600115 0.34933835 1.5687635 -0.4958105 1.355029 -0.30671865 0.0958653 0.77084583 -0.34189922 -0.04887538 -0.2325659 -0.37587884 -0.4064053 -1.0763109 0.5525927 0.29398277 0.46751186 -0.22661231 -0.74397063 0.86327845 
-0.48086327 -0.13745053 0.6457733 0.25900275 0.32824874 0.76188487 0.49513993 0.8368585 0.6865588 0.37255096 -0.54672027 -0.17879188 0.10291031 -0.014675797 1.5425155 -0.73156226 -0.3887063 0.55247134 0.30403954 0.1548696 0.023756044 1.3302727 0.7030623 -0.083351895 0.192094 0.08836944 0.46897915 -1.3633657 0.00051381515 0.14941145 -0.7695987 -0.3069029 0.39856058 -1.1512059 -0.056180347 -0.3727321 -0.4812996 0.32400724 -0.60738397 -0.9553322 0.6018598 -0.45810106 -1.0991964 0.76455194 0.056666996 0.6673266 -0.09933857 0.64737105 -0.7112722 -0.26043212 -0.92560697 -0.11590479 -0.09467569 0.5134642 0.17277771 -1.2029526 -0.7879147 0.09723175 1.2197034 -0.6373518 -0.6759859 0.9356181 -1.4939519 -1.0423375 

0.41383877 0.08577743 1.0182143 -0.59867364 0.38887858 -0.24715963 -0.05028698 -0.7055462 -0.055060662 0.37680393 -1.1795729 0.44008756 -0.5838764 -0.17250623 0.35475722 -0.62220615 0.76293457 0.18594436 -0.624443 -0.40490404 -1.1151162 -0.62489915 0.96071184 0.25204796 -1.9772766 -0.08147017 -0.8218835 -1.2008097 -0.026041824 1.1886799 1.9649937 -1.0987515 -0.16142738 -0.25848606 -0.24167375 1.2875329 -0.57984835 1.1669959 -0.71935177 0.63403606 0.47447616 1.6589196 -0.619323 1.0242591 0.25379497 -0.21419345 -1.0578021 -0.091365196 -0.45883727 -0.42862177 -0.09779443 0.696829 -0.66681296 0.29759282 -0.97476596 1.175746 1.0109953 -1.855196 -0.31076458 0.21601793 -1.759136 1.0528375 -0.33578494 -0.39726955 
-0.972146 -0.47504875 -0.38811713 -0.792888 -0.23327479 -1.7283535 -1.4538116 0.67147535 0.32770848 -0.8597359 0.66397977 -0.68709636 0.24785455 -0.054275874 0.34778097 -0.744351 0.33478776 1.4229248 -0.53735596 0.0887461 1.022275 -0.20685604 -0.91260314 -1.4647416 0.024433382 -1.4850544 1.0418102 -1.0708418 0.11268229 -0.89836985 1.8452443 -1.4484348 0.40149885 0.017504515 0.51031303 -0.9536518 -0.055257313 0.34085935 -1.0048158 1.2317312 0.05168943 -1.5899554 0.21767916 0.16056488 0.0552145 -0.13286628 -0.717236 -1.2704215 -0.1456413 -0.5565599 0.3252596 -0.29755226 0.8339406 -1.536257 -1.0412402 -0.03622744 1.1358378 -1.6091635 -1.1700505 -0.14175636 -1.6196327 -0.9830984 1.2143046 -2.059612 
-5.1882467e-09 -1.0218071e-07 -3.2469557e-13 0.017744342 -1.3939843e-19 0.00045101868 0.052303523 1.0842613e-24 8.788342e-23 7.5021915e-30 -5.4799948e-05 1.0236247e-31 -0.09262112 7.108435e-32 -3.4004407e-12 0.0024971277 -1.083177e-31 -0.027297154 -4.2151868e-08 -7.02222e-32 -0.0010834883 -0.04607455 0.04237727 -6.1846394e-20 0.004507591 8.2909035e-05 2.6814296e-13 -3.2641723e-19 6.746024e-32 1.1042104e-31 6.880813e-12 -2.058897e-15 0.0014961022 1.2347778e-07 -6.6558824e-12 0.009671493 -1.7902174e-06 1.065185e-31 0.0032037564 1.3520585e-05 4.971572e-18 0.007974785 0.0013378853 0.0003707008 -2.5495434e-05 4.6060034e-15 6.4913203e-14 0.00089682 0.012873287 1.2052194e-31 -4.0793297e-16 -7.2731214e-06 -0.013775055 2.659321e-32 0.00022036005 -0.00028444367 -1.2720577e-05 -0.00038761462 -3.9228456e-09 -2.1294113e-24 3.954723e-28 -0.036051266 -7.6677484e-11 -0.011043867 
0.21541633 -0.413595 0.12794484 0.38781592 0.14084351 0.7543445 1.8112382 -1.1479707 -1.1065722 1.9073313 0.98536533 0.4046356 2.0632367 -0.030575719 -0.45982048 0.1006069 -1.9210217 0.83943135 0.68012655 0.9354386 0.048663978 -0.29468763 -1.638315 0.78593576 0.9822032 -0.856446 -0.94359803 -0.27187508 -0.028542794 -1.0133103 0.8213816 -0.20300834 -1.3961029 -0.498914 1.2816566 -1.6324944 0.26067874 -0.4882556 -0.35968748 -0.056109443 -1.1755924 0.19893952 -1.1091645 -0.1936052 1.3668097 -0.40962288 -0.35994557 0.16988993 -1.1801834 1.0945129 0.59619534 0.6121265 0.23780654 1.1551479 0.03217653 0.41437602 -0.38845265 0.24422552 0.53711265 0.23676068 -0.41627353 0.053544376 1.0389702 -0.78829974 
-1.868018 0.3187598 0.86503744 -0.3900833 -0.00052183965 -0.22251807 -0.19502583 -1.3658663 0.30860507 -0.40855175 -0.40695485 0.9637512 -0.70586675 -0.018589407 -0.036954455 -0.81203586 1.9106593 0.24263671 -1.4531088 0.18467742 -0.3859747 -0.7395403 0.26866832 -0.6376626 -1.5759617 -0.6314324 -1.9011679 0.5631027 0.03551506 0.46979168 0.25256208 -0.83652407 0.34371307 -0.15679514 -1.2687901 -0.045465086 -0.4014029 -0.2074569 -0.13036327 -0.0206575 -0.4154956 -0.5436463 -0.64479464 -0.14080395 0.026691211 0.40224662 0.50214905 -0.48553753 0.5744664 -1.289606 -0.8278215 0.81738883 -1.7771182 0.18081652 -1.6420681 1.290952 0.77052563 0.18331185 1.06008 0.23155876 0.9846032 -0.08783945 0.19731857 -1.5253294 
-0.12993324 -0.38959348 -0.5127402 0.5151101 0.6646061 -0.48696217 -1.338665 -1.0100665 -0.69950396 -0.092506714 -0.5379779 -0.8549182 -1.2607415 -0.0074968236 0.36307532 1.0530493 -1.1513449 1.5916215 -0.17615354 -0.16935082 1.1402987 -1.1325022 1.702404 1.4257449 0.23970665 -0.78562665 0.069892615 -0.16707169 -0.0010930193 0.37299627 -0.19122067 -0.8291409 0.25600103 1.7815639 0.6353372 1.224138 1.2087156 -0.66283387 -0.3681836 1.3926957 -0.5421617 0.6333799 1.2399054 0.18732958 -0.07186955 -0.67765725 -0.057004314 -0.7372162 -0.90137887 1.2774873 -0.587201 -0.51061046 1.8408289 0.24676917 -0.90911233 1.6330965 1.0503732 0.31052056 -0.34394237 -0.94625115 0.2857203 0.03795838 -1.1163249 -0.84673727 
-1.0833987 -0.4847276 -0.29277557 0.14402276 -1.2006407 -0.4690716 -0.07941485 0.058726333 -1.0086355 0.32650995 -0.15316175 -0.27725583 -1.2094321 0.07719852 0.59031177 0.7873247 1.0942106 -1.0982145 -0.87744075 -1.0745473 0.80617464 -0.15178558 -0.9566717 -0.8679223 -0.2161713 -1.0332935 -1.6776639 0.8679525 0.6199582 0.24668184 1.0259662 0.75090104 1.5568506 0.76773655 -1.6323224 -0.66414624 -1.1891847 1.4145881 0.43584457 0.73557156 -0.03166705 -0.49464327 1.8930815 0.6687263 1.122034 0.8161706 0.8966418 -0.30981287 -0.20516163 -1.1659148 -1.3174075 -0.050437503 0.6955425 -0.8053671 -0.010844822 -0.09215517 0.5973672 -0.6311749 0.039810374 1.0928504 -0.47734883 -1.7763779 -1.0638593 -0.015802484 
0.8472429 -0.089742385 -0.28480995 0.50291353 -1.4334171 0.8478631 -0.27374303 1.4635111 0.14230402 0.41816816 -0.27828157 0.29811472 -1.011058 -0.00017253628 0.17761582 0.8163084 -1.1234144 1.2080997 -0.6286022 -0.09201511 0.21771887 1.9322908 -0.25339782 0.33505934 -0.91299963 -0.27134293 -0.90655625 0.83007324 -0.0018901504 -0.17101187 1.5855213 -0.5814514 1.0368404 -1.3332143 -0.76325125 0.7577636 0.043041352 -1.0044117 -0.34860608 1.2322253 -0.059641648 0.20865025 -0.9093275 -1.1550932 -0.29778668 -0.43057808 -0.36746114 -0.57221836 -0.40289077 0.1583082 -0.65016276 -0.07019857 0.16562459 0.63206065 0.796042 0.083520435 0.49518588 0.6757937 0.41284034 1.5007606 0.12315524 0.26970348 0.19537258 0.17657845 
0.93002385 1.0574647 0.024398819 0.72507066 -0.15817012 0.06948317 0.7802596 1.5655527 -0.41325238 -0.635259 0.4880053 -0.97720546 1.8812572 0.081674576 0.031041747 -1.8703977 0.80766374 -0.38590083 1.7798091 -0.26889902 0.13154791 0.46700585 -0.17037588 -0.95236444 0.4392837 -0.27763447 -0.6995711 0.16484089 -0.30751964 0.3081661 0.38492003 -0.3172118 0.78061724 -0.6791818 0.03441686 0.18726407 0.80698806 -0.043889657 -0.6100606 -1.1553218 -0.5196237 1.502434 0.6057985 -1.200442 -1.6625211 0.08817717 -0.08410324 1.018733 0.772124 -0.56813455 -1.762141 0.38074127 -0.8877372 -0.07695729 0.14511512 -0.6679058 -0.05799464 0.20073305 -0.041407958 1.0595719 -0.48193926 1.6481414 -0.3139214 -0.54726475 
0.35532364 -0.72070616 -0.34558353 -0.97049844 -1.1902833 -0.010998691 2.0240014 0.0325852 0.07757841 0.37295878 1.8169055 -0.08828347 -0.6115764 0.081544995 0.23110498 -0.91786724 0.23209925 0.10632184 0.54451156 0.7513694 0.0821608 0.30278057 -0.28312495 -1.0620292 -1.1607678 -1.1362581 -1.3272643 -0.3442081 -0.0009870583 1.2458646 -0.48019072 0.1317294 1.1543818 1.752178 -1.0210314 -0.6942255 1.2055936 1.4492297 0.627854 0.07105384 1.2380896 0.09455508 0.2147882 0.6313646 0.21256092 0.5345912 0.5449508 -0.6452144 1.1413045 -0.14400151 -1.2207575 -0.60711855 -0.62711954 0.23743756 0.5099703 -0.02712805 -0.024466421 -0.3920148 -0.03605573 0.0940684 0.94310564 -1.3857349 -1.0060111 -0.6400559 
-1.1341984 1.365765 1.0005697 1.6280472 0.44445357 0.4062035 -0.29953054 0.7160038 0.8056143 -1.9300511 -0.15516748 0.115714684 -0.93107396 0.03333173 1.3462257 0.25816837 -0.2291127 1.1052046 -0.10467937 -0.7000769 0.476262 1.1099191 -0.51794046 -0.44358438 0.74110526 0.8140304 -1.3279628 -0.18371986 -0.10599717 -1.6970605 -0.9954242 0.895004 0.5176529 0.09835554 1.0868984 0.7206601 -0.00028933393 -0.56918186 0.4210425 -0.48082617 1.3436629 0.73813957 -0.9784935 -0.40988615 0.40407324 -1.3776889 -0.18010646 0.21359004 -1.4389632 1.0262263 -1.2471051 -0.77324736 -1.5154227 0.5067305 0.3131529 0.87664056 0.8787507 -0.8335829 1.2218351 1.4822242 -0.19360152 0.029040813 -0.47510996 -0.40628275 
1.1015131 -0.4571186 0.24751854 -0.024168564 -0.62006396 0.0019383988 -0.5550821 -0.97064793 0.48458198 -0.29731837 0.10895973 -0.69429314 1.312251 0.012070918 0.6553131 -0.40006918 1.0536736 -0.7301983 -0.7103419 -0.23794632 0.8699841 -0.081196934 0.04807039 -1.2010546 0.5848079 1.4874848 0.13867569 1.2833732 -0.04388464 -1.4750309 -0.51158386 -1.1337025 -0.4148091 -0.7327078 0.11344788 -0.33371854 0.04554025 -1.1965374 -0.84546703 0.10645176 -0.73113036 -0.2551969 -0.9909594 -0.44647935 0.59195405 -1.4064718 -0.03356994 1.1057355 -1.331792 0.616494 -1.3932027 0.513687 -0.90618026 -1.9636868 -0.2365869 -0.19928743 0.0991868 -0.079036206 -2.108624 0.24603942 -0.7852591 0.79773873 -0.14845033 -0.03736221 
0.69762087 -0.8054209 0.023774516 0.5805493 1.3107051 0.53429806 0.71136224 0.5706413 1.2470093 0.24891125 0.3923239 0.30078828 0.99699926 -0.020039009 0.25599658 -0.14552072 0.45386365 -0.0563297 -0.0065883873 -0.9864526 -1.5270983 -0.23653542 -1.1397804 -1.1494204 0.45214695 0.6975956 -0.9485703 0.24767298 -0.3439297 0.110112965 0.57728535 0.8240547 0.80815744 0.08386735 -1.1572822 1.3157719 0.30282497 -0.2514864 1.7948852 0.0775207 -1.4917809 -0.12634233 -1.5532535 1.3186737 -0.5101838 1.5732744 0.22762805 0.56804043 1.6754582 -0.45981655 -1.3355899 0.44205534 -0.590306 -0.26099783 -0.111703426 1.5271354 1.5930083 0.49462754 0.04401115 -0.4557005 -0.2658459 -0.13180752 1.296507 0.26075837 
-2.235716 -0.47295085 -0.91353506 0.16802913 1.2161028 1.84636 1.2263936 -0.9809623 0.24872951 1.6657492 -0.11076368 0.9530393 0.033124782 -0.09411407 -0.5469526 1.7221006 0.18144567 0.9374143 -0.11069474 1.1995959 -0.085377306 -0.12706427 1.2349197 0.049000356 1.0647662 -0.49630317 1.0012202 0.014763092 0.09397303 0.093934774 0.101072244 -0.90755945 0.33485618 0.09674717 -0.9375084 -0.8381783 1.04369 -0.037117325 -0.5852306 -0.9725363 -0.32338127 0.48790807 -0.6062319 -0.310478 0.0085043805 1.4778061 0.55942667 -0.5308777 -0.08830702 -0.64954764 -0.12151767 -0.0031063051 -1.3111354 0.067839235 -1.3547047 0.043727383 0.2905308 0.11822584 1.0820335 1.5468867 -1.1952069 -1.296064 0.5037434 -1.0733782 
-1.457026 0.3509199 0.050099015 0.034989715 0.07550308 -0.14324097 0.17429404 0.4120606 -0.30368984 0.9297458 0.34848568 0.051502638 -0.34727314 -0.07242247 0.20152286 -0.36222073 0.7315272 1.0954368 -0.69878066 -0.17555751 0.4438726 1.444365 -0.9963953 0.43383956 0.544387 -0.68493795 0.5998216 -0.17173046 0.018513434 -0.67480946 -0.6049318 -1.4672765 -1.437125 -0.78515875 -1.041286 1.7595341 -1.5391632 -0.27760336 0.00434496 0.22014883 -0.42206433 -1.0141747 0.7550854 0.81380445 -0.24963859 -0.79587245 0.49663782 -1.8965989 -0.8765379 -0.1368636 1.7212541 0.38049635 0.33010736 1.5181159 0.11009673 -0.10070574 0.92615443 -1.4527963 0.5155117 -0.21995035 0.029599037 -0.694664 -0.56594026 0.080018565 
0.4157435 -0.26299766 0.0001552341 -0.97486305 -0.8844374 -0.28254887 0.0659676 -1.1148152 -0.09488476 -0.27682114 -0.44755122 0.39708096 -1.0607477 9.952503e-07 0.96259904 -1.5868735 0.16764571 0.484674 0.75601584 0.0023877886 -0.040857535 0.1423844 0.5574176 -1.4859986 0.4354248 0.35605428 1.1681181 -1.4282535 2.2492044e-09 0.2462285 -0.019754432 0.005086316 0.41396007 -0.8731507 0.35156086 0.45486084 -0.56199336 -0.18155104 0.19730572 1.5640268 -1.5297164 -0.82074046 0.5268707 -0.1757269 -0.45684803 0.05332652 -0.5370016 1.6404864 -0.3549861 1.1555192 -0.38468906 0.70120376 0.5527448 -0.4499087 -0.1485885 1.1614367 0.7213842 -0.8878632 -1.0985035 1.4602437 -1.2835695 0.3984263 -0.8338943 0.11240935 
1.1495648e-31 -1.1988048e-31 -2.7591262e-33 -9.8257225e-24 -8.093899e-32 -0.026359824 5.208752e-32 -0.001669209 -7.821774e-32 8.623708e-32 -9.967543e-32 -9.714391e-32 -7.127417e-32 3.1178028e-32 4.4337357e-21 -4.3023367e-12 -1.3974166e-09 -0.00080167776 -1.1660175e-31 2.1763483e-32 6.34725e-32 -7.070838e-32 -0.0023892699 1.073127e-31 0.00014793141 0.030024571 -0.008756772 4.2874828e-05 -2.6059802e-32 7.4182275e-32 -5.594295e-32 1.1715884e-31 -0.010439829 1.2843647e-21 -7.5954194e-11 -6.0994865e-21 -3.0466795e-33 -2.8255137e-32 0.008140456 -1.0824683e-27 -0.020984953 -0.0018279752 1.1038201e-31 -1.1115634e-31 -3.657466e-32 1.9638414e-07 -1.0032472e-31 -0.025397541 5.8625353e-32 8.582552e-32 1.2345138e-31 -8.573679e-32 -0.0018084707 -6.801348e-32 -8.8177264e-32 -1.5695156e-07 2.7377315e-33 -9.838315e-32 1.5035714e-29 -1.4989408e-23 -7.9593163e-32 9.461547e-32 -1.2532264e-31 -0.050400194 
1.0090597 1.0436028 -0.91367775 0.93182933 -0.0020872657 1.1587952 -0.41119745 -0.64006275 -1.0720953 -0.75685555 -1.0451436 -0.7192584 1.4565622 -0.35701364 -0.0014044804 1.9541799 -1.7995404 -0.5737236 -0.8325807 -0.3182684 0.27588212 -1.1023489 0.39914554 0.05744401 0.3536839 -0.71769845 0.24909064 -0.14675109 -0.6444028 -0.117418714 1.1991173 0.37185386 0.26357332 0.27431703 -0.65922576 -0.31498116 0.19434716 0.9013584 0.43877882 -1.2734936 -1.1285024 0.28843465 -1.9284374 0.6794136 -0.592676 -0.72327626 0.06629387 -1.5737686 -0.22440422 0.91557795 0.47175243 0.34103566 1.4282278 -0.40772775 1.199976 1.0990162 0.603859 -1.1778278 0.4445448 -0.9105345 0.44012815 0.28789452 -0.4974619 -0.55884403 
-0.8490768 -0.89647335 -0.5992232 0.13200906 -0.07858115 -0.7666545 1.1164228 0.5437017 -0.33790022 -1.6307033 1.0318005 0.23620996 -0.67768854 -0.027173303 -0.7314906 -0.86857706 -0.07398037 -0.5678523 -0.40780857 0.45411435 -0.9614277 0.026997812 1.4256943 -0.92622495 0.89634895 0.57557076 0.1857782 -0.23341286 0.0942545 -0.20216371 -1.4932771 -0.7489277 -0.8253534 -0.07009184 1.7909975 1.0280567 -1.2175914 1.8855245 -0.87104493 1.1721691 1.6778948 1.1952056 -1.1712122 0.6657114 1.4289525 0.904315 -1.3036933 -0.47623026 -0.5419874 -1.0379198 0.30690232 0.19198959 -0.403176 -0.8154471 -0.7442309 -0.39301097 0.10645739 -1.2911557 0.42793024 -0.87481695 -1.0112281 -1.5831822 1.7184371 -0.9939918 
0.8194104 1.058714 1.7546935 -0.05649334 -1.1884851 0.12335829 0.8904378 0.006558426 -1.0933083 0.054640952 -0.64552724 -0.2965943 1.2282754 -0.41362745 0.1778303 1.6554824 0.9842427 0.7496892 0.2399673 -0.30697206 -1.2732785 -1.2369441 0.0221881 -1.6394341 -1.6802938 0.8446411 -0.6537936 -0.16464949 0.06476837 -1.098415 -1.2153794 -0.96271014 0.78233594 -0.89495206 -1.6283146 -1.0155377 -0.84351325 -1.4363184 0.8563956 -1.6449474 1.3694088 0.30465832 0.3739369 -1.1176678 -1.0528729 1.0944837 0.31449714 0.9252124 0.7925754 0.5224061 -0.18509725 0.6856111 -0.17997201 0.66848284 1.1208088 0.4791548 0.41367868 0.3809432 -0.61735755 0.5173457 -1.1699349 1.3195051 -1.3139714 -0.4191386 
0.8572136 0.86467165 0.62668794 0.39782715 -0.8329966 -1.6145209 0.6520579 -1.4017267 -0.9268318 0.39867145 -1.1458918 1.6312513 -0.9756834 0.47102126 1.0657558 0.56392705 -1.7846678 -0.48855674 -0.86298054 -0.2275245 -0.12375599 0.43054682 0.6794637 -1.7278464 -0.11651244 1.1488883 0.8071692 -0.24356936 -0.52710503 -1.2148346 0.7169098 -1.4923961 -1.1629785 -0.3785882 -0.47544497 -0.107395984 -0.28927568 0.45233664 -0.11798762 -1.1128997 1.1956589 0.08384375 -0.96443826 0.42007944 -1.0271084 -0.5038487 -0.062040042 -0.60160935 1.9668726 0.101931825 0.39350113 -0.6073641 0.8539214 -0.5478799 -1.0354149 -0.65185386 -1.2210238 0.34246898 -0.57152367 0.45789105 -0.24524102 1.2789499 0.96729714 -0.84126353 
-1.740724 0.17027394 0.94583315 0.14555378 0.11470189 -0.26427415 1.4753911 -0.15879297 -1.3077126 1.4054477 -0.04950376 1.0538616 0.2846266 0.16089176 -0.11616094 -0.6807174 0.4057611 -0.2856655 0.42755362 -0.68015164 1.2409202 -0.19200574 1.3031591 0.45856285 0.55536765 0.16825868 -1.959697 -0.34945193 0.038099732 -0.62588847 -1.9964918 -1.441404 -0.70915455 -1.2207015 1.0911345 1.5639025 1.4122201 -1.1232538 1.3119802 -1.4893384 0.71358955 0.30847624 1.7018411 -0.48414186 0.2169801 -0.81070745 0.2906786 -1.1861286 -0.14297211 -0.0626652 0.6438416 0.9637948 -0.42218137 -0.6305966 1.5454607 -0.6326722 1.096802 -0.5300747 0.1584943 -1.6238424 -0.2135006 -0.15437104 0.70670193 1.8703611 
-0.14643316 1.5153998 0.18296517 -0.48510486 -0.69078934 -1.8233166 -0.6133908 -0.3983543 0.010622008 1.2978827 0.3477139 -0.047909237 -0.9502587 0.004148934 -0.88386506 0.5217525 0.59801066 0.7474738 -0.2780849 -0.81847984 -1.7845672 -0.9975617 -1.4683737 -0.6730902 0.5212914 1.9637897 0.08572993 -0.54117376 -0.07810312 -0.08215945 0.23400992 -0.7702644 -0.25302556 -1.3183318 -0.8149012 0.40305355 -0.30128393 -0.0025925993 1.0684167 0.38550106 -0.55653125 0.008357011 -0.41316172 -1.5438404 -0.50168455 -0.35842198 0.46646062 -1.5664895 -0.646039 1.6528788 -1.6567323 -1.0180134 2.1635573 -0.3664708 -0.5421581 1.6339365 -0.8581843 0.08695335 -1.1825565 -0.3012881 0.8866054 0.10114284 -1.4493884 -0.120692804 
0.44224662 -0.4725819 -0.57808 -0.9941561 0.13374218 -0.40121874 -0.75132626 -1.1352098 0.5717052 -0.45002246 -0.20392127 0.74807644 -0.45022365 -0.0003703879 0.5745966 0.21297115 -0.59312814 -0.97936964 0.9692784 -0.2267155 0.33479366 1.2283894 0.6599622 0.123934396 0.07286221 -0.35007504 1.2230235 -1.1812567 -0.00030914703 0.44910154 1.1717286 0.07060457 -0.052601557 0.6249731 -1.4981133 1.4807737 0.68267065 1.1532745 -0.036485218 0.14997602 -1.6328341 0.7640175 0.42616653 -0.6637564 -0.40699813 1.3445567 -0.90916866 0.057189118 0.23901069 -0.4030892 1.8963917 -0.2145516 0.084099665 0.08810368 1.677643 0.940112 1.6620588 -0.20789026 0.15214893 0.5070679 -0.21903418 0.22491056 -0.7907919 0.21875378 
0.09899554 -0.63954526 0.006412434 0.33060133 -0.13193744 1.5704516 0.3063967 -0.791392 -0.31975657 -0.5844766 0.22233105 0.8520339 1.5279379 -0.009769645 1.1514188 -0.0984755 -0.42688477 -1.2496333 -0.05626728 -0.21871519 0.9994147 -0.55733764 0.9854535 -1.3355256 0.5920406 -0.10178947 0.66477174 -0.5555698 2.2539347e-05 0.27970317 -1.6443533 0.014066894 1.8095102 1.3427911 0.9381265 0.4211338 -0.684353 1.224291 0.9643662 0.56191534 -0.115500644 0.5860154 1.2063476 1.4536589 0.29790244 -0.1076454 0.2945373 1.4153295 0.9349713 -0.5269885 -1.6145192 0.64625293 0.19901536 0.06260151 0.6561858 -1.2111635 -1.7841054 -0.088309966 1.1804402 -0.2758983 0.5037081 -0.17854124 0.028832102 0.6893753 
-0.5004414 -0.7670079 -0.82742625 1.520281 -0.35597515 -0.038979534 -0.61211616 0.36837634 -0.74310714 -0.86339736 -0.6958114 0.38411242 1.5534351 -0.12679498 -1.201296 -0.54334056 -0.4385809 -0.36521682 0.09942294 -0.4254422 1.0527534 0.3415675 0.3481829 -1.0326504 1.1739157 1.6363511 -0.559906 0.055002864 -0.08506269 0.78031373 -0.6022701 -0.7718295 0.5649282 0.39339668 0.3397557 -0.8573246 -0.7564858 -1.0036157 1.607091 -0.43280062 -0.35503766 -1.0155795 0.40276873 -1.9019461 1.494558 0.4891774 -1.7023872 -0.53370166 0.96609837 0.06520792 -0.83942544 -0.56395376 0.6006521 0.47008574 -1.0620476 -0.5453275 -0.038113046 -0.40518746 0.18270189 0.895593 0.30126518 -0.057358313 0.5512968 -1.5339491 
-1.3067795 0.01578616 1.2829639 -0.8127927 -0.84181935 0.75453407 0.6939374 -0.293923 0.7281161 -0.2933748 -0.17080978 0.4850574 0.3197018 -0.20350152 0.03728725 -0.9612151 -0.1650022 0.20894647 0.33268338 -0.92244226 1.400485 -0.5249279 1.4804909 -1.7671525 0.07967976 0.62394106 -1.0962989 0.13806058 -0.2848127 0.3451271 -1.733806 -0.6034463 -1.0271151 -0.9093051 -0.31459385 0.78343403 0.4038304 0.37304568 0.5498722 1.4414408 0.29765108 1.3354723 -0.32239783 -0.04742818 -1.0790786 0.6749929 0.7381392 0.21581948 -0.7274952 -0.5263803 -0.36169368 -0.76442283 0.18085536 -0.43137962 -0.78868395 1.3190746 0.7007256 1.1652172 0.923328 -0.1716732 0.84534067 -1.6862079 0.12884821 -1.5510623 
-0.17187664 0.39661044 0.6266854 0.8507051 -0.17217624 -0.72519785 -0.57512546 1.0245161 0.14469486 -1.2546085 -1.5200661 -0.7944449 -0.47755525 -0.017928353 -0.9699304 1.7998984 1.3863449 0.76284224 -0.3827918 -0.26205868 -0.8333289 -1.5725064 0.78830963 1.3701674 -0.4975304 0.69000846 0.86603147 -0.26023704 -0.087932974 -0.42877647 1.0502859 -0.4378262 -1.0199549 0.4431743 0.45421344 0.37350622 -0.748697 1.1579905 -1.6023821 0.33314478 -0.20750415 -0.19862653 -0.54593694 -0.22797361 0.17672089 -0.728014 -1.1037781 -1.001321 0.43344778 -1.0655515 0.24043873 -0.5872244 -0.12930636 1.2856928 -0.6542127 -0.39058918 -0.48414817 -0.66976726 -1.429054 -0.90966177 0.061281152 -0.1514615 -1.059533 1.1912421 
0.10554421 -0.502818 0.4417672 0.6573189 -0.17888011 -0.86636305 -0.5227291 -0.37368733 -0.41022268 -1.6929471 1.2656311 1.29746 -0.7789863 0.0059072985 1.2867384 0.6990831 0.20880015 1.3226448 -0.6584066 1.1571361 -0.69190633 -0.3024906 1.0614072 -0.29130125 0.9225908 -0.81013507 -0.39825198 0.41606298 -0.32028875 0.013275268 0.8744461 -0.28316748 -0.5230909 -1.5832562 -0.6366701 -1.1386657 0.8488551 -1.2048186 -0.17438675 -0.6474137 0.08404559 0.5328492 0.8180959 -0.06225193 0.04743514 -0.71334463 -0.542985 -0.001617746 -0.004877564 -0.13647622 -0.7574478 -1.5073162 -0.15667427 -0.34913787 -0.7295887 -1.1703535 -0.27540514 1.4388468 -0.22431307 -0.7450917 0.38335624 0.8283635 -0.4303259 -0.89534324 
-0.9847086 -0.6555298 -0.12737568 0.6040713 0.8291205 -0.944339 1.1519798 -0.6736895 -1.4765519 1.5558853 -0.3770111 0.22691241 0.37409645 0.043052517 -1.3480558 1.7433348 0.020008901 1.0662822 1.7369821 0.49439242 -0.40410388 -0.29896432 -1.7242018 0.9705318 0.14790078 0.59814095 0.6591524 1.0955195 0.36313283 -1.276554 0.7695083 0.27963287 0.40753958 0.1507535 0.6325685 0.523497 0.7820904 0.43478754 -0.38448668 1.0601687 -0.41507497 0.10946062 0.9392555 1.2969193 0.22623271 -0.840512 0.2502084 0.48157912 -0.10458519 -0.74416685 -0.8050618 -0.23995048 0.76155454 -0.7191203 0.063064136 0.76675344 0.4515339 -1.535068 0.9571338 0.33346483 0.028927268 1.7983816 -0.6880661 -0.87683445 
-0.4245246 0.91032064 -1.0067501 -0.4870603 0.21702799 1.3161732 -1.7253536 -0.011224882 0.4224941 -0.12808457 0.21534799 0.23388945 -1.2772719 0.099694975 -0.4811876 1.8022133 -0.24644981 0.6993816 -0.12844573 -1.3634053 1.3069178 1.1392183 -1.1741173 0.7790993 0.1008583 1.4882802 -0.91240376 -0.4565289 -0.011449271 1.6230435 -0.65677446 0.39424586 -0.46838158 1.6160609 -1.0005935 0.12733912 0.083753616 0.6749294 0.46766788 -0.36238465 1.0392922 1.0814787 1.6636251 0.29132435 -0.912022 -0.29683107 -0.03028096 -1.9126649 -0.5523551 -0.893721 -1.1358505 -1.1189066 0.24996923 0.4609248 0.57662517 -0.10015024 -1.4074618 -1.0791942 -1.239668 0.73875964 0.23801596 0.7298891 -0.14046964 -0.22274436 
-0.36413768 0.74546957 -0.6436791 -0.5410734 -0.57377976 1.1012127 -0.060299486 0.92271763 -0.3261746 -0.4557107 0.7992743 -0.8212145 -0.28968155 -0.08508471 1.1067674 -0.28603798 0.32871795 0.9294357 -1.4464046 0.04403805 0.43310088 1.4225665 -0.55739915 -0.7201623 0.51409054 1.2232171 -0.81219816 0.6089472 -0.0034911851 0.4968558 -1.6771408 0.6008287 0.19981322 -0.17049754 -0.19323356 -0.3889579 0.26667356 -1.0002052 -1.1142902 -1.0202267 0.24261889 0.41003907 0.35667312 0.78172225 -0.40969267 0.8744802 -0.11208827 1.1385756 0.7588431 0.04062128 0.9485722 0.5860893 0.60660404 -0.07604088 -1.692636 -0.78972226 1.4659896 -0.5869079 -0.6809623 -0.4531051 -0.16066065 0.1756655 -0.3483542 0.17418854 

1.544851 -1.3294028 -0.6699019 0.22560415 -0.028638978 0.47513434 1.2315687 -0.9463505 -0.5308848 0.6051917 -1.7911352 0.97123104 1.2690017 -0.06698686 -0.9310286 0.08678081 1.4056325 -1.0698919 -0.99079216 0.18861403 -1.294995 -1.507235 0.6145494 -0.20407878 0.7854629 -0.47951767 0.64565563 -0.4907427 -0.08643343 -0.90035766 0.09283979 0.8238497 -0.18705551 1.7933362 0.9272659 -1.6340216 0.22546881 0.017649582 -0.65984005 -0.7015549 0.12067054 -0.97410727 -1.0704987 -0.75199777 -0.91357017 -1.9913348 -0.667294 -0.2894831 0.24396197 0.50939715 0.97354937 -1.8283325 1.0803498 -1.0341477 -0.7374895 0.18599619 0.33317772 -1.6147089 -1.6623813 1.5919546 0.31813508 1.6926206 -0.88475996 -0.08087062 
0.80614275 -0.19550116 -1.4812009 0.7886693 1.2880276 0.30875883 0.5816387 -0.67989224 -0.41706637 0.38715127 0.5827745 -1.815763 -0.6767639 -0.03846512 0.1422115 -0.41760203 -0.33077088 0.43685558 0.20268637 0.3183284 -1.494945 1.2288735 1.1985279 0.34592053 0.20701964 1.1793219 -0.80845 0.19412111 -0.07949469 1.0687618 1.3779926 -1.5099021 0.39701325 -1.1499563 0.75612515 -0.7511304 -1.028763 0.5036809 0.83801323 0.17499712 0.22503695 0.18740438 0.2913942 0.8089102 -0.029548965 0.60943526 -0.0426554 0.3778336 -0.22757328 -0.6197171 0.12387323 0.47701403 0.124638446 0.0715926 -0.03704798 -0.68801177 -1.1456387 0.7633326 0.8235725 -0.6489987 -0.54953784 -0.18317388 0.35433626 -1.0847551 
0.008601993 2.5851202e-10 -0.00019661621 1.835485e-05 -1.2100418e-31 0.14007376 0.00214383 2.0039419e-13 -2.2769987e-32 7.176104e-10 3.4582843e-07 2.0469708e-17 -1.3522039e-21 5.1842545e-32 -0.116151355 9.791955e-05 1.9829464e-21 -0.00042526468 0.097194135 9.60304e-32 2.7065832e-11 -0.061227113 -0.005785611 -1.0413032e-31 -1.522754e-29 3.1165007e-29 0.00022456961 2.1325812e-23 6.6444495e-32 -9.5031207e-32 4.4604914e-08 -1.1288632e-31 0.003428197 0.0049550575 4.311323e-07 -2.2222578e-06 -8.404131e-32 2.1103524e-18 -0.0014815376 -0.00637554 0.013337806 0.00080750405 2.48238e-07 1.6438218e-05 -7.246996e-24 -1.00519755e-14 -7.0575924e-13 -1.0424606e-31 -0.38062263 0.0010862285 -0.00028515558 5.849671e-08 2.9700448e-06 2.0628388e-09 -4.6315755e-08 0.0013035227 0.009924271 0.020322546 -1.8326649e-06 -1.3130293e-12 -0.00013564024 2.3145325e-05 4.1344413e-17 -1.2849253e-05 
-1.9159579 -1.0837476 -0.34995675 0.58779866 -0.052777816 0.5832721 1.3378803 -0.41935816 -1.903094 -0.67145574 0.6219394 -0.2503875 -0.565784 -0.017529717 0.89534813 0.853159 -0.30180225 -0.30455205 -1.5336802 -0.09856207 0.5272376 1.3771932 -1.9007614 -0.61878264 -0.074788004 -0.6480798 0.8839464 0.619756 0.376529 1.3961715 -1.1835535 0.3253992 0.4719047 -0.46417347 0.44188556 -0.2761382 0.16296828 1.2947737 -0.70698535 -0.93369496 1.7529463 1.6006495 1.0259492 -0.5461483 -0.8139015 1.2446764 0.6259676 0.6331122 0.1053808 -0.84156775 -0.06002886 -1.3276134 1.6183351 0.3168662 -0.13806987 -0.13157183 -0.32927158 0.06466006 0.82842505 0.11133011 -0.7684838 -0.043458622 0.5479363 -1.2729312 
-0.8841786 0.07623127 -0.3361428 -0.38046122 -0.15760179 -0.81063694 -0.3749995 -0.37877548 -0.41697398 1.1978129 0.60383743 0.78565294 1.4053814 -0.021888543 0.4958102 0.6132199 0.13675818 0.6800314 -0.29648793 -0.31359008 -1.2815621 0.82403684 -1.2144314 0.31990346 0.09653569 0.2463679 -1.1148826 0.20053217 -0.014690901 0.20267062 0.8877281 0.95875305 -0.027851498 0.064931296 0.30236763 0.2461003 -0.18989325 -0.703798 0.8954969 -1.1984701 0.38041615 -0.13294648 -1.0887221 -0.5106344 0.5706615 -0.10699746 -0.86362267 0.26766086 -0.98778325 -1.401908 -0.37799868 -0.907772 -0.16898489 -1.2845892 0.30329728 0.96228 -2.1662598 1.4630712 0.07538219 -1.7222468 -0.21793546 0.40147266 0.67923224 0.4025197 
-1.1939672 -0.1984581 -0.079568446 -1.1255119 -0.2875464 -0.9040098 -1.063479 0.056287147 0.265928 -1.42527 0.4023405 -1.3405328 -0.5335127 -8.859701e-19 -0.8494847 1.1366267 0.23991169 -0.18850644 0.99205285 -0.0936297 1.4316872 0.5017371 -0.681163 -0.8863049 -0.25352687 -1.0328153 1.5733535 -0.41003248 -0.0009554935 -0.90176576 0.23798499 0.56649953 -0.32454818 -0.49640217 1.4635624 -0.43186417 -0.43829367 0.20321827 -0.06560872 -0.8196521 -0.9397467 0.014057291 1.0788127 -0.5190135 0.15441532 -0.63304275 -0.009140524 -0.7594404 0.8960052 0.91756433 1.5964731 0.4271954 -0.3891407 0.82465833 -0.80774415 0.93198025 -0.84226847 0.16884162 0.0066929134 0.6985389 1.5083028 0.8695032 -0.12736 -1.3846173 
-0.19676207 -0.85674506 0.33887532 -0.27367076 -1.2077776 1.700832 1.7270346 0.5011733 -0.55520946 -0.22393265 -0.4943005 -0.8790539 -0.17372365 -0.2985444 1.5604811 0.9768643 -0.72231865 -0.500275 0.26622736 0.11695119 -0.028415596 0.45325768 -1.6740475 1.7843872 0.5837032 0.10745952 0.5134887 1.127901 -0.09622278 0.09391351 0.22080187 0.5097408 0.5489333 0.5509896 0.02513691 0.031206483 -0.6443012 0.2587388 -1.7922785 -0.8686329 1.4165303 -0.80648786 1.358239 -0.25457627 0.17199636 1.6765237 -0.81345576 1.8001869 0.57647204 -0.16956648 -0.9383956 1.3548204 0.2888278 -0.46571398 0.6538105 -1.4637498 -0.043417517 0.043525673 0.95225155 0.03235688 -0.36141524 -0.89127356 -0.4611457 -0.32128537 
-0.1209303 -0.5469209 -0.07082771 -0.7261368 0.5993697 -0.58842665 -0.19149445 -0.96313286 0.48378208 0.106037535 1.282753 -1.2744676 -1.1520375 -0.000152054 0.014128017 -0.55243737 0.8261308 -0.16937228 -1.164263 -0.25903165 -0.06461102 -0.5209239 -0.9038081 -0.12038693 -1.1752479 0.8785421 -0.21096373 -0.68080646 -0.087740436 -0.056292634 0.015370312 0.7767808 -0.53228235 -0.17900413 -0.57146126 1.3912637 -0.5773854 0.29069862 0.6080067 -0.8319685 1.3496281 -0.20584443 -1.2102896 -0.39364296 -0.11759548 -1.408563 0.15575963 -0.40622035 0.007095555 -0.61846286 -1.0770332 1.196474 1.1136156 -1.1610783 0.070075765 0.91793257 -0.7676485 -0.20238733 0.14247665 0.37345037 -1.6055133 0.78536797 -1.0270671 -0.8704413 
-0.3195168 -0.45433447 0.44053733 -0.2542826 -0.18171284 -0.17137901 1.606538 0.36464083 -0.77331316 -0.34060106 -0.19462776 -1.0962478 0.20003057 -0.3381496 -0.5112012 0.087147556 0.544052 -0.65638345 0.31449953 -0.31915632 -1.05995 2.1115677 0.5277451 -0.27251962 -0.983109 -0.658585 0.7061414 0.63988113 0.193486 1.4218898 -0.40144813 -0.63452363 1.4329326 -0.7812138 -0.13474844 -0.11218909 -0.98046464 0.18596187 -0.17913185 -0.7416358 -0.56632024 -0.9869655 1.0178169 -0.27007315 0.8289385 0.8567362 -0.27898893 -0.54936886 -0.78461564 1.5317429 0.65607524 0.32957822 -0.70558506 0.044737827 -1.4081805 -0.3491791 1.903701 0.48395196 0.9421214 -0.18221958 -0.00020001613 -0.12948965 -1.2377552 0.2806744 
1.0628405 0.6452368 -0.40186486 -0.47605756 0.7103664 -2.1276267 0.13367672 0.8928037 1.7142948 -0.20358479 -1.6533937 -0.5215375 0.42697942 0.09290291 -0.36607742 0.06455399 0.029819343 -0.71926004 -0.47198874 0.22236232 0.024715634 0.14980593 1.0463544 1.6493545 1.6143304 1.3541374 0.8326523 0.12785281 -0.0142804105 -1.9024954 -0.49013495 0.049023464 -0.8458891 -0.24641669 -1.0267342 -0.48187786 0.6679492 -0.90344924 0.393242 -0.38171834 -1.2774992 0.37592867 -0.898398 -0.8618091 -1.2728523 -0.73588765 -0.5533994 -0.7525113 -0.17623667 0.329092 0.266655 -0.38634115 -0.05424879 -0.13946353 -0.57678807 -0.20106924 0.53297025 -1.8443455 -0.39837515 -0.13677062 -0.094489 0.9450276 0.28949317 -0.3767607 
-0.45101145 0.8399995 -1.8554269 0.7336004 0.6473512 1.0612168 -1.0810021 0.44825011 0.2879413 -0.81405103 0.21714874 -1.2428513 1.2220846 -0.007073289 0.8418209 0.05689559 -0.3473563 0.75673133 -0.6673486 -0.07082577 -1.2279651 0.76613146 -0.0941447 -0.57232815 0.9998808 -1.8423166 -0.18894114 -0.54010016 0.18969579 0.53687364 -0.94832927 -0.56541 0.80326325 -1.5700736 -1.3673315 -0.83235294 0.6125154 0.33972713 -1.2360541 1.5764678 1.5450907 1.7885358 -1.3765115 0.943771 -0.70938474 0.08323674 -0.6437432 -1.4137621 0.7095608 -0.2041026 0.8076112 0.64083266 0.40237078 1.1128846 0.9360368 -0.042749695 -0.7401974 -0.57664925 1.5149963 0.011985433 1.199366 0.787272 0.09257929 0.43141517 
-0.8148154 -0.12984276 0.9023345 -1.4597063 -0.13420665 -1.2972131 1.241099 1.0873705 1.2235706 0.5555236 -0.8909613 -0.3702329 -0.2037939 0.04640589 0.583244 0.957525 -0.7582035 0.32931647 1.1363064 0.120520666 0.21062593 -0.8822868 -1.5803446 -0.14342633 -0.99483156 -0.12397171 -1.260395 -0.39170942 -0.056367304 -1.0198414 -1.3100357 -1.2937771 0.603821 -0.86673886 -0.28458408 0.82142097 -0.9463645 -0.6444837 0.6543196 -0.5022891 0.32702115 -0.52080077 -0.01072454 1.3613603 -0.8349906 -0.29292 1.1240605 0.36359823 -0.16367678 0.708341 -0.06531255 -0.44306335 0.1702909 -0.32304764 1.6497363 1.2730871 -0.10369025 -0.018275829 0.44342604 -0.58726996 -0.12506042 -0.37711394 1.039058 0.7621426 
0.43830115 -0.7123786 0.67183083 -0.121282235 -0.528483 0.8934356 -0.71560323 -0.6148037 0.37994486 -0.16914374 0.53745556 1.2790852 -1.3879621 -0.57271403 -0.26162225 -0.023066502 0.16384387 0.718908 -1.1364951 -0.55795544 -1.6956524 -0.18464696 0.39847922 -0.32147303 0.62851244 -0.51334536 0.39496765 0.735136 -0.7054698 -0.21055365 -0.37527624 -0.07751723 -0.14298165 1.359048 -0.021492122 -0.052920762 0.33527532 -1.0625647 -1.9089243 0.4733958 0.0816207 1.0820284 -0.18764256 0.7197597 -0.44686127 0.18498108 0.12633435 -1.3536396 1.3149594 -0.6756322 0.49539092 0.26848307 -1.8275619 -0.21096182 0.24482279 -0.36176294 0.13505992 1.0777133 0.20230387 -0.30087337 -0.24350917 -0.987066 -0.16200347 1.0657549 
0.64830035 0.7717027 -1.3877811 -1.0936409 0.88523346 -0.24714302 0.25534898 -0.7388224 0.7557513 0.31654018 0.41136923 1.2131637 0.4050581 -0.051175695 -0.23281698 -0.47902036 -0.052049473 0.09236919 -1.8501089 -0.10572366 -0.96453094 -0.52209675 -0.778919 0.05768422 -0.3002251 -1.1492487 1.1863382 -0.26186264 -0.56662583 0.010452096 0.179004 0.86658084 0.32100725 1.345567 -1.1318086 1.283713 0.8077182 -1.8914152 0.80653375 -0.02678248 1.0808208 1.2233816 0.23723078 0.23896883 -0.1030391 0.54937375 -0.90397286 0.8348502 0.4926747 -0.044399556 1.017415 0.42877528 -0.966187 0.2701229 -0.007981782 -0.9530765 -0.9193773 -0.21964228 -1.1046593 0.7341032 0.73570734 -0.08569795 0.047465794 0.60158116 
0.28074887 -0.57527894 0.5907928 0.5593471 -0.63327247 -1.5405437 0.523213 0.13765456 1.4269903 -0.30925778 1.1928725 -1.6194493 1.021087 -0.029072026 -0.17248805 -0.86277026 -1.8375009 0.15383781 1.5067291 0.6741863 1.439199 -0.8639633 0.56992096 0.8359301 -0.62776136 0.6565318 1.4675397 0.20191407 0.4008341 0.23613837 0.4590068 -0.4263417 -0.5073914 -0.7753693 1.6075448 -0.6000126 -0.31349012 -0.258785 0.20317334 -0.41136724 -0.7055231 0.31794932 -1.0629014 0.7086376 -0.43005654 -0.9475881 0.45198423 -0.21754631 -0.6312504 -1.5133791 -1.5072203 -1.302855 -1.1355252 0.22260548 -1.852912 0.004992871 0.98871005 1.5627927 -0.6265531 0.61199063 0.23824923 1.2191969 0.050950088 0.6860195 
0.12635416 -0.06659121 -0.017999327 1.5954032 -0.011674122 -0.068725675 0.42508683 0.6294079 0.4687868 -0.57209104 0.87496513 0.84891844 0.859526 4.9369273e-06 1.401952 -0.049698956 0.5271098 -0.69501656 0.16146936 -4.471803e-06 -0.25771898 0.3785993 0.20685047 -0.8923045 0.10288755 -0.8507889 0.547023 -0.20695026 -4.7866392e-06 0.44707435 0.5367126 -0.0030392045 0.46352473 -1.6540298 -0.23711805 -0.11019374 0.009514161 0.3974064 0.3922909 -1.1946687 0.50272256 -0.3074984 0.60802364 -0.11627033 0.04511725 -0.32489812 -0.63447374 0.16424492 -1.0616395 0.4428304 0.45462522 -0.42285433 -1.0462894 0.11691827 -1.4561777 0.85013086 1.6911373 -0.6433796 0.54853535 -0.86986583 0.28002757 0.6210873 -0.1271336 -0.7933596 
-0.020683777 -9.695455e-32 1.5592312e-33 -1.0111323e-31 5.812384e-32 0.007970105 -8.532618e-32 9.70632e-12 7.773036e-32 -1.0571886e-31 -8.6456363e-32 -1.0016856e-31 -8.776318e-32 3.737098e-33 9.275264e-32 0.00018817557 7.821431e-32 4.3730565e-32 2.9566561e-21 1.8027074e-32 6.1407766e-32 7.2803643e-32 0.026962863 9.6546166e-32 -5.121679e-32 3.5067546e-07 -7.0399874e-06 5.431762e-25 -7.7496105e-32 3.315444e-32 6.598559e-32 -9.3468546e-32 -0.004103901 2.4409787e-14 8.6475136e-32 0.013794617 -4.2666107e-33 5.7166776e-32 0.0016067154 -1.4951565e-28 5.8251446e-32 0.011307492 8.2247994e-32 -4.9925266e-27 -6.198828e-32 1.0366684e-31 1.0974239e-31 -0.0001936697 -7.7748725e-32 -1.8150356e-32 7.9709423e-07 -1.1271481e-31 -6.5012625e-32 8.295314e-32 1.1207382e-31 -2.5245721e-27 -0.00066917186 -1.1871169e-31 -7.694401e-10 -1.0960917e-21 -3.9471278e-32 -4.4950613e-32 8.9424764e-20 -5.488314e-06 
-1.3911012 0.22177303 0.2799473 -0.5927246 -0.1144782 -1.2391255 1.5631939 -0.7707053 1.7349818 -0.42558473 -1.3097407 -0.37511924 -0.68249536 0.4700484 -0.4398086 0.13993816 -0.41165215 0.5732359 -0.67679787 -0.8367836 -0.8637759 -0.1311553 -0.019420166 1.1779002 -0.8295802 -0.085561916 0.38249975 1.1510806 0.041406833 0.0064271144 -0.8541334 0.17071454 0.99759877 -1.2034812 -0.14492689 0.86475176 1.5410856 -0.15867718 0.38012123 -1.5465877 0.51885664 -0.38079834 0.38092718 -0.7613221 -0.09335833 -0.28440648 0.60389376 1.3982782 -0.8904749 0.9048757 -0.74261147 -0.5318983 1.686435 -1.045152 -0.7577861 1.3176702 0.6829514 0.4520754 0.26046234 -0.45702162 0.33730498 -1.0553558 -1.9047925 0.085402176 
-0.6906257 0.06850243 1.0550225 0.5837329 0.00737419 -0.20270889 -0.6119848 0.8070454 0.31237245 -0.020774612 0.8735438 -0.83588153 0.54773104 -0.028592097 0.09807365 -2.067165 -0.36654347 -1.7076381 -0.73366314 0.23396671 0.8335547 0.24616042 0.31625396 0.10461125 0.5309289 -1.5201142 0.45305255 -0.5728362 -0.05909364 0.3688364 0.8038997 0.9487707 -1.3804809 0.21030048 0.24519189 0.061485738 0.2622113 -1.6784418 -1.1378962 -0.5349416 -0.36968186 -0.7509871 -0.43754315 -1.1913148 -0.022569945 1.4743047 -0.2677239 1.0101739 0.43832222 -1.726007 0.27022117 0.21314171 -0.2238243 -0.30487108 0.32180318 0.38013425 -0.2844317 0.33359894 -0.39905432 -0.19540969 -1.1934956 -0.15569969 1.2885106 -0.2824498 
1.6156602 -0.37736848 1.2425531 0.81288016 -1.3287715 0.35701957 0.9843652 0.91991335 0.89446795 -0.4938261 0.59410906 0.06771964 -1.9101913 0.34089795 0.3462171 -1.2391912 0.56951874 -0.028773034 -0.32812282 -0.3456039 -1.2258742 1.3722576 1.1810739 0.38043582 1.3383565 -1.3775005 0.46207935 0.7873038 -0.036861442 0.22887571 0.23349418 0.06156227 -0.36780676 0.30252957 -1.1474504 0.81389016 -0.13515003 -1.6449158 -0.23098901 -0.6971238 0.30660912 0.39492044 -0.7214376 -0.9473792 0.49649283 1.1195219 -1.808515 -0.17335291 -0.9654335 -0.35758367 -0.38740006 0.6125679 0.47458482 -2.1510878 -0.61494285 0.21332486 0.31847358 0.94594455 -0.39031535 -0.87660486 -0.5295589 -1.205094 0.034161735 -0.48849526 
0.17947774 -0.44717488 -0.3248798 -0.21625318 0.42634574 0.74369913 -0.064627774 -1.4263483 0.573043 -0.026217654 -0.8619748 1.1638553 -1.0939214 -0.39882854 -1.3429396 -1.3515276 0.8937266 0.89953613 -0.5744546 0.53369 1.8218329 0.74865323 -0.23754022 0.8517975 -0.1527851 -1.5702474 0.33362532 -0.32729632 -0.5515149 -0.33486497 0.03734829 0.89270186 -0.0072193714 -0.5845268 1.1070429 -0.10524654 -0.35238883 0.78404266 -0.26322228 -1.0973579 0.33949363 -0.26393467 -0.7662307 -0.49394995 0.16189191 0.81868887 -0.058536742 -1.9956989 -0.6413351 -1.7787809 -0.99074686 -1.032057 -0.085993364 -0.26982027 -0.12501542 -0.38317767 0.43377492 0.7266205 0.58593285 1.0369517 -1.3298391 -0.800138 -0.5721961 0.36217913 
0.78687316 -0.11247707 0.25236818 -0.60063213 0.7322559 1.5799965 0.6012886 1.4861813 -1.7058488 -0.44382018 -0.30965552 -0.81416196 -0.49492633 0.0069275927 -1.2021718 -0.81221825 0.9815184 -0.20567423 0.76728123 -0.99818695 0.3917744 0.25910828 -0.41445318 1.1881229 -0.9213449 -1.3241757 0.8605342 1.5206248 0.0038159653 -1.5552772 0.14500773 -1.7054327 0.47778517 1.811338 -1.1567638 0.3550043 0.07105303 1.8450681 -0.061462883 -1.5099328 0.14393084 -0.091965094 -0.37855408 -1.0500159 -0.03562806 -1.0187557 0.50227225 0.95814186 -0.13953248 -1.1686463 -0.18696105 -1.3418213 0.0089076795 0.4098972 -0.7936171 -0.064232476 0.53730255 0.10428534 0.28069735 -1.0686183 0.24862695 0.38484928 -1.1538079 -0.8624697 
-1.349053 0.07873359 -0.19778588 1.7137777 0.35915658 -0.8040016 -1.366567 -0.81299466 -0.15464397 -0.8144536 0.14298658 -0.96842366 -0.42799985 -0.017431315 -2.0472724 0.69176227 -1.6702993 0.45835474 0.3705167 0.12649529 0.18529871 -0.53771895 0.55568403 0.35644642 0.5080555 0.75082797 1.160299 0.37875253 0.04788046 -1.0353032 1.8061575 -0.6355119 0.82163024 -0.72305447 1.4165548 -0.8602427 0.41923052 1.606474 0.6920813 -0.4225974 -0.10900281 -1.868178 -0.1791882 1.1667035 -0.26172012 -0.9126208 0.21774669 0.29232237 -1.2618847 0.027599744 0.37562886 0.23440456 0.057469722 -0.3758197 1.3979172 -0.28363967 -0.46103793 1.163641 1.1179368 -0.74302125 0.3281953 0.8592696 -0.71468765 0.76945084 
-0.6658919 -0.35471106 -0.05778237 -0.35566035 0.00081531395 1.116716 -0.4663978 -0.3384259 0.32320508 0.115259945 0.7936417 -0.13155739 0.15422215 -0.0039182846 1.2358823 -0.20426153 -0.14093377 -1.1214758 0.35904562 -0.29674426 -1.6963788 -1.0661927 -1.0580647 0.34863472 -0.35245275 -0.6955523 0.21918857 1.5783668 3.154243e-05 1.4225533 -0.050293826 -0.101664655 -0.82230586 -0.75177324 0.31364822 -1.5314059 -0.13856933 -1.2275857 -0.567248 0.48356518 -0.67564666 0.04753087 1.0194156 -1.6196973 0.5009845 -0.47667253 -1.0630896 0.289552 0.43572316 1.1590395 -1.2452568 -0.8531692 -1.4714621 -0.4545879 0.0329058 -0.27447525 -0.18472095 1.5629662 -1.1576813 0.74622893 0.9860947 -0.021571206 -0.42929178 -0.62561226 
-1.2814262 -0.46604216 0.2327249 -0.1751582 -0.00017706087 -0.11960435 -0.24827206 -0.34026697 0.30101037 1.0795938 0.6622204 0.017427646 0.62520766 -0.004394684 0.25308496 -0.6645772 1.4358288 -0.4630976 -0.16176586 0.0002762225 0.08091093 -0.2319135 -0.28865543 0.7840324 -0.7891341 0.3462493 -0.4559899 -0.43107024 -2.247427e-16 0.9415773 0.61193794 -5.44748e-05 0.9194224 -0.8845802 0.93290544 -0.67297345 -0.36542553 -0.29440567 0.385568 1.4845045 1.4531467 0.28881854 0.5065763 -0.68064475 -0.60251266 0.40857854 0.21772435 -0.56547195 -1.3708771 -0.8904837 0.12549324 -0.02510334 -0.23205937 0.090573095 1.5544322 0.43177658 0.21725635 -0.5460611 -1.1189836 -0.3064145 0.5647631 -1.3992741 -0.80296504 0.5534693 
0.74555975 0.50178635 -1.1074708 1.1731089 -1.5891986 1.0177393 0.8304365 1.3692098 -0.019932482 0.059699956 1.1308343 -1.0065536 -1.4364259 -0.04951923 -1.1096911 -0.79339176 0.27352896 -0.030852957 0.32041988 -0.75985783 -0.9005626 1.2264134 -0.2717488 -1.1887888 -0.28136644 0.025484623 -1.2463995 0.44912854 -0.91268635 1.428518 -1.0680078 -1.3832134 1.454763 0.87751037 -0.63873625 -0.8813497 -1.1807394 1.7018497 1.3312871 -1.0354087 -0.2702564 0.67893803 -0.020716246 1.3706971 -0.9332122 -0.04807789 0.15588275 -1.2462989 0.44361714 -0.3184809 1.1137744 0.05380894 0.996129 1.2239819 -0.18029201 -1.4243524 0.5647405 -0.9663321 -1.9405684 0.659596 -0.30488867 -0.46845624 1.390397 1.4484755 
0.5381261 0.39072087 1.3192191 0.78888136 1.2632952 0.5376067 -1.3548828 0.7272734 0.18121555 1.4285483 0.96332693 -1.2961597 -0.6216293 -0.014673597 -1.5017648 -0.2436852 -0.55495924 -1.2687391 0.7276738 -0.33211073 0.52249104 -0.4097385 -1.5646206 -1.0925604 -1.2360789 -0.6428849 -0.35713622 0.22072656 -0.2952769 -0.34640425 -0.39792904 0.32780042 -1.4762529 -0.26391727 -0.040266875 -0.32949817 -0.9081531 -1.3524066 -1.1055362 -0.12445574 -1.2314758 -0.5496451 -0.6604333 0.024736512 0.025814652 0.9627049 -0.31593 -0.7142972 -1.3823522 -1.0682151 1.0731966 0.09089494 0.7096544 0.77414817 0.18153432 -0.7000631 0.1850484 1.3656297 -0.10469893 0.994799 0.09547363 -1.7609961 0.23710221 1.0707686 
-0.3519335 1.0909775 -0.40940166 -0.97387534 0.24665925 0.24464887 -1.2391006 -0.8310961 0.05522986 0.55243367 -1.39454 0.36130995 -0.62420255 -3.4486122e-05 0.7857797 -0.51384133 -1.8393252 0.4868039 -1.8533012 -0.14724028 0.23984629 -0.48163587 -0.26423323 -0.6264012 -1.0406059 -0.57961416 0.04029458 0.17847852 -0.14953594 0.83514494 0.13638602 -0.09149152 -0.41785178 -0.7894042 0.72080016 1.3123534 -0.54259443 -0.75527745 1.9603176 -0.4189648 0.0069629136 0.32198155 0.9140605 0.22245094 -0.49116358 0.9609884 1.0051618 -0.1685467 0.72462803 0.4599908 -0.086391084 -0.75636166 -0.28675306 -0.29791027 0.40567484 1.2432355 -0.70139295 0.29387024 -0.42851016 -0.8333486 1.4730089 0.28621417 1.6743233 -0.9607912 
0.6215392 0.48245543 0.5637031 0.4810573 0.8104825 -0.63185185 -0.21626759 0.08887515 0.18631472 -0.41467422 -1.2035844 0.4251336 0.9349847 0.016686408 -1.0342957 -1.2648841 1.451549 1.2046793 -0.14033356 -0.1916533 -0.023846777 -1.4295332 0.3419138 1.4628664 -0.7039543 1.051065 1.0768365 0.14886296 0.58921283 1.3048147 -0.27744412 0.3451148 -1.4443145 -0.048437316 1.6702616 1.2330761 -1.5410734 0.39176503 0.9571421 0.30591458 0.008125312 -0.1549051 -0.845075 0.19415414 1.4362352 0.98142725 -0.106529236 -0.9468436 -0.82697505 -0.5510857 -0.691096 -0.6555464 -0.6666461 -0.1838227 1.3746216 -0.41456118 -0.11517064 -0.44179973 0.6854126 -0.9124664 0.6826148 -0.260779 0.587924 -0.4721568 
0.7278826 -0.39325932 0.13130853 -1.0975946 1.5546558 -0.43610924 -1.4688736 1.5700577 -0.57860315 -1.9735909 0.6167121 0.15724543 1.7272295 0.0777417 -1.2880085 1.6226267 0.77083 0.49719328 -0.45059186 0.5563118 -0.09307363 0.344593 1.516171 0.7411586 0.9200956 -0.17179382 -1.9045502 -1.7373421 0.66706735 1.5642818 0.50668216 0.15022892 0.4782884 -0.95194757 1.0207037 1.0431035 -0.50890076 1.0946126 0.6737222 1.0208781 0.7087118 -0.80024576 -0.7321489 0.31348386 -0.30821684 -0.49089986 0.09449828 0.5587563 -0.4608723 0.6533556 -0.38403794 0.3470263 0.59147817 0.5432014 -1.5969259 0.43293065 -1.0098704 -1.418396 -2.0545762 1.1306583 -0.3908573 -0.010260472 -1.1241213 -0.549383 
-0.22789145 -1.2089027 0.53772056 -0.26792273 0.311239 -0.53522974 -1.4059998 -0.6640441 -0.38018754 0.76838136 -0.7997167 -0.3085642 -0.8806272 -0.16696863 -1.3603082 1.0098077 -1.3395507 0.8938583 -1.4427267 0.15587209 -0.47759938 -1.4804939 1.0831931 -0.518681 0.4120954 -0.49401632 -0.92707783 0.23383893 0.21592619 -0.13523562 -1.754146 -0.58819693 -0.86485136 -0.9929307 1.5119495 0.63454306 -0.6173284 -1.6612322 -0.4078163 -1.8354038 -1.5686879 -1.0426872 0.101692244 -1.5275067 0.21138029 -0.74937093 -0.09625543 1.4185507 0.3434904 0.4216859 -0.6933308 -1.5271145 -0.19427022 -1.176153 -0.67065537 -0.37805977 0.032479707 -0.12968047 1.0117 -1.638732 -0.6423837 0.030004656 -0.9964912 -0.8038913 
-0.43894625 0.9603002 0.14572182 0.7091906 0.22533415 -0.27308875 0.07368667 -1.2119851 0.3503873 0.71715194 -0.7874552 -1.201743 0.22289479 0.1509806 0.99597573 0.7586655 0.32176447 -1.438096 -0.1318041 0.045794506 -1.3523078 0.21972807 0.77869016 0.27060586 -0.72564495 0.9754901 -0.37990195 0.77217203 0.011917119 0.0627051 0.5876062 -0.8234336 0.48079428 1.2192935 0.5786796 0.97791326 0.54980296 -1.5117352 -0.41398755 0.072943635 0.45063254 -0.010812567 0.04929701 0.74637675 0.23433314 0.6117174 -1.2896104 -0.59205526 0.6759042 0.37806702 0.051227152 -0.8240352 0.18426126 0.5040459 -0.28279743 0.39625672 -0.7668877 -0.62291974 1.2413411 -0.43050438 0.49313238 0.51536006 0.047330197 0.39175367 

-0.7777644 -0.6224044 -0.2414699 -0.42426798 0.0742937 0.3541514 -0.76659805 -1.1340616 0.6660547 -0.6053327 -1.9406363 0.65704167 1.0318931 -0.10670887 -0.43410233 0.14158383 0.66964275 0.42394468 -0.48538154 -0.9089517 -0.55496734 0.8591447 0.87654424 -1.3949695 -0.64944583 0.7190677 1.541117 0.5586986 -0.6425449 -0.3414435 0.6258542 -0.36111373 0.24681093 0.56093436 0.51527685 0.6035203 -0.60288686 -0.04731548 -2.0064166 -1.2895027 0.3705616 -0.43718386 0.52803236 1.4665884 -0.4730449 0.39337996 -0.4566034 -1.0893264 1.9022167 0.5466163 -1.340902 -0.06945996 1.5017506 0.87332034 0.32360572 0.4962299 -0.19598988 0.2715418 -0.083360285 -0.045102116 -0.47251418 0.4753898 0.059685674 0.7911799 
-1.70252 -0.4066008 1.1868064 -0.063967206 -0.95636743 0.9973232 -0.59052294 -0.20758113 0.4776213 -0.039062556 0.7961396 0.6538431 0.34075996 -0.03956457 0.17339566 -0.1612986 1.9109905 0.2944186 -1.0022881 0.031141596 0.5413064 0.47865358 -0.07829963 -0.43994787 -0.40106463 -0.57166976 1.1044021 -0.90315384 -0.24873975 -0.036760688 1.3544886 0.9475113 1.5183752 0.67100793 0.108108215 -0.01843678 0.35103127 -0.99368 -0.1500791 -0.54781276 -0.8249543 -0.5177285 0.90623266 -1.0347177 -0.8461792 -1.3795589 -0.66881186 0.7310509 0.6734577 -0.25883996 -0.75573105 0.49028677 0.3082938 -0.4488026 -5.4322063e-05 1.1529367 0.2782903 -1.0065025 1.186857 -0.38364384 0.14705728 0.642779 0.4942371 0.45420298 
0.071250916 -9.488936e-10 1.0219861e-31 -2.9405155e-05 9.898375e-32 0.037945274 -0.0017596171 -3.9770654e-05 8.7405146e-32 1.1282445e-09 2.5676674e-17 6.5661595e-07 7.684812e-32 6.253617e-32 0.028899224 -0.0005424735 0.0034506258 -0.23039599 -8.2492295e-07 4.6425873e-32 -9.2353454e-32 0.008529034 0.00024213913 -3.3673605e-19 1.0513194e-31 3.1348404e-16 -0.007102824 -0.0008661699 6.7114203e-32 -1.1125317e-31 1.024518e-24 -1.4539114e-23 0.026001062 9.404458e-10 -1.1376723e-31 0.0005201385 1.8946389e-16 2.444027e-13 -2.0234143e-05 -6.878534e-11 -0.020561384 -0.03909702 7.651771e-05 1.1064324e-08 -8.1620156e-32 -6.2990875e-07 4.364785e-11 0.049117163 0.039944567 1.3436325e-12 1.3889512e-05 -9.52585e-08 0.04967967 -6.7242544e-13 -0.0012416757 -1.479624e-22 -0.013126403 0.024405247 -0.0402714 3.5777517e-09 0.00657416 0.0004895849 2.2197607e-07 -0.00021917916 
-0.50900686 -0.5599613 -0.6799306 -0.82037413 -0.07560383 -1.0970011 -0.025388185 -0.45544955 0.75553864 -0.3575052 -0.3134195 -0.9348606 0.3145201 0.00082838244 -0.28615698 0.5216318 0.6962819 0.06965619 0.42932576 -0.23118338 -0.2801334 -0.9809385 1.3333328 0.34097484 0.7837632 -1.2518127 -0.4524235 -0.76605976 -0.4487896 0.27558118 0.65419996 0.7886943 0.5258246 -0.17140335 -1.0026479 0.1856468 -0.39708936 -0.6547256 -1.1813769 1.1489319 0.35257813 0.7571973 1.1604687 0.90620536 -0.9133723 1.1916332 0.3113922 -0.06924244 -0.2022127 0.5290188 1.4252794 0.3319755 -1.0910151 1.1804605 0.06641745 0.61371607 -0.31518555 -0.008551212 0.40003377 0.6691092 1.2912831 -0.2653428 0.8790242 -0.64843404 
-1.5300689 -0.5476646 -0.92647123 -0.24314937 -0.88362306 -0.05450174 0.16244176 -0.07954787 1.7306998 -0.9631635 0.9522451 -1.0089955 -0.028722122 -0.0038202282 -1.5342702 -0.15996416 0.2683865 -0.5270402 -0.40558484 0.432098 -0.66173905 0.36523858 -0.01800275 -1.0268254 1.121641 0.66175 1.3212004 -0.52792823 0.083355226 0.21647115 1.0178282 -0.5551182 0.9493482 0.39806908 -0.35443187 0.5048589 -0.04694223 0.9680317 -1.1055447 -0.8740061 1.0131941 -0.44893548 -0.42770714 -0.32330644 -1.1451617 -0.67593634 0.24080032 -1.1972249 -0.5545921 -0.26878476 0.8948098 0.94960916 0.70847565 0.68587816 0.9448887 -1.3420063 -1.4326634 0.1393342 -0.6808268 -0.9613681 -1.9905924 -0.40496376 0.55288404 -0.26085216 
-0.93531704 1.2310673 1.3810183 -0.22129789 0.24119732 0.029986842 -0.42336506 -0.38342342 1.5126961 -0.05527805 -0.37109652 0.4645456 0.42648983 -0.0026207152 0.5568413 -0.5307414 1.2025263 1.4236643 1.2708776 -0.6709407 0.40651557 1.429649 0.13545994 0.36947763 0.090729155 0.37443268 0.83227235 -0.36220917 0.014667544 1.1751162 1.5136014 -0.16202466 0.06310967 -0.44804958 0.25991789 1.1459857 0.30472568 -0.4281671 -1.2844077 -0.31357318 -0.9467966 1.7811658 0.57253206 -1.0359662 0.35686734 0.50684565 -0.2567994 -1.5218797 1.1534892 -0.9797313 -0.84450275 -0.56577456 -1.1017992 1.7009099 1.3145888 -0.093065836 -1.7394855 -0.083985075 0.49046907 -0.8599753 -0.3032424 -0.47148123 0.8315097 -0.64389277 
-0.24552672 -0.9823476 0.17176682 0.29254106 -0.8623228 0.8304094 -0.6389519 -0.31765503 0.8049824 0.42720747 -0.39644986 0.2711241 1.7049192 0.120490395 0.13541365 0.2627546 -0.34229872 0.441132 0.40769297 -0.2538349 -0.47421652 -0.6705705 -0.40860173 0.18244237 0.5929282 -0.5053177 0.20204465 -0.7131276 0.09970847 0.9516372 -1.2443278 -0.98351973 0.69892246 1.0573658 1.4043902 1.3874189 0.90781194 0.036572646 1.2916845 -1.2595674 1.3475543 -1.7078959 -0.19116104 0.9959033 -0.035505947 -0.89090556 0.862742 -0.943291 0.9078149 -0.6366197 -0.8650715 0.6732472 1.4090856 0.41318125 1.5470611 1.6792403 -0.76253986 -0.6179609 0.17793976 -0.24883437 0.05076789 1.0954394 -0.18565403 -0.007363068 
0.32326218 -1.0705746 -0.5222548 -0.14844972 0.2007702 -0.116480276 -0.6951775 -1.4712247 -0.93304765 -0.95750946 -0.05366436 0.008443349 1.6058226 -0.00016611995 1.5161651 -0.38536802 0.0098585095 -1.3948948 -0.18978797 0.7563764 -0.044935517 0.14196861 -0.5879905 -0.47131294 -0.36403307 -0.085435994 -0.06463219 0.4252431 0.0899607 -0.02482851 -0.4427655 -0.22788177 0.1290646 0.79504025 0.1664651 -0.25348318 0.5793742 0.37528318 -0.51075125 -0.7886705 0.28154755 -1.1082069 -0.20497485 -0.051642526 -0.50816655 -0.571953 -1.6090357 1.4102584 0.72287434 -0.6355762 -0.55470425 -0.30790648 -0.47132075 0.7629408 0.3451225 0.41357887 -0.67330647 -1.2859039 -0.39393654 0.16943707 0.13569488 0.44108844 0.5411404 0.8926335 
0.5331202 0.043318834 -0.38788137 -0.83446974 -0.93821007 1.6432487 0.048346277 0.11167319 -0.5423051 0.38060677 -0.6263504 0.2749456 -0.8306393 -0.3379819 0.036833663 -0.95058286 -0.36929405 0.81499106 -0.47560456 -0.68126 -0.5664183 1.363659 -0.85929453 0.46325108 0.19851202 1.8271886 0.6376799 0.10866373 -0.5352206 1.2185692 0.06796264 -0.116994366 -0.8272731 0.3634751 0.046613026 0.3243093 -0.26578707 0.57402146 0.8253623 0.15502402 0.264699 -0.12615491 -0.9086368 0.29709378 0.6711892 -0.14375207 1.387453 -1.6919038 0.30324918 -0.00069485727 -0.2823684 0.7636117 0.8591056 0.35343686 0.41247895 -1.1196406 -1.2016054 -0.6880737 -0.20530546 0.41078174 -1.0110418 -0.7920108 1.4118038 -0.50315195 
-0.5175738 -0.37551603 0.07819168 0.4483256 0.40597114 0.058931287 1.1007134 1.7617247 -0.61755353 1.1404028 -0.019230442 -0.34265107 0.7103897 -0.23304226 -0.2315699 -0.5619632 0.04892805 0.60030943 -0.95939213 0.31124017 0.5100902 0.35165602 1.12605 -0.017930036 -0.0944294 -0.08250746 0.39052168 0.0837818 -0.008211585 0.109502554 -1.4935945 -0.22754271 -1.0341392 0.57969517 1.0757351 0.76453435 -1.1149194 -0.7332786 1.3874532 -0.07150139 -1.6559125 -1.1293879 0.91333634 -0.07025001 -0.19729258 -0.15136015 -0.6067203 -1.7407806 1.1007334 0.082139514 1.2102998 0.7308883 -0.86142486 -0.25591278 -0.8199916 -0.8302875 -1.1277102 0.89893174 -1.296889 -0.8298737 -1.4824885 -1.3164874 1.2999665 -0.7441494 
0.72377676 0.6740057 -0.45373282 0.07241011 0.29232234 -0.55069906 1.2759955 -0.50584203 1.5292555 -0.46567014 -0.25315 1.0039066 -1.1078357 0.008568225 1.1368723 0.0038084055 2.0978205 -0.28351936 -1.8021356 0.6009665 -0.7321088 0.9643235 0.49349517 -0.13115875 0.18376844 -1.5214617 -0.33450085 -0.11282819 0.21999936 -0.8896119 -1.0680686 -0.62438256 -0.2805628 -1.0425032 0.22420411 -0.06618108 -0.3093909 0.3868265 -1.2464778 0.02363944 1.1945592 0.052700553 -1.7358112 -1.2102902 1.4701136 0.32926822 -1.4633567 1.3395576 -0.43973798 0.014014107 -0.40408367 0.40046743 -1.7393452 1.8645706 -0.54682 -0.63051456 -0.7267888 0.42302677 -0.6516139 0.5688193 -0.8910836 0.9472262 -0.20834255 1.7270669 
-0.34751028 -0.9847418 -0.46908176 -0.4960111 0.31116927 -0.9505855 -0.23246935 -0.044564784 -0.92017925 -1.0803307 0.22361425 1.6810455 -0.86070234 -0.0015099039 -0.15131359 1.4027307 -0.8406837 0.43455383 -0.33821404 -0.7773741 -0.06407601 -0.09211475 -1.5310044 -1.3060098 -0.12166689 -0.9001637 -0.83341646 1.4129442 -0.039932508 -0.52084637 0.00357716 0.80973554 0.5971211 0.13247325 0.15321583 0.57966685 -0.067513354 0.5062163 0.33166304 0.018889489 -0.07213397 -0.4845385 -0.8239738 -1.2340511 -0.061984666 0.12883812 -0.25250036 1.0992618 0.41051224 -0.38334024 -0.51677805 0.012184759 -1.305383 0.8715036 0.090077184 0.435687 1.1263936 0.39400095 -1.2805438 0.53431857 0.56855613 0.33182776 0.61897445 -0.61958736 
-0.10683362 0.5503883 -1.8044592 -0.37781832 -0.18073893 -1.2554128 0.7860778 -0.12785804 -0.16462822 1.7222054 0.27775365 1.5787786 -0.95542365 -0.013972835 0.2270478 1.6387861 -0.8197003 0.20578495 -0.9467288 1.4964838 -1.3304483 -0.43109614 0.02494152 1.3063184 -0.09831161 0.4340805 -0.4089882 -1.2178261 0.6307122 -0.37113872 -0.62833166 1.6392692 1.3886474 0.77828217 -1.2473786 0.2396553 -0.4110878 0.89399177 -0.37553534 0.4059333 1.40476 0.020474631 0.6779215 1.5866829 -0.42990664 -0.39987254 -1.3704449 -1.8028191 -0.5459717 -0.21753158 1.4017247 0.25218758 0.55585885 0.95078605 -0.5338518 -0.6743397 0.03327339 0.8431933 1.3782959 -0.8500513 -0.17265129 1.2911233 -0.4187987 -0.6615815 
0.65554225 -1.6411442 -0.1567852 -1.7193081 -0.9579637 -1.4236816 0.9904559 -0.036561728 -0.3035791 -1.4180489 -0.75333065 0.5785732 -0.33158106 -0.03304639 0.254944 -1.6187463 0.07251538 -0.91995895 0.93835986 1.1932012 -0.05723681 0.5017206 -0.27054232 -0.067686655 0.466734 0.19958118 0.63246816 -1.40649 0.18012106 -1.0001518 -0.2266568 -0.06030713 0.89414823 0.6139799 -0.92446846 -1.5221354 0.27232912 -0.42259032 -0.37112895 -0.30736414 0.20427908 -1.1543015 0.20258784 -0.40508515 -0.07949505 0.13687588 -0.6395396 0.6064066 -0.19031362 0.18387632 0.13911575 0.6032053 0.25465262 0.20690487 0.6481367 0.9340821 0.21711549 0.35827217 -0.17464516 1.5281004 -2.189142 0.116468534 -0.6350934 1.35469 
1.7625778 0.007953457 -0.5589266 -0.029851606 0.92669046 -0.18616895 1.173959 -0.65911627 0.282189 -0.4882525 0.94772553 1.2244068 1.2635562 0.025235267 0.34890857 0.8660921 -0.09404065 -0.11675971 0.6536753 0.7669063 -0.115005165 0.2313606 0.70135885 -0.072410904 -0.43398076 -0.44904265 0.34556365 1.3248097 -0.79014045 -0.31365493 0.7893183 -0.8454397 -0.32990628 0.13661246 -1.3517357 0.5367232 0.82808954 -1.5508839 1.419154 -1.3797075 -0.464559 0.03379807 0.91380185 0.021282317 -0.5333626 -1.0351343 1.7127231 0.6847188 0.29808235 -1.4246951 0.56299865 0.8416206 -0.0924805 0.5118021 -0.4682948 1.8729662 0.19098626 -0.9749367 -1.3347305 0.2050769 1.8612353 0.41954345 -0.27347016 0.8986462 
-0.021034747 -0.004762117 0.19824558 0.42442074 0.015453976 -1.0085974 -0.93692917 -0.5218753 -0.06214036 -0.048798557 0.12654413 -1.0699781 -0.31564525 2.3506577e-06 -0.13159327 0.29939246 -0.21936134 0.44549885 0.34386382 -0.07070947 -0.03580425 -0.8615281 -1.0199983 0.9563034 -0.102215506 1.7447448 -0.3122967 -0.76566625 0.008807283 0.37616453 0.1255205 0.1229089 0.4578559 0.3535942 0.78089786 -0.5325097 0.048541963 -0.472435 0.6372363 0.32717744 -0.14619714 -0.48494345 -1.3673141 0.028529307 -0.84870034 -0.25696474 -0.11600717 0.35937577 -0.28606102 0.68126386 0.5736803 -0.45225707 -1.204461 -1.2518662 -0.37917298 -0.18662335 0.35970023 -0.9954024 0.01480736 0.31216443 0.3374904 0.5639672 -0.7581303 -0.42525545 
0.003996696 -1.1502075e-31 7.5730724e-32 -1.0730403e-31 3.6083747e-32 -4.243634e-06 4.2306294e-11 1.1755705e-31 -7.8847914e-11 -3.9786452e-23 1.2075047e-31 -1.8615029e-24 -7.600167e-32 -1.3885792e-32 -9.058744e-32 -0.05041181 -9.758507e-32 0.018853823 8.4848795e-14 3.3368068e-32 -2.2443226e-32 0.0016447214 0.0076058395 1.0520171e-31 1.0794122e-32 -9.890728e-32 0.013562572 -1.2693792e-13 -7.7656225e-32 -7.5374684e-32 -0.01811579 9.055117e-32 0.030987775 -7.5592317e-22 -1.9121167e-32 -0.0030664324 -5.460284e-32 -9.7051223e-32 -0.0040289243 -2.425848e-08 8.6085527e-07 0.006506719 1.124052e-31 2.2734862e-15 -2.3546386e-32 1.1453674e-31 -1.1993006e-31 -0.001689996 -7.432502e-32 4.3877084e-32 -0.0117421495 1.2045641e-31 -7.336653e-32 -6.2891763e-07 -0.0037512532 -8.637625e-09 -9.456398e-32 -0.012844775 1.912538e-26 1.2204822e-31 0.0036759041 -7.5478674e-32 -1.1706736e-31 -3.305114e-10 
0.48956963 -1.1211679 -1.5056256 0.043019257 0.7085854 1.451713 -1.493105 1.5555683 -0.37345985 1.1250974 -0.6517517 0.85946345 0.54350245 0.2179608 0.9342149 0.70180625 -1.228166 -0.51020944 0.902616 1.0840495 -0.23533544 1.3852054 -0.51234424 0.4636993 1.4428749 0.9975563 -0.3012459 -0.0137670245 -0.6536237 -0.4196173 0.91666883 -0.7062749 -1.8787104 -0.8368564 -0.90851027 -0.8361913 -0.1293063 -0.4267662 0.5149295 -0.8011806 0.32850716 -0.10680993 -0.63247067 0.02025023 1.6334372 1.3174988 -1.2289063 0.44804502 0.024223706 -1.1490539 0.60750777 -0.5817725 0.4806913 1.040029 -0.48794016 -0.0664774 -1.2610003 0.1065815 0.078664735 -0.4235449 0.22717063 -0.31531662 1.7290403 -1.3079201 
0.05192451 1.3501148 -1.2519349 0.30427027 0.6533873 1.6885746 -1.1068715 -1.0659144 -0.8467254 -0.7073278 0.34631655 -1.1955279 0.30397466 0.21320297 -0.1725358 -1.1884882 0.6037613 -0.30272287 1.5040301 0.78258854 0.669904 -0.68568677 0.06002637 0.3794632 0.85964173 -1.5361958 -0.93138987 -0.1870011 -0.15244055 0.3452474 -0.4197106 1.4254128 -0.6784201 1.1028699 0.7261354 -1.1089495 0.52517605 -0.5257509 1.2399597 1.3547124 -0.1926881 0.59987795 0.990876 1.0928648 -0.87951946 0.34012315 -1.0444156 -0.079818994 -0.2971143 1.0174432 -0.12424698 -0.14033568 -0.70707643 -1.1948817 0.6333823 0.17003591 1.367543 1.1980546 -0.5956089 -1.9790744 -0.71094686 -0.5178958 0.121648066 0.47784317 
-0.0029071195 -0.39255494 -0.458455 -0.8113919 -0.54284364 -0.3040173 -0.10949171 1.1805143 -0.6335865 -0.9933138 -1.306856 -0.117562644 -1.0866603 -0.10452846 -1.1227027 -0.27355453 1.5586821 -1.1189749 -1.0460739 -1.0810616 -0.91903585 -1.0479265 0.8269561 -1.1127694 0.010268743 -0.7204432 -1.2829102 1.5243351 -0.24190217 -0.15117487 0.22354053 -0.69714475 1.6860977 -1.2417669 0.93535256 0.9741997 -0.46480656 -0.875738 -0.18216003 1.2063683 0.046306282 0.44128865 -0.06427033 0.2454339 0.55725265 -0.42128944 -1.1155498 -1.795304 -0.0744884 0.67590034 -0.9882365 -0.6987626 -0.90562505 1.468939 -0.72395957 -2.0961869 0.7345605 0.050446678 -0.35157892 0.1475453 -0.08238782 -1.6239103 -1.1553822 0.30286115 
0.4252008 -1.7797785 -1.6337869 0.84413093 -0.5933353 -0.82312924 0.4527201 -0.55370694 -1.6050962 0.78396314 -0.8210575 -1.6507202 -1.4840014 -0.9029907 -0.6892066 0.42402333 0.8011017 -0.6044614 -1.056984 -0.057171043 0.70044136 0.25557986 -0.4184969 1.4134078 0.49747807 1.0505651 -0.16356231 0.61056036 0.25784156 1.8039103 0.14871843 -0.2606604 -0.098062485 0.1832811 0.46059513 -1.2418891 -1.1886182 -1.0002381 -1.6019841 0.13105437 -0.4160816 0.42996642 -1.4968755 0.4925687 -0.57953095 1.3732207 1.518129 -0.048391197 0.25759777 0.721565 -1.650052 1.3788272 -1.7862293 0.9435672 0.14214829 -1.1562669 0.89828336 0.35406968 -0.62720037 0.3689234 0.010378127 -1.6543154 -0.49864963 0.08616094 
0.1701916 -1.9020333 0.3794553 -1.6118959 -0.65752345 -0.30498064 0.3461229 1.2438613 -0.9374345 -1.489217 0.5963286 -0.20492773 0.030265886 -0.0065683 -0.02647882 0.28614315 0.555155 -0.091015935 -0.34565455 0.27472755 -0.08825359 1.0106108 -0.48204285 0.50645167 -1.8058226 -0.73649496 -1.1873738 -1.0469614 -0.2349271 -0.509935 -1.3013642 -0.30382517 0.5064136 0.48538682 -1.1308615 -0.77039325 0.48330837 0.535524 1.5750935 -0.70252115 -0.89987814 -0.85992604 1.7282711 -0.4752804 0.4182227 0.4290607 1.021091 1.4001079 -0.09169974 -0.26067314 0.052478712 -0.29083735 -1.1170144 -0.19867828 -0.42130846 -0.3836616 -0.37830937 -1.0672961 1.3532027 -0.5199433 0.82911223 0.25788486 -1.2216872 0.5327874 
1.1164154 0.35431424 0.31263384 0.3402136 -0.6453836 -0.3098341 -0.8396004 1.1638037 -0.82357347 -0.89717436 0.47699413 -1.5069667 0.6666934 -0.061177194 -0.83765906 0.20312722 -1.6533139 -0.0048112553 -0.27578455 0.13440683 -0.4881922 0.29067764 -0.62380856 0.21467504 0.4045446 -1.6106017 0.35363606 -1.7325455 -0.053813588 0.27260563 -0.7966393 -0.3224185 -0.93709654 -0.18531305 -0.88154125 0.90521115 0.6031664 0.80709654 0.771269 -1.0282096 0.6122818 0.5156483 -0.72673464 -0.50785214 -1.657616 -0.28186125 -0.9743024 -0.63957036 0.508921 -0.42309457 -1.0064667 0.43249452 1.6160285 1.413602 0.34081662 -0.007337655 0.67122304 -0.001399086 -0.3662773 -1.0156003 -0.94071066 1.4700744 -0.49241397 2.0041575 
0.32951015 -0.5975338 0.095036 0.083042875 -0.42352346 -1.288528 0.43389338 -1.4604554 -1.486793 -0.12945315 -0.6738845 -1.2488332 -0.74709463 1.1718746e-15 -1.0840596 -0.7603366 -0.37971526 0.41586748 0.13674606 -0.21579926 0.35802805 -0.14867508 0.6286457 -0.21989243 -0.8884908 0.6040731 0.510858 -0.5041432 -3.7293048e-05 0.99266803 -0.16809158 -0.18027434 0.63618565 0.049440533 0.79868555 -1.0211666 0.6001322 0.28737065 -0.6959018 -0.5294239 0.5922348 -0.101244986 1.1007161 -0.565173 -0.99629825 0.6968894 -0.75860006 -1.160171 -1.2820754 0.22482532 -0.19170216 0.5024224 1.1544764 0.3595381 -0.37344342 1.2218858 -0.71905434 0.8742055 -0.08986294 1.326031 -0.8346647 -0.36672515 -0.52056754 1.2145908 
0.20255595 1.0705217 0.42951548 -1.3714148 -5.537402e-15 1.2459278 1.958674 -1.0268122 -0.5841655 -0.6368573 0.78009367 0.08758998 -0.56586623 -0.0029386608 0.055760283 0.9548439 0.09358861 -1.2719599 -0.9743218 0.002039152 -0.11919288 0.32949117 0.5386914 -0.69037336 0.24579044 0.116481066 -0.39265105 0.67279696 -1.548102e-19 -0.29169425 -0.35318333 0.06939463 -0.07521736 -0.9921756 -0.53035724 -1.1148648 0.29387364 0.58573574 -1.1292967 0.82374513 -0.21833232 -0.19287005 -0.49273348 -0.3976924 -0.9180453 -0.8233482 -0.9765794 -0.12406599 -0.38571623 -1.4058645 0.08272873 -0.54652613 -0.22793311 -0.59035414 1.216033 -0.70549196 1.3291945 -0.51968175 -0.19544028 -0.7266692 0.08866828 0.7740339 0.010048521 -0.29977155 
-0.86071914 -0.5146619 0.9050222 -1.3277221 -0.68139 -0.05612064 -0.59750116 1.5941511 0.60403985 -1.0396754 -0.08713896 -0.2505392 0.8078662 0.30301568 0.7021739 -1.0796471 0.6414619 -0.6897212 -0.7336135 0.43505442 1.5723594 0.8002447 -0.12230556 -1.0230623 -0.7442257 0.049573276 0.40134427 0.08960587 0.14698194 1.7075099 -1.4163498 0.7871342 -0.39823905 0.28756937 -1.1369679 0.15278736 0.4874665 -0.33889803 -0.8354672 0.055104673 -0.8015139 0.55578274 -0.6493473 -1.2031113 -1.2978551 -1.2312837 0.35272107 0.90181774 0.13585596 0.30963036 -0.016162744 -0.6392006 0.8169593 0.9166692 -1.7055197 0.3380066 -0.8296371 1.3259364 0.51927626 0.16849288 1.7477736 -0.7093912 -0.889067 0.09913195 
0.87620836 0.95113796 -0.9611835 0.48687473 0.7173421 -0.24493401 -0.2527623 -0.3556759 1.2005095 -1.7859414 -0.765897 0.48495433 -1.4896063 0.24024786 -0.044837415 1.0694802 -0.5148604 -0.6433399 -0.51037556 0.49933594 0.56911 -1.7106906 -0.7826525 0.27484775 -0.13735619 -0.16278785 0.81513596 -0.37677592 0.040502753 0.010313037 -0.7945231 -0.7042625 -1.095028 -0.17331576 -0.47342485 -0.2437017 -0.19026528 -0.75825214 0.3517875 0.33966193 -1.9936855 -1.1493008 -0.99420726 -1.9203926 0.017180404 0.5896004 -1.2431203 0.6840765 -0.7641659 -1.1967868 0.39914602 -1.5231537 1.6759051 -1.2634714 -1.8170288 0.079624884 -1.3932236 -1.4465928 -0.6273263 0.05783247 -1.0719552 -0.19753198 1.7661335 1.9487759 
1.0084119 -0.16801076 1.3853954 0.4928654 -0.35769063 -0.04819079 -0.051912352 -0.0008702058 0.14602746 0.37621668 -0.82974464 -1.438204 -0.4971679 -2.76282e-05 -1.1340383 -1.5926409 -0.8952823 -0.5995099 0.04741495 -0.33751795 -0.052548528 -0.6788247 -1.8211639 -0.7269312 -0.2661454 -0.42860857 -0.118095234 1.2131091 -0.27873883 -1.4097452 -0.6461515 -1.2121295 0.2795683 -1.0393702 1.4565483 0.047847215 -0.40207288 -0.38391954 1.0330678 -0.077951364 -0.1508656 1.3958656 -0.22724035 -0.52258027 -0.0066067167 0.13196017 1.3633126 0.5312497 0.15631285 0.7552835 0.08637269 -1.5304743 -1.179034 0.82469463 0.6459396 -1.0206352 0.099846095 1.1940522 0.6889672 0.25221133 -0.4449545 0.3427632 -1.103391 -1.7428539 
-0.5485107 0.70586 -1.210334 -0.04627003 0.32281455 0.75920546 -1.0656189 -0.25854176 -0.03916019 -1.4840755 -0.072662376 -0.30595782 0.32147458 -0.3297763 -0.08551967 -0.81380594 1.1817539 1.3374858 0.042424593 -0.85781616 0.063244686 -1.8298452 -0.4003024 -1.36011 -0.12082307 0.82703674 -1.5092676 0.27549526 -0.4416988 -0.2618474 0.38994622 0.3715248 -1.8889966 1.3360612 -1.6162035 -0.16072881 -0.7090774 1.7239257 -0.0031348215 0.30041748 -1.7112112 -0.81073755 0.6286077 -0.5597147 -1.2865295 -1.5358666 0.6794907 -0.62899435 1.1016256 -0.10831382 -0.8555422 1.5014018 0.82420826 -0.707858 -0.35888758 0.77921766 0.74505186 1.4923255 0.70656425 -0.622259 0.8474048 0.10057155 1.0204601 -0.34945723 
0.50658154 0.354309 -1.2028462 -1.8139542 0.13819738 1.6414689 0.62499684 -1.0917478 0.034252502 0.7761003 -0.730745 1.7176927 -1.8250003 0.004941741 -0.2040094 -0.5848444 0.5739302 -0.3845674 -0.17296053 -0.4582775 0.4251492 -1.2498668 0.11780984 -0.763437 0.9308456 -0.5123552 1.67096 0.0032265352 0.38951984 1.6696607 0.25646776 -0.4965639 -0.65838724 0.3808915 0.549124 -0.7262963 1.3063437 0.6876494 -0.89951 0.97042954 0.59887075 0.2158676 1.1532913 0.9605423 0.01786904 0.87120277 1.1595522 0.14712021 0.7862487 -1.3290299 0.5973322 1.4098142 -0.71110016 1.2441823 0.0888767 -1.4435631 -0.25719514 0.0005509812 0.061069474 -0.099714585 -0.06636918 -0.3524339 0.17900933 -0.06634199 
1.1371343 -1.2885101 0.3008971 -1.4956973 -0.6557737 1.5078303 0.7182937 0.012007773 0.5545263 -0.87558675 -0.09101816 0.6093103 0.36022797 0.011489927 0.71499765 -0.47337127 1.8920921 0.30811378 -0.6236513 -1.3564775 1.0012871 -1.4964474 -0.015454975 -1.2247802 -0.8640579 1.0246851 -1.490808 -0.6651524 0.3963739 0.8644455 -0.9039284 0.12459491 0.14548627 -0.36531785 0.9595285 -0.61702454 0.36006567 0.70448565 -1.0974325 -0.8380967 0.70291954 -0.33655688 0.1210363 -1.6361289 -1.3545107 -0.74610084 0.013655479 -0.15735719 0.7038372 -0.557605 1.0742646 0.33228102 -0.11380421 1.4938191 0.898429 -0.14228171 0.420328 1.0936264 0.41224968 -1.2667208 -0.5892473 -0.60545844 0.61233664 1.2487767 
-1.3110809 0.604823 0.75031054 -0.08310856 0.7651096 0.5764891 0.5566901 -0.13763452 -1.476877 1.2479231 -0.74325275 -0.05694809 -0.7576461 -0.09668279 0.7064769 -0.18968 0.38750088 0.4709298 1.0206329 -0.9359583 -0.63839334 0.2618226 -0.576935 -0.59230185 0.050167833 1.0241253 1.3181157 -0.370792 -0.04775813 -0.07302747 -0.957609 0.22533424 0.56544536 0.18066406 0.76342773 -1.1526846 -1.1360081 1.4354825 0.95867455 0.64760125 -0.043585215 0.99615794 -0.9296166 -0.6726035 0.08292165 -0.9747512 -0.1942292 0.048503675 -0.33323696 -0.5251994 0.3868488 0.059689246 -0.08256422 0.19879876 -0.09724905 -0.15026872 -0.41580847 -1.449777 0.54906124 0.68447655 0.21140619 -0.33883366 1.5405526 -0.71796316 

-0.36507106 -0.094320096 -1.5386977 0.7063074 0.26535112 0.28162327 1.5974702 -0.7897136 0.18549192 0.5972965 0.10881177 -1.0182688 0.29134312 0.01589526 0.18763763 -1.6505374 -0.61972743 0.8242185 -0.77294755 0.40806243 -1.4016782 0.38103065 -0.09123898 -0.8923098 -0.5278993 -0.08548357 0.3932265 0.71069294 0.5456333 -0.9172084 0.13984369 0.7383921 -0.44578978 -0.29826376 1.8077654 0.83952236 -1.211966 0.44388974 -0.46455544 0.8841458 -0.35586458 -0.71375144 -0.5012244 -0.25552666 0.14462754 1.0465218 0.7239258 -0.5314133 -0.14795229 -1.0409919 -1.1688956 -0.6965928 -1.0828365 0.74357647 0.8432541 -0.3061845 -0.42396674 0.5046624 -0.44547987 0.28234032 -0.3319499 1.3306236 -0.16130182 0.8327612 
1.1753001 -0.23401171 0.8919719 -0.93151593 -0.8565726 0.515019 -1.5673945 -1.8093706 0.901336 -1.1341676 -1.0895524 -0.6215146 0.27248403 -0.04862432 0.43972456 0.08009445 0.42264852 0.22530471 -1.2423211 -0.024014033 -1.6995786 -0.43496373 -0.33952788 -0.7574695 -0.23080978 -0.05246429 -0.62590176 1.3754325 0.1413527 -0.4416328 0.5636113 -1.459039 0.041723806 0.7071284 1.1145275 0.7183888 0.19870712 -0.12625258 -1.3853908 -0.46675083 -0.95350194 -0.50253105 0.48894083 0.023289979 -0.42690152 -0.49079812 0.20797431 -0.07154199 0.22835305 -1.9451348 1.5724891 -0.17106892 0.2878846 -1.0625402 0.46077028 1.1435642 -0.6351413 0.06937164 -0.93720984 -0.88038576 -0.4657428 -1.2729266 0.16937444 -0.24530675 
0.0018535615 -3.5617894e-16 7.5073816e-19 -1.1431781e-11 1.0142202e-31 0.058441 -7.9031e-09 -4.3878995e-07 0.002374564 -3.3023961e-12 -3.0395953e-29 8.47071e-06 -8.053007e-32 1.1823664e-31 -0.00096856855 9.611641e-32 0.2554912 -0.0010484678 2.606704e-29 -1.7342149e-33 5.3538325e-32 -5.1628158e-05 -1.060187e-06 -0.022330439 -3.5568853e-06 0.004711919 -0.0045883516 -0.0001840281 7.4967975e-32 1.1666851e-31 -0.008457488 1.0651222e-08 -0.24487032 2.377445e-05 1.1103737e-31 -7.554397e-05 -2.4461461e-32 -4.552189e-26 9.6426575e-06 -1.2788903e-13 -0.05824777 -3.4753855e-06 1.5245047e-10 -1.7262714e-13 6.2656603e-15 -2.7246829e-06 -5.4885554e-08 0.10680152 2.9454847e-07 4.4028536e-24 -6.5180143e-07 -8.314013e-12 -2.8163122e-06 -2.6800328e-15 -1.973359e-16 -3.874339e-06 0.0014263956 0.00029988863 -0.011292558 0.023418838 -0.0068204505 -7.6827234e-07 0.00016790269 -0.01319129 
0.50641876 0.5632124 -0.29698217 -1.8124489 -0.89158654 -1.3739005 -0.14953792 0.8560534 -0.21668123 0.7223537 0.799765 0.87191576 -0.21533452 0.09550792 -0.99785024 0.8930784 0.21378896 0.9835144 -0.98975015 -0.677876 0.49645144 -1.034862 0.9791766 0.66809237 0.7753483 0.5898515 -0.33430427 -0.68987864 0.6721584 1.0736061 1.3322029 0.47460172 1.32733 -0.94658256 1.27872 0.57682264 -1.1079823 -1.1545322 -0.625631 0.8348753 -1.2146055 0.3803421 0.26716945 1.3514497 0.4138248 0.6690031 0.69771856 1.577353 -0.8447107 -0.2750874 0.37735504 -0.744883 1.1553688 1.0423201 -0.0104656285 0.61896354 0.06912147 -0.78083086 -0.1595733 -1.1120075 -0.0845805 -0.7017294 1.034376 0.32198036 
-1.030004 -0.15093188 -0.47309574 -0.8498124 -0.88961506 -1.7192755 0.87311757 -0.8284027 1.4965487 -0.027072975 -0.3721663 0.5650939 1.1014584 -0.018520454 1.2845726 -2.142739 -0.5589628 0.4166987 -0.72902393 0.041435815 -0.26024792 -0.2632574 -0.46537808 1.2187082 -0.3127865 0.8099432 -0.67139494 -1.4203523 -0.14870213 -1.345569 1.1221544 -0.008822006 -1.0500127 0.69134045 -0.94315344 -1.0843449 -0.85975176 0.8426156 1.6451741 -1.1973121 1.2459557 -0.8689864 -0.88605624 -0.5324807 0.10439619 -0.014212514 1.2279243 -0.20580615 -0.4867431 -0.08392157 0.22300115 0.018212534 -1.285235 0.87031865 0.18709375 -0.15951467 -0.25094822 -0.21548611 -0.14041704 1.3228055 -1.4857993 0.09308072 -1.0133837 -1.1434999 
0.2441776 -0.25799072 -1.2490019 -0.6457423 0.32798553 -0.35481662 -0.5569837 0.46989807 1.3469452 -0.60610133 0.8819212 0.4910722 -0.45813736 0.005563623 0.60179806 -0.9798208 0.4372463 -2.1883636 -1.236172 0.3754444 0.4357643 0.6978357 -0.31380475 -0.5233854 0.05833207 -0.18204865 0.20167205 -0.3481524 -0.034959067 -0.9778872 -1.5932611 0.6042524 0.45640066 -0.9873739 -0.43554765 -0.46800002 -0.9647354 -1.0665694 0.47844297 -0.33881047 -1.4726876 -1.0011567 0.43052807 -1.150453 -0.2747727 0.79980814 0.11189887 2.1590133 -0.530402 -0.17705464 -0.95510495 -0.15895732 -0.72683144 0.10302462 -0.9654039 -0.77733785 0.6624144 -0.54341686 0.3554779 0.42295468 -1.3764671 -0.4073442 1.0831434 -0.5984396 
1.1417466 -1.0538819 0.7643481 1.0271251 -0.11404766 -0.7670852 1.1937901 -1.0072168 0.17530248 0.046013925 0.18892719 1.0138649 0.5703544 0.05207562 1.3634669 0.28751427 1.7342834 -1.6433336 1.3029714 1.2131534 1.1070294 -0.66392756 -1.6278943 0.3329416 0.3412063 0.032684512 -0.8123092 -0.6843729 -0.64678484 0.41214803 -0.46398377 0.5112743 -1.1187301 0.47386548 -0.09867774 -0.5851658 0.008857046 0.21269615 0.1287319 0.9573602 -0.35529432 1.7199614 -0.6976414 0.11269895 -1.041379 1.508015 -1.1973217 -0.50805527 -1.0144769 -0.4573699 -1.0359062 -0.044785373 1.3884064 -0.3895711 -0.74050456 0.60115105 -1.7412015 0.4449548 -1.0646381 -0.12672533 -1.6427935 -1.4051713 0.74857223 -1.6700124 
-0.13851994 -0.33557096 -0.61793184 0.6015061 1.108785 -1.0244409 -0.8211077 -0.63592464 -0.16297536 0.119432285 -0.16862087 -0.27393967 -0.11844486 -0.00012394397 -0.110995874 0.5706215 -0.45539016 0.9447179 0.34391016 -0.6593173 -0.15418784 -1.1568654 -0.29195982 0.24047726 -0.31891128 -0.47234303 -0.19748266 -0.7962814 0.15400007 0.3465312 0.6938314 -0.86440265 2.060935 -0.97146374 -0.017410481 0.6049845 0.022201015 -0.023177696 -0.62755954 -0.94118625 0.21863952 1.8381547 0.027059177 -1.1180587 -0.21368635 0.102014415 -1.4820422 -0.55014676 -1.712164 -0.4874337 -0.62955433 -0.09572496 -0.6314344 -0.1706074 0.6734192 -0.5337115 1.1613711 -0.42384315 -0.2849488 -0.09007031 -0.71241784 -0.5904147 0.09578544 0.66115814 
0.84148765 0.10280854 0.45189816 -1.0371822 0.33756655 0.5374085 -0.39643982 -0.0076964395 0.9638055 -1.4983026 -0.6533812 -0.16292122 -0.9475819 0.23969097 0.028081104 0.53598386 0.071218744 -1.0966113 1.3513856 -0.56051564 0.3866986 -0.7653311 0.6690467 -0.1292941 -0.1995348 0.44952008 1.1876881 1.4699241 0.102400176 0.89115787 0.6963439 -0.21819809 1.0219309 -0.96548975 -0.6227293 0.46794933 1.3929043 -0.58966947 0.32426018 -0.09501871 -0.10771953 1.7894632 1.4342853 0.03893628 0.44700447 -1.5489247 -1.0773364 0.47070062 -0.31612334 -0.10650725 -0.4437855 0.95858926 -0.5818554 0.24900965 0.37902611 1.4270229 -0.27053443 0.041759793 -0.328488 -0.7933473 0.9994252 1.6521553 -1.8052509 -0.70159155 
-1.0708307 -1.0002307 0.27610278 0.47885582 -0.2147235 -0.9725269 0.17507212 -0.5377252 1.3253683 1.1941264 -1.0815382 -0.651357 0.7599824 0.014325173 0.97102505 -1.4386586 0.2787184 -0.44779086 -0.30094513 0.2700696 -0.5049729 -0.5285029 0.64452636 -0.7151309 -0.009472473 -0.3626388 0.7298231 0.66969836 0.052591447 0.08144617 1.5677687 -0.5459362 -0.9597371 -1.4965593 0.03177519 -0.65175724 -0.13520283 -0.17005908 0.4988904 -0.33315527 -0.48035988 -1.5734617 -0.11211048 -0.12988737 -0.3300064 0.48227748 0.8744831 -0.0026952506 1.5177633 1.3221171 0.14413229 -0.4280381 -1.0060005 -0.09736919 0.34509334 0.82394785 -0.31694663 -0.43486944 -0.31998423 -0.4154636 -1.7961317 -0.112094924 0.6165906 -0.17179759 
0.74802756 -0.6416174 -0.5416956 0.5926916 1.2171013 0.08243334 0.10521086 0.27166304 -0.31524244 -0.6313398 0.54099435 -0.904538 -0.39958367 0.2147327 -0.07028622 -0.5759626 -0.75473475 -1.5904448 -0.195806 0.9920516 1.53854 1.5206138 -1.0120816 1.3801317 0.5372648 0.2971696 -0.50001395 0.40621442 -0.009578232 0.1908576 1.7992091 -0.6227353 -1.0702745 0.3907236 0.6098307 1.0024195 -0.09510811 0.05698627 -1.1162556 0.3809902 0.06390318 0.7821917 1.196711 -0.76016766 -0.36611295 -0.89869446 -1.6193665 0.6760949 1.6640804 -1.4345714 0.117976144 0.52030057 0.19964331 -0.011209304 0.36634582 0.01777872 0.012816771 -0.7887731 -0.54831576 0.24518748 0.37481475 0.22616667 1.0402427 0.7864976 
