1.3185276 0.11264483 1.550355 -1.5749017 0.20004806 -0.07428081 0.8427915 -1.3151096 1.579881 0.1214334 
0.5432293 0.7227725 0.23130229 -0.18808329 0.33510244 -1.2182636 0.8360716 -0.040307973 0.11324392 0.35876992 
0.797275 0.28196168 0.23902091 -0.3551197 0.8959617 0.4698984 -0.402544 0.094026476 -0.47338438 -0.4838184 
-0.08613035 -0.46522054 -0.13082342 -0.9432026 -0.46509278 1.0884253 0.5103963 0.6311019 -1.4449338 -0.77713436 
-1.2548805 -1.7400912 -0.05445644 -0.5247145 -0.2789817 -0.54852843 -1.6483009 0.1690102 -0.7129658 -1.3423764 
-0.21457908 -0.88878685 -1.4740218 -0.7426286 -1.0345818 -0.0880677 0.8082456 -0.14768489 -1.2651207 -0.39692944 
-0.23575182 0.31239444 -0.11112385 -0.23543455 0.87914777 0.14196743 0.3373431 -0.79487354 0.49227032 0.1394247 
-0.88683176 0.09551292 -1.0355496 -1.5534142 0.35221836 -0.00016280377 0.41287458 0.46038103 -0.47851425 -0.274687 
-0.02434137 1.2557137 -0.30115423 1.2827594 -1.2455975 -0.34511176 -0.94468904 0.36236694 -0.03279989 -0.133882 
-0.9351484 -0.51622033 -1.174708 -0.047212355 -1.2782004 -1.2310865 -0.6978289 -1.3897371 -0.19380778 -1.1787611 
-0.9233835 -0.9310749 0.1316739 1.2591531 -0.086464025 0.80392045 0.9684185 1.3670757 0.15226422 0.6331646 
0.4897119 -0.5782192 0.6884628 -1.9331659 0.6705073 -1.5566158 0.5470473 -0.12342015 -0.6545203 -1.0998127 
-0.5211771 -0.51931494 0.15627074 1.0471681 -1.1987402 -0.22042891 0.7700622 0.48271647 0.74201244 0.19423741 
0.9203215 0.94032735 0.81376266 0.44739273 -1.3351691 -0.97635 1.5545943 0.35151577 0.096461594 0.68907 
-0.2949991 0.17534748 -0.20712574 1.1688045 0.83804446 -0.28271785 0.4181214 0.07745433 0.21985663 0.31538573 
0.85180134 -0.20683752 0.23373838 -1.2325184 0.28840113 1.0404464 -0.7420471 -0.39132228 -0.33544683 -0.49380916 
-0.9677711 -0.12396943 1.3955637 -0.3323505 -0.04711354 0.834883 0.3750859 -0.4013728 0.6867219 0.5917623 
-1.165941 -0.4002689 -1.384085 0.2521893 0.41903418 0.96963245 0.44039282 0.39142182 -0.32440466 -1.3602483 
-0.07527654 1.5370227 -0.2519078 -0.735261 -0.9375844 1.1756407 1.6679002 0.5313005 0.26609895 0.061734598 
-1.0704087 1.1384802 -0.22245282 -1.0214962 -1.0663569 1.0520624 0.34698594 1.1423098 1.652858 0.44769955 
-1.0239311 1.5276122 -0.45346984 -0.792974 -0.09982398 1.0345862 -0.5046539 -1.0292169 -0.05729937 1.0700461 
0.27745128 0.73151815 -0.60071117 0.3521013 1.450125 -1.2936468 1.1206278 -0.41695604 0.45619574 1.3352036 
-0.014477413 0.8580396 -0.59979385 0.5178288 -0.4143011 1.0540819 1.2250807 0.004727523 -1.4007573 -1.0391381 
0.047125664 1.5638359 0.6873976 -1.227886 -0.6791911 0.21073928 -0.6816911 -0.33983293 0.49235418 -1.5410957 
-0.7713444 -0.5861218 -1.0407094 -0.3742982 0.057100274 0.4455616 -0.65527755 -1.3656449 0.46448857 1.2996376 
1.7327622 -0.18601502 -0.59731996 0.383132 -0.8240814 0.7321447 0.03240999 -0.0072051627 0.6945556 0.47612333 
-0.69109654 1.1142417 -0.91354907 0.9049569 0.26448837 -1.2516111 -0.38009605 -0.25131732 1.2829196 1.1930335 
1.1762197 0.070709035 -0.29243213 -1.0747566 -1.2551553 -1.52379 0.50157434 0.73373365 -0.38247865 -1.852613 
-0.05504213 1.2046478 -0.5496399 -0.45634803 1.129404 0.78242975 0.049431812 -0.49833956 -0.190587 0.5688978 
0.060422625 -0.14662233 -0.5111125 -1.0723124 -1.1135131 0.32866645 0.5774052 0.008686824 0.9395207 1.2949245 
0.43534526 0.84390277 -0.91793966 0.5237201 0.47410122 -0.12566847 1.2516341 -2.3310854 0.61088157 -1.4001442 
0.03845994 -0.019520229 0.1991347 0.7878574 1.0994058 0.37250057 0.21143793 0.79628813 -0.24760056 -0.16608228 
0.38060832 1.0604913 0.3064705 -1.058909 -0.19229062 -0.93941736 0.23199132 0.3152102 -1.2831378 0.8904943 
-0.32905388 -0.064035125 -0.6341159 1.1081879 0.69171965 -0.23900022 -0.30411375 0.23232672 -0.3355451 -0.986823 
-0.050463535 0.6567331 0.29443532 -0.86959475 0.53564775 -0.905869 0.37365612 0.41265592 0.66581947 -0.3680562 
0.5124404 0.10394958 1.096232 -0.18307844 0.5749599 -0.7326455 -0.089594565 0.47769922 -0.507537 0.38624394 
0.9122144 -0.8129137 -0.44426203 1.168595 -0.35398644 0.21224628 -1.2899084 -0.048424646 -0.61203194 -0.16558477 
0.26367638 -1.0479436 0.49164322 -1.6041076 -0.029816499 0.800411 0.005631038 0.11226055 0.26645485 0.13996232 
1.5530465 -0.02149369 0.6979832 -0.62708443 1.0229671 0.5263567 0.5575362 0.43954933 -0.6973714 -0.60854703 
0.22438534 -1.1728233 0.28583375 -0.18025722 -0.12682967 -1.019081 -0.756221 -1.3637803 -1.1160101 -0.84038407 
-0.4544872 0.6969394 -0.78937614 0.56530315 -0.14895655 1.4287461 1.7222141 -0.39123797 0.84673846 0.14180548 
-1.7762058 0.1242465 0.16216084 0.94788814 1.015795 -0.32499385 0.630843 0.25336692 -1.24426 0.0067349565 
0.28452024 0.8567411 -1.4264112 0.36976674 0.13316964 -0.01684063 -0.04218192 -0.18541884 0.79050076 0.59578246 
-0.66586566 -0.6817222 -1.4341229 -0.31861627 0.90778756 0.48449525 -0.5887009 0.05902534 -1.1190398 0.40305886 
-0.20750046 -0.49616206 0.40293193 1.6550344 -0.1473315 -0.7606302 0.96486825 0.7703662 0.668083 0.17792155 
-0.0094910655 -0.8442045 -0.22256717 -1.1796366 -0.9687529 0.5754963 -1.1003152 -0.39096493 1.0821998 -1.0245059 
-0.90503067 0.6076847 -0.14286506 0.83484393 -0.14190842 -0.26435435 -0.95474315 -0.29889917 1.268267 -0.0056428667 
0.9634288 -0.8707684 -0.22556682 0.23152137 -0.19640756 -1.8168526 0.7635698 -0.52767634 -0.19780323 -1.2843833 
0.41923714 -0.08333907 1.4497988 -0.60379195 0.5023282 0.08791952 -0.8424013 -0.22601369 -0.62079203 1.2081794 
0.07855539 1.6097786 -0.19732407 0.363662 0.37285975 0.3237883 -0.072887994 1.0756128 -0.5843059 -1.5467314 
0.64601773 0.76104134 -1.7904626 -0.87090194 1.053171 0.9200463 0.79453343 -0.30175853 -0.32981208 0.11649216 
-0.17858139 0.25726584 0.6913589 0.34647357 0.67472214 0.44274372 0.5730009 0.34952632 1.0775834 -0.7004941 
-0.8604244 0.82998455 0.73542154 -1.154867 -0.54997545 -0.26441008 -0.74678165 0.15397637 1.0886421 0.36292604 
0.65138125 1.0027326 -0.36932233 1.0890263 -0.14946441 -0.11200122 0.44828174 0.200199 -0.49602616 -0.22759005 
-1.6348282 -1.0408688 0.23313738 -0.089328766 0.88446516 -1.2375633 -1.04522 0.9758332 0.07037479 0.6676923 
-0.27819896 -1.6732821 0.49602258 0.10987657 1.0415272 -1.7343618 -0.76717794 0.2638907 -0.10698272 -0.23437637 
-0.12458724 0.13564283 0.89236677 0.2805405 -0.19197595 -0.19307223 -0.7987072 0.9981085 -0.099114865 0.53739446 
1.4431974 -0.44828674 1.0897866 0.8139528 -0.46857175 0.98346657 -0.36732876 0.9012052 0.11013533 -0.51780427 
0.017070446 -1.3256125 0.36216938 0.19835997 0.7656314 1.1319776 0.46526158 0.16697943 0.3507573 0.47612137 
-1.1616318 0.1252559 -0.3275643 -0.4692541 0.08397085 -1.2500272 0.21812451 -0.0061950646 -0.09739146 0.65770286 
0.04806762 1.2536426 -0.39046732 -0.4994565 0.21481313 -0.12007389 -1.1324337 0.085212074 -0.61266035 0.26096946 
-0.06757654 -0.2099272 0.6540039 0.084916696 -0.2424162 0.617068 -0.156801 0.21877493 0.70433015 0.16334303 
-0.39295673 0.77804714 -0.2795959 -0.5871922 0.9453836 -0.85770494 0.10701386 -1.3629357 0.5344365 -0.22817369 
-0.36350918 -0.44427106 -0.8068631 -0.121909216 0.5474906 0.7250462 0.63821393 0.29723424 -0.31982538 1.5965083 
-1.7348952 1.6024626 0.2484977 -0.4662836 0.5581087 -0.14576648 0.98718023 0.43690363 -1.2283922 0.15750277 
-1.614458 0.2315669 1.3785855 0.04447694 1.1001563 0.9958308 0.9238292 0.72533983 -1.5360899 0.52540696 
0.9769247 -0.8453616 0.10073222 -1.2658871 -0.96663606 -0.6070013 0.29470596 -0.46597925 -0.7857487 0.48016363 
0.8215594 0.13263279 -1.4881294 1.8148674 0.85629237 0.5307333 0.44433364 -1.4704927 -0.17306194 0.31494975 
-0.8257118 0.5412276 -1.2631316 0.3324485 -0.45738605 0.94156694 -0.7943446 -1.2027913 0.88879365 1.2647395 
-1.1769989 -1.3170359 0.45010188 0.6098404 -0.37266454 0.48058894 -0.6976315 0.22953412 -0.079304196 -0.3136927 
1.345781 0.7656363 0.53078765 0.13848728 -1.466449 0.4700416 -0.06726272 -0.24514396 0.5648297 -0.8424158 
-0.531274 -1.2659659 -0.10863966 0.44047183 0.32592037 -0.7712623 0.2543837 0.50946975 -0.9415605 1.1270701 
-0.8530449 -1.0456692 0.26492238 -0.22783118 -1.4557827 -0.11785813 0.19646338 0.6830263 -0.3857984 -1.7577868 
0.47403938 1.1954058 -0.6482936 1.1773512 -1.0334288 0.89683443 1.5334232 0.113709345 0.51663506 0.49370995 
0.62165606 -0.46436912 -0.39688376 0.12754618 0.06425009 -1.4995115 0.9618533 -1.0948206 0.07316414 -0.3880438 
0.1767905 -1.4625915 -0.84061635 0.9910709 1.2480267 -0.43661088 -0.5918505 -0.96046233 0.5275173 -1.0044203 
-0.7497227 -0.18773314 1.3238839 -1.0199863 -0.68605226 0.5070223 -0.49994946 -0.3693547 -0.39955893 0.5975317 
0.3074528 1.0606893 0.49279425 -0.3515797 -0.25652778 -1.2032713 1.2606972 0.35658264 -0.046752904 1.188983 
0.7447941 0.6670647 -0.040900894 -0.763784 -0.49226183 -0.24343663 -1.175386 -1.422128 -0.63032216 1.2604092 
-0.87652445 0.66484225 -0.10047234 -0.0004435381 0.10519384 1.0490987 0.120800994 0.8322178 1.2012683 -0.7708622 
-0.45743832 0.24235459 -0.25558326 -0.5669469 -1.6046908 -0.7293717 0.7351019 1.1815999 0.5939894 -0.038001504 
1.2926439 -0.58645254 -0.16447523 0.7074052 0.7928954 1.5275465 -0.22513112 0.12409522 0.40296572 0.41061994 
1.2087891 -0.6728773 0.26107007 -1.0637653 -0.70089096 0.09561343 -0.20505221 -0.12882955 -0.41639188 0.52710444 
-0.20693336 -0.5339042 0.16744429 -1.1328354 -0.35320705 0.61254066 -0.104810804 -0.16146925 0.1256241 0.99085057 
0.25620314 -0.22785623 0.876145 1.0807128 0.13506162 1.2978499 -0.400489 -0.2760221 -0.43167084 -0.07621664 
-0.35042596 -0.09515723 0.14816312 -0.7146587 -1.1960099 -0.16997664 -0.24369608 -0.40316528 -0.25466144 0.69558626 
-0.24228309 -1.231334 0.2606984 0.36112848 0.06552952 -1.0264463 0.4639924 0.23627166 -1.4500583 0.7131506 
-0.19713897 -0.06052652 0.43909624 0.95165735 -1.5055432 -1.4986699 -0.031539403 1.0086455 -1.3681746 -0.6764973 
-0.11009598 -0.83230376 1.0357982 -0.38742465 1.6470429 -0.0030073745 2.0935285 0.5275975 1.3887923 -0.5420121 
-0.9303051 -0.47140697 -0.4396942 1.5357457 -0.30297416 0.03703353 -0.40224954 0.9426111 -0.7369764 -0.29348764 
0.0705864 0.32778525 0.13281132 0.95507103 -1.7671086 -0.055064384 -0.27707797 -0.9474026 0.2904059 -0.29339308 
-0.32202122 1.0280288 0.16818343 -1.3053907 0.11256041 1.8112383 1.3317931 -0.3855719 0.4019664 0.3077213 
-0.45716146 0.662027 -0.49504903 1.2690451 -0.031383995 1.1801333 -0.41760707 0.105553076 -0.913061 0.7845019 
0.11459636 -1.185156 -0.63743246 0.63572747 0.5748975 0.73123175 -0.3709915 -1.1833848 0.2576824 -0.38853103 
0.75304615 0.71182483 1.434452 -0.015758144 -0.37266067 -0.8102089 -0.83529377 0.5887759 0.8128314 0.2968034 
1.1936575 -1.8077769 -1.6749508 0.48951808 -0.8652408 0.0129036205 -0.5872478 -1.2213397 0.6715596 0.69616663 
-1.0785116 0.15601236 0.44965145 -0.11392156 0.5369255 0.19435364 -1.3135301 1.1212248 0.3895763 0.50304335 
-0.65334666 1.1860557 0.5911786 -1.3427992 0.0024202694 0.72077113 -0.09525841 0.017042782 -0.62404597 1.7949244 
0.3101822 -0.1726868 1.302078 -0.17513067 0.51839876 0.9696548 -1.9369838 0.29224855 0.59400433 1.0047133 
0.76342636 0.66431373 0.05960332 0.83683735 0.35114357 0.5593122 -0.25578246 -0.8511307 1.1801358 1.447888 
-0.033423766 -1.1260066 1.0146296 1.5061041 0.9833796 1.7037433 0.7235595 0.5424421 0.9019107 -0.37892547 
0.76154125 0.7895924 -0.2006787 -0.80130625 -1.5777268 -0.62024784 0.423828 0.066328 -0.042375654 -0.57179314 
-0.7501851 -0.5234133 -1.3395615 0.2720884 -0.40720594 1.4582636 1.3396004 -0.19183962 0.65609926 0.41394928 
1.4020367 -0.8956231 0.30346176 0.07683326 0.89197975 -1.394255 0.30653968 0.21666044 0.3785921 -0.1521968 
-0.09030716 -1.0156145 0.50670785 -0.048617277 -1.0408337 -1.3552271 -1.2580746 0.6540732 0.4299701 -0.28393927 
-0.1447479 -0.65777993 0.21462405 -0.81903696 1.3043913 -0.838 -0.9557693 0.8561796 0.5102296 -0.44742757 
0.10727965 -0.083912 0.54931116 -0.10959911 0.28831735 0.70838565 0.55970705 -1.4177217 1.1448377 -0.23617952 
1.3673173 0.6632817 -0.4617458 -0.077914 0.06551597 -0.108080216 -1.3866498 0.52154446 -0.87074053 0.5423207 
-0.6740383 -0.91085625 1.0425978 0.10294921 -0.41527966 0.10355978 -0.032056283 -0.114456736 0.8339418 -0.07966062 
1.3240746 0.12663049 0.17794867 -0.767208 -1.4407736 -0.054874264 1.1629387 0.02891955 0.03886375 0.46220288 
-0.04118184 -0.39185676 -0.8894153 0.5995338 1.0234863 -0.05447058 0.023065107 -0.8633496 -0.51381415 0.6606717 
-0.5318849 0.3424087 0.6865169 -1.2330143 0.7411665 -0.40481457 -1.1606643 1.0578206 -0.7719112 -1.3198013 
-0.28427345 -0.64815044 -0.04302808 0.61744416 -0.7430598 0.079575725 -1.1724212 -1.1010698 0.34915066 0.68696606 
-0.5815412 -1.4111384 0.7290021 -0.09164325 0.06586914 0.4106281 -0.04515971 -0.27638775 -1.0811211 -0.329274 
-0.7994768 0.34750852 1.0188789 0.5718396 0.4350781 0.42181683 1.1035513 -0.19702162 0.98950106 0.19138345 
0.4962715 0.48926735 1.6156166 -0.43234465 0.3939494 0.83795905 0.58755344 0.062964775 1.5278431 0.48399407 
0.0055097416 0.9022796 1.7812449 -0.5963105 0.13666975 -0.41075063 0.35232642 -1.1333624 0.28730825 -0.5835613 
-1.5611215 -1.2489725 -0.68511665 -1.3963814 -0.76530904 -0.6625691 0.31719178 -0.67787594 0.24782161 -1.0856762 
-0.15946032 0.34729758 0.46988654 -1.3524246 1.0910672 1.5291972 0.17891052 0.57208896 -0.42606503 0.21073984 
0.10398567 0.699576 -0.09088745 0.21471164 0.41516453 0.039055 0.0006244711 0.0066419016 -0.92866015 0.6470528 
0.1361786 -0.5794324 0.21039782 0.4897399 0.026487166 -0.031326104 -0.10529642 0.08690604 0.02969174 -0.5144234 
-1.569056 -0.13752466 -0.17077082 -1.4417351 0.7824651 -1.0582173 -0.48189807 -0.69159347 0.18218851 0.43801767 
-0.8958882 0.3357721 -0.5313837 -0.049202457 -0.22812581 -0.73623526 1.2374692 0.3023676 -1.3474817 0.26911584 
0.8527534 -1.5333991 0.14305718 -0.35640904 0.009506592 -0.01569739 0.106466435 1.0246158 -1.3384516 -0.785669 
0.12991406 -1.0454991 -1.2193094 0.542253 -0.41471753 -0.006080671 -0.4166966 0.6699867 0.9212225 -0.83754736 
1.3001188 -0.4367521 -0.6672892 -0.87875485 -1.1153157 -1.3997011 0.08401601 0.536544 -0.3025945 1.3413185 
-1.5381101 0.26883423 -1.3827231 -0.0071119727 0.5664613 0.7601682 0.6979797 -0.9404537 1.4391325 0.95940757 
-1.0606096 -0.17872822 0.35509965 -0.9220294 0.620454 0.27372235 0.17729646 0.76213086 0.9413999 -0.101489194 
0.2034619 0.074183084 -1.1937546 0.026487185 0.03268283 -0.3957112 0.8637728 0.31513202 -1.5085433 -0.12359221 
-0.8654133 -0.92784464 -0.20689656 -0.24720922 -0.6749408 -1.0729288 -0.6532563 -0.30926517 -0.68626463 -1.6382661 
0.16968238 -0.2981544 0.9151393 0.17967822 -0.62533146 -0.5815567 1.7332861 0.50040764 -1.2100536 -0.98611593 
-0.23239954 -0.3862045 0.0186618 -0.09059699 -0.35340595 -0.11814655 0.7705738 -1.4946018 0.7572742 0.16393328 
0.7590637 -1.205721 0.41465646 0.5467539 1.3490365 -1.4090118 -0.71089655 -0.63238764 -0.29662177 -0.32539377 
0.8499089 -0.43049097 -1.349086 -1.1372129 0.7186595 -1.327763 -0.13242415 -0.1187649 -1.0963756 -0.18596402 
0.3759228 -1.1593723 0.03489172 0.348048 -0.62269855 -0.060032103 1.5190142 -1.4436843 0.109593086 -0.035824843 
0.41092056 0.34810948 1.6146475 1.8603202 -0.9271456 -0.42416328 0.37191698 -1.1342037 0.03764588 -0.63521355 
-0.38883862 -1.227993 -0.60854584 -0.924397 -0.39988935 -0.9093579 -0.5701085 0.63155705 -0.3889358 -1.2833891 
0.36766973 0.75810736 -1.0106649 -0.5687531 -0.53253937 1.0813993 -0.5294387 0.78625625 0.37032527 0.50856525 
0.7811458 -0.5688296 -0.9232545 0.42836025 -0.88738585 0.7195637 -0.30332172 0.0742363 0.88608325 0.38673645 
-0.85146415 0.45447287 1.1023254 -1.6356966 1.4914371 -1.6382899 1.3221364 0.5907788 0.12218457 0.23689085 
-0.14896254 0.20971225 -1.4052025 0.68892694 0.009076233 0.03444578 0.11985835 0.57837015 0.38473734 1.0006489 
-0.035755813 0.952239 -0.25953147 0.95767856 0.025769392 0.092590585 -0.034192417 0.39889246 -0.056488413 0.039684676 
-0.95219654 -0.07163703 -0.7266154 -0.073854856 -0.6322643 -0.099110425 -0.21700166 0.7812991 -0.02237138 -0.27857146 
1.1881946 -1.2988162 -0.2992565 0.0015044381 1.687771 0.05246625 -0.22782966 0.3973379 -0.041884117 -0.30819505 
0.34089965 -0.09795847 -0.7539936 0.18916327 -1.1355755 0.36244333 0.34713307 -0.7131402 0.4332968 -1.7026243 
-0.8822275 -0.7310846 -0.055586547 0.3722024 -0.3206035 0.34682357 -0.0055644233 0.06636803 0.4176435 -0.46079427 
0.2738831 0.60632515 -0.24518014 0.802595 -0.28954738 0.07268615 0.071513936 1.1644324 0.63093585 1.312177 
-0.265534 -0.16372512 -0.10488099 -0.96631896 0.48511624 -0.55574477 1.509453 -1.1408099 -1.2648888 -0.20115094 
0.41564262 -0.28932282 0.2849061 -1.1817648 -0.31037116 -0.51292735 0.6516751 -1.1553922 -0.049588803 -0.7703347 
-0.8206802 0.833549 -1.1071101 -0.89700043 -0.45138717 -0.11452205 0.23491465 0.39572906 0.47124526 -1.1647384 
0.20826118 -0.24250776 -1.5383656 0.17448436 -1.1316785 0.53944266 0.42046732 -0.98380333 -1.1240414 0.1420661 
-1.0039485 -0.35728347 0.7601918 -1.1146704 -0.47175276 0.6410245 0.2276459 -1.3752061 -0.64451075 0.2924995 
0.21481031 0.37961677 -0.525279 0.7462452 1.3750591 0.7266296 0.6886697 -0.30589578 -1.193194 -0.95667475 
0.014636466 0.009819848 -0.051579203 0.0043878495 -1.6749031e-07 -0.038738173 -0.0103653865 -0.0036606705 -0.0012894598 0.021572975 
1.6688569 -0.24284151 -0.464365 -0.6291791 1.32932 0.4420816 0.23322222 -0.59135985 0.735702 0.94611675 
0.71325004 -0.37720552 -0.9203435 0.043960035 -0.8306947 -0.23405266 0.10268594 -0.0011513613 -0.044547852 -1.4868423 
0.9934448 0.7759906 1.2097676 -1.3924204 0.08254857 -1.3059584 0.21538676 0.44978744 -1.192009 0.45022348 
0.74222064 0.7332881 -1.4477065 1.645313 -0.19367857 -0.22928241 -0.9638469 0.55020964 0.38001913 -0.77661014 
1.5308262 -0.8743003 1.1128585 -0.1173467 -0.38116205 0.0417715 -0.30990183 -0.09010697 0.009629502 0.8082193 
-0.39575788 0.11807426 -0.547987 1.2624325 0.08846878 -0.47990042 -1.114104 0.83939236 -0.69355756 1.1703273 
-0.9653171 -0.33546838 -0.95326686 -0.89818877 0.76123315 0.05261989 0.7242084 1.0558078 0.4687526 1.4828821 
-0.4780747 -1.2869867 -0.1980512 0.6974861 0.17200258 -0.22040422 0.45359927 -0.27075627 -0.63062155 -1.1752919 
-0.9968229 -0.9093417 -0.072614945 -0.019133296 -0.39971852 -1.8215871 0.9401515 1.2395144 -0.06239812 0.23138501 
1.5788002 1.1513733 1.1305474 -0.050904788 1.4229847 -1.434168 -0.5221321 -1.0220431 0.33944124 0.055557966 
-0.0038112141 0.18339947 -0.381148 0.9506767 0.97466236 1.5575033 -1.6745446 1.4103271 1.724679 -0.15372927 
0.8183743 0.43365768 -0.21483094 1.1999764 -0.26132074 -0.14574121 -1.1564592 1.1190532 -0.42411897 -0.017530723 
-1.2664205 0.79327846 0.58709884 -0.7899705 0.08755064 0.5201606 -0.011373485 0.08252672 0.17906423 -0.7254042 
1.0338774 0.7783771 -1.0345376 0.79614574 -0.22456041 0.47233593 -0.088912174 -0.89792293 1.1214842 -1.2521548 
0.6041043 1.9127452 0.8422572 0.30834362 -0.68269527 -1.0231001 0.018787121 -1.2125858 -0.6650311 -0.9553864 
0.11996951 0.12253095 -0.4377283 -0.2740862 0.9105489 0.09616999 0.6010163 0.29020724 0.9039429 -1.2855886 
-0.13571364 0.56575274 -0.15397875 -0.35007867 0.36185485 1.060906 -1.3945462 -0.22552015 0.4873557 0.82204294 
0.8800058 -0.9384346 1.0325333 -0.14195608 -1.8471254 -0.25427988 0.6704261 -0.30342937 0.83112454 -1.4434077 
-1.1284578 -0.60810065 1.2397625 0.088302776 -1.1911263 -0.55541503 -0.09716242 0.7446579 -0.72773266 0.3111705 
-0.5214436 -1.1960784 -0.3749695 0.25254264 -1.8240938 0.39757892 -0.027894976 0.18481366 -1.0451982 -0.58309203 
-0.69602925 -0.5721344 0.8455851 0.45449376 -0.16401179 -1.2306651 -0.9762206 -0.12222498 0.5031883 -0.15381676 
-0.154207 0.3286754 0.61145514 -0.5360202 -0.6269497 -0.34732994 -1.1594199 -0.08245059 -0.64356595 1.5255097 
-0.16351663 0.8590178 -0.31764787 -0.06849327 -0.66384625 -0.9521077 -0.7337368 0.1991095 0.9032526 -0.72796625 
-0.41856807 -0.38338345 1.0701197 -0.9995839 0.94872767 -0.14816086 1.0773791 0.3750243 0.07200845 1.5628661 
0.4957284 0.1319353 -0.8169149 0.2858961 0.7794744 0.23709846 -0.5198691 -0.5784857 -0.39649355 1.1304281 
-1.215967 1.3658947 0.5296529 1.1200156 -0.8487448 1.2865894 -0.9140809 -0.36944416 1.070208 1.0367055 
0.28942955 -0.83100873 0.12671277 -0.3038346 0.18189767 -0.019687604 0.43957222 -1.4145697 -0.69286525 -0.7387079 
0.962135 0.4772448 -0.14437436 1.4235127 0.81374216 0.8974779 -1.1397201 -0.22436579 -0.8331949 0.5099919 
0.7955971 0.6595323 -0.58735347 -1.6066623 -1.119606 0.14492838 -0.9320147 -0.034333974 0.41727373 1.1856177 
-0.19812636 -0.1441012 1.009604 1.1481303 1.6915468 -0.27326867 1.5970517 0.49768916 0.61972064 -0.5008828 
-0.87860304 1.0224733 -0.978043 0.21365592 1.0128931 1.2458833 -0.5580643 0.9620976 -0.4852774 -0.38180783 
-0.36719605 0.2728291 -0.24954772 -0.28120098 -0.5719397 0.7625616 -1.3998023 -0.36416563 0.8958183 -0.18725823 
1.1064707 -0.6531165 1.0579798 -0.40851617 0.1276135 0.22012602 0.26812696 -0.03959682 1.0326049 -0.03328734 
1.2373893 1.3391485 -0.9501975 -1.5446284 0.31926608 -0.39961296 0.28780678 1.0609334 0.28893033 -0.2373705 
-0.52894056 -1.0019225 -0.44916195 -0.41991067 0.5447476 0.4138615 -0.31568885 0.83352995 0.13303834 0.26327613 
-0.44626716 0.17071249 -0.6408031 -0.15077756 0.27593172 -1.5946027 0.6038234 0.09063376 -0.12997665 0.9136045 
-0.46246108 0.32208872 -0.22805135 0.7968151 -0.7642985 1.2093239 0.4705353 0.71237564 -0.22215793 -0.2389777 
0.8075517 0.27061042 -0.65971106 -0.6941879 -1.2536826 -0.3068468 -0.09484588 1.1934899 0.0936908 0.9839639 
-0.4676852 1.0200235 -0.35593212 0.3129422 -0.1144101 0.963962 -0.22472538 0.31121776 0.25859967 0.10907074 
-0.006729222 0.2392216 -0.61989456 -0.27248517 0.49313858 0.62352955 0.62324005 0.114816844 -1.0030352 1.2613899 
-0.35073125 0.68378353 -0.37619147 0.5903185 0.5504652 0.55314934 -0.19689873 0.48547506 1.0172294 -0.4226792 
0.19620034 -0.32719347 -0.4326689 0.9045513 -0.91694385 -0.5930423 0.08243302 0.51438665 0.3482247 0.23499936 
-0.6082737 0.7236768 -0.8229992 -0.7278791 -1.0715677 0.25688854 -1.6464591 -0.9288227 -0.20670816 -0.66865253 
1.3975788 -1.7977172 0.92446226 0.12637955 0.8514292 -0.29388487 1.4648434 -0.03956997 -1.0696133 -1.3024689 
1.8816075 0.8029637 -0.76720524 -0.48161533 0.8257532 1.4250212 -0.52179354 0.28301984 -0.2526132 -0.23573036 
0.014011075 -0.15316658 0.95076996 -0.08278593 0.010890837 -0.12256031 -0.24061109 0.52412176 -1.3810027 0.086287715 
0.447687 1.0570607 -0.29004893 0.06917359 0.19004539 1.3078759 0.640309 1.8740956 -0.63591945 0.4391073 
-0.15299553 0.70911634 -1.0553998 -0.008929584 -1.0977373 -0.1555623 -0.23642221 0.81846577 0.04382078 -1.134015 
0.52567625 0.35609046 -0.179266 -0.45386738 1.4764633 -0.8394251 0.16248497 0.6005367 1.217872 0.9476549 
0.57590234 0.69501185 1.2433662 -0.8697834 -0.74777234 0.0010004615 -1.0069337 0.55532086 0.77772486 -0.64358693 
1.2583033 -0.63066036 -0.8063884 1.2359722 -0.87318504 1.7394005 -0.48279056 0.25681865 0.028310733 0.04120287 
0.4611583 -1.0522556 -1.1639345 0.78000534 -0.96100926 -0.2748447 -0.87483853 -0.31184205 -0.109629475 0.085708454 
0.6893368 0.048901998 0.49987328 0.7537838 -0.34685567 -0.6074959 0.04979724 -1.5882739 0.20266692 -0.3713417 
0.9015565 -1.320563 1.1886601 -0.4847935 0.10976043 -1.0659772 0.1934858 -1.4577085 -0.5958458 0.46551934 
-0.8535982 -1.433008 -0.4142465 -0.46336263 0.5867135 -0.5925114 -0.16681702 -0.039103664 0.36223397 0.32466584 
0.687544 0.16358067 -0.37246004 -0.14332764 0.22809689 -0.36482197 0.0062833047 1.4843565 -1.2022908 0.102313794 
0.3060541 1.6816162 -0.0040951995 -1.3047736 0.24873798 0.1227995 0.8775309 -0.6504223 -0.77495944 -0.06765485 
0.30271155 -1.8302388 -1.2439393 -1.5075043 0.31059837 0.31211284 -0.80450916 -0.80694896 -0.8057395 -0.88098115 
-0.5663259 0.059207883 0.46295303 1.5799682 -1.1786078 -0.6537111 0.49262714 -0.34400705 -0.34531274 -0.2446604 
0.03145743 1.1750164 -0.40911925 1.1591649 -0.48723954 -0.33195868 -0.52680486 0.6563271 -0.040775895 -0.21418427 
0.056752127 -0.986727 0.38948414 0.055771116 -0.68284374 1.0096532 -0.91340244 -0.5155461 0.33571523 0.5985185 
-0.9307453 -0.38661736 -1.2801771 1.16791 0.5236049 1.0036166 -0.73534894 -1.8995615 0.1161215 1.3647425 
-0.2498232 -1.5582314 -0.18815587 0.009110595 1.5455047 1.3700204 0.5511636 0.31381568 1.3528774 0.69769794 
-0.30943814 0.703062 0.7836311 0.19944736 -0.6427026 -0.36597037 -0.6202223 0.19515792 0.5587748 0.36607376 
0.32302687 0.7770861 0.90464544 0.3680551 0.5520869 -0.30094576 0.6934174 0.1724938 -0.07179582 -1.2839715 
-0.7739791 -1.7151718 0.09496535 -1.2632179 0.067053474 1.2387347 -1.3075169 -0.6328727 1.2109083 0.47576362 
0.04332148 -1.163837 0.8779049 -0.7526399 0.7551462 -0.22221158 0.33227545 -1.1367515 0.31950906 -0.9897214 
-0.21314096 -1.0089394 -0.715658 -0.8016664 -0.085557215 -1.3549284 -0.5763373 1.0164399 -0.74483734 0.61605465 
0.5684839 0.038121857 -0.14606732 0.027383003 -1.0533656 0.5304686 0.43659306 -0.75205404 0.24117573 0.19107647 
0.092175715 -0.4701923 0.49925926 -0.021795787 -0.3791971 0.68079394 -0.5746814 1.4294354 -0.022810023 -0.48210135 
-0.6434498 0.67904997 1.330037 -1.2528889 0.43028146 -0.4309804 0.86511695 0.40562174 -0.14069803 -0.28593162 
-0.0058966083 -0.011713813 -0.24690321 -0.19538127 -0.29661646 -0.25212663 0.74541867 0.9432637 0.9392907 0.033542436 
0.47593784 0.11766728 -0.46676028 -0.69067496 -0.45515555 1.0251974 -1.0581366 0.0754051 0.6737861 -0.11887648 
-0.06319399 1.0021995 -0.9369056 -0.5701685 -0.50394404 -0.34892672 -0.30108076 -0.64343166 -0.25257593 1.1117997 
-1.2000418 0.3157963 0.16160057 0.6409419 0.8863408 0.18712114 0.036228742 -0.103218906 -0.04923588 0.060690578 
0.9609024 1.0633618 1.5649544 -0.57590514 -0.10576017 -0.9650434 -0.44105867 0.89937896 -0.55767345 -0.4213867 
0.8082897 -1.1185235 -0.9388463 -0.12476816 0.28675494 -1.9519315 -0.08693864 -0.43454772 -0.2152156 0.3996508 
0.39038283 1.0249177 -0.5046196 1.3063422 -0.06664472 -0.13949181 -0.84134406 -0.3126378 -1.2210877 0.5154772 
-0.38271844 0.04936182 0.07851213 -1.7038168 0.08050808 -0.44912538 0.27033487 0.19261752 -1.112278 -0.5533511 
0.62433046 -0.13577697 0.81785005 -1.2291987 -1.8206583 0.3855799 -0.15573323 0.5964517 0.47151992 0.45982778 
0.79234934 0.425871 0.31573936 -0.468514 0.0061428873 -0.33250916 0.37763497 -0.7617927 0.9739558 -0.17436548 
-0.9565447 -0.45053414 0.7503163 0.772843 0.18429719 1.2578794 -1.4864677 -0.3037778 0.015977338 0.07001945 
0.3715809 -1.4748982 1.1487466 0.08933355 -1.483374 1.502399 -1.3325397 -0.58791673 0.32056597 0.48185012 
-1.2988725 0.44279084 0.6064878 -0.22627005 0.7301719 -0.39442208 -0.29955557 -0.86267304 -0.6562033 0.43995005 
-0.15405855 0.3035788 0.22795942 0.23777276 -0.073607355 1.0197412 -0.79812026 -0.3381199 -0.8411809 0.30521187 
1.0759302 -0.61632586 0.66265607 -0.7160114 0.37463152 -1.2607017 -0.8742934 -0.73491716 -0.07183054 0.509531 
0.17278992 0.037016355 -0.34258118 -1.0488085 -0.61498475 0.6125691 0.3164912 -0.39786777 0.34979582 -1.5147009 
-0.23056404 -0.955732 1.1877615 -1.6110904 0.514337 0.3105466 1.167643 -0.034449577 0.8355229 0.40998274 
-0.1940195 -1.1262708 -0.2701519 0.29053193 -1.054357 0.5141901 0.19850004 0.7956895 0.55272907 -0.06091633 
-0.63343525 -0.5993571 0.5322606 -0.9018447 1.2443197 -0.43926796 0.44543195 -0.07883208 0.1275942 0.35891557 
-0.28500363 -1.603944 -0.2920893 -0.31102532 -0.42047074 -1.0056659 0.8245068 1.1361393 0.7590919 0.24818413 
-0.18206099 0.54001147 0.6847379 -1.4029562 -1.0731276 0.4787309 -0.2940066 0.51383024 0.60130775 0.2812821 
-0.029160574 0.2285779 -0.10738115 -0.6664513 0.27184173 -1.0180805 0.31924462 0.3781292 1.2081397 -0.22606574 
0.060393643 -0.7164651 -0.12082406 0.9761685 -0.62952346 -1.358009 -0.78365076 -0.1970714 -0.003549897 -1.2351468 
1.5698143 0.49392977 -0.57221216 0.38963082 -0.5206859 0.35563686 -0.54055005 0.62992567 -0.17963602 0.44782004 
-1.6272858 -0.79369295 -0.4452828 -0.03315086 0.20573261 -0.6831051 0.4096386 -0.04689795 0.17300358 -1.1910037 
0.20551868 0.12355917 -1.0849603 1.078229 -0.841083 1.3008689 0.5946816 0.49119136 0.34139234 0.5220888 
1.6403912 0.49725547 1.4721754 0.42675054 0.0078280335 -0.90462923 1.6700178 -1.2142912 0.64011365 -0.24567658 
-1.3091567 -0.56833494 -0.9290698 -1.4423894 1.286233 0.88691294 -0.3402969 -0.81953037 0.42026147 0.68919164 
1.4643385 0.7351592 -1.3623902 0.49314013 0.18193325 0.5765105 -0.10147723 0.45568016 0.17554718 -0.098659836 
0.6681389 -1.452226 0.92325866 0.050617527 -0.32694936 0.6504454 -1.3756757 -0.0022367917 -0.2540741 -0.5408317 
-0.29327703 0.21515161 0.020574808 0.49690372 0.34809658 0.130589 -0.006891531 0.023789156 -0.1697665 -0.31790775 
0.59414214 0.3313523 -0.12041268 1.234249 0.5912282 0.23909561 -0.4859693 0.045932 -0.09464635 -0.41320062 
1.1556082 0.27746895 0.49264932 0.95932555 -0.020145083 -1.2266002 0.37623206 -0.89644474 -0.38401756 -0.8680753 
1.0488751 -0.26227027 1.4992787 0.14128536 -0.23048039 0.23051645 0.0051771183 0.46472487 0.1742558 0.9019395 
-0.296336 -1.095891 1.2959656 -0.55236197 0.07038137 0.5110909 -0.93504614 -0.72297317 -0.29259712 0.22271617 
-1.0118233 0.8184645 -0.46237653 -0.9140957 -0.42573723 -0.51060826 -0.81765664 0.5827548 -1.3919196 0.6521667 
0.67108625 -0.6741902 0.9527157 -0.006283745 0.332486 -1.1258295 -0.29072717 0.2665675 0.5849304 0.38655776 
1.0691949 -1.0338367 0.10425816 -1.0029392 -0.11693734 -1.4904635 -0.05267836 0.49536896 0.22551054 -0.4771461 
-0.28114215 -1.6745268 0.28827196 -0.574919 -0.2019447 0.011207594 -0.48392102 -0.13695678 0.7000527 -1.7038932 
-1.1846696 -1.4184219 -1.2441226 -0.97231567 0.6453291 0.022792064 -0.6460665 -0.9731672 0.40080354 -0.94268465 
0.78242177 0.8839599 -0.026688116 -0.78774536 1.6243299 1.2907661 0.44310743 1.4467016 -0.782146 1.6020948 
0.8172741 -0.91379446 1.5340599 0.32417265 1.4180729 0.10181093 -0.91448903 0.07550204 0.07355451 0.44146684 
0.1430875 1.7176007 -0.19644961 0.604575 -1.1527109 -1.0661219 0.5924799 0.26300076 -0.94840145 -0.13186279 
1.5430523 -0.3404318 -0.18382703 -0.7651041 0.3192963 0.78163487 -1.0076125 -0.4581061 -0.75692743 0.28192484 
1.7508737 -0.11209784 -0.9520383 0.48828745 -0.14507078 -0.27126765 0.26338357 -0.2946478 0.23533298 -0.89476836 
-0.970021 -0.44221777 -1.1017206 1.7544885 -0.3737256 0.74101716 0.13045338 -0.283871 -0.4780516 -0.045795355 
0.80671984 -0.92076683 0.3932323 -0.7209261 -0.7137136 -0.33802336 -0.9592186 -0.7737645 0.5025032 0.51339877 
-0.089230016 -0.70773494 1.3504654 -0.9776088 -0.46174735 0.079983525 -1.1617786 -0.4491202 0.022507325 -0.7844973 
0.060130615 -1.5328745 -1.9180654 -0.7984568 -0.16891636 1.5037967 -0.37113988 -1.5396141 0.48970246 -0.42327037 
0.43874514 -0.5322755 0.32823035 0.02737618 0.011545635 0.6017989 0.35378414 -0.21361583 0.4848716 0.08663416 
0.58704317 -0.01139733 0.1543787 0.19248599 -0.41570115 0.329189 0.6050926 -0.8433215 -0.81907296 0.305868 
-0.86504453 -1.0228114 -0.14999542 -0.95800024 -0.40128002 0.6126809 -1.4743375 1.0039661 1.0913349 0.19719741 
-0.32597303 1.3133506 -1.1279969 0.8926415 -0.12009641 1.0953228 -0.44249025 0.46018177 -0.13100564 0.15113182 
0.12213036 0.43723884 0.3494227 0.2849433 1.1389463 -0.33558345 0.8936346 1.6982099 0.33842242 -0.46916816 
0.45570543 0.04224929 -0.60781777 1.0994211 0.43426389 -0.76215315 -0.37643406 1.462576 -1.3262132 -1.624295 
-1.0617657 0.06137237 -0.3435948 1.0421767 0.7957041 -0.3395856 1.555119 -0.8521515 0.009925137 1.2182693 
-0.340434 0.17482944 0.8135894 -0.10385542 0.1870788 0.9734074 0.8805021 0.009714777 0.1863665 0.29472867 
-0.6732968 0.02320485 -0.7374787 -0.012853702 -0.6682205 -0.18450382 -0.008623647 -1.5432192 -0.4259283 0.16165711 
0.14980257 -0.8865914 -0.14273955 0.25474882 1.0639366 0.3184682 -0.07287092 0.09697957 0.43422347 -0.3961518 
-1.8036388 1.5490716 0.66582036 0.17947009 0.7565094 -0.7964569 -0.66042644 0.42593938 -0.44678494 0.94093823 
0.19238415 1.0760777 0.29220402 -0.32606953 0.15494545 -0.9633297 -0.8428592 0.80046916 0.21492976 0.7912844 
0.8725725 -0.7317959 0.75863713 0.9244151 -0.33786058 1.5093309 -0.6985653 -1.5487012 1.1979103 0.38389593 
-1.1002083 -0.027810346 1.0583884 1.0020502 -1.0106297 0.66694075 -1.1621902 -1.0369222 -0.84364355 -0.299502 
-0.49464723 -0.025726223 -0.19799407 0.330921 -0.0044492134 0.53001016 -0.8045951 -0.2359056 -0.9154649 0.15425716 
-0.9179582 1.0199925 0.4653599 0.4375964 0.06094474 0.46005788 0.57622105 -1.3324229 1.4696028 -0.8635064 
-0.05301916 0.748906 -0.603404 -0.6880776 -0.46622518 0.7871884 -0.25216952 -0.12188211 1.0673635 0.92111534 
-0.49478382 0.06021899 -0.8272833 -1.3097929 1.5129211 -0.3170194 1.3015699 -0.44051287 0.49367228 -0.55121136 
0.0014229841 -1.4250124 -1.4332931 0.9088545 -0.7297844 0.8635528 -0.78416777 0.10228285 -1.1154823 0.935699 
1.0554199 0.17330891 0.109597325 -0.21949162 0.97570676 -1.6947848 -0.84898 -0.40653712 -0.1519926 0.14418401 
0.27141875 -0.04010227 -0.1722574 -0.06656267 1.0841088 0.83109546 0.0077498 0.48206633 0.090626925 -0.17627172 
1.2039006 0.25951096 -1.084582 -0.302431 0.5562962 -0.7197384 1.2852069 -0.483097 0.07474997 1.231849 
0.4737339 1.0789026 0.19821231 0.27656478 0.5121972 -0.05657748 -1.287729 0.8808928 0.35937953 0.38210058 
-0.48825592 0.71172065 -0.9310995 0.109134175 -0.043502405 -0.041973755 -1.9879884 0.8324137 -2.0352066 1.2418996 
1.3065997 -1.2605029 1.1542746 0.07135436 -1.7614827 -0.6236656 1.5752227 -1.1158348 -0.67745394 -0.8395517 
-1.0592719 -0.49199793 -0.61620396 0.56493425 0.09691755 0.29796195 -1.1024098 0.034268286 0.11659663 -0.34243935 
-0.59176314 -0.63414615 -0.17470527 0.11952498 -1.1210085 0.5680585 -0.29588333 -0.55671227 0.6369961 0.20271277 
-0.16090818 -0.9887002 0.17214254 1.315338 -0.65766907 -1.2137188 -0.73890287 -0.4664557 0.22759704 0.18322349 
0.6432188 0.30651075 0.2062757 0.34742847 1.0324602 -1.8240176 -1.6441438 0.08550031 -0.057998758 0.9525816 
0.79101694 -0.2664462 0.272259 1.181726 0.49909532 0.19724089 0.45950377 0.15558666 -0.8329777 -0.0029997085 
0.18322116 0.55305153 0.47334707 0.2096944 1.1054702 0.42268166 0.6625026 -0.3521437 0.80542743 1.4603746 
-1.1111568 0.08905754 -0.2010413 0.9273216 -1.2472792 -0.6947941 -1.1484181 0.9870712 0.57580554 -0.3531933 
-0.38041732 -0.5904207 -0.3818724 -0.18955949 1.1029621 0.8807009 1.3117098 -0.42035937 -1.1342604 0.67145276 
0.10299916 1.5467179 -0.6855431 0.32807603 0.33430564 0.24099565 -0.47755587 -0.6303215 1.1582285 -0.11000977 
0.6471836 -1.5287226 0.15377387 0.39885902 -0.7454117 -0.3319847 0.81566036 -0.36978504 -1.1901528 -0.31107545 
-1.6007249 -1.6608487 -1.022505 -0.7860288 -0.43857273 -0.9972438 -1.0309314 -0.13192733 -0.7140854 -1.7614938 
-0.5655551 0.40142262 -1.3069881 -1.5960412 0.8518625 0.79879266 1.0281891 -0.47044316 -0.7864185 0.4883588 
-0.16688073 0.024133656 0.18747132 0.5825633 -0.5471476 -0.024497012 -0.19609143 0.096342385 -0.29610926 0.5830358 
1.1714224 0.648431 0.37769312 -0.38363588 1.2719878 -1.0283046 0.21605597 1.9132565 0.71382266 0.09719863 
-0.023294004 -0.40671903 0.7514589 -0.48870364 -0.90129566 0.46579662 -0.30345634 0.27004838 -0.10612277 0.49334434 
1.0891895 -0.58863837 1.1755959 1.4340405 -0.38847032 -0.10841683 1.3994752 -0.23828323 0.56469476 -1.3636624 
-1.2879146 -0.056902606 -1.3754708 -0.6071927 0.25267053 -0.87205124 -0.26761982 0.07349518 0.2670614 -1.6814867 
-0.017422365 0.071151346 -0.59883904 -1.1118356 -0.8387423 0.62241447 0.11491212 -0.6094618 -0.40490472 0.64225864 
1.3675338 0.47008252 -0.7272192 -0.20964661 -1.5994182 -0.42788061 0.80649877 -0.72392267 1.2801394 -1.3353114 
-0.41534013 -0.1327827 -1.1208842 0.794897 0.34427917 0.36685482 0.28961584 -0.53832597 0.89147544 -1.0361763 
-0.83114815 -0.04130071 -0.77658975 1.0388776 0.09716197 -1.2413503 -0.11242842 0.35419935 0.4620358 0.41878578 
0.7636292 -0.927015 0.06539822 -1.2934245 -0.18391183 -0.7036014 -0.6864599 0.6128299 -0.85117155 -1.0664865 
0.032547537 0.55257756 0.858372 -0.76038533 -1.1684964 -0.29306528 0.32672268 -1.0527333 -0.57636315 0.055626117 
-1.1403306 0.4309541 1.3881247 -0.0785275 0.17441392 -0.49905482 -0.8379755 1.0664649 0.67920154 0.27843887 
0.21892619 -0.49141887 0.5564582 -0.16959603 -2.040873 0.29269892 0.35599354 0.25411004 -0.9121984 -0.3764164 
-0.5224107 0.11196539 -0.25354096 0.39226103 0.17113651 0.57130504 -1.0346934 0.79791033 -0.4552071 -0.30930158 
-0.5446214 0.5355166 -0.964988 -0.7704984 1.4233198 0.8922539 0.10553207 -1.617509 -0.8895008 1.8633621 
-0.14497016 0.9725129 1.8358074 -0.25225 -0.4993919 0.639469 -1.2644235 0.6183109 0.22142875 0.21153165 
0.8279717 -1.0375347 -0.73618555 -0.28872678 1.2770679 -0.37130284 1.1912074 0.13403825 0.6433376 1.4555806 
-0.51323897 0.57790506 -1.4741622 -1.8892934 0.52040464 0.2868884 -0.899792 1.0167046 0.8138216 -0.46834823 
0.1778861 -1.1186944 -1.805848 -0.5006735 -1.3040016 0.49884817 -0.3667449 -0.27165562 0.25540558 0.45968577 
0.353033 0.27191293 -1.2384067 0.17602988 0.10345085 -0.058585323 0.18827401 -1.2307011 -0.85063386 -0.43620548 
-0.2116887 1.5752286 1.7114421 1.5811995 1.0045948 0.26768863 -1.5094383 0.2548026 -0.6314777 0.41853318 
-0.8937463 -0.28997782 -0.78517795 -0.02032237 0.21071288 1.4094069 -1.8841678 0.32462177 -1.0767115 0.12759894 
0.17885955 1.4708186 -0.7111844 0.9364949 0.39560372 0.42438516 -0.59182817 0.5279105 0.25211322 0.6501819 
0.19808678 1.0191503 -0.6622467 -0.18476665 0.11986664 -0.09549517 -0.043069303 1.0112573 -0.051857606 0.5304125 
-0.5859747 0.20580073 -0.3351081 0.41848183 1.4681431 -0.49903232 -0.210373 -0.39574435 -0.15191591 0.38411662 
0.6497727 0.6538028 1.5306678 -1.3146441 -0.035607252 -1.1157477 -1.5153661 -0.43566948 0.56742346 0.7381605 
-1.2704566 -0.22376348 0.65850276 -0.004622699 -0.38680753 -1.3332375 -1.3190354 -1.1055834 0.26776814 0.07185379 
1.4441055 0.35943615 1.0041237 0.46677253 -0.17039701 0.22419262 -1.7331327 -1.3054562 -0.97992724 0.49011892 
-0.23234561 -0.45639968 0.29062334 -1.1361927 -0.27428296 0.92924905 -0.14003699 -0.45269236 1.0251096 0.43450394 
0.28440288 0.3465272 -0.041617054 -0.5137637 1.0007147 -1.2808373 0.2519737 1.194457 -1.5174733 1.3083025 
1.030349 -0.22486919 -0.94443923 -0.5424878 0.80765885 1.1415383 1.2673793 0.02403408 0.7597475 0.024293648 
-0.7132417 0.536616 0.2853035 -1.2360865 0.14183849 -0.68688315 -0.19473885 0.96516937 -0.5099558 -1.2589431 
1.2614679 0.19770962 1.390601 -0.8091688 1.4268161 0.5859369 1.5495903 0.7531604 0.6256147 -0.8427495 
0.12942253 -0.25911874 0.29059443 1.0749909 0.85153997 -1.1986713 -0.22784713 0.098330356 0.46435043 -1.0098265 
1.1120179 0.79644895 0.12625192 0.6173119 -0.5787608 0.8544179 -0.3971841 -0.044308443 0.00517277 -1.3450695 
-0.2562392 0.512339 -0.049287822 -0.16994877 1.0514323 -0.1365104 0.36375558 -0.9834216 1.0090111 0.49302268 
0.28534162 -1.4533631 -0.6264066 0.43307582 -0.15468764 0.47815263 0.14136477 -0.36958486 -0.096502244 -0.07607206 
-1.2603222 -0.6647657 0.36932027 0.10823784 0.31026056 -0.8749639 -0.0626259 0.22386217 -0.43306628 1.2208482 
-0.17097531 0.26180512 1.0856086 -0.030898854 -0.56259036 1.0898098 1.2200037 0.16234647 0.6642101 -0.76810855 
-1.9222072 0.13433138 -0.7720048 -0.56320053 -0.11688142 0.73852843 0.45897055 -0.98420084 -1.0213306 -1.5553985 
-0.37382102 -0.5962374 0.99393415 1.1019285 -0.0030940268 0.40836963 0.8165304 -0.7008537 -0.15339415 -0.1901146 
-0.39848673 0.30207786 0.53827727 0.40512928 0.5354712 -0.97439724 -1.792505 0.5848483 0.093483925 -0.1349566 
0.5396157 -0.45908293 -0.74537045 1.3621491 -1.0060614 0.6122898 -0.2508208 0.89858824 1.7447256 -0.7446944 
-0.33121294 1.6077254 -0.491576 1.4875512 0.5324499 -0.9504294 0.1643213 0.6425251 -1.4672223 -0.69967216 
0.99657995 -0.29104587 -0.804682 0.3302515 -0.2910508 -0.4635532 1.8371758 0.51198953 -1.6448699 0.2054865 
-0.44825065 -0.8233595 1.7664776 -1.5793484 -0.22137092 -0.53327894 0.10478997 0.6129623 -1.6696821 -0.48592144 
0.4571964 -0.53030497 -0.90645885 -1.7544717 0.78680307 0.38749194 0.16333789 0.33227453 -0.61847335 0.8430063 
0.5092042 -0.6842326 0.80082643 0.0545803 -1.4061754 -0.25168082 -1.1380656 -0.55460006 0.21232247 -1.4137645 
-1.4802732 0.53645265 -0.7254139 0.46597683 1.3215085 -1.5958796 -0.8349237 0.4365718 -0.3812271 -0.93596184 
-0.9342803 -0.22786658 0.05431889 -0.016438056 -0.7511416 -0.612796 -0.4602552 -0.9409198 0.7343832 0.46222067 
-0.9530774 -0.6878072 1.0929182 -0.01484624 -0.50665224 -0.6553257 -0.7381715 0.3642662 -0.009035514 -0.44026372 
-1.3604074 1.6095561 1.4045153 -1.1498855 -0.3074885 -1.3398747 -0.67940474 -0.62350535 -0.68345696 0.29204413 
-1.186101 -0.771594 1.0032703 0.88078916 0.43898043 -0.33488208 -0.60386217 -0.5166703 -1.2100339 0.8233762 
1.4904543 -0.029175552 -0.36717772 0.7647807 -1.0413694 0.014224132 1.2162045 0.18276717 -1.5489265 -0.3613159 
-0.69727755 0.25731236 -0.58195835 0.93411756 -0.9538478 -1.6984845 -0.28012726 -0.015401136 -0.17706704 0.76387537 
-0.16317783 0.35431996 -0.91377497 0.5361649 -1.1947308 -0.31259438 -1.2382846 1.2404824 1.4950953 1.102121 
1.4124048 0.42055598 -0.5837959 0.6617019 0.80675316 0.040576216 -0.6704997 0.92232555 -0.44058794 0.31491822 
1.384523 -0.3915381 0.48975852 0.5803652 0.80750865 0.04053573 0.44216028 -1.4659324 -0.23863535 -0.58692527 
0.244399 -0.41858888 1.031854 1.5546997 -0.16172141 0.55931383 0.6735316 -0.83994895 0.8836241 -0.6776291 
-0.87323004 -0.82976776 -1.6198208 -0.58347905 0.2087991 0.43587154 0.6949355 0.7113949 -0.08801356 -1.3549577 
-0.58541524 -0.35864347 -1.3589902 -1.1896484 1.8466041 0.2101981 1.4355028 -0.5062934 1.1230003 0.84254414 
-1.0802261 -1.0550854 1.236767 -0.2091197 -0.6092505 0.5271615 -0.29711512 -0.17115796 1.6797103 -0.53437626 
0.8286272 0.27353826 0.08616096 -0.09365938 -0.70051366 0.01670245 -0.5590792 0.11120048 0.3820456 0.5342915 
-0.88652796 0.16282542 -0.726635 -0.2120218 -0.6401604 -1.022336 -0.3357316 0.17373022 0.03815102 0.21151623 
0.8150847 0.031393584 -1.0338875 -0.17850293 -1.9081975 -0.4745803 -1.3202101 -0.7327701 0.45327017 0.32595152 
-0.8058137 0.37783405 0.30690783 0.23782808 -1.0291069 -1.4108708 -0.27220204 -0.90275466 0.24731179 -0.4117448 
-0.16989551 -0.16365902 -0.06688801 -0.18869852 -0.24498889 0.080885224 -0.16376169 -0.07918645 0.04458873 0.1493858 
-1.7274338 -1.0981797 0.7471472 -0.5095138 -1.065098 0.87460387 1.4459023 -0.23510563 -1.0719748 1.6715217 
-0.6866686 0.33197734 0.65711194 1.7491114 0.64001733 0.52721655 -0.023510637 -0.30744904 0.1900176 -0.8133875 
-0.13923381 -0.15200965 0.62278634 -0.22392625 0.2216969 -0.32029417 -0.29764578 0.023610733 0.12214666 0.011850897 
-0.26458958 0.45878258 0.20156978 0.23862739 -0.98483735 0.58709824 0.46817806 -0.7791741 0.36772588 0.69197494 
0.816432 -0.4174155 0.6831106 -0.29590023 -1.2995588 -0.51212066 0.026265584 -0.01097653 0.66152114 1.6523703 
0.7945503 0.07700726 0.55679196 0.7367044 -0.7030833 0.14889058 -0.63671374 0.8620288 0.0989895 0.34521472 
0.72782004 -0.6547097 0.56588763 0.9279679 1.0725234 0.42348328 -0.20505913 -0.37103274 -0.6862571 -0.45254397 
-1.0941375 -0.17401183 0.9009899 -0.6041525 -1.2492477 -0.31455383 -0.31475773 0.80066574 -1.6869057 0.654601 
-0.24086607 0.1535366 -0.34362903 -0.14332916 -0.4089714 0.74626005 -7.976317e-05 -1.4519409 -1.044718 0.58723867 
-0.02170251 -0.18074235 -0.029059272 0.52636796 -0.097049415 -0.8340142 -1.3285347 -1.1428629 0.68514055 -1.0709852 
-0.18138754 0.93629724 -0.07820917 -1.0260596 0.8017491 1.5859028 -0.2746334 -0.6588729 0.5365713 -0.10752998 
5.2563545e-33 -0.0012284513 0.028430987 0.044529576 0.049684227 0.049857717 0.0022227948 -0.016054383 0.00023698085 -0.35706964 
0.67302245 -0.6300935 -0.28824267 -0.584371 0.7367462 1.2465047 1.3212538 -0.29998538 0.28173962 -0.8923107 
-1.667068 -0.9484836 0.9570771 -0.6001214 -1.3141466 -0.3400315 1.2583976 1.9142214 -1.1973401 0.21255195 
1.5087496 -1.0718651 -0.3908009 -0.2776303 -0.3824401 -0.695724 0.017627433 0.27019992 0.6917907 0.26202443 
-0.55775553 0.9904377 -0.020960867 0.23260154 -1.2539304 0.36849377 -0.4260484 -0.5103552 -0.8415034 -1.6718111 
-0.04374236 -1.2880492 -0.30095616 -0.94321454 -0.9569888 0.83489424 -0.45489338 0.842275 1.1078743 -0.13198508 
-0.19893828 0.6255155 -0.9214984 -0.21241003 -0.12834015 0.6580188 1.1698236 -0.47634593 -0.8037214 -1.4011974 
0.5340518 0.41754785 0.441066 0.14587086 -0.65605915 -1.046984 0.3902741 0.36049578 -0.6527183 1.0325092 
1.2408875 -0.38604024 1.104057 1.1200655 -0.64384145 0.73594546 -0.7639908 0.20136428 0.64081246 -0.61176556 
-0.038002983 0.26817104 -0.98940015 -0.906909 -1.4958408 0.53027976 -1.0176404 -0.16394775 1.0860982 -0.561323 
-0.05750698 -0.6988386 1.3341019 0.37879208 0.20831645 -0.6359599 0.94365263 1.5156881 -1.4024229 0.6443181 
-0.3357552 0.019776538 -1.7071351 0.68190324 0.22233164 0.1612002 -1.7384679 -0.19085647 -0.48210245 -1.5745972 
1.059457 0.127672 0.9048519 1.1138402 1.373935 -0.097226135 1.2412683 0.06522723 -1.150004 -0.70556086 
0.12965521 -0.33954382 -0.67775434 -0.7981547 0.24263889 -0.11392617 -0.708728 1.0201066 0.06374028 0.6273253 
0.3784312 -0.9596266 -1.0165937 -0.04858798 -0.17103809 0.7195991 0.7767538 -0.30603576 -0.03931641 -0.9436592 
0.63526165 0.19319439 -1.5021591 0.07894788 -1.2361567 0.8102894 -0.4308001 -0.53607196 -0.096379526 -0.14301616 
0.7203748 0.1274461 -0.5552279 1.357878 -0.3620004 -0.37902266 -0.31745544 -1.1614866 -1.0723948 0.1402833 
0.29320166 -1.535361 -0.5931128 -0.98025846 -0.18389069 -1.0781703 -0.4442479 -0.25530925 -0.42016083 -0.45214432 
-0.89786136 0.15358149 0.8719134 -0.37856826 -0.9389187 -0.6116198 -0.35961044 0.8918186 -0.687743 -0.83968836 
0.41894418 0.70381874 1.2328967 1.4310875 -1.6162891 -1.0708016 0.13284498 1.2981373 -1.0348706 0.5990748 
0.69808775 0.2129009 0.6744552 0.474131 1.5024207 0.21757723 -0.8685704 0.06531759 0.62470025 -0.19786456 
-1.5808284 0.8360762 0.042403683 0.42719254 -0.83960044 -0.58271605 -0.52930003 0.18636185 0.7681413 -1.4706633 
-0.15960059 0.2819352 0.88462824 -1.6411895 0.3599923 -0.4757899 0.5397758 0.63650006 -1.385012 -0.32950404 
-1.0531476 1.7488861 0.038898047 -0.28934562 -0.304286 -0.32153967 0.4729367 -1.0479115 1.687629 -1.5040762 
-0.21813801 0.31843203 -1.5386989 -0.17039935 0.23105466 -1.3936181 0.33305538 0.3397879 0.1606382 -0.0056866053 
0.22095539 1.0136013 0.27987444 -0.19840509 1.2949032 -0.07329281 -0.82041436 0.28494322 -0.7799263 -0.86576325 
0.7854336 -0.45310357 0.7428656 -0.31608206 -1.0842099 -0.42442784 -0.10031861 -0.73209506 1.6908137 0.8130212 
0.24341351 -0.44857588 0.20156063 0.96314967 0.93571794 1.5107671 -0.7838491 -0.39454904 0.8001778 1.1439782 
1.0454618 0.8239372 1.1999096 -0.5527574 -1.064231 -0.15819441 1.3821868 0.53204316 0.7749601 -0.12569141 
0.8821536 -0.9015094 0.04684241 0.39291885 0.43939885 0.67044085 -0.8927966 0.7800894 -0.32708755 -0.6587418 
0.48204002 -0.32943276 0.0090679955 0.92823005 0.9740546 0.742231 -0.6214673 -0.7617717 1.5047609 1.4672698 
0.063391015 0.08310044 -0.75872314 -1.6870792 -1.1553508 -0.344312 0.8515626 -0.49841592 -0.42266998 -1.2821664 
0.59873 -0.2225358 0.3891065 0.65176827 -0.52394325 -0.160261 -0.5089789 -0.17054376 -0.44928443 -0.9979277 
1.2390647 1.0528717 1.0840696 -0.33454436 0.1722679 0.7619227 0.14053963 0.50419676 0.6357722 0.73907876 
0.068483315 0.9763401 0.62990075 -0.9601335 -1.8377843 0.5613289 1.3182131 -0.114892185 -0.2029941 0.19743961 
-1.1331314 0.2950479 -0.7494789 -0.4718741 1.374795 -0.26282194 -0.15577208 0.23515132 0.41253564 -0.16599524 
0.52201015 -0.23499727 -0.80045 1.0921041 1.038988 -0.89451027 0.3864032 -0.54068273 -0.78073364 0.18501574 
-0.1737374 0.014697801 -1.6434425 1.0938256 0.31941816 -1.0177268 1.2423389 -0.6252614 -0.46627563 -0.79010624 
-0.6090713 -0.3591349 0.5711183 0.7463537 0.16279659 -0.065848775 0.94607866 0.5819589 -0.61848456 1.522821 
-0.24016322 0.5433655 -0.5371523 0.16797556 -0.73344463 0.7410339 0.24084307 -0.9457828 0.35713872 -0.63445395 
0.19752562 -0.22767505 0.7797077 0.8599215 -0.36886683 1.440873 0.68424004 0.5790432 0.8236906 -0.72815126 
0.17435688 0.5177154 -0.76408756 -0.30690953 -1.1368285 -0.14331928 0.8881504 0.86671317 0.38926268 -0.14027846 
0.7912548 -0.8080604 -0.28655207 0.13600183 0.49589545 -0.6269168 1.098371 0.4777699 0.43579757 0.51463777 
-0.40751234 0.73616403 -0.51062137 -0.111121394 -0.30455968 -0.51417667 1.2741339 -0.04180885 -1.4408066 0.62578666 
0.6138188 0.57584155 -1.1221143 0.10186461 -1.7955695 -0.6066336 1.0674809 0.49483162 0.08299341 -0.007985309 
-1.131915 -0.9170683 -0.29279196 -1.2139484 0.47526655 0.28491303 1.352117 0.0013822962 0.6998603 -0.4653587 
-0.6704342 -1.6190312 -0.27236268 1.2383308 0.1792161 -0.7930952 0.38522944 -0.8138214 1.1534938 0.8711831 
0.3949814 1.2473326 -0.2174459 -1.1275705 0.16083695 0.17755492 -1.06291 1.4590063 0.16611682 -0.2394089 
0.0450972 0.6984904 -0.52925223 -0.41500688 -1.2219708 -1.4802028 0.23275223 -0.86418366 -0.70834404 -1.7368221 
0.13054222 -0.2778645 0.995504 1.765371 -1.2529972 0.40185222 -0.9063621 -0.35528222 1.2253891 0.071323924 
1.0832882 -0.2014898 -0.058434103 0.7052099 1.2957567 0.9681317 -0.01687972 1.0368856 -0.68959874 0.87740326 
0.23645191 -0.13351811 -0.3548334 -0.4333527 -0.8980022 0.095434465 -0.5972197 0.7610196 0.29188535 -0.49403384 
-1.413617 0.45404822 0.05999319 -0.21877216 -0.2555893 -1.6925732 -0.20434584 -0.38418686 -0.11165129 0.7312157 
0.81229204 0.18590797 -0.14838114 0.54332376 -1.2715353 -1.2878901 -0.8329953 -0.55498224 0.86894894 0.47481576 
-1.2607962 1.7089267 -0.9865973 -0.08665403 -1.0773312 0.27432576 -0.75548476 -1.4705614 0.2707983 0.29974818 
-0.28751576 -0.7136745 0.92004246 1.1803279 1.2074397 -0.31441632 -0.33669493 -0.61284846 1.0234871 -0.21803801 
-0.010935482 0.49701402 1.7649614 -0.4111043 -0.4252779 0.15677449 -0.51028794 -0.15839449 -0.05290021 0.83496875 
-0.6346868 -0.97910285 1.6151112 0.61289245 -0.58424723 -1.4080402 -1.1408358 0.6170726 -0.6395537 0.06567618 
0.11533048 0.13663101 1.0375066 -0.18304184 -0.08272197 -1.1650388 -0.57642496 -0.30302858 1.5293823 1.2505428 
0.73730713 1.0435845 0.55237454 -0.31146556 -0.22854832 0.07958522 0.11909686 0.82367945 -0.7665336 -1.7045659 
1.195819 -0.9958062 1.8402444 -0.7920459 0.35870567 -0.8415178 -0.12788706 -0.41070706 1.8271911 0.07413293 
1.4516095 0.49273983 0.9485915 -1.1967076 0.9794634 -0.5789719 0.30221084 -0.2650038 0.32386494 -0.30133742 
0.84264 -1.1820298 -0.03494875 0.9587885 0.8812917 -0.83287066 -0.22410329 -1.1199486 1.6325623 -1.3743374 
-1.2832183 1.6008286 -0.00467275 -0.17052923 -0.04738096 0.73595965 1.6027778 0.5662133 -0.9743345 1.1409155 
0.012054882 0.16890751 -1.0217026 -0.10302536 0.680595 -0.18939632 -0.50357735 -0.3232537 0.5481649 1.6571602 
-1.1474334 1.3646616 0.78311986 1.104438 0.9061671 -0.55696666 0.07759962 -0.15831468 0.14705291 0.021829115 
0.87671465 0.0017771604 -0.851036 1.8942257 0.5258215 -1.5010282 0.33552036 -1.2100495 -0.7038174 -1.7009314 
0.039426167 0.87821335 -0.0020041447 0.7629134 0.3072106 0.22006977 1.0323373 -0.4855132 -1.0422841 -0.6231709 
-0.16364802 -0.6110368 0.49916264 1.2645415 -0.40306804 0.8205959 -1.7232045 1.1078206 0.23360167 -0.1476697 
0.04574161 -0.076768845 0.060078956 -0.18002246 0.2579139 -0.32226655 0.24569492 0.60460645 0.5963284 1.1181016 
-0.40872195 -0.5175054 -0.17562872 -0.6227212 0.78009564 -1.2987107 0.6617992 0.18639567 0.4622125 -0.7004563 
0.10875122 0.1492115 -0.3583742 -0.49949777 0.945865 -0.5005064 0.1690226 -1.0086752 -0.002135593 0.10706943 
-0.5628461 1.0546097 -0.3301024 0.92891794 -0.8907292 0.37059075 -0.6487945 0.34004807 0.31780526 0.27215743 
-0.021503108 1.0254339 -0.23149957 0.512281 0.19233374 -0.8370151 0.14978187 0.08723759 -1.6758869 -0.7401286 
-1.2350842 -0.77690154 -0.42474273 -1.0446451 -0.97265524 -1.2181963 -0.09628011 -0.53502 0.79210997 -0.640534 
-0.34275213 -0.739281 1.3943353 -0.27568007 -1.0950785 -0.43575013 -0.04929226 -0.06916573 -0.98759484 0.8326805 
0.288857 0.71894896 -0.3235728 1.1765032 -0.32220754 -0.3147469 1.4901348 -0.6719353 0.69616777 -0.71569973 
0.68363 -0.4847224 -0.96825653 -0.67529917 -0.118314385 -0.86456615 -0.40304053 -1.1963165 -0.8400988 0.2171024 
0.5634436 0.84323925 -0.20284376 0.15076743 0.5732981 -0.28681025 -0.39353347 1.0850753 -0.9470475 0.8968787 
-1.3404875 -0.7523266 0.054245148 -1.3389722 0.2798508 -0.10167894 -0.32570425 -0.18473373 -0.3568648 -1.4991925 
0.6621863 0.07133022 0.9866571 -0.63355476 0.15210673 0.8880499 -0.9150609 0.52028775 0.97950095 -0.6123366 
0.09607498 0.8002684 -0.13108057 1.5727651 -1.438944 0.4246966 -1.1418805 0.9641619 -0.09608447 -0.041876547 
-0.9080315 1.564443 0.61334217 -0.1676578 1.3653101 0.38141802 0.56288713 0.35449928 -0.22745697 0.75742054 
-0.12096151 -0.37129298 0.34234655 -0.122843266 0.029226732 -1.4286941 0.61648273 0.4926231 -0.07829233 1.6635374 
0.29548392 -1.0500406 1.0759699 1.1270527 0.04644041 0.89986324 -0.1663595 -0.19603774 0.068359874 1.7387667 
-0.01577668 -0.004482238 0.21748313 0.9876268 -0.00031180668 -1.7755306 -1.214706 0.43534908 0.12018206 0.08156035 
0.33615634 0.6039923 1.1620318 -0.52198595 0.37118468 0.17958546 -0.54811877 1.3009802 -1.2589083 0.3098127 
-0.16814725 -0.658936 -0.5340725 -0.82085556 0.10675676 -1.0911379 -0.25492647 0.59878016 -1.8260876 0.3866118 
1.2171632 -1.3765141 -0.3471851 0.47620478 1.1913639 1.5113579 -0.63465005 0.6215318 -1.1552463 0.44193795 
0.72971964 0.61201966 -0.6258482 1.003195 -0.3834361 0.6206236 0.10743973 0.2645359 -0.20412005 -0.7800096 
-0.15075961 0.39948276 -0.51397943 -0.28227293 -0.82707465 -0.40241006 0.87438196 -0.5230684 -1.4447161 -0.27058667 
0.85755 0.97474027 -0.34134093 -0.71938026 -0.47997013 -1.0881464 -0.13849106 1.2573801 -1.3698106 -1.454727 
0.6116874 0.016066112 -1.5904201 1.2096521 0.24439625 0.13895196 0.6798425 -0.8885743 0.39861903 -0.7194185 
-0.41296437 0.29144654 0.06450233 0.27688706 0.9101998 0.22578715 0.90487593 -1.3287302 -0.9682193 0.39890286 
0.9074583 0.06351784 -1.4155929 -0.29247284 -0.067375146 -0.095032446 0.58505064 -0.3363078 0.2205931 1.2893739 
-0.18234171 0.1763087 -0.51083547 0.25168422 1.6217097 -0.7127114 0.6332452 -0.36809614 1.2684357 -0.42794248 
0.65073735 0.5446166 0.65863246 0.27932638 0.38642195 -0.6868438 1.465476 0.1528999 -0.6955176 -1.1264784 
0.20202874 0.066661574 1.4496076 -0.93495935 0.2639953 0.6094717 -0.84725237 -0.3240795 0.48051554 0.71913916 
-1.8543265 -1.043828 -0.48327962 1.0790856 -1.5564505 -0.89700896 -1.4934072 -0.8090164 -1.1916499 -0.22369976 
-0.8447761 0.9140931 -0.48306054 1.1327163 -0.66135496 -0.32617188 -0.4680161 -1.0801615 0.26616883 0.5705033 
0.67293066 -0.39129993 0.17424393 -1.4924628 0.18773267 -0.061011676 -0.83752686 1.1968507 0.16478468 -0.19608836 
-0.6607991 -0.5640837 0.10699037 -0.15541098 1.3221031 0.0662437 0.5608382 -0.92260516 -1.6283492 1.2782749 
0.61511797 0.30484676 0.28729868 0.981727 1.3937732 0.7468746 0.35066184 -1.1971757 -0.11841966 -0.024151878 
0.43927145 0.19493666 -0.22575504 -1.575209 -1.212309 0.3467344 1.2014793 0.74486417 -0.07922015 -0.83280945 
0.8173612 -1.3678043 0.70598274 0.8506416 -1.5039032 -0.31445578 0.80331033 -1.3504415 1.2387378 -0.6913269 
1.1879168 0.9109837 -0.5976955 0.20189925 0.4715845 0.62567145 1.318165 -1.10273 -0.03901315 -1.6516823 
0.19845074 0.044951588 0.12193188 0.92764443 -1.153032 -0.6273767 0.5391129 -0.11212378 -0.09854924 -0.2598131 
0.011755345 -0.9256704 -1.0287803 1.699185 0.7257997 0.016798664 0.96025956 -0.43054566 0.112266324 0.99467117 
0.54455954 -0.19984148 0.14887734 1.5622137 1.096883 0.07776816 0.2914355 -0.81504124 0.56243217 -1.316121 
-0.020160096 -1.1659476 0.61415327 0.73853004 0.8726129 0.54213864 0.011032125 -0.95205986 0.5958174 0.08719172 
0.66056913 -0.87544 -0.5248199 -0.5862363 0.21361631 0.3717664 -0.29189056 0.44365966 0.14450784 -0.23592745 
-0.17104754 -1.4818213 -0.49650842 -0.7617752 -0.20500283 0.034170564 0.5293932 -0.66311544 -0.04503011 0.47325605 
0.3738485 0.6522097 -0.49564713 0.46505266 1.1384015 0.088792294 -0.92039144 0.7659699 -0.023984112 1.0725629 
-0.27243116 0.15907228 -0.26078442 1.3498466 -0.44147128 -0.23330553 -0.7116608 0.95789176 0.200084 0.51429623 
0.3861226 0.26599655 -0.09915204 0.32338837 -0.79101604 0.2799351 1.2477994 1.0433304 0.6547891 -0.28822938 
-0.0048308307 -0.047454543 -0.02235974 0.40760505 -0.95534325 0.37810746 -0.2275678 -0.6442092 0.003799536 1.4070224 
0.532158 1.4242069 1.192195 -0.36955747 -0.80932945 1.8801423 1.0648472 -0.10899691 -0.18382294 -1.4911515 
0.50634956 -1.0482659 -0.61475426 0.3821059 0.85226893 0.34680638 1.1966529 -0.009295765 0.37134692 -0.438307 
-0.4058801 -0.95323914 -0.07889586 0.57445854 0.19510323 0.5288949 0.24089631 1.1656616 -1.637403 0.47743773 
-1.6648922 -0.60115486 -0.18517795 0.8063141 -1.5090078 0.30719358 -1.6114465 -1.1636536 1.1849375 1.2946591 
-0.029646512 0.436576 0.97619194 -0.3918863 -0.522771 0.040843625 -0.31645432 -0.48852643 -1.0236245 -1.5795379 
0.65921223 -0.445311 -0.66550016 -0.9785229 1.5690746 0.65481627 0.06182448 -0.86308324 0.5206201 -0.05393093 
-0.35055545 0.5930773 0.42902532 1.6483816 1.2232322 0.5565809 -0.94137883 0.29021698 0.37870854 -0.26470375 
-0.036461756 0.050978858 -1.4176849 -0.9422685 1.3078442 -1.0498406 1.2970694 0.8164388 0.46888146 -1.4130771 
-0.17650028 0.60281813 0.5114812 0.6503365 0.056018572 -0.1559977 -0.9792132 -0.19971508 -0.43515736 -0.63994443 
1.6744213 1.0976746 0.88492066 -0.9648168 -0.47679228 -1.6971847 -0.082667336 0.6213225 -0.80563575 0.38584778 
0.60064095 0.00031110947 0.7601334 2.061825 1.0888795 0.33854407 -0.0032404843 -0.26939574 0.74431866 1.647951 
-0.12028311 -1.690523 0.7869835 -0.8920077 1.0212485 -0.07936059 -0.49505097 0.19404456 -0.40960464 -0.0043580593 
-1.2220647 1.3334386 -1.205901 0.9219629 -0.53802973 -1.1149251 -0.3462366 1.2017359 -0.40301093 -0.30267286 
-0.13628389 -0.36529818 -0.9917525 0.84961456 0.22454028 -0.10483132 0.061255325 -1.2535075 0.36441126 -0.16775931 
0.3534011 -0.9082098 -0.54363024 -0.33122507 -0.4716777 1.429951 1.0411202 1.0011129 0.07018874 -0.51659006 
0.8450389 -0.19957371 0.5259796 -1.0354236 0.07429766 0.17014231 -1.0324377 1.0446547 -0.7506936 -0.5762861 
-0.1894728 -0.3202812 -0.31682023 1.1936053 -1.2066303 0.40772283 -0.33736417 0.112454586 -0.08226836 1.1405416 
-1.2568207 -1.3405306 0.71365654 -0.6979006 0.116335966 -1.4242985 0.42924333 0.3769401 1.1458172 -1.7979276 
0.33592483 -0.13682318 -0.7094159 1.8118061 0.16476484 -0.7388012 -0.0688118 0.85138124 0.10574298 0.07561436 
-0.14631124 0.113575675 -0.80685884 0.6472141 -0.102246724 0.115061626 0.19760664 0.11313383 0.5883362 -0.36429423 
-0.54925495 -0.19054814 1.0692252 0.56169456 -0.12527928 -0.14482917 -0.94620895 0.8269625 0.68776256 -0.5444762 
0.22176081 0.09427515 -1.2101294 -1.1201588 -0.48940724 1.3739161 -0.371831 -0.39070824 -0.15807566 -0.2971313 
1.708224 -0.5352361 0.09480311 1.5745496 0.012885626 -0.67074996 0.53484875 -0.13578185 0.05086872 -1.2426159 
-0.3495597 0.5081977 0.27935588 -0.059495896 -1.6695253 -0.062316515 0.8860669 0.58129555 -0.6733816 -0.06580337 
-0.22905643 -0.3277414 -0.008397781 -0.6006054 1.3410304 0.48125207 0.01197686 0.44326845 -0.39189246 0.51612604 
0.55570316 1.0516881 -0.26164237 -0.35808003 0.7939311 -0.5758177 -0.32730702 -0.25787082 -0.7127993 0.92172104 
0.15529568 0.7191799 1.4747146 1.5210323 -1.5179574 0.13493764 1.4397408 -0.9380061 0.36825722 -0.5927077 
-1.3222483 0.8627037 -0.12007789 -0.39956564 -1.441051 -0.37158892 -1.3952208 0.26187825 0.18801227 -0.46551797 
-1.7142736 -0.0040458622 0.57614803 -0.12970254 0.10810944 1.3040954 0.46042833 -0.34714934 0.5033229 -0.41744012 
0.8517484 -0.020349823 0.22563295 1.2231209 1.2113092 0.97821647 1.7880218 0.5847926 0.33695045 -0.5384058 
-0.6642736 -0.46376503 0.8508036 0.83731484 -1.4219328 -0.44299126 1.5915658 -0.07024166 0.15153793 0.7857606 
0.6703003 0.6980919 -0.18208437 -1.0110753 -1.4904522 1.2371482 -0.3611032 -0.20355108 -0.18596971 -0.8266517 
-0.1149766 -0.23052567 1.2450612 0.18313016 -0.42566353 1.7353923 1.6303488 0.36533087 0.2108577 0.8741423 
-1.591801 -0.7219239 -0.45707062 1.4139285 0.23185876 1.220836 -0.05795502 0.22087471 1.3469137 0.85589767 
-1.753283 -1.2852186 1.0697067 -0.4403574 -1.4981714 -0.4113401 0.5375961 0.13401206 0.24076737 -1.0523652 
1.4231739 -0.07689403 -0.9786818 1.0482293 0.38198763 0.09004057 -0.80632347 -0.099444695 -0.1253321 0.98940843 
1.431571 0.25354552 1.7265612 -0.2364913 -1.3203452 0.33913496 0.15906498 -0.50372344 -1.1918821 -0.6448079 
0.7034568 -0.3421788 0.06863929 0.040092066 -0.67773557 -0.5137663 0.6124006 0.20522867 -1.5121219 0.73122114 
-0.6225768 -0.12719367 0.25107047 0.23566711 0.5201722 -0.79271096 -0.2976614 -0.13655162 0.630185 -0.44696933 
-0.084261455 -0.07093358 -0.21023041 -0.9771516 -0.8091824 -0.8169534 0.67927355 0.58169425 0.42552173 -1.3147838 
-0.92415273 0.24765714 -1.777467 -0.5781726 -0.13897757 0.35293278 0.02819944 1.5517018 -0.96289194 0.81239563 
-0.20743681 0.61474204 -0.32128686 0.09879842 -1.4988945 0.5800928 0.9703109 0.27833423 -1.1912404 -1.340026 
-0.63252753 1.5421976 0.2049053 -0.5265281 -0.39191753 0.3880876 -0.06734168 0.15307711 -1.6938721 0.5861787 
0.5776613 -0.583083 -1.4030207 0.18761685 -1.4131844 0.23348305 0.645209 -1.1945683 1.5758619 -0.33287385 
0.5697854 0.54759365 0.8891383 0.29950604 0.12974809 1.1009959 1.6801628 -0.44417316 -1.5263997 0.13050435 
1.3111414 0.74365836 0.37086704 1.0926309 -0.37558696 -0.88435155 -0.7724409 0.77673185 -0.62773323 -0.97326624 
-0.6361723 1.5622506 0.12018216 -0.76748544 1.0174752 -0.9029901 0.61584306 -1.1095821 -0.008799146 0.28850412 
0.29932532 0.201115 0.06142293 -1.1260178 0.22617263 0.030793136 -0.9051365 1.4680274 -0.19754572 0.18076159 
0.48546606 -1.257597 0.19625401 0.9822247 0.31326804 0.8305945 -0.027618693 -0.49852747 -0.66741353 0.98186684 
0.54485464 -0.7098072 -1.7093303 -0.8904461 0.28600058 0.518437 0.12908664 0.8072181 0.33448178 0.14994073 
0.5800374 0.62545913 1.3011814 0.36046737 -0.9734513 0.67407465 0.16697551 0.70911133 0.96229386 -0.65646863 
-0.14291859 -0.23819423 -0.55423784 0.39528847 0.6806857 0.11007697 1.0621092 0.38593733 -0.53729665 0.27009147 
-0.020337215 -0.36507675 0.32322025 0.35988992 0.24475354 1.7654473 -0.38385224 0.44080636 1.2358466 -1.0150833 
-0.29286358 0.31000304 -0.8801033 0.4359382 -0.47029158 -1.607936 -0.92640245 -0.6093708 0.94556266 -1.1771997 
1.3777368 -0.60603523 0.43085247 -1.1193695 -0.09749584 0.5155861 0.91277885 0.15538292 -0.54966605 -0.4425882 
-1.0669308 1.8096845 0.69225633 1.1636156 -0.47565743 -0.5319202 -0.060050376 -0.6814042 -1.7176868 0.41913822 
0.57389295 1.4216945 0.94789124 0.80221945 -1.611223 0.8571905 0.5944304 -0.15450199 0.2440026 -0.084949866 
-0.20869368 0.009263264 0.92425334 -0.966948 0.37790385 -0.61004317 0.33509803 0.44102448 -1.3855345 -0.7818325 
-0.99577826 0.64565235 0.6536188 0.55953395 0.7066206 -1.025075 1.0135278 0.07362759 -1.4639857 0.3862763 
-0.48248953 0.10394731 0.7284282 -0.24019654 -0.45867005 -0.18717499 -0.13829634 0.2638888 -0.88412684 1.7366108 
0.2758227 -0.022752907 0.8510136 -0.8532919 0.3665059 -1.2688067 1.1283307 0.6231569 1.4101825 0.7165794 
-0.99869514 -0.92541116 1.567136 0.3679804 1.8475538 0.83122474 -0.22616488 0.11525009 -0.23564005 -0.88870704 
0.028883452 -0.575082 0.5808759 0.6399564 0.67360973 1.2206643 -1.2828447 -0.36426973 -0.35158336 0.1563509 
-1.0905813 0.94404936 0.6593167 0.52431536 -0.6849303 -1.6760144 1.2968113 -1.2495922 -0.9597601 -0.9443064 
-1.5170792 -1.3487424 -0.5992656 -0.5824047 0.002342136 -1.3838233 0.5714257 -1.3071166 -0.15080537 0.6048759 
0.27914616 -0.8453709 -0.40436321 -0.41874188 -0.03749551 -0.686792 0.30344158 -0.060947392 -1.1050168 -1.3036325 
0.20923685 -0.13683546 0.3242875 -0.88184035 -1.3755441 -0.37019202 0.8949188 -0.48962304 -0.14732818 0.15809667 
-0.08853173 0.81516427 -0.94169545 -1.5181069 1.3219072 -0.37836012 0.2959867 0.55087304 -0.5978145 -0.29109785 
0.38788298 0.122878544 0.45638922 0.92115504 -1.018023 -0.46329436 -1.2364714 -0.20146063 0.5263859 0.043694165 
0.64094794 -0.43311238 0.35494438 0.6509644 0.35888284 0.79965425 0.93011564 -0.33176783 0.86697733 -0.9252569 
-0.3853266 0.25844625 1.409624 -0.47659582 1.4154814 -0.4728599 0.0513915 -0.2726579 -1.0626763 -0.29395273 
-0.19118093 0.31163266 0.023123153 0.33602598 0.4908887 -0.4431384 1.6100748 0.32448575 -0.299905 -0.47144982 
0.16663018 -0.20915225 0.4832016 -1.3851988 -0.8979417 0.56845826 -0.50194645 -0.89398164 -0.39553297 0.7912394 
0.08212834 -0.35631308 0.08275792 0.36098367 -0.9760537 0.5735052 0.06296765 1.0659878 -1.103799 -0.47371164 
0.22434641 -0.6033 0.011022413 -0.6121859 -0.5086272 0.5538364 -0.15000267 0.6298918 0.39067668 -0.025000663 
-0.11293623 -0.6517462 -1.1600226 0.5610078 0.024126513 -0.058574732 1.0821711 -0.4305434 -1.0251409 0.97880685 
-0.38869625 -0.33252877 1.454478 0.010009681 0.608512 -1.062676 0.7918173 1.7865548 0.5779108 0.2716647 
1.1938277 0.7443783 -0.8965779 -1.0803968 -0.6237464 0.68789357 -0.011830937 0.8012257 -1.1808654 0.7660622 
-1.5504408 -0.6917959 1.2079186 1.3182046 -0.85272217 0.13498567 -1.474365 -0.16280666 0.10739895 0.45204782 
-0.07612096 0.65764785 0.3615458 1.6210762 -0.7174246 -0.62931395 -0.62797284 0.11480906 -1.0389823 1.445476 
0.07494914 -1.1707032 0.8037979 -0.1836725 -1.0210869 -0.21646903 -0.25366208 -1.8466705 0.09431541 -0.6146151 
0.31891224 -0.7750582 0.7717984 1.0203135 0.6095334 -0.81292623 -1.1891376 0.034559567 0.096397586 -0.80786836 
0.87874985 0.14458954 -1.2528734 0.3631659 -1.4620403 -0.3804642 1.0556644 -0.33712822 -1.5676482 -1.4202207 
0.49113435 0.6327852 -1.603515 -0.22869308 0.51986426 -0.9437795 0.2997645 -0.7754925 -0.57167363 -0.71193355 
-0.20261835 1.1495266 0.48695 0.703657 0.77335256 -0.9213779 -0.63778824 1.6558414 0.3560293 0.24964875 
0.14298739 -0.3171336 0.1549217 -0.51092 -0.6407212 -0.13409996 0.28048563 -0.2580565 -0.20245588 -0.07163056 
0.7009729 0.31571874 0.6257278 -0.5452569 1.7700742 -0.041938603 1.1266016 0.5863783 0.6227958 0.07230812 
1.593504 -0.08621977 1.1085771 0.6106753 0.08635152 -0.53174496 1.6486449 -0.16658746 1.0816635 0.5315135 
0.7718028 0.6002866 1.0719612 0.69175154 -0.096576124 1.348214 0.36666396 -0.6119893 0.06932551 -0.7334292 
-0.23058179 -0.51213336 -0.16210224 0.60515344 -0.21935035 1.0599952 1.4657053 -0.52119255 0.1568476 -0.9881925 
-0.16268039 1.6019423 0.85271525 -0.13512649 -0.22904581 0.34809208 1.5189713 -0.047160756 1.4338194 -0.79883826 
-0.1735163 -0.26559484 1.1041608 -0.34355736 0.2102639 -1.003987 -0.21081205 0.050315313 -0.3105674 0.7738022 
-1.8367988 0.5553468 -0.30515864 0.28022194 -1.3678247 0.8320195 0.3273019 -0.8354333 0.89653134 0.9524824 
-1.5219494 -0.13447858 0.4521401 -1.5984765 0.36451596 -0.46686506 -1.4405075 0.62017804 0.37316212 0.06444136 
-0.20590979 1.049678 0.1425612 -0.43699667 0.930951 -0.7756071 -0.758189 -0.98485184 -0.49002814 -0.015574887 
0.43202072 1.3264402 0.910061 1.3590446 0.14184451 -0.31597412 0.067852534 -0.7670011 0.05250562 0.6597403 
0.92064863 1.4721328 -0.15987167 0.38420394 -0.22128397 1.49579 0.16445091 0.043557618 0.097220965 -0.5913605 
-0.36296287 0.94563323 0.38454193 -1.2198505 0.4026904 1.4027019 0.470026 0.68333215 -0.03163637 -0.32746232 
1.7962017 -0.040831964 -0.6780049 0.3985594 -1.737666 0.37063244 -0.5538882 0.84195167 0.17845815 -1.1453986 
0.16261895 -0.23260558 0.27143627 1.5125201 0.08675422 0.3887887 0.25820744 1.5186464 -1.2603828 1.6026092 
0.36596316 -0.33248287 -0.019333404 -0.30122665 0.27814278 0.6362689 -1.3935794 0.9123741 -0.30440152 -0.6593485 
1.6962311 0.33560994 -0.7849223 -0.48195627 0.5395723 0.54264665 -0.7058392 1.2517011 0.8497843 0.5318117 
0.09471095 0.37533897 -1.6680866 1.5213939 1.762657 1.4447365 1.4578811 -0.35860068 0.19310133 -0.6370248 
1.0044546 0.72421235 0.47354275 1.3108221 -0.60414445 1.2518024 1.7164444 -0.35148337 -0.85115683 0.9785733 
-0.6459114 0.11397572 0.03695545 0.70785207 -0.28299722 0.6471104 -0.8260123 -0.2580991 -0.6815906 -1.4199811 
0.64608383 1.4904369 0.9824219 -1.5601773 -0.56215465 0.9743964 0.7628634 -0.060723517 0.032898474 -0.8413555 
-1.5709376 -0.33629557 0.5718478 1.5886999 -0.38217536 -0.43143597 -0.9526566 -0.5168451 1.4554023 0.47293797 
0.58949083 -0.16285488 -1.2070343 -0.9572666 0.32075068 -1.0689993 -0.885095 1.4974381 -0.57351273 -0.22999546 
-0.7527353 1.3973104 0.21872243 0.49737725 0.86217004 0.17494904 -1.077859 -1.1914866 -1.0475336 0.29691005 
0.37788504 -0.08741727 -0.4714079 0.8295105 0.957127 -1.493737 1.0050894 0.06491574 0.29850954 1.3574766 
-0.41696486 -1.2726511 0.5124083 1.5887314 0.8905155 1.5476679 -0.21901579 -1.6144092 0.9003417 -0.16457519 
1.5600038 -0.20020705 0.10719927 1.0142674 -1.0806601 0.58775264 0.40200922 -0.8672044 1.0366096 0.29778495 
0.76019746 0.26804143 -0.2731617 -0.26777613 -0.941625 -0.7261645 1.4654355 -0.17215769 -0.04530522 0.1201461 
0.8689598 0.9426985 0.20721246 -0.39232025 0.82645583 -0.22179492 -1.0291983 1.3623797 -0.16341305 0.23360193 
-0.76181066 1.6676654 0.06884497 0.6382609 1.0894873 0.7683028 -0.39931342 -1.1086159 0.29473254 -0.058184512 
-0.38609734 1.0977337 0.45686588 -0.7083795 1.1034025 0.4175548 0.9568106 0.4941267 -0.48887548 -1.2066216 
0.12136408 -0.8357587 -0.117607206 0.54193926 0.173816 0.7307095 -0.99309075 -0.295708 0.061786287 -0.7895849 
-0.85100204 -0.09123589 0.30481023 1.028655 0.073930524 1.0637524 0.37655854 -0.21323277 1.5116615 0.23568255 
1.7359786 0.9289789 -0.36124253 0.15446495 -1.1401904 -1.8054707 0.42051148 -0.07681542 -0.19760379 -0.4279659 
0.86398804 0.35889885 0.5173082 0.65688545 -0.38929054 0.97881263 0.6842205 0.7464882 -0.36102846 0.41457257 
-1.4390464 -0.8467464 0.14105439 0.8529464 -0.9484978 0.30337548 1.0057366 -0.32228294 0.26144588 -0.43919843 
0.10402903 0.60758066 1.3126612 0.61947495 0.7024881 1.1978693 0.43258232 -0.10257688 -0.006722046 -0.4891855 
-0.14826694 -1.6089971 1.4216498 -0.5952489 -0.6566331 -0.55485064 0.36028594 1.2178174 0.5531048 -0.5689128 
-0.526273 0.69453907 -0.6426624 -0.50938857 -1.4131469 -0.5885631 0.5866544 -1.1526555 0.5708092 0.5274578 
-0.6166131 0.13639677 2.012234 0.9917869 0.4060075 0.6063962 -0.15017137 0.36948976 -0.72846514 -0.23992985 
-0.6703321 0.7912182 0.13588554 -1.1636105 -0.5354945 -0.3512928 -0.4341385 -1.0492457 0.8424127 -0.89783037 
0.5162946 0.027235067 -1.1255833 -0.9644821 -0.57244956 0.59150803 -1.2514721 -0.37620854 0.40930775 0.43440858 
-1.2476083 -0.43119535 -1.0658792 -0.13468549 0.056357056 0.55449677 -0.8512041 -0.00451658 -0.697804 -0.6044256 
-0.21449369 -1.5665867 -0.46385637 -0.9332638 1.0463656 -0.970393 0.19793913 1.7488219 -0.251532 -1.4457192 
0.622896 -1.5034665 0.67114085 0.7648716 -0.74950206 -0.24982834 -0.7567726 -1.3555274 -1.3822289 0.8072734 
0.5456339 -0.235308 0.5031668 -0.57983816 -1.6303804 -0.17858787 0.8138121 -0.080792114 0.3386206 0.18533812 
-0.5295558 0.36459875 -0.3110364 -0.044765964 0.5105146 -0.1732892 0.78483635 0.25192505 -0.58570105 -0.13079025 
0.2421842 -0.119461946 0.057415605 -1.6439553 0.40969965 -0.682125 -0.49430093 0.7779612 -1.0160776 0.2537819 
0.5897633 0.99264103 -0.06422875 -0.862153 0.43158436 -0.8554675 1.0593164 0.18923089 0.5776235 -0.74754125 
0.09509276 1.0467182 0.13798937 -0.56664085 0.8241869 0.9043596 0.2579276 -0.507701 -0.55389154 0.36212957 
-0.86506444 0.2226367 1.1824961 -0.0045151035 -0.020872906 -1.3202506 -0.18648277 1.2169294 -0.1570277 1.5890168 
0.3152587 -0.44287354 0.35099092 -0.9730932 1.304653 0.6541609 0.35472605 -0.6463332 0.69479173 0.87967366 
-0.63096 -0.18806374 -0.40086916 -1.6279292 0.4201522 -0.54864144 -0.4472188 -0.24324463 -1.6728988 -0.7838198 
0.23452787 0.63249344 -1.1946306 -1.242946 0.590706 -0.1332432 0.6688676 -1.6007092 0.26311257 -1.5857916 
1.4453423 1.7727271 0.21552232 0.9678051 0.0079208575 -0.40126112 -0.7628191 1.245268 -0.4399504 -0.22834218 
0.36071324 0.8914667 0.78812283 0.23480245 0.7103197 -0.54351646 0.14337912 -0.22479269 1.1903045 -1.851597 
0.36595362 0.66424775 -0.039570097 0.5953345 -0.14671627 -0.7497327 0.35160518 -0.13179827 0.33748314 -1.1727198 
0.052162815 0.90251386 0.99444157 -0.3438549 -0.6551819 1.215069 -0.65427274 0.7865294 -0.09226267 -1.0374364 
0.57854694 0.71960354 -1.0610559 -0.79328644 1.1144303 0.6731484 1.5125134 -0.9358388 -0.44656852 -0.041611463 
0.61981004 0.39352623 0.70356655 0.0022016708 0.3132916 -0.5094494 -0.62175184 -1.2541593 -0.3473624 -0.6319208 
-0.14229737 -0.27674687 0.05750534 -1.2354422 0.33341157 1.7273787 -1.1179329 0.016705712 0.28326213 0.24651638 
1.2205802 -1.1112736 0.6504979 0.34797436 -0.54665303 0.5991002 -1.5717282 -0.973362 -1.5627567 -0.41936722 
-0.77650297 -0.70679724 -0.61344326 -1.8527484 0.1533837 0.43770108 0.76775265 1.444811 -0.28621823 -0.8063248 
-0.11936678 -0.25386772 -0.23922123 1.6431099 -0.47361115 -0.72967905 0.44544894 -0.45295447 0.038485296 1.0117224 
-1.8422023 0.23144877 -0.041920766 -0.31829378 -1.2566452 0.20622736 -0.5801985 -1.1037863 -1.5726557 -0.24831559 
0.67266804 -0.41468582 -0.0744625 -0.9989916 0.9579236 -0.040905196 1.5555388 -0.13257864 -0.23463336 -0.9423159 
0.7063883 -0.39879343 -0.031265005 -1.0171025 0.81260055 0.5059634 1.2080365 -1.4810947 -0.7465382 1.1652156 
-0.6446305 -0.120388284 0.57417774 1.0567886 -0.18982969 -0.59275633 -0.88517004 0.9452382 0.17779021 1.2947539 
-0.68151474 -0.61578476 -0.78052026 0.7218104 0.28824228 1.0065738 -0.34566885 -0.35967812 1.1111065 -1.0190724 
-0.199123 -0.053118017 0.11918406 -0.9074028 -0.16475923 -1.1065482 -0.092612445 0.048839733 1.2908678 0.60558665 
0.6474046 -0.12346243 0.13745409 -0.981184 -0.56481373 0.60665953 0.28447172 -0.33472347 1.839833 -0.54442227 
1.560986 -0.13297802 1.1266879 0.3891949 -1.0470952 1.322719 0.25508043 -0.2728042 1.186743 -0.081834465 
-0.7136866 0.0016805247 -0.9649603 -0.61949956 0.71254486 0.3649298 1.0324377 -0.9937501 -1.4697006 -0.29980445 
0.008754934 0.9952205 -0.41739422 0.39954296 0.5570425 0.115097605 -0.91271245 0.5269218 -0.75701624 0.35614794 
-0.6263039 -0.647386 -0.22277592 -1.0674785 -0.7097108 0.5937852 -1.3589453 0.33333284 -0.58700806 -0.18045965 
0.8199623 1.3687739 0.41609845 0.005278124 0.3694256 1.0426546 0.76910734 0.11344622 -0.7408044 -0.14437596 
-1.4434841 -0.6357426 0.42497775 1.5009071 0.73826295 -0.66308594 0.11898763 1.5115691 1.2608975 -0.10348161 
-0.3452167 0.7038007 0.9907739 -0.8175237 0.17184755 -0.11864639 -0.3671479 -0.37775588 0.025067503 0.4832425 
-0.7966701 -1.0380881 -0.07128648 -0.12391085 0.50456923 0.13571163 1.1922184 -1.1255169 0.12683687 0.7538348 
0.25470358 -1.2399334 -0.31582153 0.0490571 0.84696054 0.304098 -0.51657295 -1.0992564 0.21072623 0.88725525 
1.7809559 1.808822 1.5358254 -0.12326239 0.28571385 0.23633339 -0.7379607 0.44099158 -0.7904057 -0.047165878 
-0.97117585 -1.4431279 -0.22542752 1.0025563 -0.97253704 0.8050033 -0.3714484 0.025076067 0.36917117 -0.3070932 
-0.67334825 0.17101935 -1.0431262 -1.1474682 1.2921644 -1.1155924 -0.9590294 -0.9348994 0.703454 -0.10166652 
-0.99463993 -0.5244767 0.3133167 -0.51638544 -0.9836663 -1.8042042 0.90247566 0.81554586 0.343522 0.1307047 
-0.65748465 0.4967156 -0.92289007 -0.20866136 -0.08478772 -0.82959205 -0.64455146 -0.065531574 1.2674998 0.7697176 
-0.13341135 -0.36614406 1.364176 -0.3715813 -0.8987775 0.083475314 1.1867929 0.3807684 1.2231172 0.55252343 
-0.11900124 -1.4486682 -0.14653085 -0.6859818 1.1652979 -0.26158988 1.0861626 0.12004085 -0.24992593 0.95037293 
0.911032 0.5501225 -0.22037485 -0.58618283 -1.6884135 0.45833635 0.4148988 -0.3304775 0.275944 -0.5476123 
0.6477238 -1.4729017 -0.4350346 1.0090528 1.3313534 -0.41198668 0.19374798 -0.9002674 0.6715538 0.4594754 
-0.5614236 -0.9001825 0.59137756 -0.5468775 0.29304564 0.8951609 -0.36616647 -1.2121643 -0.61466616 -1.4194646 
-1.476629 -0.6013047 1.4897856 0.116667084 1.0773993 0.013132902 0.7295671 0.9280383 0.1078771 0.12219786 
0.46771333 -0.08978283 0.102377415 0.09935305 0.7813467 -0.5154228 -1.0794122 -0.87692815 0.5617961 0.69457835 
-0.4927428 0.49699393 -0.5735053 0.16176127 0.7985083 0.6808469 0.056136712 -0.14639902 0.5301579 0.87746966 
0.7267118 -1.1460481 -0.86038226 -0.16549915 -0.87276006 0.45882398 0.48878685 1.3333012 0.20745897 0.27239245 
-1.424827 0.13889769 0.3102261 -0.055461958 -1.3737024 -1.031045 -0.015463201 -0.45103216 1.2030824 0.21027799 
-0.45478654 -0.2325502 1.4131701 0.14660487 0.20099416 -0.7373563 -0.22857043 0.44651836 -1.650121 0.31335768 
0.15571254 0.5989418 -0.81843466 -0.15415642 0.3007933 0.90976596 -0.7997164 -0.86369175 -1.0353742 -0.025155824 
0.95268995 1.6383009 -0.8546274 -0.0036934654 1.5366045 -0.23720649 0.2662744 0.5238527 0.010621833 0.5040619 
-0.19114855 -0.3010187 -0.31031322 -0.3792269 -1.465154 1.1445256 0.71862847 -0.30035517 -1.0626969 -0.011752478 
1.0905684 -0.41152275 -1.3370928 -0.13861303 -0.16998115 0.7092744 1.1923271 -0.5831514 0.03333181 0.8384943 
-0.11971651 -0.65742314 -0.7100639 0.59874237 -0.066015676 0.16544509 0.6849503 -1.6136189 0.34766906 0.15900984 
0.10984324 -0.15577663 -1.1610624 -0.03144121 -0.42834088 0.2772695 1.2924081 -0.8057899 1.4371451 -0.11200225 
1.6926007 0.1421846 -1.0006706 -1.0474387 0.6771269 0.49529713 -0.9338457 -0.727097 -0.67434233 -0.6993668 
-0.49230814 -0.037973017 -0.9470242 0.32517463 -0.5236445 1.8272359 -0.9595353 -0.8807104 0.5379346 1.6164701 
1.0093029 0.7778188 -1.3973199 1.3743708 0.43410656 -1.2668829 -0.058781102 -0.95515054 -0.29218045 -0.51541394 
1.1905229 0.33264485 0.14827576 0.29299754 -0.44840467 -0.8679852 0.49834096 -0.31378406 -0.6417603 0.12998356 
0.21252947 0.3615482 0.035870567 -0.75627553 -0.42605752 -1.3836746 0.6882779 -0.73878896 -0.9284069 0.4034663 
1.6703635 1.1721066 0.90984505 1.0806015 -0.45362616 -1.7218528 0.5382163 0.92985004 0.74881107 -0.73841584 
-0.7592179 1.7841011 -0.034425966 -1.0808884 -0.62605107 -0.8061793 -1.8200876 0.04897324 -0.048210487 -1.1135403 
0.36295128 1.627707 -0.31286982 -1.0103862 -0.053007856 -1.2947401 -0.1958431 0.9692048 -1.2756294 -0.17230707 
0.8723843 0.501482 1.1261274 -0.41515478 0.7007473 -0.8666483 -0.7734767 -0.90097696 0.5092966 0.76683927 
0.35441273 -0.35549518 -0.23621285 -0.9310741 0.50615144 -0.793973 -0.36275443 -0.5125839 0.9576699 -0.93546116 
0.62188864 -0.029769234 -0.36811066 0.655932 -0.67557186 -0.5375334 1.0393687 0.7332902 0.6558074 -0.19773012 
0.754242 1.6707914 -0.40941924 0.34762105 0.7226412 0.016419226 0.9737788 1.2987983 0.9377479 -0.36449087 
-0.5968538 0.67784995 0.31497383 0.09035389 -0.57338595 0.16462441 -0.20889929 -0.30489045 0.7226702 -0.61645335 
0.37110317 -0.30865496 -0.8065938 0.9618558 -0.05519882 -1.294436 -0.48803064 0.55591786 0.70923036 -1.5654213 
-0.22221719 0.60264766 0.28583798 -1.3412621 -1.4359328 -0.65130925 0.13405454 0.57399464 -0.14896749 -0.38246003 
1.3323649 -1.3771856 -1.853922 1.5952823 0.0010606094 0.8237537 0.5654835 -0.61975265 -0.14394897 0.145327 
-0.73809344 0.357287 0.9861195 -0.31326908 0.7976845 -0.6780002 0.56779295 0.07245502 -0.4751547 -1.0724968 
-0.31799027 -0.4899446 -1.2776928 -1.4315777 -0.9949295 0.053722285 0.043870255 0.8946342 1.7042943 0.09173539 
-0.9250365 -0.5990212 0.6474701 -0.57050294 0.44170052 -0.1825516 -0.516671 -0.2761717 0.58308035 -0.20852469 
0.42169237 0.30951735 0.111622766 0.09572292 -1.3974203 0.6788249 -0.32502717 -0.3351705 -0.75503194 0.1728174 
-0.3425144 -0.80786365 1.3132998 -0.5373183 -0.7536152 1.515347 -0.7912318 0.43705937 -0.31672165 0.5439095 
0.37933472 -1.2489291 -0.6375932 -0.14098702 -0.05108898 0.6438394 -0.79161596 0.2183933 0.8295029 -0.2141833 
0.04257398 0.8925407 0.31279537 -0.07965416 -1.4791939 0.1370028 -0.05814726 -0.3711713 0.40225643 -0.4558967 
-0.40066287 1.0594339 1.6864271 1.4336023 -0.303607 -0.4869199 -0.6117212 -1.4315724 -0.17941006 0.31798974 
0.5499508 -0.13687687 -0.9958304 0.0745138 0.38719398 -0.72436017 -0.64596283 1.0027758 0.94090843 1.1747932 
0.40012994 0.8431183 0.5227617 -0.10057238 0.42192 -0.6142817 0.69418925 0.61676896 -0.679393 -1.3805528 
0.09562316 -0.65744257 -1.5018924 -1.6531982 0.0041410974 0.58630204 0.9175411 -0.7581265 -1.6490825 1.1860908 
-0.99123824 0.019532178 0.38154364 -1.4793309 0.17835346 -0.36349088 -0.9711738 -1.4088442 -0.16665038 -0.7456739 
-0.08081411 -0.97678113 -0.50382245 0.21521842 0.18015936 -0.31483132 0.09440964 -1.0557338 0.26147747 -0.2632421 
-0.51903856 1.2837265 0.5545876 1.0331426 -1.069577 -0.17239657 -0.17477265 0.67469895 1.089576 0.6115165 
-0.23944537 -0.3362656 0.21744934 0.75597996 -0.90152645 1.224389 -0.070614666 0.5674897 1.0073948 0.31477976 
0.52321154 -0.6568908 0.85976034 -0.33810094 0.04513272 0.2839098 0.39981848 -0.52300066 1.392859 -0.70633775 
0.28207716 0.011869458 0.017733783 -0.072877765 -0.022725169 -0.57482785 7.707287e-06 0.010233926 0.15464696 -0.09839242 
0.80953354 -0.40671682 -0.18488137 0.8184543 1.5328255 -1.1155883 -0.4722848 -0.16313481 -0.68763417 0.7732393 
0.52049214 0.77217805 -1.0836223 -0.6621136 -0.3407041 0.55943793 -1.2927337 -0.9112538 0.5972301 1.0730885 
0.65104955 -0.9806249 -0.20983958 -0.12334364 -0.5091135 0.6285374 0.041011184 0.7518038 -1.3162917 -1.3627691 
0.41590163 -0.14947145 -0.9400537 -0.2064967 0.91257006 -1.6004828 -1.5450581 0.72267616 -1.0359676 1.0272405 
-0.406419 1.1691017 0.82043445 -0.1940357 0.14919074 -1.0371665 -0.6176683 0.4859787 1.4448692 -0.034704123 
0.38106087 0.28219944 0.35795286 -1.4287332 1.5735974 -0.39585334 -0.23071894 0.8625864 -0.4951055 -0.40097857 
0.6558232 0.44418812 -0.010675001 -0.3467013 0.35825008 0.23915008 0.1140534 -0.36555737 -1.6039596 0.34500507 
0.91615605 0.1972142 -0.930178 1.3452357 -0.18491526 -0.18650886 0.2524283 0.09411527 0.10714677 0.05918804 
-0.40371007 -0.3350803 -1.2344275 -0.558809 1.1883663 0.09253796 0.3678543 -0.33685425 -1.1051445 -1.2576594 
-0.38814744 -0.11677541 1.3203938 0.7045353 0.03738953 0.6133686 0.8249697 -1.2998235 -0.31905448 1.4174603 
0.86444086 0.090394594 0.046044353 -0.5726156 0.19748843 -0.93241495 -1.1596054 0.7466272 -0.4433419 1.1449987 
0.7850957 -0.67929155 -0.11133275 -0.40513256 0.007820126 0.79059976 0.82737064 -0.2648882 -1.347201 0.090767175 
0.52635956 1.0051496 0.2965159 0.6996982 -0.0651548 0.98630667 -0.37957165 -0.89298314 0.54961 -0.25623953 
-1.2776133 1.8263861 1.963873 -0.18577582 -1.2230979 0.773879 -1.5942742 -1.2980882 -0.80203015 0.60543215 
1.6521717 1.2163141 0.73724896 -0.7862362 0.3387584 0.46575165 -0.81959265 0.0646666 0.5610927 0.29271463 
-1.4013219 -1.301981 0.55493397 1.6219366 1.0980585 1.1326922 -0.2750378 0.8887386 -0.5665951 0.9769322 
-1.0638324 0.91432554 0.12017983 -0.29448622 1.5009248 0.2699635 0.9525312 0.09478642 0.24816105 -0.97552145 
-1.3536078 -0.27047002 -0.44581577 1.897647 -0.9437909 0.012244765 0.030257866 1.0058154 -1.1787368 -1.182021 
-0.74171966 0.108578704 -0.7301395 -0.2142202 0.43792334 -0.2999391 -0.63592964 0.73023486 0.14833997 -0.413636 
1.1000956 -0.13185379 -0.39300242 -0.05540578 -0.4299002 0.5863922 -0.1800755 0.60844123 -0.67644715 0.6123502 
-0.61433417 -0.18884255 -0.78290844 0.32519054 -0.1293863 1.2086315 0.6022413 -0.98865616 -0.19665842 0.75135565 
0.2585563 -0.7558134 0.66028994 1.1202364 -0.7269535 -0.2008816 1.1023221 -0.83350426 0.2449001 -1.1513141 
0.74197364 0.11630297 0.6166728 -1.3881018 0.86434937 0.18867128 -1.2770405 1.3635229 -0.8216124 -1.1695166 
-0.6378358 1.3181206 0.5417748 -0.95679486 -0.6285243 -0.44399476 -0.1128621 -0.35728705 0.20233867 0.16498028 
1.9316545 0.14206658 0.09064325 -0.20801227 -0.0018142043 0.5090999 -0.5689811 0.033666983 -0.554661 0.37483808 
0.7504626 1.4149958 -0.015504329 0.86990863 1.1587824 -0.7723463 1.6105106 -0.9574478 1.6872504 -0.22703478 
-1.3113267 0.7885688 0.98265874 0.68183666 -1.6025631 1.6490918 0.14892349 0.31916153 -0.5819588 -0.4799054 
0.24664459 -0.94107777 0.8941666 1.7990746 -0.10299667 -0.49056938 -0.9967464 -0.9709272 -0.066439494 -0.08120269 
0.6507231 -0.97476065 -0.5465121 1.311676 -0.6062943 1.4597487 1.335445 0.18609653 -0.20864111 0.60476553 
0.32535848 0.1676551 -0.38586655 0.89989406 0.065998025 0.079888456 -0.44118387 -0.70348704 -0.69856364 -0.8682458 
-1.4401388 1.3161283 -0.03704909 -0.11292935 0.8452207 -0.38870108 0.54679936 -0.06466773 -1.7962215 -0.65836155 
-0.83282655 -0.058828183 -0.30464348 -0.41852987 -0.89134794 0.714853 -0.13431409 -1.0934622 -0.04772688 0.59745413 
0.65142566 -1.0579716 -1.207489 0.35779908 0.9734926 0.9213116 0.99777913 -0.03171448 0.68367577 -0.12662703 
-1.0290136 0.29781264 0.27187386 0.30431226 -1.4607911 0.33953467 0.83524 -0.28232566 -0.25423533 -0.16186962 
-0.6567655 0.30054227 0.54985446 0.2399638 1.4325166 -1.7423908 1.2578754 -0.19269449 -0.78127736 0.4031554 
-0.7775323 -0.04807382 0.3652001 -0.2627914 0.104606144 0.62302285 0.8826734 -1.0531614 -0.025606636 -0.044408295 
-0.42399043 0.18931817 -0.19529815 -0.036735114 0.8913093 -0.62919277 1.4638903 0.2569081 1.2104287 1.3885791 
-0.51937497 -0.12610789 -0.66672325 -0.44821373 -0.95882165 -0.7678833 0.71887976 0.5389285 -0.57833374 -0.0009939539 
0.6516785 0.49297595 -1.4468713 -0.4888212 0.8375205 0.09363535 -1.0865842 -0.7324962 -0.37995484 0.5490012 
0.061808128 0.6797172 -1.5790486 0.5971029 -0.83859295 0.314303 0.8257635 0.3508056 -0.18949702 -1.3374276 
1.2919258 -0.14717257 0.41035268 -0.612993 -0.5357749 -0.4273793 -0.20528772 -0.6719522 0.16798502 1.0891156 
-0.3585718 1.3275132 0.4720261 -0.672451 0.79801434 -0.76560086 0.38219103 1.3211244 0.6543697 0.16866082 
1.2480141 1.635601 -1.6831703 0.7692529 1.2384398 1.5171691 -0.22602904 -0.36054388 1.6016061 0.6860741 
-1.7468015 0.028348917 -0.2522263 -0.12690668 -0.70326084 0.43131414 -1.6981329 -1.6031067 0.471037 0.70078874 
-1.3270366 1.0655738 0.55621433 -0.4128131 -0.58562654 0.73806155 0.06974614 0.13992132 -0.123223655 -0.14351001 
0.0011768325 -0.9436075 -0.028236836 0.121722266 -0.33701232 0.43216679 0.74395937 1.5965031 0.57233024 0.8586344 
0.6115804 -1.649559 -1.0144465 0.6821491 0.6497718 0.5506519 0.5589743 0.19766195 0.24377105 0.6807385 
1.1932716 1.0485625 -0.43665648 0.58743364 0.7613704 -0.69299895 -0.9386832 1.192521 0.4745732 -1.0218964 
-1.6354997 -0.13468339 -0.37987688 -0.26344183 0.32335755 -0.39598522 -0.4477487 -0.113606036 -0.69078565 -1.6159486 
-0.42470405 0.6437843 -0.43341237 0.5341787 -1.5815274 1.138346 -0.17760575 0.7797605 -1.1435249 0.27483067 
-1.4282522 -1.2561144 0.62126225 -1.5715297 0.35215178 -0.3648091 0.05103096 0.65142787 0.21441664 -0.5299722 
1.170492 0.70992255 -0.39897245 0.96909606 -1.2717954 1.2366189 0.37039158 0.85081846 0.57862383 -0.35259578 
1.0511286 -0.16652645 -0.2434373 1.7473608 1.2584565 0.68594086 -0.78201425 -0.09201817 0.12833598 -0.47781843 
0.6659876 -1.2546569 1.0778617 0.33526862 -1.2012453 1.4482752 0.9180462 -0.29517975 0.4465861 -0.3392973 
-0.37873593 0.2437705 -0.72361654 0.6115787 0.6788475 -1.2499063 0.03258824 -0.8995581 -0.29066277 0.12532076 
0.77480185 0.18682177 -1.0631722 0.8397918 -0.4170489 -0.41740572 0.48680845 -1.579955 0.22349402 0.9739039 
-0.33395904 0.2577696 -1.0721494 0.95966244 -1.0200295 0.07143967 -1.0337652 0.11537354 -1.0308532 0.104019664 
0.17033628 0.30564407 0.3152894 -0.35064134 1.8607905 -0.20310047 1.6203194 -0.39587367 -0.106312215 -0.7703569 
-0.043827984 0.7432179 -0.084716976 0.6840498 1.3967788 0.89953125 -0.43579906 -1.226872 1.012499 0.962744 
-0.1656519 0.95161897 0.71804225 -1.6957514 -0.08362356 -0.5012664 0.27951923 -1.2933184 -0.03546067 -1.0580708 
-0.39426383 0.87235206 0.34035885 -1.046486 -0.39224187 -0.92686343 0.9190799 -0.6316124 1.6393971 -0.41866937 
-0.03376621 -0.7488775 0.10431582 0.901683 0.039881103 -1.1625301 1.3143338 1.2415847 -0.5090056 -0.8578841 
1.3061118 0.15430315 0.6127652 -1.2396296 -0.45714927 -0.99725306 0.010448875 0.23408368 -0.9862407 -0.9664678 
0.66665024 1.4973631 0.8347144 0.7038194 1.185884 -0.38896525 -1.1877282 -0.27457157 -1.4286377 -0.85077757 
0.4385052 -0.2329502 0.502501 0.18150271 0.83167547 -0.45946503 -1.4391513 1.074531 -1.353275 0.5090197 
0.38451445 -1.1170874 -0.4508027 -0.9491492 0.4283533 1.0261695 -1.489399 0.5488043 0.2706913 0.05091957 
-0.2841117 -0.30632392 0.33572707 -0.006659567 -0.51800364 0.27650446 -1.3365365 -0.34666565 -0.1645131 -0.02573526 
-0.026030958 -1.2376845 -0.305002 -1.3069937 -0.29689395 0.07369211 -0.62205863 -0.7615421 -0.41339004 1.1440207 
0.5128128 -0.7347892 -1.0014796 -0.605554 -1.1615398 -0.6767772 -1.5783824 0.5263493 0.65270853 0.5887079 
0.7615085 0.1493847 1.8316212 0.24258403 -0.23471083 0.031018173 0.99399894 0.72515047 -0.18289195 1.1727631 
0.09954449 0.73193336 -0.2333834 -0.38985768 0.59141695 0.19354054 0.0050341035 -0.20235701 -0.22336742 -0.4532997 
-0.20800681 -0.45423707 -0.75885844 0.46667027 -0.0422848 0.32555246 0.085135214 0.3616087 -0.090825275 -0.72750425 
-1.6696612 -0.6513075 -1.1896027 0.4072651 -0.08026496 -0.14673261 -0.72697186 -0.30514947 -1.1538184 -0.1566153 
1.0146352 0.6132867 -0.29820246 0.3720801 -0.83580226 -0.2057213 1.4684435 0.07618814 0.062669896 -0.96598995 
0.861091 0.27461037 1.6077342 0.33238235 0.43172243 0.6655461 -0.80095977 -0.2479821 -0.07867627 -1.2743161 
0.3512659 1.3319548 -0.11656442 -0.923409 0.50334024 0.13274485 -0.0918653 0.5707956 -0.4245842 0.43536383 
0.98215663 -0.17498574 -1.415934 -1.1815813 0.5551536 -0.42281064 -0.16715777 0.18763977 -0.73055166 -0.67548585 
-0.23529962 -0.31855497 -0.26241672 -0.14747547 0.51951766 0.618609 0.29172075 0.3464382 0.06980118 0.5521539 
-0.9060309 1.2427951 -0.5957293 0.79597294 -0.78546995 -0.8431733 0.51434267 1.0725944 0.5694515 -0.08221713 
-0.82480854 -0.57252395 0.06535341 0.06838763 0.82636696 -0.41818094 -0.87869483 -1.4162358 0.98957443 0.7397323 
0.26693064 -1.606447 -0.36583334 -0.64164937 -0.60119104 -1.3712422 -1.5131439 0.07780944 0.15477477 0.3942037 
-0.1272115 0.8627021 0.08845837 0.9584905 0.6525124 0.609538 0.2964163 1.0657269 0.9112119 0.83577555 
0.046144217 -0.84245574 -0.47100362 0.38806543 0.36553144 1.0354382 -0.9074437 1.5479285 0.112431556 0.9042809 
0.08853033 -0.42919448 -0.11212183 -0.58600897 0.31458685 0.58619 -0.7480431 -0.19727157 0.72669375 0.087098055 
-0.6483094 -0.17913991 0.9581724 0.41940197 1.2659882 -0.45843613 -0.5955337 0.06438328 -0.6032293 -0.45338905 
-1.6605328 -0.093901396 -0.66639066 0.0034609996 0.5368717 1.0493568 -0.1410106 -0.19160834 1.2287692 0.45717964 
-0.00219818 0.19140586 0.17656516 0.46157804 0.27682498 -0.19478472 0.014343968 0.12674345 0.48118305 0.20800924 
-1.3969139 -1.6525785 -0.74262244 -0.63828915 -0.8079379 -1.0581299 -0.23261617 0.9636682 1.132681 1.4404454 
-0.034324847 -1.4211916 0.12473827 0.9194038 -0.20135313 -0.16605803 -1.7282803 0.77571017 -1.2214603 -0.87835765 
-0.24878262 0.9056451 0.4581248 -0.53730106 0.2284439 -0.8245484 -1.6108133 -0.08966509 -1.2866379 0.55877364 
0.4141034 -0.07019481 0.23476504 1.375205 -0.6748676 0.09208021 0.29347503 -0.33542347 0.5249215 -1.2505856 
-0.71239775 -0.07315067 -0.5746729 1.2237822 1.4224981 0.74956906 -1.35689 1.3400693 0.3195581 1.4290116 
-0.25836456 -1.2124394 0.033384018 -0.48630613 -0.1537189 1.7778895 -0.9390489 0.10476977 -0.8495945 1.2591481 
-0.13498144 1.5867987 -0.39938617 -1.2740861 1.410611 0.8131597 -0.28563312 0.22772649 -1.4299412 -0.1959469 
1.1902277 0.6021269 -0.20499349 0.92813337 -0.28408167 0.3775785 -1.057368 1.6976712 -0.6288722 0.89762276 
-1.5821984 0.24206509 -1.2017322 0.27622858 -1.0634845 -0.38332567 -0.08579785 -0.2400647 0.69927895 1.6109018 
0.9611721 0.83521634 1.0864799 -0.9585962 -0.12794517 0.17837848 -0.23188494 0.46314037 -0.040529378 -0.62713903 
-1.0501248 -0.9630889 0.97289765 0.19483042 -0.17813659 0.44763276 -0.6855281 0.7045855 -0.19633694 -0.057152193 
0.038626857 0.19589335 0.9899185 1.1430092 -1.0876514 -0.09923622 -0.3621208 0.31007817 0.019017605 -0.8047635 
0.22980627 -0.060383588 -0.14853723 0.4958522 0.29269508 -0.49757934 0.9063935 -1.6057686 -0.30590636 0.5187231 
0.6844788 0.34907094 0.083077736 0.44519767 -0.5844123 -1.2141557 0.13412754 -0.08222904 -0.98512954 -0.15838991 
1.3624684 0.11954039 -1.0189148 -0.09592499 -1.0484651 0.58051467 1.8539883 0.48676232 1.2378302 -1.7975465 
0.28735843 0.13441795 0.40940922 -1.3267725 0.7349483 -0.29987258 0.30404502 -0.9192947 0.83488727 0.05018059 
-0.7023748 1.1521564 0.24232525 -1.3879042 -0.016695768 0.9133505 1.0880239 -0.8841262 0.6324767 0.73593706 
-0.03972812 0.90450114 -0.64091563 -0.0046023657 0.5357565 0.50853 0.8224337 -0.26668826 -0.053515237 0.6307382 
-0.066793144 -0.6157976 -0.2977149 0.37802112 -1.1441898 0.40250847 -0.012437861 0.7099117 -0.89745677 -0.37993157 
0.7082405 -0.037343312 -1.0197167 0.3867229 1.0869497 0.7427571 -0.54968816 -0.5033371 0.7729505 -0.84167534 
-0.7688124 0.21954529 -0.77982396 -1.8381243 0.10811779 -0.6574887 -1.0635092 -0.83618075 0.87096477 0.23070654 
-1.2383416 0.07046082 -0.11192232 -0.022931613 0.9084278 -1.0270156 0.4993916 -0.41019228 1.0666118 -0.3287305 
1.2393231 0.83707404 0.017921876 1.1689715 0.052537527 -0.3442915 0.8880174 -1.0093966 -1.3043817 -1.0124223 
-0.03606016 0.09482405 -0.10032663 -0.2410777 0.81608516 0.19353105 0.17883523 -0.0688074 -0.64310163 -0.19392483 
-0.3634954 -1.5745826 0.5522527 0.40053248 0.33821252 0.1528058 0.16279002 -0.61338043 0.22412308 -0.56789166 
-0.782906 0.054270517 -0.4076728 0.782639 0.53212583 0.28404543 -1.5932188 -0.7188395 -1.3119744 -0.53479517 
-1.6056675 -1.1811453 -0.3171702 -0.8635028 -1.5779071 -0.9854227 -1.45594 -0.8240787 0.33344412 -0.27515006 
-0.42821473 1.0386245 -0.66146165 -1.711324 -1.4458134 0.28771248 0.73358846 0.49574482 -0.1428424 0.8857222 
-0.53775275 -1.0759048 -0.64619756 0.18849121 -0.6573921 0.77032816 -0.22939831 1.1927588 -0.054269187 -1.45962 
-0.73754334 -0.35298252 -0.58486533 0.011282648 -0.39451495 -0.8230417 0.2984775 -1.374508 -0.3328827 -0.7905694 
0.71787363 -1.1326101 -0.89248395 -0.27371708 -0.6233846 1.3131644 -0.14705925 -1.0490665 -0.42777878 0.31725395 
0.29651052 -0.18515754 0.06257766 -0.58839524 -0.9151346 -1.3324801 -0.37462467 1.287926 -0.9775004 -0.010286981 
-0.60602856 0.29615825 0.23706861 0.67480135 -0.3254548 0.5631431 -0.46851054 0.9396984 0.077297255 -1.476528 
-1.0159646 -0.8493678 -0.053584546 0.014281919 -0.96585643 0.5040412 -0.69359773 -1.4288632 -0.5175556 0.072692946 
-0.28297254 -0.302382 0.70903397 0.2091599 -0.14934315 0.07533937 0.2418322 0.4257218 -0.28680164 -0.84389496 
-1.7243243 -0.24410185 -0.08971236 0.72095644 1.5144907 -0.1618513 -0.4409618 1.0867902 0.6858592 1.1850101 
1.7307869 -0.5422179 -0.715063 -0.4181635 0.7525311 -0.21670595 -0.1658263 1.270157 -0.5277576 -1.2099158 
1.2278643 0.8287792 -0.84198105 -0.7760873 -0.53968394 -0.022651562 -0.18183666 0.86625487 0.11198737 0.6023522 
0.2608063 0.8804118 -1.0790809 -1.3845166 0.32007557 0.4886971 -1.7735912 -1.2993486 -0.6627716 0.3300278 
0.11267798 -0.09454525 0.6377805 -0.87203133 -0.36414832 1.118656 -1.2035204 0.42288187 0.56482816 -1.3098415 
-0.77342707 -0.2043795 -0.71971446 0.5517663 -0.48380747 -0.4365565 0.67623854 0.34997568 -1.388932 -0.2779755 
-0.8030825 0.025068311 -0.15850657 0.26154923 -1.262461 -0.39379796 0.15661848 -0.9579779 -0.296697 0.6097365 
-0.4363472 -0.12044583 -0.5638315 -1.1987643 0.5865421 -0.64280367 0.3018759 -1.5389371 0.4692158 0.9744363 
-1.422371 0.15195832 -0.5771525 -0.46244523 -0.20600641 -0.77412295 -1.3918191 -0.21386985 -0.23653105 0.6530982 
-0.6718436 -0.61283636 0.19762449 -1.1133045 0.3594202 -1.1765999 -0.2082544 -0.18312113 -0.640601 -1.7261679 
-1.5156002 -0.14103787 -0.9192269 -0.612179 -0.8857076 -1.3490378 1.0005344 0.058315758 0.0918489 0.87481517 
1.3554473 0.9578188 0.3027961 -0.23072796 1.4054556 -0.050864033 0.3226593 -0.6878486 1.0589645 1.0418808 
1.0314213 -0.32778707 -0.15328757 0.7550125 -0.47551718 -0.23232332 -1.2930267 0.38633695 -0.61732113 -0.89319015 
0.5849867 1.4447976 1.1354545 0.9966769 -1.06255 1.0732453 -1.1297827 0.529488 0.9271801 -0.31737056 
-0.108512126 -0.27395898 -1.1978582 1.093609 1.1664656 1.6782088 -0.63454413 -1.7896783 -0.8605238 0.518857 
1.0066302 -0.62345105 -1.2924762 -0.6577951 1.3997012 1.2384895 -0.77585787 0.12743847 -0.2940555 1.1949905 
-0.9132453 -1.1695323 -0.5868763 -0.052902415 0.2779281 -0.58142126 -0.11874754 -0.57489586 0.731112 0.3520814 
0.68500817 0.8103798 0.32895663 -0.50747645 -0.45564663 0.28842613 -0.087276995 0.054128617 -1.3165989 -0.6699594 
-0.24435379 0.20367746 0.24472046 0.62386554 -0.54083544 0.8859116 0.2934024 -0.2840496 0.021513673 -1.6193277 
-0.6944807 0.028151706 -0.36730015 0.90431964 0.68829846 -0.68772185 0.2431891 -0.42744637 0.849977 -0.45070004 
0.9307781 -0.6711104 -1.854763 0.9229592 0.91445565 0.97496307 -0.2450179 -0.33454025 -0.09702701 1.3037832 
0.5701479 -0.07478711 0.21615776 1.4904027 -0.04749947 0.17796928 -0.1246155 0.9178064 1.3602928 -0.24420041 
-0.29475197 0.50003177 1.4418503 0.9965676 0.023019008 -0.85590565 1.0255225 1.3871213 0.37624463 0.53824914 
-0.5379003 0.19700061 0.853214 0.73397267 -1.0381742 0.20395802 1.0200089 -0.09263555 0.62352633 -0.40468195 
-0.20916934 0.47855526 -0.8232304 0.3352767 0.8840565 0.060248714 1.1801666 -0.5867485 0.74974966 -0.76999867 
0.42017943 -0.71864843 1.1972369 -0.2974327 1.3302249 0.49113324 -0.4770541 0.7522727 1.4075418 0.17243043 
-1.4597476 0.7859638 -1.7373503 -0.7763264 -1.050445 -0.3246409 -1.1664163 0.35041943 0.7011416 0.39765328 
0.5047707 -0.638801 -0.13148515 0.759214 0.079915136 -0.66695964 -1.0768868 -0.8821041 0.049977064 0.926297 
-0.5114974 -0.28434047 -0.8175131 0.44208786 0.30274078 1.4025904 -0.14982216 -0.339296 -0.18515557 0.9512315 
0.98653513 -0.0060365037 -0.116332464 -0.18365583 1.0963057 0.020378998 -0.066492274 1.4146132 0.28992018 -1.2150127 
0.52147657 -1.4855356 -1.3584869 0.54413813 -0.9158976 0.23069777 -1.0558598 -0.5876432 0.23320353 0.08508682 
0.26406524 -0.001749132 0.06756912 1.404666 -0.8914744 1.544023 -1.3436837 -0.61242974 0.7004442 0.25486642 
1.5505323 -0.21641137 -0.6262173 -0.6131259 0.9537437 0.79231155 0.33471355 -0.7209101 0.3153646 0.36744916 
-0.119217515 1.0055741 1.1665924 0.18549907 0.15687421 -0.77835965 -0.5571346 -0.5798695 1.3801788 -0.2208388 
-0.16075899 -2.3837973e-08 -0.009014348 -0.10117955 -0.005698833 -0.9229871 0.051320765 -0.36320883 -0.5137738 -0.056494813 
1.2571323 -0.7816691 -0.43426424 -1.0066084 0.32512963 -1.1939623 0.7573612 -0.009234898 0.8091532 1.1445888 
0.0011687475 1.1735764 -0.36965975 -0.046369437 -0.046093225 0.23416305 0.9563317 -1.1120982 0.70278263 0.90398365 
0.45510393 -1.6775327 0.44110894 -1.4362849 0.54609406 -0.3980743 0.17413327 -0.26247185 -0.058105864 0.41221023 
0.9434581 1.5297097 0.45538738 -0.24207269 0.16080193 0.100426026 -0.9942204 -1.0931767 1.7663689 -0.40261593 
0.9365419 0.51403755 -0.23042999 -0.7399235 1.0620382 -0.6528768 -0.29851013 -1.2017246 0.28712124 -0.46921238 
-1.683937 0.41277695 0.36735156 0.15504307 -0.43821147 -0.6948676 0.91907036 0.14343834 -0.43335834 1.13196 
1.0864849 0.24676505 -0.6654393 -0.9760752 -0.09585432 -0.16933054 -0.50912833 0.15127125 -0.32247743 0.18092352 
1.0343753 0.6637306 -0.16883798 -0.64087117 0.4572436 1.0734591 -1.4685018 1.1068939 0.634982 0.5696572 
-0.74674374 1.3562423 0.24818282 -1.1981816 1.6970434 0.4534407 -0.26189348 0.5569387 -0.0745848 0.5089319 
-0.9394241 0.6342228 -0.20746788 1.3134611 -0.11861385 -0.31903306 -1.2927433 0.7208755 -0.45566303 0.46337524 
-1.2903079 -0.3222195 -0.9689333 -0.2848409 0.43260288 -0.4606849 -0.6671452 -0.38141564 0.025309354 1.031885 
-1.1038133 -1.38237 0.25344178 -1.311149 0.23540501 -1.7825727 0.07912954 -1.7468444 -0.5206366 -0.1139419 
-0.8055056 0.51130277 1.3176022 0.7762492 0.5820496 -0.5418213 -1.5133104 -0.27880964 0.426945 -0.56062716 
0.12658852 -0.30077952 0.6751236 -1.1182747 0.53718203 -0.009496273 1.1313772 -0.81220925 0.37868622 -1.0402423 
0.49211773 -1.1574559 -0.09586024 -0.09220667 0.64483804 0.35165423 -0.4710529 0.050924852 -0.71674544 1.0896659 
0.040299922 -0.58340186 -0.35758796 0.8127845 -0.90669197 -0.80025655 -1.2791772 0.9536159 -0.002189513 0.686609 
0.48363084 0.64655435 -0.30144516 0.26203436 0.23641758 -0.024435503 -0.70602566 -0.84762317 1.5854659 0.79768103 
0.09279182 -1.4344853 1.510905 -1.0955777 1.3041435 0.429226 -0.662484 0.80317533 -0.8017326 0.05600736 
