-0.09536879 0.3803664 0.44510055 1.0926223 -1.4389344 1.3716629 1.0636033 0.08493359 0.3977558 -0.048306577 
0.6056417 0.45439857 0.80509734 0.3942494 0.3133217 -0.94004697 -1.0345981 0.5745671 0.18684243 -1.5097665 
-1.4831284 -1.9687474 1.0882214 1.3341233 0.26740617 0.9576515 0.19787128 -1.4929386 0.7178646 1.1027792 
-0.22235121 -0.5660182 -0.29361928 1.4307799 -0.7191074 0.26751697 0.7862794 0.06896268 -0.93766105 -1.3484144 
0.26423782 -0.18450174 1.0476911 1.402202 -0.61507964 0.54483575 -0.17560123 0.2689693 -1.1336153 -0.58678526 
1.0192564 0.854296 0.49705744 0.56688285 -0.5564984 -1.8313912 0.09619274 -0.68468505 -1.1848229 -0.58398485 
-0.14961866 0.7496197 -0.4405326 0.28252184 0.7014566 1.0680257 1.4555991 -0.739436 1.3208021 0.78111863 
0.5196389 0.58594644 0.56429744 -0.488908 0.89322174 0.055652827 -0.27071398 0.3496585 0.91935456 0.34882578 
-0.15201074 -0.28536898 -1.9126426 -0.9229527 0.3993363 -0.49894774 -0.25760078 -0.28236148 -1.5015436 -0.45322007 
-0.5914714 -0.9662203 1.2797966 0.09971069 -0.80456567 0.05625775 0.23884678 0.7620918 0.2972569 -0.7792068 
0.8672744 -0.56404036 -0.6039159 -0.35488552 -0.43035734 -0.94268155 -0.2101015 1.0275762 0.01945469 0.88922983 
0.35468173 -0.08786404 -0.24936883 -1.5718867 0.50219727 0.38477045 -0.3462211 0.8767772 -0.80025226 0.38969776 
1.6499913 1.6438732 -0.15853573 -0.30732143 -1.3367587 1.147313 -0.33540243 1.1752797 -1.7403841 1.3462965 
0.4094787 -1.244553 -0.061059665 -0.6641883 -0.8184052 1.401542 0.31083602 0.17561933 -0.58299935 -0.4343406 
1.1913431 -0.65407187 -1.0758846 -0.0242081 -0.03146022 -0.94054973 -0.5392214 0.3624557 -1.3994858 0.12661017 
-1.0862575 -1.1978897 -1.9035982 -0.24379802 -0.0071129203 1.2677368 -0.15664561 -0.85705173 -0.71462667 0.05852833 
-0.82078165 -0.11187669 0.79433227 0.5562219 -0.8057442 -0.21133414 0.63109356 0.5703611 0.56750244 -0.7250707 
0.18256183 0.020655995 1.0244792 1.1530317 -0.224532 -0.7601905 0.7155141 0.27586588 -0.18847035 -0.4590713 
0.80720055 -0.30871513 -0.21910465 0.9921719 -0.40601587 -0.84710085 0.79667944 -1.2321585 0.3839415 0.08932514 
0.7235664 -0.8849879 0.59694856 -0.9564281 0.29377893 0.5618553 -0.74187046 -0.39347118 -1.3644753 -1.4043461 
1.2096835 1.7664577 0.6437154 -0.35475004 -0.08056284 0.5472528 -0.61734504 -0.80937475 0.59043044 0.2698845 
-0.26657483 0.507562 0.5676441 1.3287196 0.3709137 -0.73046994 -0.6248696 0.54197776 0.3470881 -0.26240298 
-0.030651713 1.4530672 0.22628336 -0.54794395 -0.8887777 -0.5265747 0.8408145 -0.24830939 -0.5546872 0.3612702 
1.308118 0.106538326 0.19137701 1.2996178 0.052304216 -0.10997231 -1.3464766 0.40580994 -0.19296898 -0.6382713 
1.7582355 0.2499709 0.078373216 0.6606928 -0.34110263 -0.32276174 -0.3431895 0.40536574 -0.60703415 1.5004436 
-0.13877545 -1.5528909 1.4971452 1.302876 0.968362 0.08386384 0.65621287 -1.1127136 0.7957674 0.7243388 
0.5881452 -0.6721713 -0.5646434 0.1274543 -0.9229758 -0.36949214 -0.38153923 -0.58685374 -1.2956251 0.38602728 
0.7028257 -0.10936374 0.73707247 0.22242187 -0.82408315 0.94690984 -1.9719404 1.4302356 -0.42374307 -0.3608731 
-0.18550058 -1.3619741 -0.94366914 -1.037807 -0.6012098 -0.35520366 1.5845283 -0.48073387 1.0023626 -0.19004634 
1.2348288 -0.5735643 -0.6165809 -0.62961376 0.07927766 1.0437149 0.48326647 0.35430193 1.1332376 -1.3566804 
0.95944935 -0.064314716 0.03624175 0.39670488 -0.38174397 -0.1730941 -0.3256288 -1.228356 -0.3842583 -0.82125354 
0.33079812 -1.4318099 -0.9521959 0.2583376 0.82640713 -1.129627 0.82559454 -1.1781175 1.447134 -0.078089066 
1.227007 -0.39795694 1.5431515 0.26143786 -1.2251174 1.374462 -0.38378683 -0.35972208 1.2163608 -0.06447948 
0.68151295 0.7842078 -0.39498305 -0.223092 0.8932703 -0.52509636 1.5982131 0.6697644 0.72891665 0.79133105 
1.9393573 -0.64247125 1.2578952 0.38425365 1.0249791 -1.2334484 0.44546258 1.3974682 -0.18365641 -0.35759214 
-0.80393106 -0.048265673 -0.021023193 -0.3895533 -0.40332294 -0.22086468 -0.77472824 -0.1056203 0.08253401 0.3583773 
0.01346454 0.016105102 -0.14538188 0.008203512 0.0042420947 -0.006241593 -0.022413079 0.04268175 -0.002635212 -0.0109308185 
-0.117590256 0.53083724 0.32413322 0.06545404 0.3678876 -0.85995984 -0.5049671 0.39339614 -0.7726141 0.3196746 
-0.7583102 -0.03486335 -0.50579864 0.9915001 1.41293 -0.46663284 -0.83059716 -1.0782746 1.6858109 1.0614939 
1.0223325 -1.667852 0.13976124 0.5788024 -0.7852706 1.0415119 -0.11666193 0.7139026 -0.2374459 -0.14904809 
1.2263473 -0.73876166 0.018340489 -0.40589398 -0.9242519 -1.1188349 -0.3313801 -1.4677857 -0.557093 1.3485206 
-0.7405167 0.65379924 -1.4596524 0.25187045 -1.7144275 0.5259769 0.5733394 -0.29544392 -0.7619021 0.47896963 
0.13356932 0.40385875 -1.0500431 -0.10582821 -0.8818887 0.5320183 -0.1864274 1.1372609 -0.5275394 0.36276934 
0.4190061 -1.5450919 -1.1827927 0.33488798 1.3071535 -0.015393447 0.46591902 0.47277308 1.2329702 0.33095476 
-0.13149658 -0.16572525 1.1549554 -0.57438385 0.89315563 0.8662291 -0.7148825 0.43257442 -1.6470368 0.7627501 
0.164743 -0.0723567 -1.0074298 1.0124954 0.30333972 -1.4830854 -0.08326754 -1.0394517 -0.6735787 -1.0434384 
0.8905929 0.18554883 0.1649595 1.6628691 1.6270481 1.410837 -0.090605885 2.0463986 0.022188127 0.39787814 
-0.14192176 -0.011254637 0.17189364 0.0448188 0.4887278 -0.4836649 -0.286241 -1.4037797 -1.7874455 -0.7839482 
-1.2761891 -0.6048972 -0.39062262 0.812411 -0.08297916 -1.2214829 0.86519855 0.31517074 -1.1431173 0.12233357 
-0.49834704 -0.050474893 0.9536128 0.6212489 -0.23355702 0.8811795 0.5579899 0.39232227 0.3092469 1.1706617 
0.24577379 0.30602458 0.25393122 0.024275318 -0.22301953 0.58619905 0.9171025 -1.524531 0.042006176 -0.13751936 
1.5332347 0.09318106 -0.7590845 0.26988837 -0.018268377 -0.79911435 1.416527 0.836539 -0.72312 -0.09764169 
-1.4712628 1.2637779 -1.1814237 0.38537443 -1.2323506 0.24163824 -1.4640287 0.49236736 -1.0605043 0.46118292 
-0.6189691 0.8500141 0.37744367 -1.4906402 -0.59096473 -0.035411227 -0.015006239 -0.8794622 0.45712888 -1.7717235 
0.066814855 0.3897227 -1.1563479 -0.2325888 1.463546 0.3700381 0.722665 -0.053882413 -0.99648726 0.85900414 
0.18513419 -0.09084556 -0.33665496 -0.6457004 0.07394537 1.1680851 -0.86215794 -1.5245266 -0.9333508 0.15678436 
0.20850444 -0.4115589 -0.45316398 -1.3007877 -0.22413602 -0.48848778 -0.122698374 0.30528876 1.4692175 -1.059121 
0.7696379 -1.1561959 0.57259446 0.54039276 -0.83352405 -0.82955015 -0.041541614 -0.52225834 0.4247019 -0.35092586 
-0.179637 0.6066297 -0.34589583 -1.0519924 0.2191339 0.72348255 -0.8286924 1.3023684 -1.0896094 -1.5545038 
-0.06974753 0.00063358626 -0.005448868 -1.1387637 -0.26550338 -0.82284194 -0.00040005377 -0.070599236 0.00041749387 -0.119835526 
-0.29130057 -0.015039635 0.10206786 -0.12509897 -0.086741574 -0.7888112 0.0116115995 -0.6912219 -1.095344 0.9279475 
-0.12820688 -0.025548639 -0.2524239 0.6577282 0.80334413 0.12854253 -0.6137456 1.0170516 0.17154185 -1.2223984 
-1.5914158 1.2144912 -0.11394419 0.12820742 1.9462118 1.3419769 -0.25632405 -0.80813175 1.2413938 0.022351488 
1.3061812 1.2541499 -0.08580085 1.1618047 -0.18253763 -1.235424 0.025627766 -0.53191346 0.708297 1.2627791 
-0.38138893 1.097328 1.1713779 -0.919901 -0.05313032 1.8519937 -0.61732227 -1.2113475 -0.9946714 0.009902067 
-1.4910529 0.09575446 0.6194453 0.489041 -1.7178066 0.43987653 0.46265182 1.2346915 -0.19504751 -0.95941037 
-0.2775176 0.5968654 1.0609188 1.7008525 0.25265208 -0.2631229 -0.75898236 -0.37517995 0.15027022 -0.71425086 
0.7203212 0.43819657 -0.4974397 -0.37388128 0.84753215 0.7097804 0.7070608 0.70425665 0.7728226 0.64426374 
-0.056935452 1.1369698 -1.0732225 -0.23695026 0.030243821 -0.9361659 0.56642854 0.06237578 1.6679634 -0.27439672 
0.26446527 -0.23588426 1.6142232 -0.4459888 0.20461442 -0.69151264 -0.5751265 0.92048687 -0.33700606 -0.46986932 
0.358852 -0.15882023 -0.17083833 -0.6034014 -0.7077254 -1.0662043 -0.39986998 0.70097977 0.33522546 0.34542346 
-1.0948501 -0.28585002 1.4048543 0.17300543 -0.37027985 -0.58508414 0.13527608 -0.04216271 0.8998424 0.7598144 
-0.3708788 -0.8287761 0.87089854 0.85994935 0.16251116 0.26863873 1.5096065 -0.5923651 0.0923779 0.2076129 
1.0601796 0.049754158 0.8783744 0.057687595 -0.4065586 1.0036573 0.902348 -0.69719005 -1.062594 0.31180793 
-0.703282 0.33530456 0.7164452 0.015833262 0.1918988 0.75231534 0.030685715 0.354604 0.8011024 0.99317837 
8.112311e-32 0.0021154531 0.2968445 0.21178389 0.080569565 -0.021019435 0.05828974 0.0168585 1.2837777 -0.0658388 
0.056002382 0.24136037 1.0292344 -0.18253614 -0.24968947 -0.16359821 1.400116 -0.5427114 -0.122771144 -0.118117824 
-0.3319351 -1.4244207 0.06368842 0.541585 -0.25304487 0.8553814 0.7677625 -0.9787547 0.7059718 -0.8871298 
1.6908424 -1.6968241 -0.10859404 0.078276545 -1.7360619 0.7616178 -0.042287733 -0.25331336 -0.18641661 -0.038511295 
1.1532303 0.43038583 0.8945758 -1.9088832 0.81550413 0.24618806 1.3327234 0.5579144 0.61985415 0.52664083 
1.2263751 0.060699213 -0.057835687 -0.56080496 0.4835407 0.33939347 -1.1957791 0.06310565 -0.86709976 0.64498794 
0.56171834 -0.58001095 -0.6896612 -0.712374 0.11450835 0.11916854 -0.6937865 -0.5088128 -0.1538432 -0.09144546 
-0.9018317 -0.27724683 0.4831941 -0.9001784 -0.38292894 0.9437555 -1.3875678 1.1861292 1.2928486 -0.15029697 
0.98990184 -1.4799552 -1.9198215 0.087941125 -0.3225815 -0.22619666 0.21890591 -1.5819538 -0.096656114 0.99933594 
0.6320576 1.3650925 -0.41955435 -0.3034335 0.963819 1.673005 -1.778217 -0.5549305 0.6110866 -0.1916167 
-0.60354686 0.2985784 0.4149223 -0.23629694 0.9412244 1.0678352 -0.39816457 -1.6597309 -0.42211238 0.065007485 
0.00019828856 0.3153282 6.1093474e-32 0.9059104 0.15310355 0.23872496 9.016511e-09 -0.11482855 -0.0038420793 0.6817659 
-0.05334446 1.6572407 0.34028965 -0.51152015 0.34226885 -1.0374248 -0.94052875 0.16891186 0.013515761 0.05896244 
-0.60539776 -0.03086149 -0.7815585 -0.7918755 -0.64420205 0.45691067 -0.026776928 0.21107678 0.51389235 0.91058755 
-0.006532596 0.97884166 1.6301771 0.052871376 -0.94964886 -0.32659292 1.0904845 0.25162804 0.15809688 -1.8908535 
-0.61249614 0.92633176 -1.4326905 0.07332766 -0.036890503 0.67811847 0.79253167 1.2848486 0.80251616 -0.16783577 
0.0142631885 0.40608665 1.1771755 0.046048515 -0.316383 -1.0701963 -0.5277881 1.0098263 0.8846712 -1.5747895 
-1.2030174 1.2402991 -0.04228305 0.9375705 -0.2605543 -0.44555235 1.1783115 -1.0294756 -1.3190151 1.149509 
1.4100022 -0.7630649 1.0785148 -0.017518846 0.21919598 0.94364357 0.76757616 -0.01598044 -0.26958218 1.1339054 
0.1756564 0.27720428 0.35940906 0.07793715 0.17703149 -1.2900739 0.523571 0.41808003 -0.2929604 0.42873147 
-0.25228465 -0.3629766 0.27901772 0.036864206 -1.9193832 -0.5175968 0.8111414 0.27509508 0.413521 0.38278937 
-1.5700672 -0.38099834 0.46850872 0.93073606 1.1272852 0.62926763 0.020071555 0.17494208 -0.64974344 0.7819251 
-0.9434857 1.1652726 -0.87107444 -0.90291834 -0.953242 0.08125436 -1.4342211 0.33643177 -0.52259195 -0.91193926 
-0.11181684 0.22661734 0.16809994 -0.4857345 0.33697224 -1.2128247 -0.33605677 0.71158135 -1.5083609 -0.33946517 
-0.069977105 0.21846579 -1.3157887 0.13265003 0.12605941 -0.101568006 -0.47777966 -0.43466383 -0.24722707 1.365058 
1.3637269 -0.18802567 -1.18192 -1.8158717 0.370765 0.48566216 -0.77548516 -0.64487815 -1.6302437 0.003442653 
1.2416879 0.79515886 -1.3691128 0.21220165 -1.6710565 -0.86773443 -0.8255088 0.2663824 -1.6608564 -0.4149065 
0.11551514 0.39057377 0.9216691 0.96907955 1.574725 1.652113 0.40887398 -0.3260992 -0.1944712 -0.617359 
0.08871917 -0.43466294 0.5274255 0.47437653 -0.042643175 -0.33086684 1.0617801 -1.218027 1.2058996 -0.098315164 
0.106812604 -0.076139115 -0.007390368 -0.69485444 -0.21122363 0.0036559186 -1.3005016 -0.071748815 -0.1314512 0.024519114 
-0.5218623 -1.6204469 -0.7525156 0.68921584 0.6062464 -0.72944677 0.69710344 -0.7752532 1.3187883 1.051973 
-1.8500919 0.6176001 -1.7161998 0.6714569 -0.6403264 0.8464212 -1.7727153 -0.2619886 -0.327842 1.0803121 
0.17235398 -0.9607709 -0.3701772 1.0361816 -0.5007897 0.6821983 -0.918321 -1.7500422 0.46509668 -0.58048123 
-0.44217157 -1.1080271 0.055318903 0.52619517 0.6294003 -0.96676314 0.77916557 -0.74828273 0.048090916 -0.6585655 
-1.6936544 -1.7064784 0.32721043 -0.58032626 1.057783 1.0325031 0.56830716 -1.8779402 -1.1426542 -1.8785218 
0.5156058 -0.08194885 -0.5041848 1.1787531 0.8618035 0.013948871 -0.39297035 0.29778048 1.5997663 -0.12934598 
-0.23202835 0.83692634 0.0973801 -1.1951389 0.36012334 0.048172254 0.8871247 -1.3929292 -0.12786901 -0.12803529 
-1.0216769 -1.1546533 -0.31662944 0.4598348 0.5341792 -0.21720588 -0.15754716 -0.62195903 0.2827706 0.23833962 
0.10244755 0.23634613 0.5131248 0.039535355 -1.2905378 -0.5634387 0.51080006 1.6255357 -0.050644763 -0.55764157 
0.6551517 0.58171207 -1.4819084 0.014973113 0.06982675 -0.37288257 1.7913259 0.29580775 1.41859 -1.2257168 
0.12780225 -1.1588527 -1.2571164 -0.4824124 -0.7700129 -0.8185595 0.6273062 1.5576946 0.43539697 -1.4547175 
0.04988972 -0.8846337 0.51388335 -0.6037146 0.42417136 -0.020781446 -0.58838713 -1.1720107 -0.7387225 0.37028643 
-0.41420352 0.69176614 0.28739625 0.34490597 -0.06316567 -0.034708917 0.90372354 -0.82414514 -0.39145193 0.8240064 
1.0951087 1.0493189 -0.4337672 -0.48365933 0.8655204 0.31876978 0.35732105 -0.2131121 0.37285945 -0.6313343 
-0.040832236 -0.8431708 1.0677842 0.6351852 0.022397436 -1.0215802 -0.021489486 -0.23140077 0.32654753 -1.3453387 
-0.085585 0.33284745 -1.4385582 -1.4697556 0.6397764 0.013753546 -0.33596095 0.5697372 -0.29072088 0.41860974 
-0.34566048 1.5552709 1.0034565 0.8673949 0.02707372 -0.29518205 0.49261004 -0.48793665 0.91936547 -0.08366497 
0.79080117 0.030378755 1.5958145 1.3771669 -0.5850401 0.20687774 -0.007528285 1.6690769 -0.18995048 0.93375266 
-0.42525548 0.4728045 1.4372348 1.0082366 0.3352147 0.5082511 0.5344647 -0.30263707 0.2941853 -1.0282059 
1.8951877 0.45282015 0.43446606 -0.093896605 0.084940396 0.6403491 -0.7173485 1.4162006 -0.2960979 -0.38366625 
0.36276454 -0.302293 0.6380988 -0.9273597 0.679072 -0.30554014 -0.15257029 0.4825376 -0.5362819 -0.2554006 
0.9052897 -0.046441484 0.13423651 -0.22137843 -0.70152766 -0.57265157 0.23803408 1.1116253 -0.6196445 -0.9233334 
1.3298278e-32 -0.00010468331 -0.00019299192 -2.3005031e-32 -0.0007348509 -1.7038422e-32 0.00092053914 -6.686924e-32 1.798175e-05 -1.5229778e-21 
-1.0658119 -0.5035853 1.2173902 -0.7835385 0.52742624 -0.58974534 1.5448122 -0.37075186 0.10085011 1.6956346 
-0.31023923 -1.4538046 0.5134705 0.9959123 -0.5051812 -0.14274018 -0.07283103 0.10697485 1.0392405 0.108004235 
0.07238237 0.9450651 0.3260403 -0.19184881 0.40788132 0.953302 0.4202804 -0.84070486 -0.030853502 0.058602825 
1.5609069e-06 0.00024210918 -0.057666022 -0.51446253 0.04005107 -0.7769032 -0.014097511 0.005092596 0.017792538 -0.0048253224 
0.48351312 -0.079126075 1.1940091 0.5532045 -0.051714957 -0.037267033 -0.268984 -0.110051565 0.12976348 -0.85744554 
-1.5318555 0.57413477 0.3079311 0.4426957 -1.5019797 0.7018819 -0.2298864 1.1264043 0.9787902 0.54978305 
0.66441673 0.7431967 -0.04308238 0.5091754 -1.0545293 -0.74889576 0.035231832 0.96023965 0.910179 0.4920037 
0.351096 0.65356505 -0.26058674 0.34031066 -0.31563818 0.7726254 -0.62422776 -0.02224234 -0.054885782 -0.18484029 
0.8032811 0.31838402 0.06553265 -0.06637089 -0.59281725 -0.056700546 0.15422902 -0.9142362 1.4582567 -1.1189635 
1.5745646 0.100918196 -1.128434 0.66612935 -0.5026277 0.55318 0.19473295 0.49529952 -0.5563735 -1.0713106 
-0.24197398 -0.49451092 -0.649969 -0.42478612 1.1378459 0.25225332 0.1951047 0.4250638 0.21260568 -0.35907328 
-1.7722386 0.5428025 1.3404589 0.63878316 -0.33633167 -0.007839231 0.6571016 1.5602523 -0.012348616 -1.315443 
0.7918367 -1.8245186 -1.0219964 0.57012874 1.1445199 0.29190907 -0.4491812 0.4973122 0.46146244 0.7003537 
-1.7295631 -1.1194931 1.27102 0.39738327 -0.36837423 1.0624313 0.524127 0.70732456 -0.22274749 0.92531073 
1.6728173 -0.81242913 -0.94369555 0.00046682882 -0.7422604 0.20631176 -1.2004652 0.240526 -0.26501685 0.3390618 
-1.2167412 0.92882466 -0.23350972 -0.088819355 -1.1643041 1.1208025 0.45488268 -0.82288575 0.025500812 -0.46309584 
-0.3494002 -0.0041181413 -1.2160293 -0.28639185 -1.8594316 0.8824544 0.24717647 -0.039948504 -0.96811706 0.49788982 
0.05196138 0.016472919 -0.011856342 0.027359854 -0.015590876 -0.05112671 0.018635767 0.047969695 -0.023508878 -0.049485847 
-0.41236764 0.04421289 -0.6074445 -0.74385494 0.24286476 1.5099603 -0.77114934 0.689806 0.59814644 1.2333937 
-1.1829026 1.0204072 0.19167806 -0.78229374 0.004349433 0.09789884 -1.1711355 -0.73346394 -0.97548854 0.5925842 
1.2170967 1.0075418 -1.0504332 -0.67367035 -1.1747257 0.6714433 0.295657 -0.601657 -0.5216003 1.0366572 
-1.1336691 -0.52537906 0.8313983 1.4047652 1.2220299 -0.038109366 -0.7067916 -1.2147299 -0.8617665 0.7649243 
0.3087112 -0.6443208 -1.3633116 -0.91954064 -1.05876 -0.26066458 0.05936916 -0.3678711 0.2792086 -0.3629882 
-0.57631034 -0.4976843 -0.9521971 -0.5167744 -0.031771045 0.9740652 -1.1301332 -0.76935124 0.7026461 -0.69232035 
0.9898269 -0.04371151 0.42770103 -1.4315684 -1.5649273 -1.0301062 -1.1820086 -0.32436192 0.6584043 0.10428105 
-0.7150227 0.037832174 0.858459 -1.2949314 0.4439465 0.89255214 1.2479005 1.6047033 -0.20591156 -0.76043564 
-1.2415318 1.5173717 0.82592046 0.9339141 -0.44684562 0.7139223 1.4001528 -0.28828913 -0.1867241 -1.5373933 
0.11455695 -0.5843065 1.6817151 0.2252434 -0.43544105 0.29820174 1.4118626 0.37369505 -0.4081319 0.27091166 
-1.1912193 0.13911328 -0.8852181 0.7262578 -0.6622196 -1.6929998 -0.5081434 -1.3532007 0.47369292 -0.79836076 
0.6944984 -0.33242095 -0.357088 1.7527356 0.72682834 -1.6938583 -0.63520914 0.64248794 0.14326343 -0.20979126 
0.6660299 0.77741456 0.61795723 0.4630137 -0.8754587 -0.5524205 -0.14866446 -0.5440187 -1.0000209 -1.6281923 
0.915133 0.17574318 -0.16810669 0.27952874 -1.3453424 -0.75893867 1.018751 -1.1413449 -1.2852858 -0.36883932 
0.65284723 0.29671237 0.47264948 0.78692263 1.6824728 -0.8022142 0.76453626 0.65169656 0.20507996 1.4073089 
-0.24844795 -1.6156695 -1.1086396 0.9471955 -1.8213146 1.5442164 1.0294081 -1.4150665 -0.7423036 -0.30343816 
0.51597726 0.94752514 1.5946892 -0.5740403 0.91128516 1.3083098 0.54642946 1.4190592 -1.8551636 1.0938458 
1.0607983 0.73580223 1.772906 1.262376 0.66923964 1.158648 -0.929693 -0.03746816 1.8126019 0.5843545 
-0.42597625 1.4856458 0.51217216 -0.7493399 1.1090926 -1.8822229 1.1690464 -0.20477399 0.034355436 -0.4340721 
-0.57383615 0.64205164 0.022039255 -0.2255526 -0.61001706 -1.7305362 -0.5909111 -0.22174558 -0.4729045 0.3586608 
0.075301394 -0.070187986 -0.95578545 0.99793184 0.3227986 -0.10397225 -0.8443342 0.31372815 -0.0151136955 0.9882512 
1.062256 -0.28843948 -0.57631695 -1.0571502 1.0746696 0.4440989 -1.1418935 0.94979125 0.8093058 -0.009342615 
0.7902931 0.1354471 0.28250223 1.189137 -0.5706723 -0.7654711 0.69620126 0.58850294 -0.8888672 -0.20525591 
0.698478 -0.9020527 -1.8891579 1.0148755 1.2720003 -0.116309784 -0.009444515 0.39649406 -0.48661444 0.3065609 
-0.63287276 -1.2645969 -1.0368292 -1.2109914 -0.3961353 -0.41331804 -0.11775681 -0.9997832 0.49357635 -0.22632584 
0.3373499 1.2915019 0.4155152 0.1921142 1.5364591 -0.04200902 -1.1742545 -0.046959527 0.4543169 0.86049706 
-0.5654207 -0.23548998 -1.3340443 0.9119298 1.0770061 -1.2925687 0.57029784 -0.45721823 -0.8191495 -0.42015186 
-1.0093771 -0.7923553 -0.31765473 0.50458497 -0.38696447 -0.28424555 -0.5535227 0.076251835 -0.14742279 -0.16617864 
-0.0037517669 0.014954151 -0.0091093825 -0.078706704 -0.01577513 0.031230327 0.0411456 -0.0194406 -0.019638045 0.024792753 
-0.13088872 -1.3292826 -0.7959021 0.49218547 -0.9181653 0.3484846 0.23800631 0.7323052 -0.6758327 0.3367497 
0.97461385 0.0041163918 0.716883 -0.093454175 -0.66219807 -1.1235873 1.3513402 -0.5498096 -0.24276222 -0.30995893 
0.54225326 0.3892009 0.4406601 -0.851744 1.5880432 -0.46546137 0.45636535 -0.6924853 -0.18605134 0.787719 
-0.7133834 0.4695226 0.1019122 0.019711593 -0.31352863 1.6346698 1.5495975 0.8556525 -1.3977348 -0.8008032 
0.30968603 0.23078814 -1.5699146 -0.65142864 0.5626113 0.15522419 -0.031300124 -0.50430095 -0.39322552 -0.68559885 
-0.24845032 -0.6733151 -1.0587925 0.8494012 0.3466239 1.1560599 -0.640657 0.086198844 -0.6001156 -0.5522185 
-0.4540781 0.1143311 0.73515236 0.71091115 -0.5624022 0.32785654 -0.35000497 -0.8036076 0.9948393 -0.82367295 
1.0031782 0.053017955 -0.46557975 0.5612169 0.76793605 -1.2170446 -0.1556778 1.5177056 -0.17389892 1.813285 
0.1805233 -0.53745806 -0.32584134 -1.2161044 1.0429559 0.3090306 -0.15891469 0.77648705 1.6283346 -1.4594835 
0.10065454 -0.84020674 0.0022777221 3.3519514e-06 0.58282954 -0.082776114 -1.1133982 0.11360544 -0.557615 0.16539462 
-1.8364905 -1.1058928 -0.5226495 1.278972 0.14381461 -0.80705273 -0.739877 1.8135635 0.33524895 -0.4374073 
-1.4136871 -0.4499307 0.12615721 1.2306218 0.5170872 -0.5729271 -0.20825027 -0.96853524 0.8961543 0.52816933 
-0.9667805 -1.3369313 0.6852158 -0.6469388 -0.49537268 0.04566512 -0.95203775 0.7968382 0.8955435 0.38986868 
-0.13005482 -0.5480091 0.13859242 0.10279454 -1.4452125 -0.22822508 -1.1759628 0.62780565 -0.86854017 0.2712731 
1.418828 -1.7607565 -0.33400583 0.10819017 -0.69503 0.015292698 0.22070707 0.22972293 -0.52909 0.082901955 
-0.222044 0.090367936 0.21780533 -0.54888296 -0.21688803 0.13366352 -0.87620753 -0.5187056 -1.1664625 1.5959089 
-0.7324543 0.7844355 0.9409138 0.11475334 0.06781486 1.1258223 -1.8680634 0.427786 -1.1157017 0.055992335 
0.419036 -0.7866569 -0.7257993 0.5315251 -0.05659593 -0.052105673 -0.12356768 0.11942902 -0.6548611 -0.0074934335 
-0.93246627 0.38582286 -0.12076884 -0.9513687 0.15829824 0.2648769 -0.29296213 0.75619495 0.4262691 -0.15437146 
-1.0160605 -0.30657536 -0.8052906 -0.27930227 -1.4870096 -0.9762107 0.6641509 -0.4329498 -0.5361079 0.39037797 
0.8687772 0.6504821 0.9608428 1.0786482 0.1831474 -0.21078606 0.3889662 -0.9406878 -0.7196891 0.4321436 
-0.24163902 -0.4558373 -0.103805274 0.64134175 -0.049043793 -1.929248 -0.11996988 -0.19153243 -0.77380425 0.8816096 
0.9813326 1.2027072 1.6462855 0.16633098 0.14743492 -0.47067738 1.0200242 -0.4837137 1.3818257 1.391646 
0.9455358 -0.46588066 -1.459947 1.4989467 1.4746983 1.1557897 -1.2569549 1.152543 -1.2131697 1.3112249 
-1.8901451 -1.1231941 -0.050597783 -1.8115954 -0.19259776 0.09902344 0.25357985 -1.2596092 -0.49556914 -1.2216206 
0.7911236 0.16040999 0.5741709 -1.1318693 -0.320132 -0.94746894 -0.45747188 0.04878946 0.30271968 1.0476835 
1.2790326 0.20262659 1.013739 -0.8593064 0.21065772 1.0711107 -0.11528939 -0.79127514 -0.12281027 0.31745622 
-0.1595243 -0.6945347 0.13539784 -0.28703114 0.1455581 -0.028129706 -0.10492017 -0.026597003 -0.3965133 0.46391666 
-0.4622153 0.89697343 -1.0377477 0.5983436 0.23422985 0.6551483 -1.795624 -1.0035174 -0.4329623 1.0583147 
1.7320688 -0.080218405 -0.5517126 0.1704257 0.80305 0.29423892 0.12963928 -0.54882014 -1.1694287 -0.82819504 
-1.003046 -1.7321005 0.1913841 -0.37164557 1.6572655 -0.98295933 0.3000655 1.4439104 -1.2501565 -1.851744 
0.6505216 0.508014 -0.5916091 -1.0131804 0.01008939 0.6385406 0.2928363 0.9868193 -0.6043957 0.15934204 
-1.2301776 1.4648132 1.1452163 1.8767545 0.5514357 -0.18857023 -0.007054694 -1.4925911 1.1094897 -0.4066707 
0.31966826 -1.2483732 -0.2354579 0.50063366 -1.6376745 -0.32436138 -0.97867507 0.2883346 1.1388083 -0.8947049 
-0.3413663 0.035276417 0.7109461 0.26517224 0.5533827 -0.7886157 -1.3970467 0.34993073 0.21439664 0.6143587 
-0.52858704 0.22662196 -0.098624125 -0.5919438 -1.6503661 -1.0595772 1.147144 -0.62883073 0.22832435 -0.7793805 
-0.36944342 0.19991356 0.5979708 -0.007406953 0.8065979 -1.469171 0.36067504 1.7904514 -0.14633563 -0.5310152 
1.7078873 0.3801117 0.82504845 1.2783915 -1.5449281 -1.0012017 -1.2458751 -0.24070358 0.021902857 0.12565672 
0.16395858 -0.85290307 -0.5619021 -0.7595016 1.0688765 0.69808054 -1.6063403 -0.48197442 0.814958 0.28112307 
-1.5300906 -0.23041716 1.1765958 -0.036298398 0.77926403 -1.2650957 -1.0513268 1.422136 -0.76062477 0.4319614 
0.7689543 0.17671053 0.78666264 -0.17390226 -0.72541565 0.30585527 -0.3349334 -0.19890997 -1.6668184 -0.304232 
-1.7920126 0.39343968 0.32103977 -0.4537369 0.5955807 -0.48236793 -0.540315 0.2357301 -0.03293561 0.80776423 
0.41398272 -1.0065713 -0.15337081 1.234188 1.860215 -0.42296544 0.5586993 -1.1866853 0.05741573 -1.4549729 
-0.35475236 -0.1620862 -0.5604376 0.5952432 -0.21129861 0.20818436 -0.26549882 -0.92439604 1.0180254 -1.0526187 
0.36254987 -0.30399776 -0.54972947 -0.8357768 0.72106934 -0.25292078 1.170121 -0.037281837 -0.7433703 1.2060641 
-1.2116961 -0.37396562 0.62973636 0.15267013 0.21650265 -0.27286202 1.04232 -0.60385925 -0.82221806 0.39057723 
0.82505316 1.5457245 -1.37654 1.0070311 1.6851683 -0.6085785 0.49217007 1.1769003 0.6302974 0.09161265 
0.3039877 -0.45345736 0.78446954 -0.5709199 -1.010134 1.6915752 -1.0371587 1.3021371 0.80692446 -0.44934285 
-0.016926708 0.033018854 0.020753298 -0.8310801 -0.03438661 -0.18372492 -0.9187795 -0.07081005 -0.3450351 0.61519724 
0.668854 0.698939 0.939404 0.8961329 -1.2454708 1.7177502 0.4745515 0.36406496 -0.11889408 -0.040577415 
0.9771416 -0.7652866 0.14357217 -1.0033985 0.009390958 -0.6885409 -0.18325979 0.04559296 -0.2263929 1.0982856 
-1.1964638 -1.3470283 0.051654536 -1.1449773 0.6518375 -0.017423859 0.058422204 -0.4131721 -1.0635719 0.2766082 
1.6148381 -0.334651 1.6026607 1.5956737 -0.7483224 -0.76584125 -0.7214474 -0.4146498 -0.4786166 0.02841199 
-1.4141957 -0.2852405 0.6160479 -0.13289462 -0.605228 -0.27640873 -0.83324146 0.55855024 -0.48866296 0.3324098 
-1.3167266 0.63142335 -0.2816983 -0.27418792 -0.345883 0.49185744 -0.017599666 0.1740607 0.10828451 -0.9701734 
-0.64032733 0.37752816 0.77843404 -0.396516 -1.6561464 0.07528654 1.1967062 -0.076000065 0.3218719 0.1596603 
0.30244598 -0.7353231 -0.20333622 0.4519469 -0.16681366 0.70348775 -0.36513644 0.53716344 -1.6753975 1.0087221 
-1.1593071 -0.07695365 -1.5292616 -1.8079888 -1.1168244 -1.0573548 -0.74566734 -0.50160086 -0.16718039 0.5269491 
-2.1429375e-31 -3.5772923e-32 4.2467734e-32 -1.3738745e-05 -5.9380644e-32 -3.5919184e-05 2.2102686e-31 -2.6948163e-31 1.8207283e-32 -1.3656596e-22 
-0.57333946 0.088804625 0.39573002 1.2755865 1.2013364 1.4465497 -0.78869283 0.27481088 -1.1480558 0.37933162 
-0.97801256 0.65227437 -0.36043087 -1.8732576 -0.10340185 -0.73344404 0.04004776 0.5409034 0.4469109 -1.643258 
1.1110691 -0.0106977 0.33393553 -0.34533152 0.52105623 1.4249245 0.15534286 0.8577255 -0.024180066 0.2664274 
0.802556 -1.0204241 0.4753482 -0.77995884 -0.46156287 -0.2697675 -0.92061025 -0.6930755 0.5283427 -0.25394958 
-1.4062891 -0.57753944 -0.2440015 -1.1695068 0.5692746 0.018576378 -0.48859778 -1.8096174 -0.7915239 -0.8493834 
-0.840958 -0.38714802 0.05737156 0.5714951 0.13597265 -0.26760846 -1.4618748 1.3112011 -1.1035398 -0.43288785 
0.6566382 1.307788 -0.36563206 1.4846492 0.73075736 -1.1423248 -0.42747477 -0.30350307 -1.7459921 0.030240886 
0.013176197 0.73581594 0.6459742 1.0354854 0.3297406 0.3428157 0.011127849 -0.018458528 -0.63639104 -0.75487417 
0.18002385 0.5390199 -0.11606259 1.0219886 -0.37205398 -0.14003365 0.08037383 0.31202596 -0.023043841 -0.39603767 
-0.6811321 -0.31598946 0.54866856 -0.77897215 0.71856195 -0.58572215 0.32104596 -0.7867088 0.05522602 -0.10052443 
0.97145385 0.5851579 -0.8925068 0.94135547 -0.96456325 1.479328 -0.29865897 -0.18973997 -0.9034074 0.9979432 
-1.0121475 -0.8909786 0.9100275 -0.013448557 -0.5043073 0.2518647 1.3316396 -1.7150937 1.3938439 0.66125894 
0.2646389 0.33061302 -0.63090056 -1.4922783 0.16496068 -0.24015532 -0.3053473 1.1244287 -1.3244514 -1.1841989 
-1.0969664 0.73964375 0.057053257 0.37181795 -0.19958484 0.51796055 0.7154279 0.18725048 -0.5827603 -1.1694192 
-0.527555 -1.35914 -0.022546006 -1.3112793 0.46816233 -0.5789549 0.076756895 0.8149058 1.2430925 -0.78183454 
-0.3260379 -1.0084461 1.6006851 -0.081560396 0.83977526 -1.3843187 1.1989137 -0.26421875 -0.69197285 -1.0139875 
-0.09388037 -3.913441e-32 -6.7707294e-31 -0.0021052845 -5.722713e-32 6.213818e-32 0.0013147903 0.0013997997 -0.014856747 -0.28404972 
-0.15027413 -0.013350658 -0.023076793 -0.81817794 0.05311823 0.092349954 0.010794774 0.043711334 -0.014262621 0.059375152 
0.7923133 0.4681381 -0.74624765 0.4830934 -0.66974974 -0.41148272 -0.19528675 0.2857618 0.045303136 0.86627316 
0.80594283 0.43801647 -0.030217357 0.39922038 -0.54429233 -1.7642052 0.047762606 0.5449345 0.6353694 -1.1835582 
-0.17717177 0.29594252 1.7974019 -0.38571787 0.3693219 -0.13159828 0.70065475 -0.43074146 -0.3210867 1.1779244 
-1.3982824 -0.17425309 0.67948323 1.2994196 0.5546865 -0.6321554 0.2779712 -0.36188966 0.07206323 -0.42211196 
0.08071427 -0.14337909 -1.2546465 -0.98204243 0.39137593 -0.98226684 0.86247224 -0.047242064 -1.3437325 0.49103892 
-2.561691e-31 0.00075283844 1.8702425e-05 -1.6963997e-32 2.821302e-26 -2.8233202e-26 -4.7195854e-32 -5.726596e-32 -5.757622e-08 -1.9362083e-32 
0.6104739 -0.5562246 1.7088732 1.3634728 -1.7288959 -0.94916165 -0.021696858 1.31498 -0.32553536 -1.7078445 
-0.14799531 -1.2077049 -0.4029657 -0.6653965 -0.71767634 -0.9861409 -1.2480891 0.54226196 -0.17672943 1.2736766 
-0.10959059 0.38597187 -0.053852595 0.515621 -0.9389664 1.1803102 -0.6386007 0.9611157 0.35203034 0.7550196 
1.9729285e-05 -0.033090904 0.0030666622 -0.027179774 0.024444127 -0.01260856 0.0012770757 0.007233891 0.015103383 0.017128201 
-0.4260855 -0.72842366 0.59648687 0.18702433 -0.72000587 0.40360588 0.02754018 1.8086678 -1.4166818 -1.9023008 
-0.619418 0.03504829 -0.77331823 0.62553483 -1.4575512 0.6419829 -0.4478874 -1.8295203 0.13525034 0.30864066 
-6.807881e-32 -2.3385983e-31 -7.179502e-06 0.00037429118 1.671315e-24 -0.00015937025 4.841505e-06 4.869828e-12 -0.0003033376 -1.6712768e-24 
-1.1828071 0.35444734 -0.3619024 0.39099562 -0.86568636 0.035255473 -1.217362 -1.4935073 -0.060722835 -1.6428952 
0.65739924 0.4649658 0.59348136 -1.6173403 0.028299745 1.4360709 -0.26559997 -1.1845167 -0.09756606 0.48469442 
-0.26082054 -1.3214546 0.7138637 -0.5139358 -0.25310072 0.89093333 0.27443415 0.2061314 0.6371558 -0.5387261 
-1.1303179 0.6865175 0.13586698 -1.2379074 0.71615547 1.4261589 -0.6043103 -1.2353816 -0.14992747 0.8527153 
-0.5890842 1.3093977 -1.9507866 0.70320964 0.6571553 -0.31900194 -0.6406199 -1.4921974 0.054767456 0.2717454 
-0.26054752 0.5917722 -1.5472946 0.69464326 -0.5459724 0.4680437 -1.2267598 0.2696119 -0.5177428 0.5911337 
0.24540469 -0.6752347 1.0544025 -0.41246662 1.7218189 0.45207223 0.24012037 -1.0146738 -1.3230906 0.9537416 
0.41605017 0.11641989 -0.44725585 0.4697605 0.19879797 0.5846686 -0.07519499 0.0678775 0.33300528 1.0499909 
-0.6577915 -0.7673137 -0.086713836 0.12475904 0.9319371 0.052803062 1.3912942 -0.13233396 -0.9311172 -1.2166826 
-1.0188527 0.1237676 0.10766323 0.02274706 -1.2244666 0.2798724 -0.208073 0.75792193 -1.1467321 -0.5791981 
1.203035 0.9757425 1.1478736 0.2102884 -0.3684845 -0.37523794 0.40107352 -0.6732398 0.179007 1.2121842 
-1.5049909 0.27748302 0.67682356 0.016476352 1.0646517 -0.86332434 -0.33141088 -0.66928923 0.38272208 0.33162507 
-0.35891467 -0.9377084 -0.29382688 0.91277957 0.39387634 0.12979667 -0.973757 0.07073658 -0.019981675 0.05915384 
0.085958526 -0.76579577 0.11803655 -0.17328165 0.4371471 1.3067094 -1.8828491 0.7693693 -0.14585255 1.443216 
1.0511096 0.28252795 1.9020032 1.0038707 -1.1092689 0.981578 -0.69778746 0.11296431 1.0114894 1.0353203 
-0.67163503 -0.7736524 0.77120554 1.0424471 -1.0720927 -0.52891445 -0.24564987 1.2506275 -1.1810042 0.19590868 
0.009969788 -0.008592911 -0.8119383 1.3321395 -0.03949463 0.00084145035 -0.00486216 0.75906247 0.03343356 0.5474806 
-1.5621796 -0.51606584 1.0519783 0.39492965 -1.7597443 0.19361456 -0.43875206 0.7536488 -0.10785096 -0.28675756 
-0.011145176 0.29462987 0.3799168 0.6759702 0.7937986 1.0546999 -1.599763 0.4369122 0.54127765 1.1099952 
0.19601743 -0.19468322 -0.013096769 -1.5152766 -0.14998154 1.037342 0.9429675 -0.8384747 0.24035184 -0.6194432 
-0.71487963 -1.5122213 1.4162961 0.31221443 0.70403045 -1.482862 -0.4287642 0.3388475 0.37786287 0.6181899 
-1.0010064 1.1567016 0.5628286 -1.3424363 -0.7854477 0.9073921 -1.8891776 0.82959706 0.05033455 -0.65312374 
1.7424954 -0.120982885 1.1935141 0.43283817 0.6890059 0.40488434 0.45284048 0.44350937 0.7782013 0.007714003 
0.96118915 0.90821135 0.66574013 -0.5152856 -0.97844565 0.6336732 0.7985467 0.2391185 0.86779696 -0.91906977 
0.62286204 1.7485394 -0.15855643 -1.0203397 -0.3664774 0.5644914 0.014509305 1.0155807 1.0345452 -0.54549396 
-0.08805522 -0.6998118 -0.23721085 0.5148128 -0.7479894 -0.15773538 -0.08118254 -0.6475258 -0.04658892 0.32633346 
0.9937829 -0.019442385 0.4304003 0.13800819 -0.22783881 0.31935206 0.71130514 1.6789627 -1.1306059 -0.11490411 
-0.609351 1.2558309 -1.3418419 0.53485805 -0.04118364 0.093092605 -1.4580185 0.6790433 -1.0735146 0.126983 
0.08612752 -0.15244254 0.90624696 0.79744446 -0.3746037 0.056561306 0.56841993 -0.092254445 -0.8132665 -1.8119488 
-0.5154315 -0.9581826 -1.4059693 0.89644104 -1.0791007 -0.23252757 -0.8723148 -1.8214532 0.50649893 1.0362742 
0.635356 0.6876992 -1.2547238 1.4441277 -1.2474905 0.058608677 -0.6981086 0.25723 0.93847936 -1.0954275 
-0.45599845 -1.1885787 0.29179093 0.70171887 0.34261167 0.8756439 0.59625256 -0.021665042 -1.2547218 0.67618567 
-0.5725645 -0.5435327 -0.23123936 1.5382146 0.16769928 -0.75065863 0.098966375 -0.18741895 -1.588496 -0.30849364 
0.43498367 0.39542148 -0.32408503 -0.1977991 -1.548234 0.18398364 1.2184439 -0.09760345 1.6790193 0.6131451 
1.5874634 0.68049467 1.0988474 0.1338531 -0.41130188 -0.4921392 -0.027342347 1.2714753 -1.2513735 0.25490385 
0.37974954 -0.44507286 0.5679235 0.09850877 -0.23636535 1.1362383 0.37820703 -0.3998939 -0.06743867 -0.30492568 
-1.6517408 1.3211036 -1.326007 -0.31715432 0.028856333 -0.8680178 0.5112879 0.18786675 -1.2026738 -1.105016 
0.5783144 -0.46681225 -0.7678331 -0.26989087 -0.999934 -1.2419852 -0.7560798 -0.48737323 -0.45327103 -0.6476121 
-0.8432621 -0.5354615 0.11126779 0.09698052 -0.22075121 -0.44890252 1.2395016 0.0656786 -0.8172774 1.2416663 
-0.6600439 1.2372799 -0.40257147 0.11458954 1.1473159 -0.40238976 -0.6352109 0.37769288 0.36338606 0.92548114 
-0.0142438235 0.8538391 0.37940782 -0.29150754 -0.5553867 -0.86544734 -0.56732804 1.3436006 -1.0270936 -0.38415223 
0.5305135 0.4936206 -0.985325 1.528799 0.3306708 -1.6043698 -0.80024254 -1.1230773 -1.0468503 -0.9350322 
1.455199 0.7830641 -0.47549486 -0.05739062 0.5460721 0.3824548 -0.68281853 -0.9517986 -0.7636836 0.016862549 
0.742821 0.77030677 1.3613775 0.32779714 1.6490766 0.85183936 1.0406406 -0.6618516 1.2061542 1.352447 
-0.2956361 0.6534982 -0.27651134 -0.21401115 0.39324304 0.04754642 -1.3267151 0.44819474 -0.22601372 0.2745099 
-0.20719795 0.04680148 1.2803128 0.09558569 -0.041659415 0.32652047 -0.020909263 -0.19369492 -1.5023928 0.09553796 
1.2104216 -0.32520744 0.1033113 0.063121065 -1.8083999 0.87170565 0.29871967 0.3943291 -0.059682406 -0.19893777 
0.4519403 0.30910698 -0.011706519 1.4674932 1.0139788 0.006303043 -0.6522344 -1.4644631 -1.4038013 0.05719888 
-0.08150847 -0.09110988 -0.07985879 0.16589943 0.11213199 -0.8449209 0.033358946 -0.043710444 -0.031707834 -0.3992205 
-0.1679502 0.09011766 0.25958243 -1.2355686 -0.09122774 -0.791835 -0.26569098 -0.60732526 0.02434816 -0.29362696 
0.956952 -0.362093 -0.70159197 -0.68998045 -0.29268748 -0.10437907 0.5514688 0.9943791 -0.7499758 -1.0185912 
-0.9075326 -0.7429937 -0.3648846 0.3508536 0.4826159 -0.37242463 0.64125293 0.38190508 -0.77339435 0.2510303 
0.09299082 -0.29801124 -0.096398786 -0.42754057 -0.7022652 0.78367066 -0.028752524 1.2758219 -0.7291304 -0.6260095 
-0.18800968 -0.08610308 -0.048159573 0.75063676 -0.30497313 -0.69870853 -1.033576 -0.3363192 0.33619013 -1.195342 
0.11071536 -1.2260315 -0.23023984 -1.1513371 -1.1863774 -0.59155685 -0.40664786 1.2114828 0.95845705 0.64753205 
-0.11761181 1.4977015 -0.7969934 -1.8782227 -1.3953588 0.2533559 -0.17025083 -0.38782668 -0.66409826 1.7319782 
0.40171692 -0.7556956 0.025974166 1.209272 -0.5489046 1.684179 0.46254313 0.06976725 -0.18184313 -0.31590092 
-0.78528285 -0.14467716 -1.3729358 -0.96393424 0.37947768 0.67345345 -0.048266415 1.2195557 0.031559903 0.32101437 
-0.65058494 0.93382734 1.3828655 -1.138489 -0.33914003 1.0009196 0.093187556 -1.6944299 0.7695125 0.58435977 
-0.43706477 0.5072232 -0.121554464 0.12572289 0.7868931 0.9714876 -0.7363493 -0.3519856 -0.33684582 -1.4145404 
-0.085115656 -0.62020296 0.42727408 0.21699911 0.04142512 0.3248375 0.09498873 -0.61254984 0.29782152 0.9481034 
-0.20705627 0.19612722 -0.88210535 -1.0014307 -0.01013332 0.59107447 -0.039029546 0.086804666 0.122423664 0.066885635 
0.45863044 0.18553627 -0.21443398 -0.6214831 0.37290075 -1.3601239 -0.08368267 -0.5758728 0.5675738 -0.77738905 
-0.040538207 -0.7904363 0.7923458 -1.3789191 -0.53200555 0.068242855 1.3302637 1.1275157 0.69124913 1.5170275 
-0.07282721 0.5992102 1.646064 -0.20268941 0.3930448 -1.2432176 0.114654526 -0.25851575 -0.54079336 -0.339779 
-0.047161397 -0.7788306 -0.15697218 -1.0395542 -0.0646282 0.4454716 0.13604249 -0.16483489 -0.41134495 0.14817815 
0.42743805 0.062010944 0.62482005 -1.2884638 1.1444057 1.1791242 -0.75369316 -0.7514281 -0.5959782 1.5366902 
0.0021342128 0.0021559324 -0.0021560795 -0.0029335245 -0.0066339 0.15168336 -0.0076800683 -0.0075162034 0.0013897566 0.02083009 
1.8012581 -0.74057144 1.0825897 -0.4553992 0.9280032 -0.18953276 0.6104449 -0.9733694 -1.1513153 0.5784459 
1.0969119 -0.9198391 -0.05620465 1.1330299 0.32825768 -0.33854365 -1.7674179 -1.4665112 -0.09127278 1.0482941 
-0.2974359 0.9963018 -0.29253736 -1.5491184 0.0034497667 -0.5219884 -0.30584818 0.259316 -1.4667274 -0.35589138 
0.63270205 0.70581096 -0.09570416 0.9896758 -1.1677418 1.6931815 1.584317 -1.6348813 0.44457012 1.0906954 
1.0076879 -0.32899457 -0.4885677 -1.1869671 0.12457808 0.5172901 -0.23326658 -1.1811079 -1.5088934 1.3667268 
-3.023665e-14 -6.956907e-32 7.266697e-32 -6.2596344e-05 -7.940734e-29 -1.1909539e-32 -1.0475666e-31 9.207191e-13 1.1148608e-16 3.296568e-06 
-0.07753321 0.22257012 -0.3794714 0.29383165 0.4993365 0.2852765 0.007777065 -0.3735163 0.010918734 0.2762519 
1.1884354 -1.364244 -0.5129427 -1.1173035 -0.839883 -0.7662677 -0.63749915 1.0526655 0.36107978 -0.47068325 
0.7218876 1.0369108 1.1598681 -0.6051474 0.21208517 -0.89425766 -0.77710235 1.8806173 -0.12160473 1.4463676 
0.10575097 -0.6461023 1.6351002 1.3622174 0.34742215 -0.21123403 0.10978841 0.20136192 -1.0343307 0.89676607 
0.5544723 -0.10633076 1.0817877 -0.09027674 0.4176772 -0.43156147 0.13033558 0.08318039 0.5400648 0.7143844 
1.8276818e-32 -4.8684894e-32 -3.8553138e-32 -9.1186376e-32 1.479089e-31 -1.4974938e-31 4.4139634e-32 4.9642954e-32 1.9250985e-33 -2.4376723e-32 
1.866471 -0.14680812 -1.1440854 -0.4988875 0.6238886 -0.43784848 0.70080376 -0.72802144 1.1108348 -0.16461289 
1.0127397 -0.885867 -0.08958117 0.08691728 0.14952213 -0.13950197 1.2807676 -0.4261912 -0.17776771 0.5549036 
0.79135585 -0.9227234 -1.3522934 -0.43543527 0.6810115 -0.5074552 -0.8973828 1.2413216 0.2812751 -0.21837164 
-0.2829168 1.5205832 -0.4791991 0.58239394 0.7086411 -0.82073116 0.56015116 0.46649787 0.35511404 -0.26980397 
0.328884 0.8456734 0.45856962 1.6479164 0.024907226 -0.20909016 1.1943564 0.88438183 -0.0054867356 -1.8803904 
0.16633987 1.199436e-06 0.09958654 0.2885403 -0.2947786 -0.6466236 0.11400115 -0.020337012 -0.25160387 -0.08361592 
-0.39630908 -1.677722 1.049942 -1.4063336 -0.08760034 -1.1043714 -0.96813405 0.15288301 -0.26003894 0.45547497 
-0.83176374 0.91704196 -0.06869499 1.8543682 -0.27098083 0.7629403 1.4956678 -0.017474448 -1.5454961 -0.045227624 
-1.3438323 -0.5874008 -1.6364483 -0.7445655 -0.6320517 0.02376398 1.5831444 0.43794382 -1.0183741 0.7193706 
-0.24845152 -1.6519818 -0.8026447 1.0081158 0.9788732 1.3344808 -0.8272961 0.09696757 1.526496 -0.5408049 
-1.505917 -0.33427274 -0.6494636 -1.5482476 0.38517895 0.7699899 -0.9436139 1.5681324 -1.0656793 -0.053373307 
0.2177561 0.31483483 -0.4908529 0.028442457 0.064623736 0.28156555 0.23090713 -0.74307936 0.30031252 -0.4129108 
-0.62995225 -1.3724653 0.58772004 0.18404633 0.8077435 -0.08417019 -1.4989616 -1.6282148 -0.5881563 -0.49847806 
0.7626576 0.55428547 0.18232012 1.3725384 -1.4887096 1.7634968 -0.9421928 1.2772866 0.8904795 0.8855659 
0.41432062 0.5777258 0.027225373 0.45004395 -1.140294 0.053947542 0.2755188 -0.6757771 -0.040657017 0.8382344 
-1.3407619 -0.7874263 0.5369024 -1.2432016 -0.92189544 1.8248768 0.069833815 1.0374525 0.4890864 2.049972 
0.8694773 0.32833645 -0.34527177 -0.6812096 0.22139454 -0.7131635 -0.84130305 0.75683075 0.5316594 -0.08601337 
0.057119958 -1.1694036 -0.4673194 -0.42310885 -1.0677139 0.37461326 0.26111493 -0.050831795 -0.9007533 0.66446686 
-0.018571045 -0.06475699 0.5118307 -0.35900623 -0.38707882 0.6205689 -0.052204303 -0.05195762 0.0011468893 0.56033826 
-0.13232084 -0.27541304 0.07464805 -0.61816686 -1.1936774 0.27697152 -0.6324019 0.07461814 -0.11195347 0.21335244 
1.4893643e-05 -0.0041704727 -0.0036227617 -0.0041653966 0.003101268 0.0024301102 -1.79595e-09 -0.001413087 0.048027214 0.11821737 
-0.6499476 0.4471486 0.63378227 -0.88157773 -1.0340992 -0.121393904 0.83844477 -1.3142185 -1.1582302 -1.2416645 
-1.3657914 -0.53098035 1.3007506 -0.77130765 0.60646886 0.0366244 -0.5958659 1.6211636 -0.061297935 0.68737864 
1.840422 0.53464496 0.36956644 1.0218433 -1.185057 -1.8161485 0.99097 0.10496111 0.711993 -1.429061 
-1.6839898 0.19591735 1.1272444 -0.62493974 0.88602585 -1.208673 1.3446335 0.57512236 0.054871075 -1.4587011 
-0.7171475 0.23011863 0.27298445 -0.24654016 1.4230508 1.3566312 0.65843886 0.4021307 -1.5109305 -0.056205112 
1.779893 0.31065413 0.13581206 0.5663737 -0.9706306 0.08021005 -1.8900113 0.3522856 1.0052655 0.16245596 
0.78938675 -1.7213725 0.24383004 0.4492096 -0.4873229 0.73691934 -0.44751042 0.27314305 -0.97295666 -0.38428205 
0.24279559 -0.10355853 -0.026825314 -0.47084272 -0.5033945 0.899166 -0.71933836 -1.6153308 0.24876806 0.6645502 
-0.6705276 -0.32373086 1.2080244 -0.41084787 0.6073095 0.05569803 1.5818162 0.58336246 0.10345362 0.6487833 
-1.5616698 -0.41493028 -0.41676408 -0.41746455 1.0849319 0.68994075 0.16236736 -0.41381586 0.49661613 0.14301336 
1.7512765 0.8355829 -0.16673744 -0.27725804 0.12552892 1.1271546 -0.86709756 -0.45525438 0.58088434 1.3349105 
-0.8042503 -1.3051082 -0.6224618 1.4084475 -0.4225163 -0.94679815 0.8110793 1.8426344 -1.0621359 0.27169546 
0.040739253 -0.8140675 0.642421 -0.666051 -0.3711294 -0.059753552 -1.2148217 -0.38177958 0.23270373 0.5519111 
0.55402005 -0.8804533 0.75627387 -0.28249335 -0.45053765 1.2740468 -1.8779393 -0.21223351 -0.0730051 -1.7635759 
0.15855052 1.061716 -0.3240561 0.31064463 -0.6753264 -0.66387594 0.09704627 0.96419907 1.0702901 0.7056728 
1.1584297 0.5672619 0.73044866 0.6230341 -0.13603558 0.112733014 -1.0329357 -1.143643 0.41994548 1.3727491 
0.10949339 0.39644873 1.3457304 0.62506986 -0.22308369 -0.12102901 -1.149885 0.21124326 0.37775415 0.2285238 
-0.16274859 0.023347892 -1.5862852 -0.6616077 -0.28209776 -0.45850036 -0.42596903 -0.56265247 0.48751065 -0.33599308 
0.45874816 -0.71991146 0.9849074 -0.69786906 -1.5559291 1.1849757 -1.2076733 -1.120714 -1.8148352 1.4222585 
0.38170168 -0.9235389 1.8378302 -1.4073393 0.5151772 0.33654755 0.7216774 0.94733626 0.69746894 1.3555152 
0.29195976 0.68786424 0.38183966 -0.7296745 0.1145204 -0.8222486 -0.7997506 -0.6419232 -0.46755204 -1.5605422 
-1.6684082 -0.73537564 0.09669624 0.32976735 -0.6412997 0.011781527 -1.7328017 0.20131262 -1.4388145 -0.12566875 
0.9821628 0.70673275 1.4049325 0.6091079 0.30128416 -0.55904526 -0.86384994 0.46239355 0.47281915 -0.05072138 
0.56965506 0.25263643 -0.8566402 -1.0549588 0.7192949 -0.22662452 -1.6694475 -0.20253128 0.55052614 0.3019777 
0.31131542 0.9292989 -0.36923918 0.08354402 1.3380497 1.545182 0.64504457 0.08040075 0.5409293 -0.08406185 
0.9875473 -3.5497167e-32 -0.24752352 -0.011335574 -0.07470102 -0.023812328 5.0708633e-05 0.37069845 -0.004814977 0.84443164 
-0.12513064 -0.33872974 0.008772966 0.034701418 0.0061936714 -0.012651203 -0.030551229 -0.029401198 0.12724768 -0.05192762 
-0.24057186 -0.1385998 0.415555 -0.64764667 0.49675027 -0.19072264 -0.00021699285 0.036146816 -0.64852464 -0.74314344 
-0.32287404 0.3856267 -1.1293768 0.847832 -0.8621412 0.11636727 0.8873218 0.34583038 -1.0234027 -0.46965113 
1.7509145 -0.17841358 -0.4489662 -0.715589 -0.33440498 1.1842421 0.89755976 -1.5903131 -0.3017384 -1.299122 
0.3497972 0.060432576 0.17002684 0.2450124 0.22696468 0.304981 1.7141545 0.8265355 0.7785259 -0.15243211 
-0.4140778 -0.23237044 0.69909 0.9205513 0.713637 -1.7332727 -1.3521416 -0.2007777 -0.5222109 -1.1621811 
1.2385099 -1.4735476 -1.081967 1.595637 1.2142463 -0.098024346 0.07268746 -0.20899282 0.18560973 0.25695592 
-1.8478141 -1.0201097 -0.54691005 0.3185064 1.8325043 0.5488466 0.38076898 -1.1829323 0.18167232 -0.08955818 
-0.8605423 0.3915393 -0.8981672 -0.22239213 -0.35554433 -0.39451542 0.4944921 -0.660773 0.08882484 -0.10401931 
-0.12701778 -1.0107863 -0.49922574 -0.10355158 0.7785269 0.11644026 0.76942325 0.9492501 -0.77705026 -1.0424596 
-1.1092069 -0.49258193 -0.5163898 -1.7220033 -1.8025091 0.70393425 -1.3025975 -1.7801054 -1.3184675 -0.9299389 
0.20472021 -0.20957677 0.57106835 0.38312143 -1.2860849 0.7877792 -0.20009054 -0.28660974 0.7738627 -0.71849483 
0.06999374 1.3433715 -0.14721188 -0.15364528 -0.031967957 -0.4989638 -0.6590929 -1.4353747 0.7428346 1.1924393 
0.73572195 0.23275526 0.36075294 -1.8750196 -1.3276224 -1.0260144 0.19212568 0.6157175 1.0699453 -0.1742312 
-0.016768347 0.24113798 -0.19260484 -0.5062575 -0.018279236 1.8495347 0.3821358 -1.0623134 -1.8823506 0.97437257 
-0.6633552 0.7394842 -1.8553174 -1.4897541 0.227988 -1.1866902 0.18863407 1.0319998 0.85824335 1.0256182 
0.43371585 0.53559774 0.9939782 0.5220116 1.2701849 0.9695953 1.3441277 0.4798733 0.14430137 0.52185625 
0.74912614 -0.7064919 1.3357509 -0.7933284 0.38743713 0.45058638 -0.5406492 -0.3202483 -0.43061858 1.543708 
0.35590795 0.10663958 1.1088393 1.1778653 -1.526228 1.1394633 -0.22653621 -1.4955003 0.18952787 -1.2481459 
0.23650348 -0.3217453 -0.61021703 0.11951387 1.0111423 0.40906823 -1.139986 -0.12330718 -0.30051494 1.060975 
-1.522542 -0.08183539 0.5555795 -0.33212614 -0.15051727 -1.5869144 0.36258814 -0.51328933 0.4455013 0.07054858 
-0.52639973 -0.45849684 -1.3393178 -0.08588485 0.17608342 0.038722076 -0.4965551 -0.05085172 -0.15968879 0.8877875 
0.8650782 -0.27944502 0.35830018 0.087505996 0.559109 -0.8184489 0.05191029 -1.2600863 0.91010624 0.8903336 
0.7058741 0.92293763 -0.86843026 0.19336075 1.3227541 0.9539625 -0.54326653 0.17013854 0.2514026 0.84353304 
-1.925463 -0.43738523 0.5925705 -1.4083986 0.9724425 0.501951 -0.11925163 -0.05187871 1.0229905 0.83644336 
-0.7733302 0.36295122 0.08006454 -0.4720354 1.3119506 -0.38330844 -1.1327761 -0.6085714 0.2193143 0.27849516 
1.8990798 -0.118977964 0.9819458 -0.18976475 -0.27883115 -0.21708928 0.5675679 0.40381357 -1.2421786 -1.2896471 
0.4057524 -0.11373158 0.16656816 -0.716593 0.94744384 0.855781 -0.10735526 1.5904107 0.7083428 0.39106432 
-0.18308291 -0.8035719 0.3635087 1.5289005 -0.17262517 -0.33248284 -0.42040402 0.8561747 0.38342267 0.34368303 
-1.1851281 0.598372 0.3927045 -0.68817216 -0.6434518 -0.8311022 1.3472823 0.45589238 -1.1294621 -0.32329035 
0.54330534 -0.6061083 1.7649356 -0.29182014 0.4195689 -0.03829974 -0.6840092 -0.9850535 -0.13471581 -1.2824136 
-0.010231581 0.013123943 -6.058148e-31 0.011102695 -0.030253073 0.006311851 0.0032045932 0.06621621 -0.031467956 -0.26147842 
0.14737059 1.5068172 0.9350828 0.6917913 -0.20992298 -0.99470484 -0.50630856 -0.21820001 -0.028890455 0.24800201 
-0.00048339608 1.3400931 0.46095785 0.72089344 0.5040488 1.1609347 -0.68827075 1.3996359 0.5160586 -1.1065192 
-0.054023802 -0.30699897 0.3885637 -0.7290389 0.105009474 -0.8152142 -1.2485211 -0.054397035 -1.625517 -0.7334354 
0.59914535 -0.025203267 -0.12816577 -0.72588336 -0.92826295 0.5018285 -0.24650168 1.1821065 -1.5471759 -1.0473286 
-0.607962 -0.0082940115 -0.65291405 -0.9803148 -0.64414245 0.38337338 0.07581415 -0.81604064 1.0498382 0.3527267 
-1.198875 0.21877845 0.062352628 -0.8440122 0.4184333 -0.7525311 0.023805628 0.4739651 -1.9582653 -0.09495662 
-0.69436604 -0.0027401901 -0.2552762 0.48554602 -0.5206705 0.86112034 1.1251047 0.2527277 0.04742047 -0.25994807 
-1.3394572 -0.23366737 0.10188111 -1.5250088 -0.5065922 -1.0617044 -0.39299858 1.6851289 -0.14636008 0.33813268 
1.6818138 -1.236972 0.89531344 -0.20456432 0.29117647 -0.50161403 -0.12146311 1.0171667 0.0018305341 -0.16479665 
0.49132457 1.1324579 0.025511393 0.68464917 -0.79048157 0.007425453 -0.19480245 0.37066916 -1.7556403 -0.11575358 
0.1903743 -0.36954978 0.37067994 0.5211537 1.0020511 0.71986866 -0.5722524 -0.2820565 1.0400743 -0.50398844 
-0.32434356 -0.7160316 0.6431025 -0.31221616 -0.27356035 0.083642066 0.19571239 -1.9064784 0.05359734 0.10538981 
1.2871162 0.89085925 0.921229 0.06942154 0.26199412 1.8545947 0.2786037 -0.09067143 -0.7765409 1.2327082 
-1.2673694 -0.16431135 -0.3906395 0.74271005 0.39921287 -1.5291173 1.0731058 0.2540865 1.2528226 1.1637024 
-0.17094436 -0.7324213 -0.8079794 -0.9297471 1.256615 -1.8016979 -0.7520117 -0.40286765 0.26108244 0.6063914 
-0.803728 -1.0772954 -0.25521758 0.6696928 0.4581445 -0.5068032 0.78376967 -0.5044328 0.8045369 0.10059249 
-0.62368107 0.33442393 0.2910116 0.32718104 -0.69287115 -0.6756373 -0.36099964 -0.0012625682 -0.85483515 -0.96968865 
-0.5332404 1.4478083 -0.9412371 -1.4169697 -0.116604894 -0.87959903 -0.87349695 1.6592032 0.33724272 0.005786282 
-0.53641176 -0.3257731 -0.7599228 -0.11936851 -0.08224945 -0.50934666 -0.6547369 0.37399673 1.1297004 0.70467883 
-0.7767464 1.2653203 0.011402542 0.55472016 1.0197055 0.8965845 0.9426775 -0.193534 0.48661664 -0.7730869 
0.66727173 -0.51001567 -0.94192976 -1.7620418 -1.3158568 -0.6399674 1.195401 0.8053213 1.5500947 -1.0901815 
0.2342641 -0.09172469 -0.0626496 0.061442927 -1.0272233 0.4264411 -1.5016458 -0.04084955 0.63819075 0.05115472 
0.72528505 0.27453 -0.7112378 -0.39365503 1.0259682 0.11415351 1.0702052 0.27787122 0.06223403 1.3151914 
1.1541994 -0.34178993 0.31176957 -0.825055 1.3643237 1.0088875 1.0336013 1.0357493 -0.8807473 0.73971105 
0.12044071 -0.26126528 1.3781446 -1.0167876 -0.5203513 0.19147913 -1.0859982 -0.8664656 1.6954048 1.7853975 
0.04859901 0.8300138 -0.6640022 -1.1573181 0.5597221 -0.71353835 -0.08634999 0.27272037 0.009250293 0.12052124 
1.0285565 -1.5259887 -0.8371047 -0.36633202 -0.6337037 0.565469 0.98819554 0.7083923 1.6186249 -0.13199274 
-0.48745984 -0.4360728 0.15032655 -0.81456053 0.111840405 -1.822042 0.69722027 0.18864867 -0.3438151 1.2807335 
0.30629447 -0.20169213 -0.31229165 -0.5275082 0.10499059 -0.57355595 -0.90427816 -0.47209656 -1.2986938 -0.99501485 
-0.5181334 -0.6980522 0.535247 -0.34071127 -1.0332013 0.2657258 -1.0450715 -0.11571807 0.7371772 -0.72777444 
0.67885745 0.29759878 0.3613588 0.2919965 0.47268015 0.4884692 -0.7120227 -0.34299624 0.48809156 -1.184518 
-1.6748149 0.0955397 -0.31258103 -0.24443437 -1.0034677 -0.45801473 -0.051179353 -0.117161654 1.5618979 0.16510275 
0.23208721 -0.70964986 -0.65485036 -0.35883296 0.85089606 0.49994382 0.22518992 -0.068967834 -0.21108733 0.0752085 
-1.3049814 0.097761825 0.08039527 0.4224146 -0.5264226 -0.17093594 0.21308106 0.6921448 -0.24230206 -0.75637096 
0.098898105 0.6457762 0.62556356 0.01788542 -0.5076194 0.35833845 0.448924 -0.0030432942 -1.2370415 -0.06416241 
1.593099 -0.13383219 0.037937574 1.3587521 0.2608774 0.20543191 -1.34961 0.35347483 -0.37299296 0.2225047 
-0.00010092748 0.30277964 0.0006782153 1.7918971e-08 0.10287044 0.005073061 0.005141699 -0.0041286238 -0.011832328 0.001103548 
1.8372911 -0.78909403 -0.6794068 -0.93402976 0.9399123 0.38892877 0.45489106 -0.6563245 -1.359823 -0.037374765 
-1.1136011 -0.20285688 -0.49588835 0.28480834 0.79831547 0.058682367 -1.2428979 0.8587124 -0.40923777 -0.9947613 
-0.33392566 -0.57164305 -0.5911195 0.56902504 -1.2645327 0.4522112 0.37712565 1.0005853 1.4097586 0.54426825 
0.09732851 0.09303933 -1.679348 1.14813 1.388207 0.24316451 0.9101822 -0.5274685 -0.65487915 -0.88438845 
-0.4284229 0.46348086 -1.0947633 -0.5164813 0.36201176 0.037698776 -0.07724381 -0.029261746 0.055924945 -0.6263351 
-1.8725637 -1.0023085 1.0179695 -0.31128696 -0.21566968 0.42947313 -0.0897317 1.1531106 0.6742619 -1.3832676 
-0.7469272 -1.5567869 -1.4038334 -0.7495492 0.13874564 -0.6869616 0.346613 -0.93240726 -0.6808952 0.66236204 
-0.36970133 -0.97497845 -0.49289417 -1.2047118 0.9920554 -0.6278562 -1.1132691 -1.0726098 0.26096317 0.53085554 
-1.4146235 0.4055229 -1.1333367 -0.040690668 0.3374249 0.42874488 -0.11165527 -0.827549 0.63297915 -1.249387 
-0.115483195 -0.33708465 0.74089706 -1.7805724 0.19687049 0.8408593 -0.9560535 0.37766212 -0.3215722 1.2059333 
-0.1732153 -0.024135133 -0.7286535 -1.0857648 -1.8762926 -1.0489566 0.89341384 0.56436235 1.0190742 0.2878596 
-0.12404558 0.9243424 0.98364097 -0.06748725 -0.0020202256 -0.20630585 0.3255293 -0.6999264 0.6360416 1.1078185 
-0.23372047 -1.1943955 -0.3574063 -0.6854303 0.6897603 -0.024967434 0.7947561 0.51843363 0.7658277 -0.31951496 
0.032511696 1.5114294 -0.53088135 0.44946548 0.44708452 -0.7541373 -0.9689889 -0.4157027 -0.64678997 1.6850783 
-0.29425755 0.8850193 -0.8544743 -1.0987028 -0.60197604 -0.8984618 -1.2120086 -0.2257018 -1.4037323 -0.8146848 
-0.78765017 0.8724665 -1.100188 -1.6932391 -1.2064468 0.81847566 -0.7848133 1.5366443 0.17495081 -1.4550513 
-1.3184766 0.71993923 0.92052734 -0.04826517 -0.21289374 0.12961777 -0.452543 0.034002434 0.2780429 0.016383149 
0.86924547 0.3138761 0.61590284 0.47282162 -0.32930216 0.1932651 0.7589268 -0.63929105 0.28924224 -0.5187244 
-0.12936924 -0.3710748 -0.61855537 0.33227718 1.6550057 1.8110856 -0.71911156 1.7068706 0.6512978 -0.9111909 
-1.5487007 -0.8069669 -0.04153546 0.39393783 -0.7537505 0.69526887 0.16893624 -1.2641062 0.42212695 -0.09327485 
-1.0811136 0.4907892 0.07815646 -1.7394135 -0.38278118 -1.0329692 -0.26406682 0.38845673 -0.6025442 0.08107998 
2.657668e-32 -3.8910567e-32 -0.0042669363 0.011786411 -0.25370723 0.14985113 -0.036211014 -4.1830428e-16 0.009066013 0.48899895 
-0.21611404 -0.343352 -0.55329996 -0.54220307 1.0443825 -1.4872303 -1.2527936 -0.075148724 -1.2739062 -0.4311927 
0.026659869 -0.024850208 -0.011486839 -0.20047475 -0.01118924 -0.0332872 0.02110809 0.018664384 -0.01693258 0.023312697 
-0.1872997 1.5451828 0.13749944 0.029273648 -0.7037049 -1.6723568 1.1481566 1.2434921 0.76428014 0.01749582 
1.7690631 -0.45216098 0.049217485 -0.7424765 0.05143169 0.9348437 0.113400094 -0.10850969 0.20059495 0.24484308 
1.5777872 1.6535813 1.2550162 0.015958745 0.32074946 0.4467645 -1.6266936 -0.06569673 0.4704841 -0.82246125 
0.41692355 -0.15151139 0.4270201 -0.42610288 -0.7293214 1.4173748 0.17828587 -0.41258448 -0.10308916 -0.24318314 
0.33468708 1.2051138 1.3548167 -0.7034649 0.37504846 1.6565195 0.8641037 0.9504476 -0.97756994 -0.7106612 
0.08400091 0.28161094 0.8139317 -0.19183365 -0.3049087 0.40216282 -0.87529784 0.31905732 0.02648621 -0.5820941 
-1.0098294 0.82594174 -1.7176063 -0.5441983 0.05597504 1.1946759 0.8265269 0.87676644 0.006632965 0.5935891 
1.6391371 0.37879393 -0.022443425 1.2000777 -0.022249356 1.4379681 -0.5810729 -0.5802277 -0.24080426 0.91336995 
-0.07238601 0.029445412 0.8915526 -0.44383663 -0.8257775 -1.1232902 0.7833198 -0.020039808 0.7428272 -1.0686375 
1.077964 -1.4585297 1.0477048 -0.061743233 0.5396354 0.35315856 0.6497121 1.2807771 0.16975915 0.08992212 
0.21888001 -0.11360881 0.24075934 -0.3394544 0.66728944 -1.3401986 -0.6203541 0.10190123 -0.03144379 0.24066618 
0.81477696 0.78822184 -0.19993252 0.019724596 -0.81593996 0.9035348 0.16305566 -0.50842476 -0.086174354 -0.36456057 
-0.012810519 -0.21623413 0.56808305 1.032545 -1.4843678 1.0612482 0.30259734 0.3937691 -0.68286496 -0.2005423 
-0.47739744 -0.69490707 -0.14224723 1.4133773 -0.04572553 0.63376135 -1.1930838 -1.212193 0.8598732 0.3341761 
-0.7258711 0.34887695 -0.40183055 -0.4233429 -0.6529886 0.7787853 0.3659639 0.19624391 -0.9990671 -0.40524268 
1.3024225 -1.161018 0.4229098 0.19857666 1.8109308 -0.22472176 -0.90595925 0.40212888 -0.5490474 -0.63970643 
-1.7901814 1.3084484 -0.7807046 -0.7331834 0.051530406 -0.32099828 -0.16151688 -0.25827107 0.26179445 -0.4680433 
-0.59444547 0.35095692 -1.613499 0.85205674 0.7391804 1.6848423 0.22390056 0.3182334 -0.45229834 0.7665703 
0.8056259 -0.718543 0.54847133 1.543825 0.8835689 1.1232854 -1.0991714 0.28458053 -1.0113118 0.49575654 
0.39574826 -0.9209819 -0.839629 0.09980648 0.69236135 -0.64892787 -0.8541019 0.7285556 1.3277322 1.2073017 
0.5968949 -0.26621667 -0.7142582 1.0032945 -0.47991318 -0.91536534 -1.0646151 -0.7422179 0.5827915 0.7213394 
0.6999138 0.2692007 -1.427341 0.7578757 1.1931956 1.6859227 1.2487338 -0.8704943 0.75161856 -1.6227341 
-0.34942865 0.52477276 0.41605416 0.3180014 -0.51277965 -0.8687859 0.34947383 1.013681 -0.16331829 -0.46069798 
-0.83703816 0.10462611 0.40318096 -1.7052172 0.3547367 -1.100322 0.5303325 -0.93653756 0.941353 1.6462426 
-6.874149e-32 -4.870411e-32 6.824748e-32 0.00065463735 5.30124e-33 -0.057063457 -0.0030098085 4.4602755e-32 0.0004941969 -3.9499416e-14 
-0.38933867 -1.7929018 -0.11149295 0.79297733 -0.08545824 0.7903818 -0.3122887 0.7496227 -0.39357996 0.57923836 
1.1534833 0.56320643 0.1699249 0.18336585 -0.38788447 0.6700409 -0.71648365 -0.73906714 1.823044 0.69511604 
-0.004918079 -1.2852542 0.76024646 -0.7927692 1.2472466 0.048493084 1.1367701 -1.2463983 -0.57559633 -1.5546364 
-1.2305883 -0.6628669 -1.855281 0.4392986 -0.3919579 0.5387872 -0.056828745 -0.114193775 -0.46340454 0.6499388 
0.12168303 1.0130979 0.3644788 -0.50456494 -1.1625776 -0.117380254 1.1078392 0.6651633 1.7042314 -0.23431477 
0.44146276 -1.3385727 -1.5061158 -0.38571796 1.1842898 0.7487626 0.3869545 0.59163564 0.46917343 -0.38899556 
-0.7297161 -0.12777159 -0.99481326 0.36943966 0.104407094 -0.2045155 -0.057146505 -0.3146019 1.5289387 0.45327935 
0.8035819 1.032355 -0.27132848 -0.07587152 -0.71132225 -0.9511577 -1.1662862 -0.22377014 1.2399123 -0.3977366 
0.33133778 1.5377535 -1.3484474 0.39116043 1.6525855 -1.0975223 -0.25630274 0.3518267 0.021970768 -0.65327895 
0.5265269 -0.66463023 -0.49694127 0.89879775 0.4247107 -0.47817504 0.16271043 0.82848704 1.5961347 -1.90365 
-0.73581064 0.30203688 -0.3849426 0.1602269 -0.31760812 -0.4397348 -1.0107875 1.2013239 -1.3331544 -0.55010915 
1.6553427 1.3723301 0.7668267 -1.1214548 0.2225 -0.02124527 1.0083678 -0.16636372 1.1714531 -0.13815764 
0.18937057 0.4730103 -1.0472057 0.43738323 -0.49955115 0.113720015 -1.6514834 -0.25688136 1.2469409 1.2094243 
-0.4593565 0.6134157 1.7580343 0.35859892 -0.2768796 0.3435244 0.083951354 -0.64013594 1.1756294 -0.20150621 
0.14984685 -6.465468e-32 -0.021674035 0.08194066 0.2912192 -0.005770523 -0.010531917 0.8761066 0.67156327 -0.35162777 
0.61174977 -1.1862066 0.10522149 -0.47874105 -0.5251654 -0.8337598 -1.0738854 -0.52519476 1.2929854 -0.4878729 
1.8230461 -0.021286534 -1.1433252 -0.4238336 1.743861 -1.0883169 1.2094271 -0.60777175 -0.45095643 0.3797739 
-0.7289323 1.0168896 -0.4621884 -0.8740872 -0.541615 -1.0432205 -1.787052 -0.6234864 -0.47718477 0.24724728 
-0.14473093 1.5310702 -1.9342204 0.3584775 -0.07344688 1.1154779 1.5786912 -1.3462988 0.9257917 -0.1587544 
-1.3751235 -1.1802355 -0.15521401 -0.065634534 1.0718806 -0.86266416 0.048873648 0.9453074 -0.66196537 0.44101292 
-0.05153415 0.49796888 -0.87968713 -0.30665398 0.038925074 0.41051155 0.85662484 -0.74211645 0.0675605 0.47444132 
0.045710515 0.39241752 1.1489012 1.2925782 0.03999554 0.47024408 -0.833373 -0.44411367 1.0242095 -0.4064296 
1.2138742 -1.6457151 0.04315417 1.429913 -1.9024945 -1.387017 -1.1918327 1.4105023 1.0219744 0.24223706 
-1.0140238 0.49518043 0.38280448 0.53725356 -0.535594 1.273389 -0.047577675 0.7490141 -0.39427134 0.38542143 
-0.10415066 -0.42141256 1.596102 -0.17319511 1.1188629 -0.11890941 -1.0501475 -0.056089886 -0.01994076 1.1193777 
-0.8230425 -1.4599493 0.5697022 0.855024 1.4578954 1.8596075 1.120275 0.25536203 -0.60668516 -1.4618994 
1.4869173 -0.5244046 -1.3279977 1.3095301 1.3078163 0.067302175 0.9874317 -0.40514785 1.4568384 0.04089346 
-0.012455623 0.332279 -0.424656 -0.14839776 0.9790155 1.6318046 0.9349403 0.07124876 0.9966585 0.9228977 
-0.23821767 0.13792604 0.528034 0.96968335 -0.64713293 -0.24462402 -0.079424165 0.07764292 0.5118037 -0.051176313 
-1.1077027 0.05486469 -1.4120034 0.50761133 -1.8493539 -1.739672 1.117072 1.3077823 -0.56492114 1.4617512 
0.5497895 0.59088945 -0.6412786 -0.50961465 0.65836287 1.2835859 1.0744123 0.42360464 0.87437 1.0997444 
-1.1167468 -1.2600541 1.6851909 -0.9451805 -1.2723395 1.0549002 -0.58090556 -0.08087662 -0.11497243 -1.9937131 
-0.34521654 -0.21955727 1.4364053 -0.49167427 0.72067785 1.5336599 0.08820283 -0.30905053 -1.5379676 -0.3751809 
0.09805527 0.17873088 -0.23459716 0.17276885 -0.3063039 1.4042672 1.2663289 0.92162865 0.05407832 0.016949791 
0.32201025 0.17221141 -0.919717 -0.039239626 0.0391053 0.605128 0.69720083 -0.08029988 0.13850604 -1.4285082 
1.1623063 -0.9500715 -1.5921247 0.50930184 0.37530094 0.18311094 0.85345465 -1.0154431 0.09477704 -0.68987054 
-1.3238013 -1.0700136 0.8893169 1.126577 -0.104753 0.30069098 0.05604471 0.4157521 -0.17895429 1.0936123 
0.20566869 0.67652357 -0.13078728 0.08689102 -0.4844967 -0.39097738 -0.7793341 0.4596432 1.1789756 0.71251166 
-0.110173196 -1.1831232 0.012930985 -0.49209 -0.15905158 0.6316978 -0.6660332 -0.24499035 -0.35351205 0.15342279 
0.54445434 0.60718393 1.2695901 0.4472154 0.4061676 -0.60814136 1.5868357 0.31681973 0.8195959 0.17805052 
-0.021990797 -0.11869279 -0.15176855 -0.11713129 -0.02924937 -1.3759993 -0.049111385 0.03388226 0.10502987 -0.037758898 
-0.27097055 -0.113953255 0.48912367 0.5031955 -0.24406959 -0.8674971 -0.60776526 -0.525383 -0.32467204 0.51105815 
0.7026949 -0.31222337 0.80815846 -0.8077542 1.138876 0.8557958 -1.4250112 0.033034258 -0.19591784 1.0492146 
0.28508657 0.039041724 0.17783137 1.6734142 1.052344 -0.5934983 0.19525819 -0.6772229 0.09372772 -0.55246073 
1.6056087 -0.4313958 -0.9578745 0.27024886 -1.1531466 0.010442447 0.3873674 0.3856477 -0.10190684 -0.9385849 
1.079259 -0.61953604 1.1625032 0.24287868 -0.100034185 0.07766576 0.54067385 1.1085434 0.045570236 1.9443036 
-0.38746396 -1.1525577 -1.1919252 -0.45421287 -0.54989517 -0.79945654 -0.3136149 0.30931592 0.8478431 -1.0733699 
6.977527e-05 0.3167729 0.023456018 0.040422067 0.008052445 -0.12126143 -0.056763988 0.014280475 0.011935494 0.6577905 
0.2237137 -0.7588031 0.7539754 0.04103908 1.2645007 0.7906365 -1.1328613 0.20121244 -0.50481266 0.38768476 
0.36233503 1.8202282 -0.6368597 1.9803122 -1.5406789 1.26164 -0.5750151 -1.7533094 1.4137404 0.12664838 
-0.08098648 0.87218046 -1.6543741 0.20701139 0.559062 0.075674675 0.62593216 -0.4752438 -1.4992932 1.9593961 
0.2675472 -1.0199996 1.1382957 1.4673606 0.5269143 0.8163226 0.2683564 1.4041142 -0.5610029 -0.7234832 
0.39232698 1.0227567 -0.56972414 -0.95243603 0.45788687 0.49410668 -0.33048433 1.2505987 -1.511844 0.875141 
0.5923773 -0.4022413 -0.8253737 -0.22485238 -0.42373976 0.66978544 0.7248181 -0.59131265 1.6078511 0.07626888 
-1.8866912 -0.11476933 0.62187344 -0.21398102 -1.6762788 1.0446289 -0.31987435 0.6592167 0.07951345 -1.4572242 
-0.70408595 -0.15071853 -0.7834322 -1.2391174 0.5891621 0.7764178 -0.49210072 1.670531 0.26475054 1.2599488 
0.5034036 -0.49828374 -0.045985144 -1.1339134 0.32811415 -0.062193077 -1.3890404 0.42201787 1.3343555 -0.15384714 
-0.5147498 0.63912135 -0.9394172 -0.63461614 -1.1954026 0.4723397 -1.2756512 -0.5359106 -0.5073351 0.21712153 
0.7274804 0.06347357 -1.3419155 0.79479086 0.20128262 0.30965665 -0.08508747 -0.2630105 0.82108426 1.7367595 
0.754652 0.5543982 -0.725141 -0.1267803 -0.3005748 0.2860349 0.6094738 -0.75311744 -0.89469254 -1.7559506 
-0.5787212 0.16692571 -0.1499644 0.0015408257 -0.62074924 -1.2681565 1.0192354 -0.2429543 -0.16111034 0.30697128 
0.09216571 0.8979001 -0.15117158 1.2243555 -1.6441344 1.7603894 1.3677821 -0.33141637 1.4885505 -0.12599006 
-1.1793764 1.4163182 -0.45048496 0.9600578 0.008101766 -0.6515896 -0.4593566 0.00680737 1.7486086 -0.31104663 
0.023035033 0.037268028 0.09368703 -0.07446864 0.02654129 0.28402317 0.2808388 -0.015517224 -0.23093452 -0.100634746 
-1.6235656 0.92260736 -0.764622 -0.4851523 -0.9110676 0.528976 -0.81529313 0.0049455543 -0.8412603 -1.2239463 
0.67410076 0.25712007 1.3066614 -0.39474934 -0.5415616 0.09467395 0.07351412 -0.18568917 0.47207206 -0.6744961 
0.35460046 0.5106931 0.73574185 -0.25269285 0.117419526 -0.90032005 -0.1187813 -0.10301879 -0.58998215 0.6004825 
0.7540684 0.3293439 -0.100878574 -0.6963755 -0.51629996 -1.2440615 -1.6507926 -0.51321876 0.8345239 -0.17842363 
0.24005628 -1.10165 -0.7768342 0.8588826 1.0338783 0.5799189 1.2853441 0.38151386 -1.5536925 -1.9417387 
0.5110896 -1.2899922 -1.2139437 1.3137718 1.3359482 -1.0993484 -0.2113748 0.9624882 -0.33089653 -0.17703174 
-0.2401164 0.897963 -0.106643595 -0.38645002 -0.7700508 -1.0135614 0.9454934 1.0102676 -1.249519 0.38328186 
0.4224521 -0.8199452 -0.5782609 0.22195163 -0.22126447 1.4648507 1.4101306 1.1328388 0.1419767 -0.69490874 
0.075264655 -0.27649555 -0.27403072 -0.3877644 -0.0073094247 0.55799836 -0.3779251 0.75788254 0.7801035 -0.38196492 
-1.3134254 -0.89898473 -0.79053277 0.3029719 0.3724358 -0.7727119 0.10996254 0.15511926 0.06645668 -1.3942674 
0.6293333 -0.03238239 -0.09746067 0.46267894 0.24763897 1.4472694 -0.7756151 0.015945159 0.21694486 1.0340267 
1.1822866 1.0671415 -0.6883535 1.2672466 -0.80610156 -1.7992555 -0.71054435 0.767438 1.1350098 0.24488866 
0.6811011 1.2146045 0.6059969 0.5776235 0.9714296 -0.16953036 -0.771544 -0.08575381 -0.31342956 0.6502408 
-0.06499634 -0.6436036 0.2344962 -0.14537388 -0.27175847 -0.5527247 1.1890047 0.17318809 0.25731677 -1.6128972 
0.25143272 0.16338965 -1.6418232 -0.4131182 0.009808355 0.76680106 1.0199893 1.3316581 -0.1737791 1.612428 
-0.018158605 -0.6567981 1.1728536 0.96056837 -0.12734105 -0.3929173 -0.021979077 -0.4930838 -0.8000215 0.28121677 
0.48314136 0.4148304 -0.5331676 -0.5824423 -0.91619945 0.9492361 0.85174155 -0.45753077 0.96257627 0.3044703 
1.3626567 -1.3889515 0.9868495 0.51885176 -0.3277113 -1.4714234 0.83009005 0.030666376 -0.00419545 -0.29946736 
-1.2930453 -1.5726727 0.8598008 0.19847783 0.17827156 -0.25457495 -1.5305796 0.29073328 0.82646644 0.24137653 
1.0152643 -0.736248 0.13051696 -0.6734572 -0.30929956 0.8642867 -0.814173 0.69426507 0.55494344 0.30679274 
0.038042583 -0.44805527 -1.2773963 1.0053538 -0.1702358 1.6340104 -0.18073736 -0.16837183 1.0254796 1.2130636 
0.3328243 -1.4533918 1.1533246 -1.2065191 0.089840695 0.1638485 0.18821697 -0.28438792 0.6377013 0.23922928 
1.003216 0.17682722 0.41997445 1.9206817 -0.57224697 1.0555096 0.898352 0.43869427 -0.9747695 0.2200485 
0.08268809 -1.1807336 0.20126227 0.23354161 -0.0308204 0.42113668 0.027230676 0.30507132 0.32043877 -0.006029948 
0.8689473 -1.5142043 -0.211266 0.32041132 0.9553945 -0.7523137 -0.8139016 0.21771637 1.3851539 -0.07138153 
0.37807158 0.4834507 0.60514635 -0.7457548 1.3222506 -1.7801518 -0.6640664 1.6075023 0.9921982 1.0804629 
0.03245373 0.6588157 -0.0175839 -0.292449 0.0674269 0.7205679 0.1629931 -0.013379347 -0.5905368 -0.18921791 
-0.45651644 1.1102208 0.49322557 1.3052996 0.30656442 -0.053047027 1.3553792 -0.38491428 -0.31040445 0.95830184 
-0.6013446 0.06482437 -0.7741835 0.35536817 0.053987194 1.3167069 -0.4888825 -0.53875744 0.031449195 -0.4242738 
0.2707219 1.318253 0.99601185 0.7227129 -0.82195324 -0.66767997 0.4122685 0.14720713 -0.4644961 0.31907716 
-0.49314702 0.13384525 -0.1132552 -0.3682173 -0.7418898 -1.5809758 0.34229937 -0.49812174 -0.86791545 0.5046786 
-0.32184178 -0.18808776 -1.4439409 -1.2458445 0.90230083 0.36272946 0.19673386 -0.35648844 -0.3537355 -0.07835875 
-0.039400242 -0.024374103 -0.12908672 -0.09469669 0.012860399 -0.31076816 0.040905982 -0.00491679 -0.036896203 0.018862406 
-1.0673908 1.1916919 -0.99762356 0.26563978 -0.046396066 -1.4923804 0.18699412 -0.15042657 -0.9219906 0.36922422 
0.36744976 1.3082138 0.2821702 -0.8110801 0.45459983 -1.1367399 -0.05441936 1.4136143 1.0006305 -0.3921282 
-0.37557137 -0.2246989 -0.12742962 0.9259128 -0.3842114 -0.48386043 -0.4626132 0.30423218 0.4030491 -0.42825165 
1.1905074 -0.81809664 1.0663669 0.06956943 0.9807916 1.0800536 1.6334783 0.80532867 -0.60355437 -0.29463005 
-0.5102167 -1.8762773 0.63116753 0.55271536 -0.12615082 0.073004246 -1.4919018 -1.5176542 1.49504 1.100529 
0.4095383 1.3229021 1.1333812 0.4431183 -0.022588454 -0.40104622 -1.7853818 -0.549617 0.7229797 0.5088938 
-0.017199546 1.4249328 -0.88245666 -1.0642637 0.43891722 -0.8279603 -0.8048771 0.3302397 -1.1452116 -0.8922678 
-0.6618408 -0.56457543 -0.336854 -1.3506006 1.6141453 0.26190123 0.10501926 0.4572519 0.54004705 -0.3701652 
1.3541577 -0.7221304 0.706773 0.22979593 0.70441 1.0561377 -1.2221123 1.2206309 -0.5229981 -1.5135792 
0.54053855 -0.8131586 -0.23176955 1.3159325 -0.5226083 0.6902752 -0.5035787 1.287316 -1.0612836 0.58787775 
1.5341377 0.24412972 -0.84053934 -0.1115867 -0.89242095 -1.3015443 -0.47443452 -0.3200955 -0.068183124 0.07801924 
0.868653 -0.09253158 -1.229926 0.21035312 -0.9559562 0.36693767 0.7887318 0.183876 -0.46248454 0.4687218 
1.2878636 0.60832196 0.448631 0.85431707 0.28367266 -0.2733362 -0.8840361 0.6249042 0.51326036 0.13555546 
1.0919769 0.008301745 -0.9439745 0.3561815 0.4693683 -0.7572716 1.1059598 -0.73528636 0.9326442 0.7645924 
0.5832366 0.19551294 0.7115533 0.97231513 -0.6951347 -0.44970968 0.22688603 -0.20602702 0.63269144 0.83715886 
-1.4616413 0.6986905 -1.4243479 0.9531694 -0.13819048 -1.9211156 0.35755107 0.10720205 1.0717686 0.57144445 
-1.1169138 0.15915346 -0.009879963 -0.6319608 0.07750332 0.2804097 -1.1509893 0.4505094 0.5575906 1.24084 
0.98251635 -1.2325319 0.015736666 0.069767445 0.4976946 -0.87068 0.3193875 1.3419821 -0.039424818 0.66480905 
1.2577386 -0.6763192 -0.42010626 -0.40538022 -1.3075639 -1.3508915 0.07710965 1.5894036 -0.1754247 -0.9687809 
-0.89708734 1.0496606 0.9348585 1.0061103 -1.3483335 -0.102640405 0.29983652 -0.9368868 0.43790513 -1.1922426 
-0.021348147 0.22626796 -0.20208612 0.30457377 0.47577915 -0.20925112 -1.059743 -0.06007404 -0.23457475 -0.17599286 
-0.58608013 1.3081727 -0.42245278 1.3604822 -0.13423243 -1.0139645 0.14251156 -0.3446701 0.5670616 -0.4332914 
0.039166205 -0.015631234 -0.08762948 -0.39004973 0.004950996 0.004345167 0.10110363 -0.057122093 -0.044237267 0.60862315 
-0.5053521 0.7552123 -1.2431031 0.79860973 -0.11101022 0.8331055 -1.0247704 -0.5643947 0.4396293 1.1538969 
-0.1093338 0.898479 -0.22363196 0.38349906 -0.8788272 -0.44205534 -1.8336699 -0.73184794 -0.8462734 1.1625495 
-0.13389109 -0.40204018 1.7561947 -0.57752186 0.83599806 -0.38626352 0.46909526 0.643404 -0.60324126 -0.074931815 
-1.6580863 0.9092715 1.4567107 -0.78837514 0.77091694 -0.1318556 0.24435818 -0.9034001 -0.07558209 -0.2984175 
-1.0643756 -0.471302 -0.80556506 -0.24447685 0.87015355 -1.8748561 0.10765261 -1.3766097 1.4563162 0.39659247 
-1.8715535 0.13618359 -0.091866426 -0.5173285 -0.57981277 -1.3917692 0.15002427 0.06565624 0.36228994 0.37442416 
0.89388984 -1.5370965 -0.4331719 -0.5355362 0.3534715 0.29197013 -0.6891638 -1.3505875 -0.60241073 -0.2612341 
1.4797664 1.6533799 1.008259 0.18895909 1.6624426 0.18947382 0.37347734 1.2705971 1.801084 -0.953369 
-0.11081135 -0.050116543 -0.07077581 0.97288 -0.47969767 -0.31989053 -0.16736092 0.057575192 0.19893043 -0.014561021 
1.1542516 -1.2986058 0.35838252 -0.41665617 -0.08430417 -0.5720168 0.8734774 0.1406722 0.2707465 0.14615169 
1.1200911 0.5052916 1.0286168 0.16204469 0.55531764 1.291405 -1.337683 -0.31266823 -1.5451883 -0.536902 
0.28461587 0.23079392 0.123773724 0.9579664 0.15855028 0.6204381 0.48811722 0.613224 -0.09946788 0.3213676 
-0.049335606 -0.56273055 0.5032581 1.5022936 -0.053502467 1.5022643 -0.7806381 0.9480921 -0.79199344 -0.63844144 
1.377384 -0.32907772 -1.2268013 -0.6331183 0.28664473 -1.3529971 0.1253062 -0.23564482 0.16918343 -0.8253593 
-0.14572926 1.2109631 1.4452745 1.2030013 0.50266916 -0.8357446 -0.49406493 -0.37708175 0.52214277 -0.7065872 
0.19239114 1.6195292 -0.6537594 -1.1683547 -0.216006 0.14034209 -0.02989001 -0.3325954 1.2349017 0.7674205 
0.10773663 -1.2508972 0.30444822 0.1098774 -1.741092 -1.7962062 0.5320299 -1.2648845 -0.25277257 -0.54453266 
-0.7736403 0.77285796 -0.5835433 1.4942524 1.3318452 -0.17578559 0.9638667 -0.44242924 0.9632936 -0.33414713 
0.45477158 -0.31858042 0.004813915 -0.70107776 -1.191894 -0.5072364 0.1645385 -0.5948228 0.13166659 -0.92254525 
1.2011309 -0.5212662 -0.30758363 0.9557049 -0.22060908 0.20956637 -1.7636747 0.6378841 0.20789659 0.6254567 
1.7597108 -0.47770187 -0.59787965 -1.1821766 -0.5786297 -0.13727483 -0.41578883 0.28467262 -1.4616998 0.71363413 
-0.61886996 -1.6587551 -1.1190912 -0.71637774 -0.23057418 -0.028028093 -0.6152438 -0.7357083 0.06001146 1.0705379 
0.7058295 -1.0845981 -1.5647175 -1.3738755 -0.7786008 0.6555927 -0.37264824 -0.1322354 0.5473389 1.6883428 
-0.41442263 1.3285723 0.87224305 -0.08864366 -0.39321238 -0.021030461 -0.32335734 1.0640923 -0.91855836 0.30755246 
0.0005526434 0.20395109 0.052163247 1.5628992 0.9281621 -1.3320172 0.028505731 0.48177668 0.10326576 -0.9334442 
-0.33277106 -0.98940235 -0.28062475 1.366593 0.12465148 -0.4018319 -0.65108496 0.65951717 -0.23757915 0.5856302 
0.820164 0.6777319 -0.18493553 1.7002256 1.0311946 0.28359047 0.9280869 0.26302788 0.30704227 0.9827445 
0.00238535 -0.16731676 -0.6731155 0.058343634 -0.018702764 -0.03435689 0.0038262077 0.021638919 0.025142055 -0.0024069536 
0.15408057 0.38421547 -0.9772683 -1.0747213 0.38004857 -1.6268997 1.5192996 -0.34215784 0.05874184 1.3392138 
-0.91600794 0.6784098 -1.2849755 -1.1235311 -0.1292798 0.22198461 0.38195178 -0.26721802 1.68504 1.2697963 
-0.058869805 -0.6260947 -1.1233736 -0.4245217 -0.08638817 -1.1990507 -0.74330103 0.8108274 -1.023766 0.15971054 
-1.0848819 -1.7283483 0.10703873 0.10725072 0.33284608 -1.7942355 1.6622661 -0.12052035 -0.18622375 -0.3118468 
0.18776399 1.1717266 1.9190292 0.9868471 0.23357745 -0.16745989 0.16673657 0.1196723 -0.63240296 -0.52087957 
-0.5391039 -1.7029248 -0.6196779 0.16747062 -0.0023742917 0.3570377 0.7236113 -0.62779695 1.2132081 1.30329 
-0.18082812 0.25684875 -0.6469707 0.72842145 -0.7634809 0.2668045 -0.49688813 -0.4800217 -0.032378778 0.019808259 
0.113592386 -0.4623212 0.7187415 0.4248371 -1.0871959 0.0043254998 0.07918889 -1.2705885 0.33332935 -0.42286548 
0.84755874 -0.81280106 -0.9283515 -0.7028564 1.3919253 1.5086585 -0.38331372 -0.40654832 0.21976896 1.2022756 
-0.9458282 0.72123784 -0.99847835 0.42761207 -1.0794477 -1.6733638 0.8748626 0.22650042 -0.33905196 -0.18368298 
-0.011632143 1.0704173 -0.6396466 -1.4659698 -0.0564474 -1.1175599 0.6454621 -0.05890049 0.4680106 0.9537539 
0.20716259 -0.5656562 -0.54883283 -0.1507701 0.6445315 -1.6449271 -0.34212494 -0.47504464 0.4698395 -0.49649653 
-1.7007874 -1.5331506 -0.7100603 -0.042061582 0.47304395 0.5437242 -0.066516995 0.6020279 0.09807665 0.4118752 
-0.2594833 0.009022244 -0.69960386 1.1795198 -0.51341826 -0.33387643 -0.437221 0.21687217 0.43776625 0.016798427 
-1.1126926 -0.45773277 0.7454269 0.4168136 0.5118789 1.1637717 1.586794 -0.56614757 0.39289302 -0.3411694 
-0.35247758 -0.04600416 -0.56933033 1.577274 0.45274034 -0.8188782 0.55070496 0.32390213 -0.98447794 1.6307228 
1.6824244 1.0328988 1.5434086 -0.082450874 0.18401523 0.9443257 0.07957301 -0.24847431 -0.4548052 -0.42021057 
-0.635302 -0.89377254 1.1520063 0.40474287 -1.0317546 0.24904346 0.25800455 0.746521 -0.19333701 -1.1840988 
0.038696446 -0.511264 -0.12313792 -0.42996824 -0.9822916 -1.1489581 -0.73510313 0.34867674 -0.1797414 1.016847 
0.41649204 -0.558724 0.5998595 -0.7223562 -0.1255632 0.79766136 -1.1768337 -0.08308775 0.95367175 0.4329927 
-0.7885468 -0.52512664 -0.71771735 0.635738 0.31526342 -1.5042099 0.30143383 0.41047215 0.043533668 1.6362689 
0.078613974 -0.68953884 0.2248689 0.26910168 0.20536901 -1.5792129 -0.3557897 0.07670571 -0.5753963 -0.9452119 
-0.3355584 0.78805274 -0.14081967 -1.5979472 -0.47909337 0.24981926 0.078331366 -0.13232398 0.8448884 0.60895973 
0.49723947 0.92752826 -0.6956036 0.14952375 0.20241004 -0.7626548 -0.033626333 1.2113507 0.24751262 -0.6026882 
-0.70561194 -0.057194863 0.269861 -0.29625323 0.90132225 -0.33305568 -0.20381258 1.2570586 1.403821 -1.7943703 
-0.93834054 0.2877821 -1.3862704 0.9503857 -0.025820943 1.3023438 -0.33812866 -0.568064 -0.753513 0.8967983 
0.8908801 0.87609524 0.555648 -0.8146775 -0.82701516 -0.6369463 0.6646209 0.6252235 -0.18805128 -1.8662543 
0.72217745 0.9384576 0.7381603 1.1028829 1.8122994 1.2135227 -0.4928552 1.7515013 1.1342175 0.09814338 
-0.026052676 -0.79354966 -1.0521009 0.18533039 0.26752374 -0.025595661 0.045005128 1.2148998 1.1248683 -0.40281472 
0.93319106 -0.036358405 -0.56092775 0.7087454 0.4157801 -1.3250285 -0.80975395 0.2391913 -0.07900128 -1.4285562 
-0.08916083 0.33119056 -1.6105996 -0.10075409 1.2050904 -0.070109144 0.6829785 -0.24351354 -0.32578176 -0.050653137 
0.22881006 -0.6178123 -0.40119272 0.32799497 -1.0019752 -1.6369836 0.5625781 1.8769385 0.23148045 -0.117730245 
-1.272158 0.49446186 0.4529997 -0.024007699 -0.47839782 -0.5111666 0.14519593 0.09721439 0.94923145 -0.51640326 
-0.9105633 -0.253139 -1.370917 -1.383684 0.18224764 -0.70221287 -0.29324776 -0.0017011638 -1.3001325 -0.92427385 
-0.045669124 0.24619494 0.1843945 -1.6631056 -0.23452874 0.25550702 0.4778988 -0.35561618 -0.49940574 -0.1060435 
0.037708547 0.014534265 -1.3611504 0.02420648 -0.81163764 0.47339818 -0.06138688 0.19871469 -0.100662865 -0.33536327 
-1.5887082 1.062221 -0.27231583 -1.6898751 0.48658216 -1.0734569 -1.3610026 -0.39019662 -0.022208096 1.3669432 
-1.059454 1.0385946 0.80647963 -0.032960843 -1.0054854 -0.8743149 -1.0468204 -0.08737982 0.6370405 0.6173613 
-0.08062716 -0.5801672 1.3556687 1.0578291 0.73006713 -0.06648611 -1.644921 -0.22637716 1.3410394 -1.0936368 
0.033257283 -0.049705293 -0.40337422 -0.48673508 0.59769684 -0.08279154 0.33579957 -0.15772304 0.12657855 0.14356783 
0.7717505 -0.31457615 0.33945438 -0.3893188 -0.18539192 -0.40226576 0.1585545 -0.42622522 -0.37214455 -0.20615867 
1.1559154 0.4310688 -1.0843242 0.24619527 -0.043553747 0.11573482 0.97999877 0.73495543 0.16742063 1.0547233 
0.9858258 0.7138997 0.07407148 0.7050002 -0.3819972 0.7709515 -0.4854341 1.1247752 -1.8392855 -0.19769487 
0.34869406 -0.8642564 -0.82270384 -0.6935687 0.7200382 1.2902843 0.5228149 -0.48494208 -0.8187013 -0.27730817 
-0.13393578 -0.5963403 0.716219 0.046059974 -0.13557988 -0.01980876 -0.022604015 -0.0053448696 0.07850811 -0.30383584 
0.9446699 -0.28765836 0.21493196 0.09521764 -1.3523763 0.350144 -0.05044412 0.97068185 0.6103717 -0.5416266 
-0.9123477 -1.2842541 -0.58924156 -0.37209475 -0.74131864 -0.18122117 -1.0411065 1.0365831 0.85993344 -0.86273706 
-1.4349293 -0.75581676 0.24034771 0.20280018 1.0592589 0.8053995 0.4536229 0.4037178 0.29839736 0.76419675 
1.443093 0.61591667 -1.0378503 0.6300004 -0.47265187 -0.9800326 -0.5475421 0.8025027 1.3504397 -0.82679635 
1.2359172 0.42057514 -0.67904615 0.3346444 0.5810317 0.32826045 1.0680095 -1.2515993 -0.4024801 0.3605951 
0.29765826 -0.23472187 -0.15416822 -0.54856205 -0.36582565 0.00054344157 1.6126238 -0.06437959 0.4756035 -0.76753813 
0.55144703 0.49250126 0.35262373 -1.7400799 -0.047148738 -0.35284415 0.603113 0.52923864 1.6449804 0.57591915 
-0.8071646 0.22165875 1.098162 -0.56929123 -0.7707147 0.39008892 1.3452013 0.1858509 -1.6191454 0.33670497 
-0.3275123 0.122120835 -1.3401467 -0.9469334 3.8782915e-32 0.986283 -0.0551248 0.6267772 -0.38013905 -0.014148915 
-0.9307996 1.3590289 -1.5343848 -1.3427935 -1.3561823 -0.6488125 -0.61864144 0.62464845 -0.14920253 -1.3783029 
-1.1123556 -0.24769518 -1.156878 0.9671095 0.2527881 1.3531709 0.5827138 1.8600384 -1.5580117 0.52190447 
0.58312786 1.5008297 -0.2751106 0.54904205 -0.7919579 -0.5100222 -0.52171206 -0.632838 -0.6535507 -0.37164223 
0.64954984 0.7378584 -0.083179876 1.1678975 -0.45603764 0.5218926 -1.4818575 -1.078809 -0.027360035 0.6316322 
-1.3232032 1.0861832 -0.9789019 0.3684255 -0.8756933 -0.61879724 -0.32813647 -0.47383314 -0.20424806 0.64296997 
-1.3829943 -1.172416 -1.0121454 0.07877305 0.06546953 0.00991539 -0.3984295 -0.025382241 -1.1378798 -1.4465257 
0.14758211 0.8052886 -0.42487592 1.1809108 0.13940327 0.14794558 0.8176714 0.76129735 -0.5159328 -1.6131645 
-0.011364632 -1.2661201 -1.5258565 -0.0035775634 0.32273287 -0.18674022 -0.78699833 0.95310587 -0.51200604 0.75403607 
1.0279766 -1.087529 0.5732276 0.06913276 -0.22639298 0.4215011 0.8587996 -0.6519461 0.63768804 1.2213621 
0.5550523 -0.13319488 -1.0081911 0.6017009 -0.5748166 -1.7211863 -0.53424054 -1.0707645 0.93445903 0.49748465 
-1.6041126 -0.18858668 -0.030554028 0.734237 0.80304676 0.8360104 1.422056 -1.261735 1.4146994 0.93526673 
0.034183472 -0.01128333 0.013967201 0.5926183 -0.0076334653 -0.00014043976 -5.2706963e-20 0.023941187 -4.8776976e-32 0.010956213 
0.04655587 0.24742892 0.44760156 0.62235606 -1.4189072 0.1278225 -0.57387954 1.0483617 -0.034305826 -0.4774556 
0.1655504 -0.25244224 1.5633589 0.5708654 -0.75245035 1.5561385 1.1415205 0.8292072 -0.059986655 -1.2382154 
-1.5336022 -0.22427775 -0.5602819 -0.9055838 -0.12571439 0.31204987 0.03696952 0.6373046 -0.6614093 -0.11638922 
0.5586675 0.65813035 0.039644517 0.83289593 0.50916314 0.12821501 0.5764755 0.48083717 1.5785983 -0.94953734 
-0.28601974 0.41822192 -0.50248563 -1.0465158 -0.7778528 -0.53141147 1.6795936 1.8741902 -1.2369037 0.6989086 
-0.6266568 1.0179728 -0.7826578 0.5359216 0.04725702 0.32716647 0.034609273 -1.053701 0.50000125 -1.3661189 
0.5725517 1.408456 0.28605494 0.8949002 -1.838962 0.21085759 0.79311216 0.238903 0.44645163 -0.23173316 
-0.18779197 -0.18932793 -0.028343245 0.1750035 -0.09718147 -0.07921335 -0.022767859 -0.26630014 0.5247931 -0.13602963 
0.05544973 -0.055911243 -1.671009 0.62060416 -0.97965145 -0.13707782 -0.2754145 0.02805933 -1.3000009 1.0299058 
0.5807111 -0.21872024 1.3001121 -1.1007515 0.85183054 0.4046727 0.3613531 0.22449958 0.02257541 1.5013074 
-0.0389735 -0.20086971 0.2381118 0.90020657 -1.0221623 -0.40997276 -0.6160941 1.2255689 -1.4562659 -0.43696377 
0.38961244 1.070841 0.1478285 -1.0890074 -1.7440226 0.6670189 0.5509096 -0.80096227 -0.7372129 1.1366426 
0.3512985 -0.23169054 0.14086306 -1.5720341 1.3655509 0.7549135 -1.0528957 0.083827294 0.68928194 0.91740245 
-0.11731682 0.88981694 0.8134343 -0.36322936 0.17374316 -0.14826258 -0.47335505 -1.188764 0.3075058 -0.11408516 
0.75679904 0.08282482 0.8859035 1.3233981 0.9578557 -0.888561 -0.60828674 1.0680541 -0.27120635 1.4553872 
-0.6929261 -0.9053629 -0.7571781 -0.6257325 -0.47140878 0.41524637 1.6237628 0.36514518 0.5855422 0.07476302 
-0.051320195 0.8890923 -0.7240726 -0.20937566 0.3639931 -0.6584151 0.924679 -0.6291419 0.6214107 -0.7119312 
0.32738513 0.32403204 -0.2229103 -1.2880243 0.6630964 0.90213317 1.1102347 0.50740904 0.50175494 -0.86206466 
-1.3721309 -0.6330543 -0.5953355 -0.49747515 0.041502666 -0.10339327 -0.092410356 1.211606 0.14950411 0.19750138 
-0.1675537 0.59704775 1.1454151 0.74179155 -0.6180807 -0.57202727 1.1749822 -0.3480993 -0.6153129 0.47886127 
-0.06634639 0.4496365 1.2331771 -0.95555097 -1.0065678 0.96362126 -1.3295058 0.088921174 0.8649566 0.937005 
-0.63645846 0.28225842 0.30207738 -0.027185312 0.9289375 0.07130484 0.16778243 -0.1824178 -0.76809484 0.48996237 
0.9011294 -1.1862531 -0.048526872 -0.41340393 -0.44170144 -0.9417993 0.29103756 0.60008705 -0.22005819 -1.7566514 
-0.2849229 0.015386967 0.15526159 0.012327668 0.4356596 -0.6515277 -0.4290197 0.16852556 0.66523975 -1.6532568 
1.2408109 0.07632688 -1.6566819 0.69715405 0.16808893 0.16391046 0.59700775 -0.63737744 1.0757341 -0.31421036 
-0.3136416 1.0263414 -1.9638098 -0.9445973 0.6868588 -0.43134442 -1.1520941 -1.1220672 -1.7707863 0.22352529 
0.87099487 -0.93639183 0.093720704 0.8089715 -0.2288576 -0.65411156 -1.3627155 -0.14811628 -0.1880213 -0.33697623 
0.41628355 1.1350325 0.15355954 0.6784931 0.82915324 0.83959657 -0.3319546 -0.524846 0.635385 -1.0456731 
1.0578797 -0.3708532 -0.57301396 0.03192956 0.37542647 -0.023882298 0.44690198 0.042809714 0.29500684 0.6166488 
0.18209131 0.54611343 -0.86979 1.7172494 1.0226386 0.31044838 0.10547957 1.4510131 -0.47592023 -1.8237598 
-0.38458037 0.40253916 -1.3984555 0.4979989 0.28110138 0.8861899 -0.5981977 -1.051769 -1.1790258 0.09148997 
-0.24844337 1.4089864 0.38516685 0.95449543 0.32714358 -0.70309335 0.26256126 0.04341469 -0.57726747 -0.026001113 
-0.81530166 -0.13331302 -1.0798268 -0.19197178 -0.5675171 0.5464672 0.539782 -0.69238985 0.8384594 -0.9161435 
1.2891586 0.6283917 1.117327 -0.28547025 -0.67708266 -0.6687933 -0.5242857 -0.3244073 0.9293398 0.26531455 
1.83244 0.09607491 0.23287387 -0.56434476 0.7822656 -1.0351486 1.0583807 -1.3547956 1.1254034 1.677255 
1.0373843 0.39316273 0.41441798 -1.4459026 -0.855641 -0.17342362 -1.3742259 -1.3235526 0.64618033 0.82633066 
1.2158235 1.0974505 -0.46065697 -0.96903163 -0.062165387 -0.27365977 -0.87322694 1.6062157 0.1309723 0.4990556 
-1.0852454 0.650955 0.89369 1.1090008 -1.3794075 -0.76944983 -0.78310364 -0.26683292 0.30658248 -1.5995755 
-0.29208884 -0.42590377 -0.9551387 0.8733903 0.16834542 -0.5990447 0.6374323 0.67223436 1.7312421 -0.9513515 
-0.7089011 -0.70272475 -1.2198492 -0.3357017 0.12199949 -0.027061598 1.0619819 -1.4463785 -1.2868602 0.36588156 
0.30815122 1.1739327 -0.8053672 -1.3700892 0.030815838 -0.95163727 0.83753186 -0.25194553 0.7457417 -0.9853025 
0.68313116 0.01346755 0.013566159 -0.08533224 0.68107045 0.03916124 0.04193784 0.07278332 0.08922031 -0.0054387534 
0.6747563 0.059231114 -1.3790104 0.9269155 -0.889239 -1.6787226 0.5877864 1.4264891 0.9180768 -0.1837845 
-0.17366627 0.3207757 -0.033199314 -0.00811015 -0.8437839 -0.3893751 0.7150693 -0.17992118 -0.22770537 -0.26903924 
0.22145164 -0.81616634 -1.0939618 -0.5778608 -1.0563613 0.57673454 1.2461373 1.3807311 0.35855213 0.55477744 
0.20846632 -0.91147524 -1.4524499 -0.09614955 0.2260662 1.1770722 0.20607574 -0.7817791 -0.6517995 0.87402433 
-0.24017115 0.25224394 -0.329651 -1.589464 0.71537024 0.27926466 0.68082833 0.4371063 1.3631688 1.5441767 
0.51886684 0.0014117407 0.57572615 1.197419 -0.40451175 0.4040984 -0.052314464 -0.7454026 -1.2538415 -1.34456 
0.014719234 -0.051917918 -0.30826342 0.5526984 -0.97537994 -0.37465283 0.40197867 0.63343567 1.5518968 0.17917353 
-0.09010083 -0.30884513 0.041203395 -0.037758928 -0.04734012 -0.022968765 0.05630615 0.6549551 0.082431585 0.008845353 
-1.3203018 -0.40195456 0.018369434 -0.2207686 -0.84638816 -0.76772606 0.68140334 -1.414869 -0.6696829 0.15839651 
-1.2806066 1.0588288 -1.6358229 -1.2198231 0.41138 0.058508668 0.60357195 0.069894776 1.0679889 -0.85479116 
-0.030533642 0.007925573 0.020942826 -0.11974612 0.027249949 0.5212725 -0.22159612 0.096684925 -0.12850791 0.0040263124 
0.46607152 0.29077235 0.6921466 -0.2565056 -0.30268112 -0.10481113 0.7659064 1.2212716 -0.6603048 0.12702179 
-0.69748574 0.35871515 0.5527581 -0.34719056 -0.47797844 1.4255996 0.2499834 -1.6695362 -0.09077441 0.7772285 
0.26689926 1.4986031 -0.7128909 1.0946869 0.5716453 -1.780688 -1.1924464 -1.070782 0.28303948 0.88253677 
-0.1967425 0.18328789 -0.98524 -0.2554245 0.26590446 0.37361673 -0.053506713 0.047332168 -0.39229977 -0.45122823 
-0.8395962 -0.72564495 1.759487 -0.55160457 0.19454141 -0.46323234 0.07366274 0.19833913 -0.36093527 -0.11498555 
-0.05328753 -0.68850493 0.9801602 -1.5541306 0.48342973 -0.14702074 -1.0053811 -0.96272993 1.1123908 -0.61343324 
-0.6058066 -1.2746699 -1.3922039 1.2755866 -0.058533575 -0.26859707 0.32092312 0.7739965 1.4370666 -1.0232046 
-0.7833944 -0.45572153 0.08734711 -0.2721231 -0.78619057 0.6855456 0.7106045 0.8500035 -1.4899005 1.0996604 
-0.012158679 0.73783743 0.20008421 -0.16526987 -0.019620841 -0.005608595 -5.804961e-32 0.059805095 -0.011064798 -0.6601063 
-0.71712637 0.2871396 0.33087006 -1.2289169 1.1955729 1.6894286 0.4851666 0.38777852 0.38921067 -1.027352 
-0.259238 -0.8472855 0.5925009 0.13528232 0.10595295 0.68561673 -1.4689641 0.37140274 -0.25237402 -0.57014763 
-0.25917116 -0.30549932 -0.5532377 0.91270685 -0.82664126 -1.7407424 0.74111545 0.5092891 -1.1719033 0.3972207 
-0.41833442 -1.0672472 0.9748429 1.4603405 0.37626636 -0.6993393 -0.0072090384 -0.31159475 -0.17233673 0.20107937 
0.5242202 -0.8929557 1.0922934 -1.6476017 0.7384944 0.111312404 -0.7255958 0.24134329 0.4417766 0.9083665 
1.2373441 1.4533031 0.38687164 0.74877155 1.7239329 -0.23303036 1.1131266 0.7401122 -0.6546798 -0.7266419 
-1.0575969 -0.5509937 0.7439669 0.35245958 0.6103209 0.9524094 -0.11560063 -1.0237305 -0.26230454 -0.084698565 
-1.252326 0.9662268 1.6253827 1.0688101 -0.417677 -0.2581639 0.34412232 -1.6443818 -1.3774948 -0.4744687 
1.1432335 0.47128525 -0.05224148 -1.8494462 -0.13610226 0.04975153 0.8532408 -1.3547916 0.20070162 -0.21854852 
-0.11655661 -0.8511853 -0.0063384385 0.5598859 -1.2866774 0.50594026 -0.4212487 -0.0068074237 0.16264035 0.07730203 
1.5380232 -0.0009907897 -1.1758001 0.7824258 0.5234711 0.2650541 1.0266465 -0.3503999 -0.27726912 1.0696597 
1.0907905 -1.0262938 -0.058264967 0.53001887 0.2796288 -0.410802 -0.115583256 -1.6206691 0.93751526 0.6762346 
-0.8493155 -0.82039577 1.0399545 0.53095406 0.06603671 0.6692148 0.24177328 -0.44769174 -0.44704968 -0.25786236 
0.2982595 0.05064198 -0.76651263 -0.31657496 0.061808366 -0.1979659 0.008859596 -0.22437963 -0.3046807 0.5793476 
0.60898274 0.2827964 -1.2648759 1.2229776 -0.35254428 0.7642312 -0.4369478 -1.4582133 0.49389362 -0.002072639 
0.6201362 0.85779953 0.16159445 0.6011882 0.72135586 0.84141475 -1.7237189 0.8075026 -1.8192338 1.3929745 
1.1967916 0.3116107 -0.47485447 -1.5582304 0.75663596 -1.6960369 1.6600746 0.421156 -1.2345374 1.3670244 
0.016495097 0.24848129 -0.34783202 -0.3968833 -0.5216445 -0.8804933 -0.6618785 1.4161465 0.18284467 0.5850728 
0.38912293 -0.1113241 1.0878187 -0.31152204 0.7002636 -0.528211 0.098394476 0.99924475 0.42894953 -0.056396324 
0.81553435 -0.79114527 -0.7999963 -1.3255926 -0.64943874 -0.9457831 -0.72970754 0.23039344 -0.74035114 0.274884 
-8.9864045e-32 4.6321954e-32 7.8004095e-32 5.354564e-32 6.2826946e-32 -1.7624054e-31 -2.5789785e-32 1.513441e-31 1.5551443e-32 1.9227554e-31 
1.2532684 -0.056038424 0.11196742 -1.0356013 -1.3288378 0.17499547 1.2816875 -0.8959569 0.13007592 0.12644923 
-0.83718395 -0.021466026 -1.1422683 0.11570758 1.3579412 1.1534157 -0.7555061 0.3018483 -1.5029323 -1.6656227 
-1.6797532 0.07386645 -1.347633 -0.085702285 -1.3393085 0.29242763 -0.24224703 -0.93929523 1.6910393 -1.1218587 
0.7686948 0.93778235 1.0228364 -0.38260317 -0.5816791 0.046686232 -1.0209157 0.037345387 0.97791404 -1.1732796 
-1.2514957 0.6170928 0.50658685 0.93077236 0.9762527 0.14115141 -0.42725804 -1.2955952 0.4043005 -1.3126601 
-0.5588195 0.60679847 1.2704767 -0.05271828 0.8107307 1.1971791 -1.0801731 0.11230829 0.47233397 -0.2596027 
-1.6522441 1.2349734 1.659432 -0.7393972 -0.7214647 0.9525457 -0.22910538 -0.15224476 -0.6606383 -1.0553956 
1.1505443 -1.061543 0.1947924 0.2776123 -0.014321178 1.0333226 -0.39893395 -0.1827181 1.0184011 -0.4631514 
-0.68134475 1.5983194 -0.4610454 -0.9451891 -0.5441882 -0.0669991 -0.103891045 -1.1138339 0.047061898 0.031542394 
-0.43322232 -0.41606313 0.3556466 1.5307235 -0.4372554 -0.7609044 -1.0254135 0.85221785 -0.38541397 1.1137304 
-1.610989 1.8955213 0.18749788 -0.3922101 0.9133968 -0.3362281 -0.83345574 -0.936052 -0.77211195 1.4924506 
-7.667625e-32 -1.9383947e-06 -0.008806836 -0.0016315717 0.00203265 0.008912324 7.149981e-32 1.1078717e-08 -0.0776445 -0.018580643 
-0.31237975 0.31848374 -1.8675743 -0.42389017 -0.20621507 -1.094434 0.14585003 -1.2078108 0.30188534 -0.31990343 
0.16858521 0.0027638664 0.22374299 0.43058592 -0.0072618453 0.0048329365 0.0006842482 -0.00065564987 0.14767335 -0.0019728732 
0.49676535 0.051850133 -0.74987936 -1.0759151 -0.31848806 -1.2033821 -0.052623417 -0.60792947 1.8218898 0.34157273 
-0.76154834 0.77471125 0.5380511 1.0015893 -1.6927563 -1.3599136 -0.94615895 1.7282158 -1.0440067 1.5416657 
-0.67977005 0.38835606 -0.67107904 -0.9603309 -0.7697164 0.42753416 0.58051354 0.6947125 -1.3512025 1.9051011 
0.5772626 -0.3894718 0.3965509 0.61583304 0.81039375 -0.39562833 -0.9123624 -1.3665928 0.7256697 1.4302988 
-0.088155925 0.036446515 0.12631546 -0.22692358 1.1232241 0.6868481 0.23806398 0.5021995 -0.10669616 0.05107695 
-0.34420773 0.68441665 -0.4498411 -0.67565376 -0.19513111 -0.20468561 -0.088345826 0.5308713 0.92424357 0.41191265 
1.0991269 -0.8300005 -0.87113637 0.26420647 0.35396126 0.2390754 -1.2012076 0.97533035 0.45620745 0.76172686 
-1.3970021 0.15581486 1.2148603 -0.8700541 -1.4675592 1.2034597 0.021889776 0.91523385 1.0692544 1.035475 
0.28255498 -1.0359709 1.0338702 -1.4058715 0.51989675 -1.1610572 0.7942459 0.66132 0.25126866 1.4142032 
1.7321379 -0.1309096 0.030320374 -0.045552466 1.4376764 -0.75585246 0.8027065 -0.57848805 -0.6484901 1.5718378 
0.31992143 -0.3543383 0.15651573 0.8581944 -0.39459765 0.8387507 1.0429015 1.0690914 -1.0891114 0.93557 
0.9892932 1.5862731 0.46453056 0.6450213 -1.5228547 1.1302153 -1.6283617 0.09873124 1.0766709 -1.0234262 
-0.43910265 1.2460216 1.2378883 0.8294257 1.1438388 -0.87039 -0.40440252 0.8268582 -0.9103917 0.72378224 
-0.05246085 0.12033775 -1.3129594 1.9035524 0.43261543 0.030814145 0.38002467 0.5914589 1.4362321 0.9843011 
0.04646794 0.49724752 1.0896528 -1.0405431 0.4135628 -0.79983556 -0.34527004 -1.3724219 -0.40372378 -0.44342738 
-0.65337336 -0.40315732 0.7004611 0.5885931 -0.081544235 -0.5815195 -0.10077921 -0.7261201 1.008829 0.766545 
-0.033449326 1.899901 0.92779964 -1.818063 -0.25284085 0.6631468 0.71287274 1.0279164 -1.1610676 -0.6281188 
-0.46896908 0.3078526 0.096288316 -1.9183667 0.57463753 0.7844193 -0.16547348 -0.21508732 0.7031474 -1.2486645 
-0.2560335 0.7987462 -0.17662737 -0.12159011 -0.2378521 -0.15373707 -0.11114048 0.34718964 -0.07129759 0.10184591 
0.21066871 -0.22918111 -0.21474181 1.0085683 0.055936974 -0.84165543 -0.25000077 0.94549376 -0.43833816 1.3829648 
0.15915239 0.8863309 0.23742932 1.7508987 0.24359165 -1.027152 -0.8500931 0.27927455 -0.46491224 -0.71810347 
-1.3561753 0.12170631 -0.23809798 0.75925004 -0.96266985 0.37699473 -0.9692985 -0.4518297 0.32146513 0.3282139 
0.07452464 1.624305 -0.2854609 -0.6136841 -1.3598521 1.152945 -0.4574942 1.2742531 -0.11798175 -0.49719155 
0.4132345 -0.23600987 1.2439189 1.1925575 0.70688474 -0.7737197 1.1618248 0.079854496 1.3475502 -0.39921263 
0.07145293 0.48414463 -1.4057087 -0.28391126 1.0393178 -0.26928818 0.42541555 1.2316421 0.6041028 -1.8016177 
-0.5497536 -1.6926048 0.5440433 0.8250054 -1.2677615 -0.16271694 0.5998712 1.030078 0.20683369 0.24969485 
0.05934641 -1.1470922 0.8855066 0.5755175 -0.4614813 -1.1987189 0.43612748 0.85338736 0.71918947 -0.82557154 
0.2198878 0.5781022 -0.8976201 -0.28174663 -0.33962765 0.3177872 -0.035265908 -0.32240647 -0.24177662 -0.96667385 
1.062675 0.553981 -0.9821565 -0.35245115 -1.6001711 0.34348625 1.1659561 1.3991276 -0.04020748 -0.79999256 
-1.1971287 -0.752558 -0.4709058 -0.26048613 0.6878469 0.16933729 0.81565344 -0.053439606 -0.18793824 1.598925 
1.1118501 0.28363514 -0.18847156 1.4422963 0.2535173 0.1145376 -1.7315836 -0.013154423 -0.051906675 -0.27370057 
0.5422319 0.0009757942 0.5733416 0.20248264 -1.506209 0.07786674 -0.86644727 0.12872013 1.1378002 0.59730077 
-0.5166763 0.55396134 1.1176934 -0.24675226 -0.22931355 -0.09283255 0.73069996 0.5421122 0.064212814 0.55546933 
-0.8115641 0.59601927 0.060989473 0.28661865 -0.4429798 -0.80607283 -0.056430716 -0.17953147 -0.4715971 0.50890076 
1.3411891 1.4396152 0.21487473 0.19440474 -0.2210248 0.6035136 -0.91998076 -1.4579768 -0.8830752 -0.68987036 
1.2960882 0.078589894 -0.1571317 0.109688155 -0.007946431 -0.06036748 -0.50861096 -0.027216723 0.12530951 -0.06707849 
1.1801531 -0.6856932 0.7912396 -0.8729254 1.1172708 0.396942 0.15525047 0.87684834 0.98085934 -0.2723908 
-0.088200875 -0.6253494 -1.8424273 -0.33804467 -1.6385618 0.7414498 0.9266217 -0.44874454 -1.0635124 0.31279486 
-0.32583877 0.5518404 1.6352699 0.87263525 0.07257035 -1.1112202 0.3668638 -1.0383786 0.9652479 0.8009529 
0.30346498 0.0028914688 -0.26525885 -0.21431944 -0.022410534 -0.6355067 -1.0799363 -0.32731852 -0.001712603 -0.030435827 
-0.26659068 1.3344415 -0.018308105 -1.9423558 -0.10327519 -0.8617569 1.3115507 -0.4987771 1.519764 1.0947586 
0.6643536 -1.1715183 0.28119475 -1.0994012 1.0967702 1.4468994 -0.75189126 0.23673174 -0.79627115 -0.8323685 
-0.1125897 -0.9800376 -0.845998 -0.09587919 -1.2117431 -0.08049886 0.01081581 0.009663347 -0.27885348 -0.13356139 
1.3823975 -0.14541425 0.7809863 -0.9218317 -0.6599159 -1.6962128 -0.21120974 -0.8914782 0.32276034 -0.5117714 
-0.117085375 -0.00022575192 0.48479375 -0.26240692 1.0006032 1.2794542 -0.9308569 0.3089252 0.056350734 -0.5161733 
0.73167956 0.31259608 0.5481008 -0.01589632 0.91720843 0.9077705 0.09255377 1.9340322 -1.1824728 0.31412885 
0.6534743 -0.5074883 0.04948981 1.5136123 0.5282046 -1.1635714 0.48476875 0.726965 1.8123922 -0.20445178 
0.7103242 0.22349758 -0.98041594 -0.2871279 -0.27217606 -1.1232146 0.5176663 -0.35597906 0.58630717 0.32900947 
-0.10278723 0.07527048 -0.36192274 -0.06012421 -0.069661535 -0.8525993 -0.19333348 0.025091263 -0.73330325 -0.24110812 
0.67356414 0.8528535 -0.7715344 0.092957966 0.011682135 0.023734303 -0.03784562 0.35109416 0.58724886 1.0144658 
1.1695278 0.38440752 1.4374453 0.28906533 0.73936945 -1.794039 -0.38525867 0.26776758 0.7619933 0.40116382 
0.08847991 0.5830861 0.6195769 -1.3147621 -0.81566745 1.7482228 0.52701706 -0.33362183 -0.3426143 0.14930722 
-1.794619 0.93147993 -1.4339114 3.659406e-05 -0.195128 -0.16111252 -0.773887 -1.6408472 -0.4431691 -0.33677548 
-1.004879 0.038402047 -0.52279735 1.08984 -0.5667713 0.02395189 0.3950112 -1.0558497 -0.765006 -0.2726889 
-0.040238917 0.07332431 -0.024984643 -0.09820165 -0.058181062 -0.056807473 -0.0047550346 0.06852059 0.1727966 -0.05781492 
0.1553074 -1.8990712 0.7334296 0.029797355 0.5868516 -0.81726575 -0.34031048 -1.0273147 -1.3352046 1.8456191 
-0.4950677 0.5113963 -0.4877399 0.7544778 -0.3993158 0.21089503 0.9117498 1.4300549 0.08837629 0.28162318 
0.57552713 -0.21573539 -0.33241114 -0.7605897 -1.2858443 0.010809365 -0.33858654 0.32565805 0.17530264 -0.3911974 
-0.6841225 -1.4168191 -0.5510995 -1.0522665 -0.2895484 -0.12667198 0.23746748 -0.32311273 0.39807925 0.7382926 
0.32307726 -0.2476473 -0.023999304 0.3282572 -0.855515 -1.9577484 0.09462272 -0.64838594 0.29496783 -0.07116242 
-0.6318482 -0.45611036 -0.037885353 -1.5825137 -0.2563252 -0.9132869 -1.3318515 0.43336126 0.02119124 -0.27136612 
-0.9453419 0.52316236 0.90768224 -1.27035 0.73726565 0.34053892 -1.1499019 -0.05453003 1.4946924 -1.5622348 
-1.2043993 -1.244674 0.71405107 -0.33073297 -0.1461172 -0.22374648 0.4975682 0.100911796 1.5453328 -0.87646085 
-0.65623105 1.2706447 1.2593334 0.03224145 0.999785 -1.8138641 -0.97198135 0.2788483 -0.42797095 1.375688 
-0.7200513 -0.7716448 0.11641298 0.56852525 -0.4051188 -0.03255319 -0.2846467 0.074849434 -1.3558719 -0.5891826 
-1.1053964 -0.738315 0.19914597 -0.26869947 -0.5852908 0.41623417 -0.38331476 -0.23565233 -0.50132746 0.30481482 
0.20933105 1.2862962 -0.2710731 1.4488997 0.18678986 0.30218223 1.4746729 -0.56161034 -0.13292523 0.4073841 
-0.14183414 -0.46984136 0.17104487 0.10380411 -0.6152101 -0.62200475 0.5816499 -0.95064354 -0.5310983 0.59571314 
0.25888425 -0.27215865 1.3688669 -0.25983718 0.6992084 0.0750472 0.005744347 -0.41967654 -0.01760699 0.041816175 
0.1579213 -0.80509067 -1.3683393 1.2377187 -0.20746593 -1.0366248 1.7190593 -0.8125734 -0.48247755 0.21508215 
0.97072613 0.9041905 0.9292488 0.50237876 0.110468976 0.06893616 0.85718864 0.742935 1.2028213 -1.4363096 
6.4513105e-32 2.503787e-33 -1.7651585e-31 1.7699378e-31 7.604826e-32 2.0541814e-32 -7.3620964e-32 7.3376896e-32 -4.9690215e-32 -8.382443e-32 
-0.10680161 0.52996683 0.26319915 0.19454332 -1.0475831 -1.1010221 -0.5348136 -0.19817811 -0.27365837 -0.5156361 
-0.22004756 -0.5421453 -0.85431296 0.6111093 0.45140436 1.4272634 0.8854249 0.009549126 -0.25681004 -0.7892779 
