0.7961233 0.497428 1.1806446 -0.0334038 -0.23907723 -0.5154345 1.2627885 -0.20098098 -1.2412483 -0.113067314 
-0.11691165 -0.6421284 -1.2921242 0.86964846 -0.62031233 1.1792374 -0.23352149 -0.19584055 0.28255162 -0.30001363 
0.6194643 0.39821574 -0.5735103 0.5349689 -0.34683937 0.3792509 -0.46349147 -0.95787007 -0.7054755 -0.511548 
-0.64627486 -0.64558464 -0.9195591 -0.36203638 -1.6156967 0.3023905 0.68691945 0.24799645 0.16287749 -1.4796387 
0.035104766 0.7150933 0.23754875 1.4826852 1.572127 -1.0308759 -0.05291519 0.48155317 -0.822705 1.1625328 
-0.15303785 0.48959547 -0.35934263 0.68527913 0.398685 -1.5351511 -0.8580268 0.7342941 0.97109187 1.4279128 
-0.05621612 0.876176 -0.6974571 0.983033 0.0518109 0.32966694 -0.42276505 -1.2487072 0.29637167 1.2556933 
-0.015001664 -1.5920469 -0.5321121 1.2959267 0.24219742 1.2873162 1.1518124 0.41917402 -0.59965426 -0.26818165 
0.7281801 0.56854075 0.47889113 1.3975457 -0.45961374 0.977582 -0.7818213 0.9059019 0.7648656 0.5513861 
0.13978623 1.3528303 0.502826 1.2999934 0.9625655 -0.49806502 0.99521124 0.5541559 -0.30163032 0.58219707 
-0.20584849 -1.0683122 0.91197175 -0.33740962 -0.64220184 1.5345984 -0.7893659 0.7892554 1.5083315 0.17710689 
1.9752563 0.8630618 -0.70366246 0.17060752 -0.4781265 -0.7040463 1.0470731 -0.3428975 0.06787789 0.12023051 
1.4083247 0.3294512 -0.84869885 -0.9446104 -1.1708695 0.526508 -0.7723907 0.49082363 0.4496439 -0.3979184 
0.48191747 0.43192682 -0.17468414 0.2222468 -0.025261976 0.2563695 -0.6907275 -0.9279832 0.6351883 -0.23260555 
-1.018736 -1.0181658 0.039208584 -0.41559502 0.89867646 0.09525281 -1.2410537 -1.1090828 0.44219115 0.29641342 
-1.362778 -0.3238937 0.85089034 -1.2320931 1.4263456 0.42331484 1.6133543 0.3055531 0.91894525 -1.2374288 
-0.496465 -0.029326672 -1.1114621 -0.012726526 1.439635 0.122632846 0.18861215 -0.38701183 -0.09138538 0.008420745 
-1.6446531 0.7603706 -0.25432596 -0.029962927 -0.41857275 -0.5050806 0.10904302 -0.26758528 -0.24632943 -0.17990834 
-0.70337915 -0.13176484 -1.348521 0.028498108 -0.3892249 0.3454723 0.56838375 -0.65129155 -0.50477546 0.32763585 
-1.1899621 -0.7706499 -1.0071422 -1.2196707 -0.105420485 0.6094685 0.94018954 0.17007597 -0.5357245 0.6686155 
0.5479258 -0.6576301 -0.7685524 -1.5110784 1.2412045 -0.95850927 -1.067503 1.4533252 -0.099874474 1.116131 
-1.024012 0.022621732 -0.20836814 -1.2494702 -0.5747635 -0.106495686 -1.4812113 1.9147589 -0.110564955 1.1044267 
0.33547524 0.30908448 -0.9663205 -0.78099746 0.14162093 -0.0754868 -0.52118725 -0.13399772 -0.014737698 -2.0787988 
-0.029523851 -0.30111292 1.0549684 0.2962758 0.29981145 0.2142115 0.24322046 -1.3157604 0.12946804 0.6435605 
0.0151741905 -0.13306342 0.8984673 0.6154483 0.7245912 0.35065523 -1.7382497 -0.37188593 -0.9344201 -0.870688 
-1.4552095 0.09065985 0.74169034 0.93463176 -0.3323255 0.24433252 -1.3419416 -1.3000097 0.5458498 -0.7722698 
-0.30685067 0.53218275 -0.2415026 -0.487038 -0.17971736 1.2234197 -0.10827099 -0.04884834 0.9551256 -1.2436905 
-0.23343302 0.043029524 -0.041065514 -0.0050811064 0.09631857 -0.1026506 -0.030841023 0.1615963 0.15634584 0.13007045 
0.9779247 -0.27322894 1.5314189 -0.1971533 0.0011904772 0.43608236 -1.7431757 1.4401067 0.245852 -0.16666774 
0.32266423 -0.5762396 1.3589733 -0.75010246 0.76587915 -0.8268102 0.5433673 -0.98830736 -0.40554512 -0.8615872 
-0.37187994 1.4604576 -0.076018885 -0.23814735 0.3368422 -0.06672344 -0.29071897 0.7075929 0.10157306 -0.06417572 
1.4853055 0.12886442 0.8751278 1.3924928 -1.0798929 -0.14187285 0.07234201 0.8338643 -0.086758904 0.5510179 
0.6847505 1.2487192 0.58764386 -0.9646546 0.72887534 0.037505336 0.9083457 1.1730157 -0.49718142 -1.5380179 
1.1967863 -0.43926266 0.08012625 1.1095732 -0.2706677 0.58178854 0.07534986 1.0554096 0.15338305 1.2560816 
-0.11598423 0.3475839 -0.15102758 -0.5045832 -0.6650066 0.43163946 0.4968351 0.03668661 0.6920949 -0.11628148 
0.53817016 1.0332074 0.48665726 -1.078223 0.7891918 0.08785605 1.1494071 0.9191699 -0.5417598 -0.72261846 
-0.89345044 -0.62272274 -0.5118661 0.024572069 -0.99493414 0.18534593 -0.39642307 -1.358749 0.3663965 0.6187867 
1.5331967 0.4448712 -1.2547088 0.6872721 -0.8623243 -0.27077845 0.5547301 -0.04209356 -0.80615586 1.7100707 
0.7673402 0.46758407 0.33718526 1.3884491 1.2864364 -0.78479075 1.1058224 -1.1593835 0.17178468 -0.34794053 
0.30842584 -0.042415887 -0.21734188 1.3631194 0.046978723 1.4293513 0.57793206 -0.4128169 1.6001971 -0.32276165 
0.23973118 -0.34991977 -0.8952521 0.41729704 1.8361152 -0.49315646 0.69249105 1.3491957 -0.9442553 -0.1192631 
-0.48927423 -1.0699801 -0.38562018 -0.904678 -0.5651903 -0.5255572 0.7290769 0.1527455 -1.3725542 -0.96482754 
0.87378216 -0.37600556 0.7964 0.29217634 -0.8879118 -0.081843294 0.49779996 -0.06966457 0.97167444 -1.2106218 
-0.31817564 -0.93872744 0.09094221 -0.85280305 -0.7326526 -0.13621724 -0.95887065 -0.39380354 -0.88942564 -1.4027314 
-0.026534455 -0.40022942 -0.13485895 -0.24064435 0.2576073 0.1722845 -1.1509957 0.9786709 0.55960774 0.32062718 
0.37523192 -0.413461 -0.76029134 -1.2522122 -0.42014238 -0.44057298 -1.097828 -0.7315724 -0.56141585 -0.6294033 
0.77329046 -0.6309654 -0.47816217 -0.05076354 -0.2550362 0.5451207 0.13168384 -0.10514635 -0.7894229 -1.0164726 
0.59318084 -1.1316319 -0.5236635 -0.700261 -0.09753551 -0.89870113 -1.4095054 -0.4070577 0.24671064 -1.0092918 
-0.25835705 -0.17339237 0.3642356 0.1859258 0.9604243 0.24729945 -0.51521885 -0.70965254 1.0807631 -0.4411284 
0.0954089 -0.3597396 -0.7887101 -0.13338682 0.15122607 -0.09011593 -0.32351208 0.9639245 -0.9005382 -0.21011283 
0.008611398 0.48909673 -0.44440728 -0.3525226 0.23266779 0.64910775 1.7860501 0.6180707 0.013667961 0.20969188 
-0.13378565 -0.03414521 -0.008927423 0.86145204 -0.016893184 -0.10801009 0.029795865 -0.017857162 -0.42823625 -0.49983504 
0.42429474 0.26788008 -0.32372138 -1.0748552 -1.2628351 -0.43515825 -1.2593591 0.08061971 -1.6882117 -1.0499905 
0.33080962 -0.17752913 0.37210527 -0.100000486 0.09437205 -0.261909 -0.6786827 1.8070686 -0.117597796 -0.937807 
-0.2435495 -0.56848866 0.5170288 -0.17739901 -0.35972401 0.6949378 -0.06527027 0.18986581 -0.111065835 -0.028020112 
0.19393961 -1.1927652 1.2818154 0.82668287 0.37848645 0.5557936 -0.37688744 1.8958848 -0.11360756 1.5517488 
0.45024723 0.9871156 0.68346566 -0.91865635 0.38279948 0.18514517 -1.5817358 -0.7325582 -1.7192882 0.43199086 
-0.3267179 -0.62251705 -0.71252227 0.25648168 -0.116167195 -0.045930345 -0.9722577 -0.009563133 -0.36368662 0.8235182 
-0.10740674 0.038493987 0.0768241 -0.3630826 -1.0835807 -0.7832739 0.13797584 -0.06095854 -0.32745525 -0.34715244 
0.32905293 -1.8575011 0.11551802 -1.2081013 -0.5841157 -1.1128974 -0.16179557 -0.5306952 0.97872406 -0.3719724 
-0.32551003 0.35665628 -0.72594106 0.7989403 -0.15473609 0.2867794 -1.1710297 -0.5299841 0.35082752 0.5543209 
-0.08584436 -1.6184132 -0.16904064 1.0499727 -1.2592676 0.24674605 0.06339261 -0.22243416 -0.5181739 -0.13749602 
0.956398 -1.492898 0.39155024 -0.5778366 0.83660036 0.76147085 -0.26302576 -0.18255988 0.53376347 0.85408646 
0.59681845 -0.3189579 -0.98961776 -0.32262224 -0.2717279 1.357444 -0.24096003 -0.12116914 0.59933174 -0.7134095 
-0.5783937 -0.13676584 0.0023868165 -0.2839812 -1.5203363 -0.33904654 0.6342299 -0.6667544 0.06640414 0.5350268 
0.5456833 0.1846106 -0.28722337 -0.32553643 0.14262302 0.51092345 -1.5162138 0.26766822 -0.278782 1.4821836 
0.2295554 0.85276765 -0.81772864 -0.5413204 -0.6241242 -1.640533 0.37715313 -1.1180838 0.40008146 0.8113615 
-0.037094496 -0.54561096 0.2630964 0.17775914 -1.4342374 0.9925317 0.97912884 -0.24887028 0.94127315 0.6904094 
0.067468986 -0.007907673 -0.016378863 -0.086803176 0.07024283 0.53145945 -0.0389351 -0.028101731 0.009482855 -0.00902723 
0.435056 0.22912344 -0.37111875 0.121965066 0.0019565404 -0.4020253 0.31036514 -1.1743814 0.39588332 0.94934356 
-0.14028369 -0.81030524 0.16987629 1.3213618 0.3186212 -0.584527 0.15723401 -0.91234225 0.36500877 -0.14023401 
0.92918915 -0.42885283 -0.6119653 0.78137636 0.79378814 0.9682829 0.4897732 1.0934143 -0.47755417 0.015981529 
-0.83471614 1.2370954 -0.37406868 1.3509803 -0.46837062 -1.3612456 -0.5582187 0.27138832 0.6111224 0.92014426 
0.78282416 -1.7059493 -0.8815167 -0.49230677 1.1035451 -0.6587478 0.16822731 -0.2475217 -0.6943153 1.6830186 
-0.20559996 0.13647884 -1.0663399 -0.090348534 0.94594455 -0.944938 -0.23918079 -0.6866863 -0.14995883 -0.09855386 
-1.0768763 0.74784964 1.4368194 0.2998306 -0.90595037 -0.60886294 -0.37853876 0.5185075 0.98644894 0.37803954 
1.2140743 1.3747338 -1.1234105 -0.23133412 -0.4157458 0.4172993 0.85156024 0.68292373 -0.5429086 0.124634184 
0.17402774 0.9236392 -0.4464296 -0.3583997 1.4459314 0.4433359 -0.40870738 0.97722876 0.120421916 0.059332483 
0.2587052 1.2949877 -1.1557639 -0.27040946 -0.12702206 -0.52463716 -0.0230785 0.8722957 -1.312046 0.06473713 
-0.8693916 0.38839313 0.8028229 0.1867022 1.1889876 0.5745799 0.4520071 0.37421528 0.023892287 0.02851476 
-0.882352 0.7514392 -1.323315 0.4668477 0.2461797 -0.59403205 -1.0424992 1.5327189 -0.39039227 0.14894266 
-0.086974435 -0.085062936 -0.2719933 -0.23331049 -0.5813447 0.047872204 -0.20084296 -1.3800288 0.056910165 -0.39197558 
0.72118354 -1.5988064 -0.9493444 0.13036753 1.1382612 -0.009818514 -0.38155234 -0.61660916 0.18792981 1.1729829 
0.18657586 0.38601625 1.0691943 -0.56278473 -0.15757918 -0.083399646 -0.70704585 -0.3122135 -0.025597688 0.72172254 
1.2915298 -1.1475868 1.786612 -1.088685 0.5245829 -1.2489221 -0.01444277 0.18707886 -0.34480265 -0.667238 
0.0632011 0.05867752 0.49091113 -0.790895 -1.6935296 -1.1634854 0.08514782 -1.2060229 -0.45459947 1.0219221 
0.36278537 -1.228174 0.110190615 0.0984057 -0.27508146 -1.5122696 0.67871535 -0.3269461 1.0871574 0.23614252 
1.2278024 -0.51811916 0.98052883 -1.0975355 -0.08277406 0.5783974 0.7095776 0.8647931 0.8447326 -0.7499329 
0.6546519 0.08078022 -0.0335543 1.2240186 0.0919342 -0.7829043 -0.044935256 -0.3989753 -0.93435574 0.49416357 
-0.46085733 0.9399808 -0.91117716 -1.2947451 -1.0465527 -1.5453955 0.81763494 -0.12968634 0.5029189 0.21106397 
0.55248827 -0.48496827 1.0716901 -1.5464295 -1.2447647 -0.98739815 0.3197303 0.05868683 -0.4042891 -0.2614123 
-0.25168955 0.12934564 -0.0015432643 0.31238347 -0.10587281 -0.9652296 1.2255555 -0.07446216 -0.32859522 -6.89092e-11 
0.6651712 -0.6203086 0.01779817 -0.203954 -0.54687446 -0.17983018 0.09723279 -0.49648482 0.8082526 -0.061420113 
0.46426436 -1.4516176 -0.055705335 -1.2160589 0.5790962 -0.09151918 1.3637849 0.11272121 0.09861626 -1.7902483 
1.0869273 -1.2030135 -1.6938472 0.6339473 -0.9205254 0.9798216 -0.31889442 -0.2386133 1.0122727 -0.5914777 
0.51707524 0.49323884 1.1799538 0.61452913 -1.5935884 0.13931087 1.1369033 1.5744897 -1.4789987 -1.2986451 
1.2145225 0.4209436 -0.73296756 0.43819955 -0.12648806 0.09506502 1.0969188 0.725402 -0.13810188 1.2316686 
-0.7376311 1.3712351 0.030370675 -0.607845 0.7829823 -0.58232623 -0.061709095 1.4415998 -0.10381752 0.6428915 
-0.11326007 -0.38170236 1.0185686 0.96000195 0.13972634 0.6052629 -0.5624861 -0.06436427 0.33937088 -1.5515511 
-0.75789374 0.7066696 -1.0400608 -0.35060325 -1.1893727 0.51657516 -0.6376596 -0.89897364 -0.8638 -0.5495969 
-0.40669242 -0.47614607 -0.5826637 0.5418602 0.33614478 0.36268145 -0.67179793 0.0383922 -0.51863843 1.0864158 
-0.33579648 0.19112588 0.42602965 -0.023717722 -0.55811226 -1.5464958 0.4543736 -0.094005376 0.14346243 0.09361469 
-0.058034852 0.37571275 -1.318419 -0.5319891 1.0226823 -0.16566238 0.41695723 -0.017537158 1.4553463 -0.79798096 
0.2802529 1.1261606 -0.0071776016 -0.062042218 -0.74986625 -0.65682137 0.029678117 0.7511414 0.07923933 1.7504188 
1.6547961 0.6665145 0.29457808 -0.08143195 -1.0926204 0.06581405 -0.7635659 1.681468 -0.5622468 0.00061994337 
-0.52064174 1.166422 0.016152402 0.6527485 -0.005861771 0.6774641 -0.13181356 1.5122253 -0.11409285 -0.3532247 
-0.23615561 -0.0401271 -0.3465109 -1.0163907 0.19329472 0.2786311 0.5091678 -0.3032709 -0.51966727 0.46566054 
-0.5067666 -0.38929433 0.2593666 0.89145637 -0.20754012 -0.34156343 0.14938232 -0.06570887 -0.51632994 -0.44620222 
-1.4599118 0.40778798 0.034641568 -1.4390544 0.41599274 1.6946694 -1.1087396 0.2286207 0.2759514 -0.7728859 
-0.19770783 0.6326258 -0.37631693 -0.30181077 0.60558534 0.8190106 0.9387588 0.7000373 0.05534438 0.25237346 
1.3685231 -0.13206306 0.51939756 -0.48709452 0.28444257 -0.75234044 0.12322014 0.5360608 1.08912 0.14264345 
-0.12011225 1.5239278 0.2089895 0.28104556 -0.508643 0.39760962 -0.6567646 -0.22192098 -0.050671425 -0.096942924 
0.20391633 -1.3490691 -0.48507154 -0.49926355 0.6489144 0.55654705 1.7436863 0.15208808 0.4193321 -1.1855191 
0.42428675 -0.5965145 -1.5530671 -0.4665972 -1.5776384 0.95943695 1.1071917 0.8569977 0.43712652 -1.5522655 
0.05904047 -0.061888084 -0.3501194 -0.12813763 0.3781191 1.5865426 -0.04355534 0.119939774 0.175453 -0.9792056 
-0.81369185 0.50503385 -0.36770606 0.7371077 -1.2145609 0.80703497 0.35476783 0.91462237 0.26219296 -0.1454709 
-1.0845438 -0.61016244 0.70012534 -0.020143965 0.21728182 -0.2886235 0.006089683 1.744526 1.3890189 -0.3701438 
-0.44162935 0.09957624 -0.8478806 0.1716546 -1.0292577 0.7830234 0.03960152 -0.7701431 -0.8373815 1.1139199 
-0.5505795 0.77593356 0.6131972 -0.17168787 -0.6850108 1.0887799 0.060657118 0.6987497 0.6982675 -0.02940357 
0.668015 0.3286379 -0.4087474 -1.6175075 -0.40540516 1.0606318 0.48447293 0.14916143 0.45890746 0.3219463 
-0.2645694 -0.023431731 -1.4351937 -0.35133767 -0.18494833 0.044643328 1.4494854 1.0716863 1.0456979 1.7706814 
0.17044036 -0.06425368 -0.4685457 -1.2172157 -0.10853238 -0.3713683 1.1698253 -0.17553587 0.065655544 0.7659626 
0.25066718 -0.5313232 0.3496507 0.26888254 -0.659942 0.7979292 0.41531643 -0.7305971 -0.32819685 1.0176474 
-0.9431336 1.6210471 0.5606982 0.9742615 -0.13129957 0.44389704 0.031997968 -0.61171746 0.7850398 0.15862142 
1.2533374 -1.5178472 0.20644759 -0.81716514 0.6283511 0.22659864 1.5083225 1.4992852 -0.19667067 -1.0267061 
-0.30256382 0.8036817 0.101825416 -0.45980528 -1.1607641 -0.45805323 0.8506909 0.025854487 -0.3297081 -1.6055274 
0.70725626 0.72823787 0.08822881 -0.4497663 0.40208238 -0.83966094 -0.1728528 -0.4592331 -0.022228269 -0.4729193 
0.18226884 -0.012368593 -0.014029509 -0.00995523 -0.090309136 0.90828365 -0.14568308 0.13496703 -0.05288376 -0.3131326 
-0.28087997 0.40060315 -1.5053394 -0.34998795 -0.1380906 -0.31258997 -0.33514288 -0.53776926 0.80707616 0.30703261 
-0.183411 -0.27155745 1.2075729 0.09639403 0.33897436 1.2567518 -0.77949226 0.09830605 0.034967974 -1.015004 
-0.6239393 -0.2257387 -0.41881737 0.76371074 1.3337158 0.7348775 0.93685085 0.61549115 1.0252806 -0.52469456 
0.0035983047 -2.9199482e-18 -9.0189305e-06 0.0308461 0.081124306 0.042687338 0.04485713 -0.019976892 -0.0093985675 -0.031443704 
-1.1033242 -1.041878 -0.99110585 0.01951596 -0.35601476 -0.9590425 -0.53879046 0.32398602 0.50801975 1.4748088 
-0.24560995 -0.77988946 0.95282626 0.7143122 1.3382984 0.082730755 -0.26746005 0.33593947 0.576234 0.2182626 
-0.055795904 1.3775911 0.24893118 -1.2535089 1.2329243 -0.35531428 -0.12087455 0.27618763 -0.037832722 0.8264969 
-0.95510113 1.2978973 1.3574642 -0.9028167 1.2509454 -0.5643825 0.6119908 0.31707206 -0.14956993 -0.37377065 
-0.20111093 0.8108964 0.9533745 0.68364245 -1.0660161 -0.39113376 -0.9866742 -1.3951931 0.56777936 -0.37050942 
1.2951543 0.098201886 -0.049916033 1.0897421 0.13574742 -1.5203927 1.516355 0.17297545 1.7408777 1.1863899 
1.0348785 -0.11554828 -0.5598303 1.1784708 -0.95501953 0.98537093 -0.343986 0.38069332 -0.6003952 0.6594026 
0.554368 0.8852719 -0.058646567 -1.236111 1.2527078 0.27711853 0.38428044 1.7666708 -0.57916266 0.27968282 
-0.03189806 -0.4093012 1.018724 -1.0825218 -0.26222488 -0.7891237 0.85711867 0.9050253 -0.86176604 0.3143771 
-1.4164422 -1.0147479 0.052381236 1.3240168 0.043834522 1.32031 -0.401833 -0.097628064 -0.8871717 -1.4028614 
0.1985787 0.0029568628 1.0336933 0.37588808 -0.4636511 0.5319658 0.85118574 -0.038233228 -1.0543609 -0.11275931 
0.5289318 -0.68702745 0.51377046 -1.3638945 0.6943679 -0.5850951 -0.36324742 0.05115657 0.8820189 0.8193896 
-0.6117989 -0.34474984 -0.039201558 -0.011767232 -0.06206468 0.23495296 -0.0039185863 -0.17975464 0.050493427 -0.42458034 
0.71784717 -0.56911045 -0.3080188 -0.7303323 -0.5448184 0.45875418 0.76374525 -0.42200446 1.2270623 0.18339065 
0.48383138 1.4821163 1.4549558 -0.169393 1.2881829 -1.7292563 -0.80927336 -0.3523933 1.1137853 0.64159954 
0.23662195 -0.31914842 -1.298249 0.32220894 0.043850493 0.32417035 0.6058452 -1.1371629 0.060500197 -0.1354969 
-1.4212514 -1.2761905 -0.28995708 -0.14281715 -0.16548437 -0.31315988 -0.3151808 -1.8738031 -0.33715615 0.21323343 
0.959415 -0.26221678 -1.6543453 -0.46581653 -0.73226994 -0.3510067 -0.59272736 1.2833054 -0.30459255 1.3249708 
-0.13079938 -0.54789597 -0.850141 0.3531834 0.48526725 1.0335232 0.22357164 -0.04337354 -0.40825972 0.578806 
-0.8537559 0.7585117 0.002537522 1.216445 -0.84558815 0.79457426 -0.2924082 0.35117722 -0.88422024 0.19444889 
-1.5861552 -0.02290598 -0.9175022 1.2279792 -0.65387523 0.32882422 0.32492152 0.48992303 1.0971444 0.7752649 
0.013191519 1.3582786 0.71351683 -0.9503549 -1.7744788 -0.24717262 -0.77122253 -0.085655324 0.15065555 1.0846237 
-0.50968087 -0.5843117 -0.32790163 0.09367563 0.77551126 0.99539816 -0.5801198 0.42389658 1.1370666 0.86865824 
-0.8778815 0.94191766 -0.8577674 -0.007428979 0.76450527 1.018831 -0.32962593 1.0530959 -0.03411928 1.2101963 
-1.045401 -0.37117907 0.10654237 0.28405148 0.98839045 0.40946147 1.489512 0.3767484 -0.21876082 0.37522858 
-0.91658646 -0.110320605 0.7393153 -0.019375047 0.908892 -0.4879007 1.2577311 -0.28351396 0.23520929 1.0037905 
0.51498395 -0.51082927 0.99058 -0.18954495 1.2391052 0.8066332 -0.13274814 -1.0654147 -0.015534351 -0.9444038 
0.8024751 -1.0676098 1.4947054 -0.75585014 -0.17440411 0.0048043444 0.03442754 0.676674 0.7929633 -1.4805704 
0.66392034 -0.042730086 0.44552466 -0.36976084 -0.14008793 0.86722064 -0.10491166 0.9040381 -0.35218003 0.9684049 
1.7204299 -0.3861342 -0.5867349 -1.1700699 1.5375596 -0.06014459 -0.875589 0.21751575 0.93271255 -0.010414084 
-1.2952644 0.78207904 -1.4999421 -0.13240303 0.73309106 0.20332234 0.5829222 -1.5746478 -0.78196585 0.23126672 
-0.07930854 0.27708623 0.6293013 -0.21969844 -0.19532646 -0.9898599 -1.4271144 -0.13574907 -0.54632854 0.9830299 
0.6630892 -0.7277093 1.477872 -0.22669631 -0.21846882 -1.5949545 -0.7713393 -0.17322114 -0.67484426 -0.8196342 
-0.6231343 -0.88855577 -0.0076560997 -0.053075038 0.65088814 0.45189378 -0.7890939 0.678398 0.58127064 0.7803412 
0.42490637 -0.60325414 -0.77281916 0.4683091 -0.17666692 0.15179181 -1.1254109 -1.1641724 -1.2305611 1.6128567 
1.0944369 -0.08820941 -0.027305134 1.3079852 1.1862998 0.73799795 -0.107859984 0.6777899 -0.20993182 0.054946586 
-0.18303448 0.01918072 0.5462203 1.2943436 -0.5278781 -0.21759811 -0.72062594 0.16149572 0.9923389 -0.13910083 
-0.008626339 -1.4015362 0.1228992 1.6359509 0.7116335 -1.170135 -0.50558454 0.2555093 -0.5453043 -0.11625206 
0.42923367 0.7131446 -0.7702281 -0.21052156 0.70008695 1.2387129 0.89772034 -0.9808274 -0.6786049 -0.26586744 
-1.0479732 -0.32149652 0.54084915 -0.44889182 0.16376214 -0.6129474 0.41105562 -1.7969245 0.99017954 0.6158742 
0.45188677 0.14598963 -0.12562963 1.0582718 1.2186227 0.21861711 -0.5671222 0.05351147 -0.2007762 -0.40556777 
-0.052687492 -0.022033093 -0.06116018 -0.10396013 0.11576727 0.011127773 0.033885267 0.002187139 -0.018521637 0.13982947 
-0.40238065 0.16714899 0.79812425 -0.4262559 -0.47040328 0.09089766 -0.31409153 1.039113 1.467139 -1.0366039 
-0.7270785 0.17524426 0.39841557 -0.09877649 0.9506976 -0.6111106 1.0166215 -0.113427304 -0.06699257 -1.4017698 
-1.1860881 -0.18430674 0.8268915 -0.7826122 0.812452 0.69654405 0.39065138 1.0399042 1.0667622 -0.42650127 
0.95850986 -0.6685545 -1.052616 1.0973835 1.2467709 0.5075088 -0.0874158 0.40632525 0.42431203 0.38885635 
-0.09868074 -0.72259533 -1.094522 1.3664509 0.5957169 -0.9985316 -1.9211735 0.24719164 -0.12610216 0.88909364 
-0.15519045 -0.75125694 -1.5848361 0.3589086 -0.70496637 0.3558924 -0.9222712 0.20356837 0.5396873 0.54982656 
-0.15536435 0.5491923 -0.6284799 -0.5701639 -0.5904136 0.8094592 0.1036233 0.42409593 1.074754 -0.26738912 
-1.6508241 -0.54625803 0.14108826 1.7937003 0.42692348 -0.141491 0.62844765 -0.78863096 -0.18915439 -1.2615017 
-0.34880084 1.2595435 -0.6894582 0.9008286 0.03551089 -0.042261824 0.07420271 1.6842014 0.80999553 1.4162583 
0.922067 0.7319969 -1.1025422 0.82604694 0.10618482 -0.45357713 -0.6628742 -0.65275156 -1.6772211 0.54733825 
0.10295445 0.4891672 -0.5406015 0.9117189 -0.58142775 -1.1205236 -0.08654299 -1.3241233 0.5528986 0.1605496 
0.32266912 -0.52263004 -0.8695545 0.28742117 -0.3233545 0.36035684 -2.0469322 0.2556605 -1.4744647 -1.559866 
1.1907951 -1.2346641 -0.5640987 0.27720335 0.19993265 -1.0496328 -0.86121285 1.5482622 -1.5424834 -1.0083857 
0.79164153 1.0267224 -0.54486686 -1.1373599 -0.15462641 0.9597273 1.611459 -0.54681087 0.4350344 -0.36674744 
1.0434889 -0.3387565 0.68835735 -1.5511193 0.062310465 0.46521384 0.8314872 -0.5181795 1.2812405 -0.47969478 
0.58944046 0.5405882 0.89409494 0.6091075 0.84260076 0.48331934 -0.71114326 -0.619272 1.0091182 0.42222244 
0.5983346 0.31469968 2.009857 1.0987166 0.8538799 -0.64228356 0.39525688 0.56836206 -1.2494084 -0.5584797 
1.1016887 0.44658837 1.4969214 -0.034223974 0.5113203 -0.67196465 0.45388225 -0.4740215 0.26135164 -0.47612187 
-0.1381343 -0.6535746 -0.1772439 0.049344145 1.035948 0.49871424 -0.73041916 -0.8930977 0.4133272 -0.98173046 
1.5568988 0.31937113 -1.0890566 -0.0068899426 -0.5148778 0.69710225 -0.2157515 0.3605355 -1.4269451 -0.783195 
-0.14809419 0.06491014 -0.05835632 0.15435031 0.15030797 0.50675076 0.2811508 0.2703387 0.8276637 0.122342974 
0.39282417 0.23789129 -0.83437514 0.49915215 0.036296833 0.7338917 -0.0637086 -0.29042676 1.0084261 -1.0007137 
-0.6490132 0.53434724 0.6774454 0.1413449 -0.12754695 0.30577943 -0.5160171 -0.40963215 -0.2094545 -0.9167596 
-1.077149 0.41217503 0.07955926 0.28365597 -0.5760444 -0.3607294 -0.69381005 0.6310103 -0.44454676 0.39162576 
-0.10980642 0.90911955 -0.6358762 -0.18823609 -0.20265473 0.07243562 -0.04857119 0.7573659 -0.27111533 0.70498216 
0.59351826 0.91416544 -1.4722528 1.4376357 -0.994105 0.8571536 0.043004427 -0.29145733 0.98704386 -0.40448993 
1.1101583 -0.9789996 0.5510585 0.2488873 -0.28893417 1.6544621 0.20712875 -0.112827 -0.5556116 0.065841906 
0.55344725 -0.0063632545 0.30697265 0.5892435 -0.09160348 -1.1853337 0.68851036 -0.49778107 -1.2839452 0.9122816 
-1.5265534 0.61596787 -1.0737988 0.5389421 -0.90367746 -0.3687292 -0.6755647 0.08549535 -0.6611267 0.43211663 
0.08134426 -0.064456575 -0.33429837 0.082536824 -0.26444668 -0.31991684 0.014714785 0.57981503 -0.10857828 -1.3269155 
-0.13944902 0.0155954445 -0.31390387 -0.27902862 -1.2897127 0.32443038 -1.4093217 0.69542736 -0.06891154 0.2448797 
-0.050226584 0.48077 -0.26808828 -0.45774248 0.32047474 0.42509308 -0.49609923 1.0961539 -1.1684282 -0.6685056 
0.05140814 0.8051098 0.6806054 -1.0335554 -1.5669174 -0.9330128 -0.26887423 -1.0240408 -0.5796454 0.13399753 
-0.5176993 1.0238336 -0.62034434 0.8851491 -0.33124852 1.0516269 -0.5393478 -0.16710539 0.77891976 0.07028845 
0.9411115 -1.397982 -0.43974143 0.17261036 0.4240719 -0.3817986 0.15064621 -0.041754633 -0.7138702 0.030563295 
-0.3670068 0.7774333 -0.8038072 0.7399554 1.084997 0.5002742 1.9031777 0.05354432 -0.5986529 1.2838916 
-1.5633038 0.75165784 -1.2593583 -0.7789521 -0.46483725 1.3030294 0.49990538 -0.96362346 -0.307881 -0.82426953 
-1.5025837 0.9398044 0.17309214 0.15999418 0.7981762 0.063547 -1.2361411 0.7200501 0.16912973 0.50689495 
-0.39334428 0.37057772 -0.12776332 0.51925135 -0.33248413 1.0543886 1.1293707 -0.82550555 1.0351421 -0.96399814 
0.3685294 1.3813021 0.11788153 -0.7686425 0.9785914 0.28415617 -0.64093775 -1.4303215 -0.49255118 -0.74938124 
0.36045218 0.04315111 0.14860955 0.4858657 -0.18239163 0.18667084 0.03392011 0.054060973 0.48604718 0.01866479 
0.2614626 0.7148858 -0.754968 0.25579944 0.24504726 1.5668682 -0.057744935 0.58453685 0.3393724 0.14185399 
-0.58632535 -0.51613075 -0.38912123 0.09627497 -0.59290004 1.366706 0.22641006 -0.5657342 0.61331683 0.115024306 
1.0965533 0.55041933 -1.7193811 -0.27307338 -0.17059512 -0.37181735 0.37735558 -1.2872679 0.31016475 -0.15818954 
-1.1178344 -0.68339795 -0.35480773 -0.68223304 -0.62793374 -0.6032317 1.1046118 0.63713706 -0.8860478 0.22738022 
0.019327968 -1.2991378 -1.1875567 0.06848561 0.22328994 -0.71579427 0.15117878 0.5387967 0.32528678 1.1347134 
0.6211955 -0.11052463 -0.0049630147 -0.006168969 0.045406755 0.23768117 0.2510885 0.010694937 0.5358427 -0.19684178 
-0.31888258 1.4631976 -0.93298924 0.42379642 0.093918286 1.4597429 -0.6068084 -0.92787606 0.989823 -1.388544 
0.011476342 1.5520942 1.241558 0.37824172 -0.1116079 -0.82436395 0.32373568 0.08716897 -0.43938008 -0.43555662 
-0.44761893 0.013882498 -0.15857244 0.712833 1.0019355 0.21759227 1.0412492 -0.8648613 1.459109 -1.4722914 
0.4812614 -0.048381545 0.20818686 0.82178277 0.549952 0.92046446 -0.25733197 0.69887245 -0.25040483 0.38053793 
0.7552267 -0.40953794 0.64724123 0.28205582 0.29500353 -0.49577737 -0.37267104 -0.15745156 0.7739419 1.380784 
-0.13030954 0.5228537 -0.62423295 0.85933554 -0.2157417 0.005914733 -0.21769726 -0.11942151 -0.34903398 -0.14339697 
0.5155059 0.9862243 -0.2469341 -0.8311273 0.2714583 1.1225973 -0.11310975 0.19765916 0.21865042 -1.5002983 
0.7275762 1.8951083 1.011356 -0.83639276 -0.23271513 0.12232735 -0.18447126 1.0271068 -1.4189963 -0.22818738 
-0.07080926 -0.56565976 -0.50638145 -0.31247965 -0.77347493 1.182944 -0.3310787 -1.2480723 -0.30503285 0.27470678 
-1.0235941 1.4580007 -0.9301 0.6129288 0.30998355 -0.22393528 -0.11844658 1.1892517 -1.8663933 -0.060431186 
1.4800144 0.6743152 -1.7101885 0.81662 -0.058107425 -0.008855914 0.63883615 -0.50226283 0.8806183 -0.20636097 
-1.1946993 -0.26751542 1.1150789 -1.6296902 -0.46607238 -0.73067313 -0.08119526 -0.038435947 0.44477102 0.50654256 
0.30393243 0.8125939 1.0065817 1.6658143 -0.055389456 -0.48651862 0.46253252 -0.28809062 0.99813104 -0.89168936 
-0.63221896 0.73538494 1.4423311 -1.6159476 0.703201 -0.00817111 -1.0594479 0.8701678 -0.9138636 0.42013067 
0.25394738 0.37111834 -1.3276949 0.67113554 1.5055563 -0.992119 -1.1256344 -0.5545661 0.12922893 0.21510075 
0.8881693 -0.0702797 0.0116826035 -0.31886575 1.4035594 -1.7776307 0.40887696 -1.7474027 0.028946396 -1.2027597 
0.36672413 -0.95562637 -0.38675073 -0.045651555 0.02696494 -1.6063731 0.73031646 0.44859955 0.5299066 0.8204467 
-0.050373476 -0.26265508 0.10219135 1.9235259 1.3998274 -0.5844221 -0.2729951 0.1270431 0.07269676 -0.1355683 
-1.092139 -1.5249236 1.7578676 0.6305306 -0.4437047 -0.82186544 -0.58766854 -0.72750497 0.37274307 -0.3445161 
-0.5579919 0.76546735 -1.0516754 -1.5688599 1.6304312 -0.5273347 -0.6466375 -0.77546835 0.1328745 0.44604173 
-0.49229074 1.0757765 -0.28766653 -0.19068001 1.3236295 1.2204667 -1.6785266 -0.28151345 -0.21986257 -0.33134973 
-0.7967077 -0.88702863 1.0379225 1.3292285 0.93277174 -0.043143693 -0.19736783 1.0769762 -0.24595952 0.4200535 
0.3056916 0.670876 -0.85805357 -1.3649337 -1.0290499 0.16397552 1.2972207 -0.13489923 1.2334352 -0.9409076 
0.8185614 0.34101865 0.6176251 -0.051677402 -0.20141667 -0.29277223 -0.011372658 0.20230299 0.1061989 0.033013567 
1.2601001 -0.30846712 0.52866304 -0.20051695 -0.18812062 -0.10745271 1.4420971 -0.48564115 0.75380456 0.21653767 
0.81547284 -1.0822558 0.92752475 -0.24831182 -0.08334701 -1.2296281 0.2510467 0.078049794 -0.5942408 0.19946456 
1.2517688 -0.63575035 0.31079137 0.7964925 -0.93533003 0.44444087 0.02838461 -1.3424897 0.24522293 -0.069099 
-0.35774404 -0.3649928 1.0424803 -0.38224804 -0.05216613 -1.1915855 -0.52326196 1.2447568 -1.356963 -0.16901726 
-0.36210006 -0.610505 -0.6413232 1.9096879 0.49370524 0.603619 0.2792861 0.46158686 -1.6840074 0.72994673 
-0.38486302 -0.36518204 -1.0651343 -1.194324 0.11569462 0.37128258 -0.66530025 0.7073759 -0.2118839 -0.102525905 
0.6755294 -0.42541888 -1.1366795 0.25830433 -1.1184126 -0.05712997 0.11354471 -0.15430558 0.7054549 0.35058963 
0.6504154 1.8425221 -0.70276797 0.5689747 0.05957081 0.025567204 0.5022088 0.46262956 0.18315642 -0.00023070953 
-0.7887978 0.12532718 -1.3550277 -0.4113211 0.34382346 -0.9015394 -0.28681862 -0.30668947 -0.7411896 0.22121339 
-0.26813564 -0.19499509 -0.27344447 0.20795266 0.20218413 -0.26631576 0.1580513 0.10793143 0.15666263 -0.32030457 
1.1262345 -0.00907058 -1.270018 0.111768104 0.92210674 0.29572222 0.45970342 0.10850113 -0.8007538 0.29571512 
0.5617876 -1.1262225 -0.13844366 -0.29485455 -0.443224 -0.05304742 -1.5452558 -0.5998007 1.4601427 1.3453226 
0.56043595 0.5650202 -0.24317989 0.23114067 0.7559478 0.014511559 0.3981311 -0.5212897 0.6453306 -0.075896874 
-0.45103565 -1.4389307 -0.8848431 0.9904879 -1.0287069 -0.7649985 0.5138453 -1.7864914 -1.3265808 -1.054242 
1.5807743 0.8122266 -0.028258786 0.16440883 0.25253743 -0.31073037 -1.0944226 -0.31349745 -0.3216671 -0.021766279 
-0.77363 0.29757586 -0.19113766 1.0751109 0.5006491 0.08724203 0.54188293 1.3157538 1.2497584 0.33118433 
-1.6804571 -0.008092972 -0.8231997 0.81974536 -0.8515522 -1.2219634 1.0055498 -0.29241678 0.78945667 0.7213229 
0.6113087 0.12295874 -0.7609092 0.38354212 -0.8342448 -0.82413214 -0.92178684 -1.1984698 -0.47225243 0.06024147 
-0.59483844 1.2382064 0.78174156 0.23322654 0.5839298 0.24219632 0.939911 -0.38846838 0.030613994 -0.9103885 
-0.05467456 0.6139652 -0.5857275 1.3473804 -0.2367688 0.014451843 -1.6545001 1.075422 -1.2907051 0.81381285 
0.075393334 -0.695512 -0.21382877 0.4389003 -0.6635502 0.40002838 0.92001134 -1.7609812 -0.75716424 0.35263246 
0.8926301 -0.6601724 0.13479967 -0.12210014 0.013960654 1.0365714 1.5373092 0.5897589 1.3532614 -0.25982308 
1.7788416 -0.9869811 1.3847266 -0.5741314 -1.0553102 0.36186942 0.66928333 0.16585317 1.4580458 0.30135903 
-0.06676018 1.4802083 -0.57321244 -0.5687521 -1.3857222 -0.8024579 -1.1031213 0.56273293 -0.20059496 -0.31999746 
-0.3690048 0.011750516 -0.091840364 0.38071662 0.43796757 -1.1980855 0.29440013 0.39704758 -0.27164495 -0.9072145 
-0.6849232 0.21591188 -0.7943107 -1.0482256 0.13901095 1.835739 -0.63345695 0.17937344 -0.16777933 1.6280065 
-0.027549261 -0.45709974 0.55159813 -0.109897465 0.46390185 0.32656768 0.79064035 0.0018981614 -0.14388958 -0.025408834 
1.7589923 -0.39512375 0.8322275 -0.5725849 0.8888432 -0.020470623 -0.4074904 -1.1378601 0.41062465 1.1307108 
-0.334517 0.26573575 0.80520296 -1.5470222 -1.2375115 -0.67038137 -0.59443164 -0.972922 -0.1415093 -0.31941524 
-0.1826943 1.554031 -0.5188556 -1.7162231 0.5447109 -0.38684094 -0.81287205 -0.38293785 0.8555697 -0.5546985 
-0.71176696 0.17687951 1.0351572 1.1014198 -0.9116758 0.6298723 -0.9974416 0.1603508 0.44542205 0.4958831 
0.25048113 0.16192192 -1.2806646 -0.69820416 -1.0595853 -0.9406064 -1.2599189 -0.02140648 -0.02786687 0.17558707 
0.19599365 0.92351395 0.82192135 0.5933924 -0.7079126 -0.10470586 0.17243166 -0.23508093 0.5729324 0.54149973 
0.07003407 0.46354705 1.6846522 -0.39901832 -0.51980865 -0.78675085 0.6973246 0.49246195 -0.12858266 -0.9408691 
-1.0946944 1.4187101 0.10379145 -1.2288343 0.6584016 0.5410333 1.5501902 0.5337939 -0.101538025 -0.70105046 
0.07629305 0.22148652 0.20920286 -0.18977617 -0.114256404 -0.966505 0.19867873 0.014131526 0.7621688 -0.76813793 
-0.005468353 1.0585277e-16 -0.0006950389 -1.0872994e-31 -5.4396263e-08 -2.8679583e-12 -0.00010742177 1.5260385e-28 1.2459454e-06 -1.7515566e-06 
1.2038906 -0.9778388 -0.46529672 -0.17169496 0.8242751 -0.8589155 -0.38120788 1.4297044 1.3216369 0.83156365 
-1.1395471 0.41614085 0.69750327 0.92631733 -0.10521667 0.17926149 0.71414655 -1.7332237 -0.48042107 -1.3244097 
-0.58951545 -0.5724417 -1.7037841 -0.4788497 -0.5546964 -0.1250278 0.20013334 -0.0177633 -0.53200537 -0.6265944 
-0.47450906 0.13209046 0.02054214 -0.8723256 -0.38480106 1.3797468 0.033053216 1.2477599 0.6557788 -0.14512366 
-0.67933846 -0.20536791 -1.1716402 -0.30516413 1.1406885 -0.21367829 -0.9187482 -1.1878163 0.0988045 -0.14716934 
-0.43595198 0.22608118 0.27537173 0.02241442 0.22198625 0.38143298 -0.37487704 -1.6188686 -0.33037907 -0.75386006 
-1.199153 0.05063309 -0.22434749 -0.33795953 -0.35827744 -1.6028336 0.44883794 0.21599299 -0.36210045 1.2389303 
1.3167759 0.4139293 0.05673099 1.0417709 0.16661248 0.31181955 0.30511782 0.82753664 -0.53360385 -0.13666515 
-0.9767511 0.22544472 0.9703881 -0.8937363 -0.66590357 -0.39662063 -0.68726826 -0.35595807 1.684382 -0.8900427 
-0.535225 1.2521759 1.030372 -0.48952925 1.0905563 0.5014828 -0.3193577 0.66744286 0.6367964 -0.43186855 
-1.2134632 0.32377526 0.37735438 -0.22452173 -2.004527 0.09543815 -0.816438 0.56281817 -0.9265454 -1.1028911 
-0.31773955 1.2655243 0.18475959 1.0804338 0.29845944 -0.5647525 0.010724796 1.1888474 -0.7349892 -1.0930532 
-0.7597452 0.9266469 0.0024105457 0.29341894 -0.18783572 -0.71583587 -0.18261726 1.1345695 -0.46512875 0.4297087 
0.17305122 0.058725234 -0.15043256 -0.26548687 -1.5787909 -0.17284639 -0.960038 -0.5764643 -0.8133298 0.06377311 
-4.4676515e-05 -0.005367299 -0.0002465926 0.024499824 -1.0158335e-31 -0.00035792406 0.00015279067 -3.4145627e-16 0.032205142 2.6864525e-32 
0.86410624 1.117348 0.049644798 0.08061744 -1.5387447 1.1280525 -1.1817546 -0.3230269 -0.6611363 0.1904678 
0.040013865 1.4237683 1.2572447 0.10173607 -1.7802591 -0.8434228 0.6376688 -0.75513715 0.9482179 -0.20773722 
-0.46169278 0.20666926 0.36710975 -0.13126744 -0.17671531 0.7015596 -0.5293669 0.44214848 1.3380996 0.021862019 
0.8793904 -0.15443785 0.31242818 -0.57074404 -0.5081009 1.0144709 -0.83014375 -0.10930108 -0.7654864 -0.7898952 
-0.9698934 -0.23087734 0.0071178367 -0.6893815 -1.3784996 0.87526715 0.29766408 -0.033252362 -1.0809431 0.018856648 
-0.7678508 0.33489057 0.6358768 0.4767921 -1.730629 -0.4218636 0.13151528 0.4464032 -0.19684802 -0.15293093 
-1.0318007 0.7395546 1.1257225 -0.6772575 0.12681699 -0.63096297 0.23723328 -0.059007093 1.5896044 -1.68738 
1.4664432 -0.111957796 -0.45958573 0.41331145 0.3345042 0.12893766 -0.41467392 -0.74017066 -0.31736284 0.40785024 
0.3877579 -1.0270542 -0.54421663 0.7593408 -0.3991351 0.75672764 0.23763402 -1.5657252 -0.15552682 0.078133784 
0.9797545 -0.22677928 -0.36241108 0.2739907 0.911092 0.07930844 0.42238465 -1.5950527 -0.117369294 0.038867917 
-0.36714032 -0.17014211 0.6305134 -0.81922 1.1695757 -1.2098771 0.041737888 1.4872189 -0.2714308 0.13975367 
-0.5746902 1.278525 0.09269681 -0.9005645 -1.2886479 -0.23998061 0.60009414 0.056903563 -0.67213476 -0.5521034 
-0.3470897 0.8202515 -0.15548025 0.7888714 -0.40244532 0.6828562 0.47431168 1.2885915 -1.5847689 1.0158514 
-0.7711261 -0.25914785 -0.5715919 -1.3497673 -0.9835854 1.2497668 0.8463754 -0.47347808 -0.33272508 -0.56400925 
-0.17940357 -0.7871764 -0.3126746 -0.7077782 0.5809244 -0.44759515 -1.0732807 -0.16020155 -0.16632828 0.72548336 
-0.8699069 0.26080355 0.025257774 1.4592372 -0.28439632 -0.4026988 -0.106619895 -0.2618696 -1.1983042 -0.35757568 
-1.445251 1.0535073 0.67589897 0.9590019 -0.23248558 0.96762604 0.4135334 0.26270726 0.67633754 -0.5116768 
0.407465 0.89008236 0.04732882 0.056143206 1.518215 -0.2518223 1.8675121 -1.3193744 -0.3238058 -1.6649117 
0.61881787 1.1175811 0.25549147 -0.30842903 -0.14899148 0.1034194 1.0492294 -1.3764591 0.83451897 -0.13507244 
0.52467144 1.0736156 1.4558733 0.37922594 -0.038130186 0.92352307 -0.026641268 -0.17051533 0.7867209 -1.3185799 
-0.4229987 1.1046968 -0.5244673 0.3778293 1.4515426 -0.39374492 0.43503302 -1.2553221 -0.37505844 -0.19199562 
0.8727378 0.36620134 -0.79024637 1.4029655 0.8735641 -0.26433897 -1.4949542 -0.9967636 0.09506146 -0.6635643 
1.7444004 -0.5889671 0.93688947 -0.978164 0.22317514 -0.3599778 1.6886021 0.49276367 -0.9747885 -0.7866398 
-0.65710956 0.14772633 -0.89988625 -0.34394872 0.08082203 0.17079642 0.17437816 1.1823765 -0.43438137 -1.0228095 
-0.20771815 0.36077675 0.4736451 0.3908265 -0.09899566 0.41316903 -0.43270534 0.004113044 -0.50183445 -0.40058863 
-0.4452873 1.7417556 1.4169445 -0.059394456 -0.06456112 -0.31409732 -0.10259458 0.87121147 -1.2167022 0.6100183 
-1.1802163e-32 -3.3118356e-12 -2.4638692e-24 -4.783165e-27 -2.6497493e-31 -5.011976e-12 1.0872868e-31 -6.587481e-30 -1.1636669e-31 8.3066767e-32 
-0.58410376 0.8203728 -0.5567565 -0.07322212 0.022737857 0.4299211 1.3136749 0.3366642 -0.14626156 -1.4967026 
-0.45816895 -0.12277129 -0.35935077 0.4008361 -1.0010599 0.65193415 -0.53416395 -0.634228 0.49417076 -0.1297821 
0.41656113 1.0189205 -0.37734902 -1.2946918 -1.6052861 -0.34393674 -0.644036 -1.8161597 0.41471305 -0.8051787 
-0.020529678 0.33582065 -0.14120896 0.13858241 -0.0016089854 -0.6163619 -0.818011 -1.1216414 -0.41663527 1.1232996 
1.158949 0.496465 0.053065773 0.8395607 -0.7979747 0.022959376 1.5646255 -0.74515826 -0.9269872 0.48526683 
1.4334561 -0.047063664 0.35826713 -0.069213286 -1.3703761 -0.0415256 -0.6462633 0.06669803 -1.4336195 0.97790873 
-0.297108 0.06342103 0.079588786 -0.51438934 -0.7833852 1.0143874 0.04625129 0.3021012 0.9000848 -0.08518033 
-0.6724993 0.38259053 1.1176022 0.46658415 -0.62179506 0.370897 0.96832687 1.3344055 0.6304358 0.17648901 
-0.36654666 1.1147305 -0.42583808 0.4028471 -0.30214623 -1.7480478 0.729766 -0.17806056 -0.10041121 0.5849441 
-1.1721324 1.0030929 -0.6005286 0.55363905 0.23401335 0.35631388 0.34065694 -0.13309547 0.6708898 -0.31332242 
-0.15378033 0.59288454 0.019307671 0.24625386 -0.16479377 1.4999937 -0.86243016 -0.39947736 0.3626063 -0.44185942 
-1.335075 0.21449278 -0.800636 -0.65956974 -1.0026058 0.2070863 0.42582706 -0.45566154 -0.09832949 -1.3698312 
0.9311162 -0.92713654 -1.2983458 0.30321395 -0.1922275 -0.43200925 -0.7618283 1.0075243 -0.98847735 -0.81823456 
-0.3009422 -0.33059818 1.7388847 0.7298428 0.51074594 -0.107979275 0.7418954 -1.0115727 -1.25344 -1.8264097 
1.5016664 -0.54859996 0.23085465 0.29749188 1.3079052 -1.64202 -0.14897299 0.15793559 0.057180993 -1.2010815 
1.042457 0.1997935 -0.74925005 -0.6653694 0.4344579 -0.55316657 0.80074877 -0.3576224 -0.91663265 0.9840199 
0.049745645 -0.26104683 -0.3108076 -0.42478275 0.6624521 -0.914088 -0.48581514 0.5910255 -0.4064734 0.46994948 
-0.5380866 -0.71824294 1.4171689 0.6146273 -0.016547129 0.9192795 -0.15950981 -1.2849743 1.3909056 -0.7528536 
0.3944001 1.2195438 1.7509738 -0.31669617 -1.4804249 0.58926547 -0.5841756 -0.19834447 0.73381424 -0.5828675 
0.7535152 0.037484113 -0.48302057 0.20812845 0.5218952 1.7464166 0.9890023 0.6579272 -0.4652134 1.3541553 
0.33700022 0.364796 0.70860183 0.17994699 -0.83169234 0.96474105 0.07383443 1.0690069 0.69355255 0.21992543 
-0.1060735 0.92321026 -1.0129054 0.29382777 1.3161869 -0.3947905 -0.25096214 0.42571318 -0.078640975 0.73162484 
0.40917394 -0.11790255 -0.8033505 0.91108954 -0.6446131 0.6558348 0.81297326 -0.18181309 0.385843 0.1890226 
-1.5655867 -1.1210105 1.043013 -0.0015837929 -1.1193001 -0.35011694 -0.812857 -0.44307795 -1.3778037 0.014039861 
0.19972417 0.7173395 1.0696825 0.66586894 -0.241909 -0.58922595 -1.796875 0.35193312 0.6586829 -0.1427984 
0.6246156 1.0698084 0.8281761 -0.28096434 -0.27964386 -0.019508995 -0.4267838 -1.38647 -0.302423 -0.10367771 
-1.2732725 -0.08118637 -0.28125766 -0.07137535 -1.1417285 0.30217096 0.08783172 -0.33927825 -0.27552488 -0.26019582 
-0.2266163 0.6180838 0.19926862 -1.2228482 1.2565453 -0.54545766 1.2178572 -0.5648511 -1.330876 1.5008749 
0.1308161 0.26535314 -0.5561816 0.6032693 -1.0559722 -0.23675404 -0.4179807 0.21415552 0.9012624 -0.054571625 
-0.90756375 -0.3451896 -0.27471918 -1.8351158 1.1385447 -0.73872983 0.7126911 -1.5844938 -1.0153954 1.1012647 
0.31131926 -0.47837985 -1.2127179 -1.2459635 -0.085007146 1.6799217 -0.1341419 0.44467017 -1.3500881 0.11187955 
0.24130176 1.0753789 -0.4959145 0.659501 1.399167 -0.75477046 0.45341268 -0.21553132 -0.33267653 0.4339976 
1.4484541 1.0741363 -1.4381416 0.076129444 0.95066035 -0.6851042 -0.08121249 0.6908762 -1.0798881 -1.0077704 
-0.4041434 -0.5628208 1.5823754 1.3586974 -0.2759721 -0.38972473 0.35944924 -1.1051451 -0.9420401 1.098989 
-0.4412666 -0.5155842 -0.06472755 0.9004266 0.32804018 -0.20743513 1.8426301 -0.29869914 1.7504768 0.0028750275 
-0.58863384 -0.58534336 0.14616843 -0.19703987 -0.62554634 -0.42156616 0.688412 0.36877567 0.14032008 -0.022254538 
1.1297002 1.6194512 0.96077114 -1.0917375 -0.27400127 -0.050957732 -0.5202069 0.3318077 1.3404369 0.13211212 
0.5907162 0.1004963 -0.33115688 0.3985292 -0.40943772 1.5533729 0.44016096 0.19879071 -0.91575706 -0.40621623 
0.11187684 0.10104611 -0.08017272 0.06937961 -1.0565115 0.57741827 0.75927985 0.20741135 0.115782104 0.99062836 
-0.8803915 -0.29789007 -0.53895575 0.105916105 -1.5755619 1.1692102 0.4136328 -1.61235 1.4003505 0.6899798 
-0.88740546 0.9211166 -0.021322902 0.24702294 0.5194156 -0.77660185 -1.4663154 0.79442626 -0.33352453 0.8988929 
0.09657935 -0.6402708 -0.74810153 -0.41668758 -0.7996501 0.08873365 -0.36560598 0.4804752 -0.5371225 0.40069845 
0.01066644 0.0059311604 0.3475366 -0.019077541 -0.022111304 0.031582985 1.6545891e-34 0.021157615 0.61683273 -0.043528058 
-0.49314007 -1.1375095 -0.74769443 -1.5879624 0.56177425 -0.19327797 -0.5762183 -0.17452346 0.05180293 -0.7624673 
-0.825408 -0.42170522 0.54350793 1.1008018 -0.56663424 -0.26004213 -0.5622886 0.23807576 0.48273104 1.5024406 
-1.1941271 -0.98127127 -0.42390165 -0.31185743 -0.93913317 0.7174831 0.7643573 -1.3933375 -0.48168367 -0.2995117 
0.9990168 1.1308903 -0.07477916 1.5006353 -0.009119361 0.48256907 0.8490697 0.91515535 -0.39817724 0.048839256 
-1.0305732 -0.48909435 -1.2976506 0.23838463 0.33709192 -0.10023868 0.22444633 -0.18962711 0.18738735 -0.91319627 
1.276495 -1.5429631 -1.3253485 1.1904132 0.27011144 -0.90239745 -1.6298544 -0.37263444 -0.572878 0.6963345 
-0.47961825 1.200798 -0.20563398 0.074955516 0.7726288 0.527946 0.27769157 1.1343498 -1.1188145 0.7685459 
0.27118877 -1.4836334 0.3460114 1.5181887 -1.1870552 -0.7317802 -1.1574774 -0.6104065 -0.52358216 -0.662021 
0.28927395 0.6961152 -1.6339899 -0.10843921 -0.41584074 -0.22898199 0.72242326 0.7998916 0.2490315 0.18686123 
-0.95480895 -0.7379062 -0.9614692 -0.4541936 0.6264524 0.041646767 1.3480939 -0.669033 0.40367514 -0.20966186 
-1.5958742 -0.91851187 -0.7472728 -0.5807486 0.21784292 -0.8316203 -0.9510322 -0.1352897 0.10778276 0.52376395 
-0.7368772 1.1561915 1.0932605 0.38090965 0.44116127 0.35824928 -0.70664877 -1.6547546 -1.611089 1.0420004 
0.30641642 -0.5674086 -0.99743 -1.3320328 0.89906955 -0.057852335 -0.46914122 0.3871857 0.15634431 -0.5517408 
-0.31263453 0.20515756 -0.862187 1.075569 -1.4782947 0.66774255 0.45781294 -1.17684 0.84513503 0.22231077 
-0.28747708 -1.1732694 0.011209988 0.8405024 0.61425763 -0.81828386 -0.11880466 0.19119819 -0.49224564 -0.9803457 
-0.29017833 1.0058731 -1.4954708 -0.1925458 0.9904325 -1.6534933 -1.3103135 -0.9013368 0.22323088 -0.5513782 
0.9928869 -0.19786386 0.9889069 -0.47219113 -1.2588159 0.5920428 -0.8473587 0.49250266 -0.08756284 -0.79236305 
1.8465044 0.4822285 -0.689141 0.67496276 0.9561451 0.8249688 1.881841 -0.33516887 1.337735 -1.0433123 
-0.1167518 0.079022884 -0.08396518 0.47252548 1.3836045 -1.0826105 -0.4432551 0.018270297 1.078441 -0.29967132 
-0.20476775 0.26031977 0.045866434 0.035219524 1.3275851 0.24283583 -0.05294824 -0.82797885 -0.081265196 0.71297956 
-0.38175628 0.074757725 0.38969517 -0.11814758 -0.015077656 1.082833 0.37878686 0.13194975 0.34892344 -0.19337034 
-0.044915922 -0.37791055 -0.17206934 -0.24670179 -1.7136009 0.2864888 -0.1438724 -0.11184756 1.0153565 0.6284945 
-1.4943353 1.0765847 -0.45428506 -1.6602782 -0.29548275 0.22898816 0.10207524 0.6840038 -0.1437069 -0.98754907 
1.1166162 -1.062799 0.34973857 -1.0487387 1.4658555 -0.22782968 -1.1423368 -0.29334903 -0.17838739 0.83608127 
1.3285546 0.8467698 -1.0500002 -0.18627214 -0.6007257 -0.2793322 -0.1564716 -0.14511253 -0.89267904 0.8898475 
-0.12641174 -2.997293e-16 -0.5061586 0.0326284 0.06613084 0.22825286 -1.539332e-06 -0.29865503 -0.7752455 -0.04757372 
0.36198947 0.08407552 0.9406141 -1.3120222 0.48692626 0.2764226 -0.62958264 1.075549 -0.4456762 -0.6010133 
-0.2460212 0.053187743 -0.15148027 0.15885484 -1.0271732 -1.6532253 0.83358496 0.86537105 -1.1539526 0.18079296 
0.32656538 -0.6005619 -0.7167958 0.87284416 -0.06400802 0.39719427 1.573967 -0.9346887 1.6181185 0.3800068 
-0.29384872 -1.3716727 -0.3270011 -0.64459985 -0.7160535 0.25439328 -0.48175645 -0.2837287 -1.2929168 0.82913405 
-0.35440356 0.012895287 -0.5148034 0.38759524 -0.38171744 0.8200316 1.2321745 -0.7447917 1.0369378 0.30930808 
-0.02955787 1.291519 0.32392952 0.37226373 0.82549787 -0.606194 -1.1558803 -0.6470425 -0.28206107 1.3475219 
1.2525855 -1.5672866 -0.83511645 0.16096523 0.38126886 1.2739046 1.4375948 1.928923 0.11146304 0.13315834 
-0.47791448 -0.7621833 0.3527658 0.9044517 0.40372762 -0.25828117 -0.9338486 1.6999162 -0.5816946 -0.2344543 
0.2431388 0.5417623 -0.759505 -0.87449104 -1.0164522 0.52496755 0.4220661 0.97310567 -0.28377482 -0.77866006 
-0.04805846 -0.2566991 -0.9946128 0.23782875 -0.23376851 -1.3550816 -0.11685956 -1.0338639 -0.9351976 0.22046608 
0.85803086 0.09753576 0.122005016 0.91680604 1.1054407 -0.0644144 -0.49485078 -0.28568876 0.3440265 -0.06682309 
0.31359333 -0.51704794 -0.24033329 0.5956223 -0.7795805 -1.1879754 0.9315845 0.5449634 0.8637918 -1.1674205 
-0.05250111 -0.4927692 0.30949962 0.5230984 1.4797287 1.2583483 0.44613305 0.19991077 -1.3524517 -1.1566466 
-1.2220759 1.0123848 -0.081043 0.60945976 0.20830196 0.45961374 -0.43774045 -0.7362936 1.2988704 -1.2816315 
0.3710916 -0.21404083 0.41734383 -0.31254402 -0.5725695 1.624385 -0.20140137 -0.14825092 -0.73591757 -0.8201395 
0.09187696 0.9344897 -0.55801433 -0.36312115 -0.67324126 1.0569901 -0.36391246 0.9095838 -1.6210557 1.1592823 
-0.123138696 0.3818249 1.1204274 1.4294186 -1.236041 -0.5181832 -0.39676347 -1.0640346 -0.2447773 -0.031658087 
-0.2709767 0.24592625 0.58625305 0.63238055 1.8562341 -0.10435589 -1.3978801 -0.9882218 1.1475887 0.27762192 
0.6311924 0.18932 1.631528 -0.9536799 -1.0146924 0.83129597 0.06062083 0.5094749 -0.4731769 -0.5621028 
-0.34507304 0.1692715 -0.14668025 -0.6315057 -0.37624976 -0.5694141 0.5346271 0.6186281 -0.0016810631 0.37006077 
0.51913345 -0.2540938 0.6756724 -0.9179714 -0.6101857 0.12052033 -0.9744896 1.2819488 -0.7275834 -0.7221534 
-0.59867704 -1.2688808 0.8190191 0.2600481 0.9759919 -1.5484282 0.6875225 0.8828707 -0.70214397 0.78089565 
0.065884374 0.71150523 0.17475006 -0.02428677 -1.5620408 0.64548707 -0.5029731 0.813278 -0.30802026 -1.1863447 
-0.4532598 -1.6727188 -0.7375517 0.987346 -1.4324038 1.5976981 0.4440937 -1.0485477 1.1136425 0.105787545 
-0.0014673452 0.008934769 0.36488816 -0.31534913 -0.44399545 -0.8404252 -0.4161906 -1.2251214 -0.84421057 0.47219473 
-1.1754541 -0.44632015 0.67979616 0.033610523 0.17033206 -0.30843967 -1.0961 -0.21154955 0.08980233 0.65688455 
-0.35482445 1.0220879 0.10457493 0.25234404 -0.902067 0.74556965 -0.43401313 0.12629542 -0.62218547 1.050439 
1.0029032 -0.30278176 0.42889848 -0.3900518 -0.45738113 -0.92621404 -1.0159839 0.22222963 0.4588587 1.2920465 
-0.16593583 0.008625206 0.20589046 0.25247696 0.08317621 -0.013318322 0.054283522 0.19833638 0.0065962677 -0.0034854172 
-0.57788426 -0.77003264 0.51731074 -0.9637145 0.6430385 -0.63758415 0.29783058 -0.35660887 -0.5318648 1.017337 
0.9529445 0.64497316 -0.68674594 -1.801849 0.07938496 0.003950935 -0.23441416 -1.1587023 -0.1373372 0.30529153 
-0.089533314 -1.0674742 0.36932564 -0.37970048 1.0027288 -0.5393889 0.552942 -1.008946 0.6383904 0.24737273 
0.18203746 1.7879683 1.2632172 0.22190587 -0.20753539 0.80281204 0.17571577 -0.3455696 0.3016648 0.029607197 
-0.9085125 -0.64872223 0.9260876 0.15878586 0.48219767 -0.63022864 -0.6404165 -0.93635017 -0.18190351 -0.42344466 
0.55663437 0.42124423 -0.41501275 0.79372185 -0.64572453 0.8327398 -0.8163213 0.08692195 -0.9437428 0.7626282 
-1.661861 -0.85370076 0.90684605 0.9170408 0.34618625 0.89153534 0.10526292 0.16292515 0.7553121 1.5069801 
1.2767438 -0.27465618 -0.5010769 -0.9750265 0.0017497066 -0.55684394 0.5695288 0.39049762 0.48710594 -0.5968649 
0.7286715 0.8864147 0.12620075 -0.42092508 0.57859707 1.4210341 1.1721008 1.7436901 -0.5451049 0.52685297 
-1.4734149 0.104796015 -0.85525215 0.6617812 0.30968818 0.6093602 -0.3622196 0.9998759 -0.62900674 -0.51276577 
0.95304984 0.6503169 -0.81665266 -0.45823225 0.9102161 -1.5604514 0.19395377 0.351645 -1.0195882 -0.20577252 
0.5393541 1.1274809 0.3504345 0.18125157 -0.7287426 -0.79751194 0.29297507 -0.23852946 -0.16059579 -0.6388686 
-0.34285256 0.011956138 0.91027665 0.5212629 0.4416655 0.8921768 0.84331214 -1.0171536 1.2067361 0.76623523 
-0.00014612192 0.39931735 0.7153209 1.527076 -0.07040631 0.872878 0.4205068 0.1106407 0.23996866 1.2042177 
-0.107049674 0.41351768 -0.15067899 0.35962605 -0.16028143 -0.37559846 -2.0628772 -0.19535956 0.67210877 0.058371384 
0.47788545 -0.579279 -0.4444278 -0.73287195 0.4336123 -0.7883508 -0.9361805 -0.5580987 0.851783 0.849754 
0.8239158 -1.82803 0.06385882 0.4346875 -0.92449296 -0.43825802 0.015711443 0.015712298 -0.12552421 -1.1895133 
-0.766107 0.0932181 0.24558337 -0.6612612 -0.92629534 -1.1748419 -0.006715615 -1.3558416 0.6728626 -0.3710881 
0.47268924 -0.5522338 -0.034256604 0.8376773 0.11089723 -0.4893493 0.36347887 0.46723798 0.19236697 0.06388338 
-1.1621587 0.59327227 -1.6158642 1.3601159 -0.32419714 -0.41068044 -1.2603353 0.17804591 0.25623026 1.4847897 
-0.36448616 -0.031981885 -0.32923952 0.21505098 0.9031264 -1.204823 -1.132036 -0.35489035 0.37716067 -0.2047108 
1.2177262 0.6418852 0.030038027 1.1214089 -0.033360086 -0.38040122 0.09774917 0.14188342 1.0413076 1.0113729 
0.455665 0.93432975 -0.64195174 0.3927399 0.5134429 0.060751166 0.115057856 0.4705611 -0.9018289 0.7344331 
-0.968072 -0.36971143 -0.5639604 -1.1104198 -0.5464872 -0.37666032 -0.07991853 0.4550319 0.40173346 0.44489646 
-0.16156273 -0.25971252 -0.28523937 0.38036114 0.4725756 0.3188245 -1.7082275 -0.9976448 0.80405957 -1.1567605 
-0.7445482 -0.53016907 1.3112533 0.045018345 -0.8370464 0.6939036 -0.8319395 1.0365158 1.5879703 1.1507734 
-0.26860154 -0.6233316 -0.1728973 0.8805849 0.5099534 -0.20902024 0.20373149 -0.34656602 0.9880669 -0.42420098 
-0.49420273 -0.35452142 0.41718057 0.41316497 0.13809308 1.1410269 -1.5012643 0.7477107 -1.5518146 -0.78430647 
0.05434369 -0.12372053 -0.7456257 0.7057997 -0.12420707 0.1330316 -0.020605808 0.60978645 -0.045263156 -0.27750194 
1.0060042 -0.6175768 -0.4799657 0.4274053 0.5957992 -0.4868929 1.0862412 -1.6933358 -0.021205928 0.8242534 
0.45073545 0.6967659 0.6603782 0.30522376 0.03997164 0.81143504 0.110565946 1.3056333 -1.2885678 0.49249792 
0.41633847 -0.7828241 1.5439134 0.30807906 -0.25571218 0.5877792 0.9849151 1.366257 0.1020516 -0.61463517 
-0.65840197 0.7940289 0.23918325 0.4178341 0.26875815 1.2729819 0.9851033 -0.023185937 -1.0167866 -0.67673224 
0.5702221 0.47343588 0.1006673 1.2262685 1.1086959 0.56901854 -0.15955721 -1.3811686 -1.3162565 0.3948763 
-0.8595108 -0.075399116 -1.0367393 0.09922475 0.3301306 1.7091632 -0.2074461 -0.047427237 0.64511967 1.2080722 
0.3004042 -0.34318122 0.60441387 -1.4601681 -0.2557956 -1.9312228 -0.47422877 0.069595195 -0.34345165 -0.7228819 
-0.38002494 1.0958543 -0.18841578 0.10268736 -0.9210728 0.8888102 0.34162796 -0.96457225 -1.1732246 0.9510614 
0.6329388 -0.08488774 -0.104315124 0.7095354 0.21819131 0.78635406 -0.27918577 -0.37500176 -0.03157268 -1.5963931 
1.8000805 0.08384242 -0.59514374 -0.8285905 0.057044953 0.7514743 1.3015035 -0.19136012 1.2830502 0.9099232 
-1.1362555 -1.3506824 0.8794791 0.7866791 -0.0027767557 -1.5226009 -0.6078139 -0.9743853 0.44629505 0.80721045 
-0.6997305 -0.60792476 -0.6079571 -0.88685745 0.36196592 -0.48001042 0.0071032858 -0.11331492 1.3340575 -0.62066984 
-0.92455375 -0.3370541 -0.73125917 0.06127732 0.44972956 -0.2415122 0.53147846 1.2412273 -0.4651091 -0.13975163 
0.19393262 -1.2006149 0.92667663 0.25879282 -1.0120392 1.160236 -0.8913835 -0.9126452 1.4633346 0.11430362 
-0.09883585 0.669842 -0.39331314 1.1038418 1.5906109 -1.0172247 1.6257381 -0.9188004 -0.73283005 1.0956504 
0.572127 1.6656007 0.28943372 -0.56886107 -0.36216885 -1.4101367 0.8845977 -0.9961041 0.016606737 0.63168937 
-1.3691584 0.29644737 -0.44890675 0.29168335 0.047563832 0.098443866 -1.1171964 -0.7858866 0.6472637 -0.8001851 
-0.6121621 0.031561293 -0.057197668 -0.63521266 0.02027153 -0.8715847 0.3750932 -0.5583281 -0.47652948 0.31522688 
-0.25456715 -0.73983246 0.13488273 -0.48298413 0.75940466 0.63774896 -0.2932261 -0.07818478 0.2672539 1.0973163 
-0.09062116 -0.031737056 -1.6384865 -1.396261 -1.0916336 -0.31344396 1.650025 -0.5966822 -0.051303502 0.8893541 
-0.14648099 1.1804441 -0.3641327 -0.8670224 -0.94240886 0.5612645 -0.7074555 0.50340366 -0.9766652 -0.44388807 
-0.8248449 -0.29092687 0.26980165 0.89812964 0.2661878 1.3773472 0.2606106 1.6997315 0.087739624 0.055167057 
-0.0179258 0.48246998 0.58700854 0.39352176 0.33890787 0.94607973 0.6128732 1.574711 -0.5053045 -1.3170817 
0.003520185 -0.0349166 1.3484682e-08 -0.53907746 -0.59140337 -0.30298778 0.08033749 -0.10144501 0.5333692 -0.21325733 
-0.5989471 -1.4336134 0.5984428 0.44657803 -0.2285712 -0.11192361 0.6671872 -1.1562767 -0.3039474 -0.8428622 
-0.15274552 0.4119401 -0.5506507 -1.4700761 -0.68450665 -0.43808123 0.48578084 0.5648825 -0.5556568 -1.5223584 
-0.58028144 0.18180798 0.1705125 -0.11531077 0.45233715 -0.3155213 1.0034057 0.6232116 1.0419817 1.3333162 
-1.1061164 0.95636266 0.40380907 -0.6596426 -0.12586881 0.46332726 -1.2207454 0.56524605 -0.32292226 0.10382238 
-1.8399618 -0.24809565 -1.5478127 1.0735487 -0.48434833 -0.26961663 -0.49009195 -0.06640967 -0.54284346 0.27999127 
-0.12019385 -0.08973759 0.22993198 -0.19382553 -0.55917394 -0.51286006 -0.013253628 -1.1299434 0.31879523 -1.0275916 
0.71308047 0.46460444 1.552439 0.5911045 0.74088645 -0.06695634 -0.7037265 0.7695973 -1.888732 0.39542824 
1.2951254 0.6641184 -0.68292975 -1.1357455 -0.36334455 1.1350718 0.39894843 0.1923783 -0.23812805 0.8676424 
0.67285794 0.35297373 0.37370574 0.056082413 0.44241178 -0.80529153 -0.25835946 0.6043037 0.19856429 0.6805524 
0.4783461 0.5647144 -0.3015222 -0.9661641 0.37375554 0.25504208 -0.6413667 1.7703902 -1.3148463 1.5807033 
0.410775 -1.5451155 -0.07346503 0.49391013 -0.207554 -0.2234153 0.25346455 0.91801906 0.8265775 -1.0843982 
0.44304404 1.2599932 0.76466906 0.0313569 -1.0323257 0.2578442 1.3748318 -1.2301964 -1.0293922 0.5759748 
-0.1804875 0.021180812 -1.151312 1.2373713 -0.31266046 0.3104986 1.7034873 -0.10971558 1.5869552 -0.4022144 
-0.0035120312 0.047258556 -0.007839339 -0.029053327 -0.10111639 -0.0018193894 0.026051564 -0.00021354112 0.025009993 0.012096938 
-0.039475027 -0.11399068 0.32158652 0.85286355 0.40848434 -0.41625902 -0.3302539 0.05116868 0.041226257 -0.7870273 
-0.6767754 -0.17339309 -0.52279174 0.74085283 -1.0798291 0.24735345 -0.010014683 -0.18755439 0.94365656 0.51299286 
-0.24689578 0.86659294 1.6888558 0.085162 -0.36217722 1.4843844 0.5795208 0.34212458 0.17678626 -0.75859296 
-0.77512723 1.4973472 1.1665101 0.69121 1.2178622 0.969172 0.67176735 -0.1479927 1.4309481 -0.12893496 
0.7219862 -1.630971 0.6534093 -0.9350304 1.4307106 -0.7923146 -1.3956286 1.5960885 0.7944148 1.4168715 
0.18874961 0.38314027 1.7323486 0.09697689 -0.43880942 0.31837243 -0.04718307 1.4321789 -0.040323664 -0.97725904 
-0.3654815 0.5485215 0.37167472 0.12855008 0.02745522 -0.743581 -0.02572229 -0.31679443 1.3480757 0.006609401 
0.7099631 0.023283998 1.2011358 -1.5576459 -0.023705658 -0.40048817 -0.4208483 -0.71105844 -0.8867832 0.03515704 
0.44437855 0.77690536 0.40554526 -0.6758472 -0.30452514 -1.6336719 1.0861489 0.25363612 -0.13763651 -0.47237033 
-0.16232319 0.4525973 0.3700635 0.7401408 -0.37397867 -1.4014375 -0.08393539 -0.57051426 1.3407073 -0.1517828 
0.86456 0.39836442 0.4544252 -0.1543384 0.6207975 -0.47394168 0.42353362 1.0731097 -0.44703054 -1.0009475 
-1.5694296 0.2261277 -0.5381555 0.35395157 1.3396746 0.22282213 0.29762223 -1.4655812 0.18394059 -1.7002523 
-0.15073565 -0.2895793 -1.0968839 0.34577382 -0.37426406 -0.52413625 0.05834702 -0.29002276 -0.6618108 -0.8737402 
0.26288044 -1.2778013 -0.6057222 -0.11252256 -0.35114983 0.39574468 -0.035430543 0.090409674 -0.7789224 -0.830978 
0.7636309 -0.83314246 -0.22562706 -0.6369672 -0.41192785 0.5102872 0.027627137 -0.80072504 0.24236698 0.17971148 
-0.48929808 -0.65480936 -0.2037393 -0.31650704 -1.5745714 -1.6497039 0.32124978 -1.3062798 0.39799517 0.55484986 
0.5923112 0.8553982 -0.6506361 0.65876883 0.30553228 -0.3126901 -1.4158943 0.16336992 -1.1468312 1.3588853 
-0.0030333186 -0.82693684 1.0696874 -1.5961958 0.643725 -1.7986293 -0.07788652 0.15213244 -0.0378567 0.81996346 
0.104256205 -0.13118455 0.9793287 0.13365749 0.2666294 0.26535276 1.8205818 0.84991497 1.409984 -1.0729481 
-0.008654521 -0.41765836 -0.035968248 -0.19068697 -1.7196997 1.0070909 -0.12530866 -0.8923969 -0.049555883 -0.64058733 
-0.387763 -0.21164423 1.1558589 -1.2150849 -0.8833058 -0.35533494 0.11622296 -1.0684702 0.43096256 0.60114515 
-0.22768025 0.82092124 0.4325802 -0.43370843 1.096673 0.367053 -0.5151848 0.531197 -1.508871 -0.6751016 
0.5580477 0.2631294 -0.6072862 -0.24234697 0.40682614 -0.09891606 -0.101126865 -0.59548986 -0.59467435 1.5092089 
-0.047408003 1.2140656 -1.1075572 -0.25799763 -0.60034883 -0.1300302 -0.15159683 -0.7357927 -1.490117 -1.1011168 
-0.016873887 -0.7003239 0.04552497 1.1991389 0.79067564 0.8013243 1.0942518 -1.0815134 0.57924974 0.006624767 
0.09809087 -0.30323687 -0.45533016 -0.08347996 -1.2233584 -0.3775635 1.3684808 -0.21102789 -0.02698492 -1.2719492 
-0.780995 0.66763145 -0.6012863 0.35312146 -0.29221344 -0.32100463 -0.12163588 1.2444466 -0.6258088 1.0546664 
-0.8448011 -1.2673471 -0.55726177 0.8041879 -0.8456643 0.07152488 0.57815295 0.03179868 -0.8679242 0.96508473 
0.19979002 -0.12164277 -1.6217545 -0.27784348 -0.5632392 0.23605046 0.4172481 0.67252964 0.27480924 0.5843858 
0.010157942 0.33730584 -0.15359712 0.424155 0.2434707 1.210259 -0.23276971 0.16067462 -1.463821 1.093844 
-0.12833327 0.07857964 -0.04655168 1.122426 0.21191193 -0.800762 0.09870703 -0.19919169 0.80533856 0.06396626 
-0.6757553 0.44773293 -0.7694508 -0.7085467 0.694906 0.52071285 1.1683546 -1.1421574 0.18428323 0.6368474 
-1.7766938 -0.9990782 0.089578204 0.8187636 0.23561074 -0.6603347 -0.5814549 0.30171785 -0.25022915 0.6707724 
0.43946546 1.889167 1.4390949 -0.7099745 -0.39764932 0.5983954 0.45233655 0.03712849 -0.02973695 -1.5025357 
-0.7667428 -1.0786768 0.57749546 -0.93695515 -0.49603373 -0.20904708 -0.037875712 -0.7455923 -1.0742881 -0.23445909 
0.56355053 0.48601925 0.055959817 0.6768046 0.90626985 0.6725516 -0.6082623 0.34028792 -0.8041033 0.6781645 
-1.3148073 -0.749801 0.42857704 0.5989448 -0.32743138 -0.9514286 0.48233652 0.38852364 -0.16346388 0.35674685 
-0.92910695 0.79576725 0.14502552 1.0594438 0.32272905 0.43432957 -0.40333048 1.0181719 0.03176303 -0.24482913 
0.028620524 -0.90740126 1.3876992 0.40128762 -0.5103819 -0.73685867 -0.07411119 -0.10948051 0.10109205 -0.708967 
-0.90868706 -0.0035133606 0.92032135 -0.9598275 -0.824255 0.98155606 0.92254245 0.07074274 -0.39633518 0.6124929 
-1.6743382 -0.6545916 0.7397476 1.0661496 -1.8244147 1.2127178 0.6658363 -1.0196404 0.15231396 -1.182941 
-0.19702859 -0.9722235 -0.108627506 0.8694145 -0.14195669 1.2108464 -1.1086822 -0.54041535 0.3792091 -1.0421877 
0.36248854 -0.10826458 1.650396 0.7203724 -0.4117771 0.008724318 -0.109079525 1.2622126 -0.811884 -1.0865732 
1.344874 1.2874316 0.27998838 -0.25372818 -0.7861504 1.3019326 -0.5824248 0.030777743 0.88762707 -0.19617608 
0.3375565 -0.277454 0.40616408 1.8688865 0.19194888 1.748064 0.04512309 -0.22616088 0.07709977 1.1548438 
-0.386793 0.16097175 0.34190807 0.5658162 0.31457984 0.06307251 -0.0025437193 -1.1834141 -0.7024239 -0.8657174 
-0.78612596 -0.89078104 -0.63015664 1.1893423 0.7786842 0.75040346 0.3641753 0.9566939 0.7290497 -0.18660323 
-0.8322015 -0.92015797 -1.3410386 1.0322398 -0.035035335 0.6630129 -0.54536504 -0.8936908 0.23123325 1.173446 
-0.9810565 -0.27008346 0.5900043 -0.039741144 -0.104619354 1.1071472 0.69286 0.2210624 -0.29240218 -0.032775465 
0.7241062 -0.7431044 0.02820792 0.14542507 1.0820289 1.367946 1.1347358 -0.60923785 0.09285027 0.9196727 
1.0071119 -0.7169926 -0.8447851 -0.016393626 -0.81326294 0.14774382 1.391584 1.2780578 1.104745 0.6274957 
0.95458674 -0.5584922 -0.24872854 -1.5604644 -1.5642594 -0.5564115 -0.069726795 1.0333833 0.60344756 -0.9185854 
-0.72072285 0.21906465 -0.61043876 -0.24207073 1.3766766 0.97348124 0.86019546 0.15181671 0.9970583 0.7964383 
-0.26548102 -0.6216204 -1.6837733 -1.0507964 0.46182802 -1.3824846 0.119640805 0.008653924 -1.1041989 -0.4083938 
0.1870551 0.33095106 0.5772088 -0.5253799 -0.33077425 -0.05486128 -0.065606706 -0.27648208 0.78725666 -1.0162752 
0.69930387 0.2555569 0.011225881 0.32098198 -0.08889871 0.6110325 0.23490663 -0.09592479 -1.1789479 -0.27772495 
0.6216689 0.2160691 -0.3955514 0.9835098 1.3274177 -0.12669177 -0.46332783 0.74605644 1.09271 0.5444704 
0.8266428 0.31281352 -0.12904564 -1.2828709 0.22851333 0.21147472 -0.43678844 -0.6326873 0.6052925 0.26520926 
-0.55648315 -0.6779075 0.732568 0.37904143 0.32870775 1.4042728 -0.07338633 -1.1192818 -0.7907233 -1.351013 
-0.6148588 -0.23357935 0.73608905 -0.31454068 -0.33257067 -0.865106 -1.166376 1.0105575 0.17154129 -0.2770239 
1.3748785 0.99925154 0.005030572 0.27196217 1.0671471 -1.1638582 1.5573689 0.7343739 -0.3125106 0.9994688 
0.21605854 1.4581658 0.20125076 0.10197641 -0.6754706 -0.3162066 0.12661734 -1.4344047 -1.479741 -1.2462374 
-1.1661758 -1.1017437 0.05806161 -0.024660844 0.6025727 0.48152873 -1.4994774 -0.60833687 -0.44709694 0.07928314 
1.6985654 0.59704334 0.62270904 -0.11897567 1.3529962 0.030570948 0.5276074 -0.5972281 -0.024919305 -0.1850501 
-1.6506746 0.26417652 0.6779439 1.1043038 -0.93224514 0.24967943 0.41295183 0.6591609 0.10842947 -0.021715168 
-1.0542426 -0.95213026 1.2297745 0.10720782 -0.47774187 -0.42412606 -0.32231018 0.19474915 -0.67921937 -1.3965014 
0.16229399 -0.18032524 0.46367484 -0.55898094 0.0036380545 -1.5886946 0.0010251519 0.97036415 0.96387154 0.30689144 
1.1676557 -0.037843987 1.0290723 0.41623875 1.3654423 -1.0913028 0.8725104 -0.3469091 -0.8543041 -0.58685476 
0.15348414 -0.19871409 0.08851431 -0.3759559 -0.40250832 -0.42716667 0.7109348 -0.8598914 -1.5223687 0.69023895 
1.2058734 -0.12921318 1.7688961 -0.2799154 0.49520904 -1.7501823 1.1201029 -0.9190429 0.26470318 0.057406805 
-0.3020156 -0.57659525 -0.16485903 0.06748637 0.007224914 -0.8964926 1.3521006 0.3968876 0.46595898 -0.16649866 
0.55800325 1.5435858 -0.26501834 -0.12258095 -0.009772907 1.0655684 1.847818 -0.9941787 1.0646125 0.51267064 
0.21773683 1.0084842 -0.24596366 -0.002790225 -0.090197176 1.5312893 0.027225927 -0.71361905 0.12409504 0.0440533 
0.24280049 0.26761904 -0.76759696 -0.21142624 -1.49397 -0.013999696 -0.9133717 -0.8831127 0.39409742 0.6966388 
-1.050214 -0.72755426 -0.104323566 -0.9075636 -0.20780355 0.2587822 -0.14592046 1.2298901 -0.5039057 -0.6422951 
-0.3455787 -0.5826069 -0.98275924 0.7636545 -0.6740669 0.51906204 0.96689063 -0.20993765 0.31050816 0.37711915 
-0.07700966 0.6032895 1.0074204 0.038090944 0.22597574 -1.6616949 0.43502378 0.449098 -1.561997 0.19305344 
-0.12969373 -1.0917956 -0.34752327 0.7217433 -1.0464722 1.5998372 0.868016 0.010686981 1.6583744 0.15067223 
-0.44446075 0.3778598 -0.93185765 -0.27293515 0.19772653 0.8212559 0.568745 -2.0531998 0.5244002 0.4718293 
-1.6288455 -0.07187063 -0.18738799 -0.9084898 1.0642419 0.18158285 -0.09514486 0.033764925 -0.15908058 -0.48137054 
-1.4931233 -0.49227494 0.4397187 -0.13732074 -0.2577709 0.7700564 -0.12589715 0.49484247 0.9480679 0.18854158 
-1.0351055 -1.3347925 -0.27537814 -0.13165942 -1.3229381 -0.52472657 -0.085650355 0.021040054 -0.59264284 -1.2079723 
-0.23933633 -0.1375857 -0.2869466 0.4023611 1.9013842 -0.5677014 0.09593003 0.6964438 -0.80749476 -0.13540067 
-0.077277735 -0.9455612 0.74401724 -0.19466099 -0.7293471 -0.09207223 0.35792845 0.15495366 0.3787146 -0.36053142 
1.7082256 -1.4589336 -0.10369896 -0.3189027 -0.29917338 -1.5540981 1.4491537 0.62331766 -0.4150155 -0.68920445 
0.042003594 0.12777248 0.28801477 -0.9286598 0.19546331 1.2663608 -1.3650734 0.9577583 -0.8170001 0.058318038 
-0.5332213 1.4493454 -0.30753025 -0.58166754 0.34542936 0.44960842 0.26616603 0.995842 0.03983416 -0.4286718 
0.8845595 -1.2226496 0.75327456 -0.7428094 -0.9770447 1.1286103 0.26205835 1.68849 0.4591851 -0.44608375 
-0.011187883 -0.40081635 -0.19169167 -1.099556 0.48535025 0.17526628 1.5066195 0.28654855 -0.6681286 0.3771336 
-1.2319782 0.78673077 -1.2151881 0.67451113 -0.040135242 1.2432625 -1.5744476 0.5980871 -0.74757046 1.1013625 
-0.15953408 -0.429695 -0.45353281 0.3409481 -0.15733199 -0.09885278 1.0671811 0.12569755 1.205294 0.78398186 
1.0723833 -0.11017074 0.9782614 -0.019310636 -1.0597881 -1.2553346 -1.3844391 -0.45307004 0.17258015 0.9118728 
-0.46026003 0.030010238 1.2028772 -1.5152389 0.88464725 -0.47138146 -1.2382509 -0.7453325 0.65028125 0.4660902 
0.8716285 0.20088074 -0.10412584 1.090461 -1.3440987 -0.96500397 -1.0691683 0.8176963 -0.26751545 -0.86114144 
1.3186154 0.7986894 -0.32600978 -1.0608596 0.38881835 0.5254511 0.9651811 0.23549664 0.3373123 0.13657299 
0.8787961 0.96673447 -0.91928697 -0.6761986 -0.13042246 0.26826325 0.23399335 -0.13154894 0.6705011 0.85330594 
1.2700586 -1.3494084 1.3951962 -0.72091043 1.3104745 -0.65073955 -0.79066724 -0.8355904 -1.1023233 -0.5513913 
-0.61391675 -0.063556835 1.3593619 -0.2197148 1.6976833 -0.6193235 -0.11479017 0.3458409 0.6244142 -1.1674013 
-0.23162887 0.75097513 0.21224442 1.060492 0.5542428 -0.7830998 -0.049390405 0.26427332 1.020612 -0.11076711 
-0.093499154 -0.022401577 -0.6030379 0.35771793 1.5429287 1.1765215 0.31142795 1.5962074 1.4531574 1.7549484 
1.37664 0.33372194 1.2229855 1.1069347 -0.37958944 0.4301656 -0.9289207 -1.282492 0.5099859 0.40432027 
1.2895083 0.30827945 -0.32645655 -1.0733162 -1.0026646 0.15254238 -0.92871827 0.3702692 -1.1599178 -0.65761757 
-1.3668742 -1.1721681 0.8793387 0.8915933 -1.3953481 -1.2645974 -0.77780366 -0.15931547 1.1599244 0.49491867 
-0.33754373 -0.09810539 0.37121037 0.5359477 0.44878685 0.44915715 -1.2817297 -0.36973682 -0.024749849 -0.5574762 
0.72938335 0.43492332 -0.14737575 -0.09488067 -1.1846443 1.3585732 -0.3272473 0.882392 0.5342636 0.33192027 
0.18260972 -0.5557755 0.59247655 0.87073714 -0.542575 -0.15613422 1.1846522 0.79103154 -0.19976147 0.71866786 
0.49392217 -0.24224816 -0.44406372 0.5863311 -0.67835665 1.3650508 -0.62037 0.06814316 0.29595384 -0.70155644 
-0.8272398 -0.0026097423 1.8030219 1.0137255 0.89981914 1.5997516 1.2176865 0.4475268 0.2614279 0.6685075 
0.4653384 -0.32156664 0.89224744 -0.80452937 -0.40373316 -0.12385393 -0.4851231 -0.4196725 0.33340648 0.88183933 
0.67626953 -0.7212151 -0.6161844 0.4198123 0.48374963 -0.3004176 -0.0111782355 -0.43953332 1.7136776 0.7997279 
-0.3360703 0.02422136 1.8278495 0.016517036 -0.26124927 -0.30849838 -1.1845249 -0.6496026 1.0722563 1.3257655 
0.4244639 -0.21743177 -0.43898028 -1.188115 0.731261 -0.01965029 -0.776783 -0.15539925 -0.22343907 0.08634165 
-0.47776154 0.49868584 0.42458564 0.20184568 1.1486481 -1.800289 1.2025335 -0.39745876 -1.8048389 -0.34944344 
-1.7759368 0.21220651 -0.16102105 -0.39499322 0.008414893 -0.5320817 0.06809458 -1.1378107 0.3598259 0.08930242 
-1.3054825 0.84827834 1.7030184 -0.77278847 0.9783934 -0.9954085 -0.0046248254 -0.9256703 1.3813214 -0.801223 
-0.64583343 -0.21110521 -0.062161975 0.08577218 -1.4321036 -1.2245202 0.40296164 -0.8954663 -1.0986434 0.8649082 
-0.52419716 -0.23671196 1.5430061 -0.103307486 -0.16273744 -0.05325587 0.3492082 0.61187524 -0.4527825 -0.3801568 
-0.4144504 0.20323731 -0.4700777 1.0542909 -1.1077 -0.13980934 -1.4910475 -0.15486583 -0.47142863 0.8843931 
0.51674134 -1.1594548 0.39418122 -0.1548805 0.08963733 -0.4550909 -1.1459132 -0.49764863 -0.12054759 0.38958025 
1.1486161 -1.4523107 -0.22417729 -1.3665428 -0.677383 -0.16324799 -0.66899943 -1.1544844 0.4187444 0.5898215 
0.3763632 1.2898077 -1.407364 -0.18872432 0.7280433 -0.46220624 -1.0794781 0.19723293 0.36347485 -0.8525612 
0.52662146 0.77334166 1.0756581 0.17063339 -0.21333818 -1.4602206 0.56325614 -1.5587807 -0.76557475 -0.082865775 
0.3146983 0.40503436 -0.1392662 1.616358 0.88609123 -1.0650706 0.71531093 -0.7509571 1.0889475 0.2505661 
-1.2890192 -0.3888618 0.69191927 0.6960313 -0.9355535 -1.6982756 0.9477748 0.46683067 -0.36750698 1.386695 
0.32290193 -0.78680986 0.34336144 0.20298022 -0.24146053 0.16584857 -0.8500091 -0.28257713 -1.4515015 0.60307896 
-0.54364645 -0.037860572 0.41350153 0.47014642 -0.09108264 -0.0684541 -0.16109723 -0.19927733 -1.2031434 1.2352898 
-0.797455 -0.024405787 -1.2992231 0.1873785 -0.05330503 1.548043 1.349263 -0.42783916 0.7676718 -1.6171421 
-1.496423 -0.36600083 -0.20018035 -0.28441253 -0.16644268 -0.4818743 0.2097683 1.5342054 1.6953281 1.9497932 
-0.4741674 -0.23600873 -1.3942153 1.078086 -0.07091837 -0.34018233 0.2942222 -1.014849 -0.44724774 0.8559541 
-0.050883368 0.021706704 -0.02710786 -0.42016858 0.31049946 -1.2848189 -0.8264199 0.46470276 -0.065461986 0.080707744 
0.37222007 -1.430385 0.017627794 -0.16305324 -0.84870696 -1.1514193 -0.38391647 0.27767417 0.17835622 1.2052124 
0.84498876 -0.2932567 -0.030877322 -0.105371974 0.7097451 1.2793044 -0.40940312 0.6021814 0.16205221 1.5680932 
0.03997697 0.9053076 0.2279588 1.240465 -0.36968696 1.4256709 0.65439 0.22903115 -0.2960296 -1.1910896 
-1.2456696 0.32631963 -0.24451509 -0.4029084 -0.9689764 -0.3007358 -1.0671505 -0.68677926 -0.5132547 1.5445658 
-0.7893944 -0.6179563 0.48148826 0.11035192 0.073582515 1.2002151 0.5103095 -0.8379594 1.7053668 0.49070138 
0.5736065 0.5537043 0.7595057 -1.067112 -0.47821614 -0.18861774 -0.352166 -1.459643 0.50724614 0.20064263 
0.9202316 0.9144299 0.27681592 -1.0602648 -0.4251448 1.268565 1.2684057 1.6590801 0.9321259 -0.64698994 
1.032313 1.3639177 1.4525723 -1.0111839 1.4524515 0.008016019 -0.057938993 0.22787577 -0.4644281 0.26267672 
0.5907411 0.76601976 -0.4288635 1.210138 -1.647052 0.5778824 0.625895 -0.4178085 0.6956751 -0.61558115 
1.5106357 -0.12331036 0.5569194 0.34505612 -1.7810323 1.0000954 0.3435313 0.1568622 -0.464383 0.77578706 
0.10940191 -0.005208262 0.16734141 0.09772208 -0.4171996 0.063609906 0.26177484 0.03745458 0.582677 0.14232278 
-0.2537274 0.18659756 1.1540574 -1.0579025 -0.26836643 0.29893962 -1.4289248 -0.8750407 -0.55786 0.32868576 
0.4568721 -1.0599246 1.4969022 -0.63714594 1.0098485 -0.2570606 0.7980682 0.40887117 0.9371256 -0.443365 
1.603972 -0.31642556 0.85240924 0.69408584 -0.37175673 0.52515894 -0.99303865 0.8872729 -0.34295878 1.5185379 
0.047520008 0.4531603 0.5447293 0.5845546 -0.35831803 0.6657004 -0.09192799 0.5395434 1.1054522 -0.5519997 
-1.1992527 -1.2213603 0.38119686 0.75803465 -1.3558953 0.8289991 0.3998949 -0.3884478 0.829427 0.09715567 
0.73552585 0.058884434 -0.78556776 0.21641491 -1.4401742 -0.2908794 -0.60441756 -1.1279794 0.33192363 0.45152435 
1.0052807 0.38197228 0.33673304 -0.811457 0.41834757 0.0049643167 -1.514254 -0.04356238 0.08519622 -1.0516409 
-0.72874117 -1.5326005 -0.8055686 -0.26121607 -0.93640476 0.18188517 0.2735088 0.51033694 -0.39622554 -0.39465547 
-2.0066032 0.4030231 0.23241352 0.26323983 -0.11212778 -0.39061114 -0.30709174 -1.5600667 -0.9262265 -1.4862481 
-0.9449233 1.1009845 0.79894507 -0.42750034 0.42855275 -0.5857019 -1.463264 -0.16450824 -0.011659033 0.70584023 
-0.043813944 -0.20005454 -0.3926071 -0.71060133 0.02111784 -0.05692953 0.03368003 -0.12838943 -0.055864353 0.03959777 
-0.0017248362 -0.04065535 0.5734693 -1.6101216 0.14331552 -0.7989155 0.8010886 0.32366678 0.13690391 -0.73749393 
0.958698 1.4924561 -0.4068518 0.95917326 0.8662096 0.013271018 -0.6849005 -0.40451133 0.14061075 1.5710279 
0.20663589 -1.2482252 -1.6092098 -0.10122272 -1.0414395 1.7490227 0.21395336 -0.62005806 0.8481368 -0.534677 
-0.3131909 0.028746814 1.3221519 0.8819571 -0.5978536 0.1537409 1.0716208 -0.98599946 -0.24416685 -0.17539552 
-1.6682374 -0.41942054 0.32955498 0.77778125 0.7032603 -0.22133785 1.0773764 0.69075483 -0.29445592 -0.88137156 
1.0677203 0.3170804 -0.4817955 -0.13012253 -0.13996413 1.0481288 0.41497818 0.93761396 0.40963587 -0.064813115 
0.011539088 -1.565385 0.031769533 -1.027075 1.6596565 -1.7350587 0.44435737 -0.287565 0.16939805 -0.7466169 
0.3943424 -1.4834021 1.1010791 -0.92094195 -0.26946965 1.0913666 -0.18712169 0.7038853 0.52535784 1.5038774 
-0.09850532 0.91761005 -0.7011154 -0.15169074 -0.6365743 1.6204966 -0.3615188 0.39453402 -0.1998173 0.043337602 
0.53649205 -0.20564425 0.4770378 0.4488338 -0.8729467 1.0917286 1.270273 -0.3091677 -1.5424116 -0.2839059 
0.24210493 -0.04219919 0.42824867 -0.2643045 -0.70945144 -0.730157 0.36219245 -0.40789744 -0.06697331 0.0039273533 
0.15783983 -0.014388068 0.17152022 -0.98052526 0.30382785 -0.0341832 -0.098160625 0.32612514 -1.2391353 -0.5251672 
-0.16567661 -0.38894394 -0.39376798 0.38266727 0.82830507 -0.1498258 0.9012121 0.69881326 -0.053119067 0.24329765 
0.43963858 0.023091955 -0.5919457 -0.13498202 0.43346417 1.7033005 -0.18838128 -1.1125534 -0.4389279 -0.77829474 
-1.096289 0.93861604 -0.7485256 -0.38841322 1.2652912 0.03397411 -1.0242394 1.0728368 0.26159927 1.2545993 
-0.11291298 -0.51093566 0.39855587 1.2526473 -0.14531367 -0.98664224 1.1048784 -0.31423935 -0.17405716 -0.4697151 
0.44764888 -1.2139419 0.3024281 -0.39897832 -1.1059234 -1.5647854 0.5767948 0.72836 -0.8654304 -0.6509693 
0.37576556 -0.87848485 -0.20831819 -1.4464333 -0.2441707 0.10432126 1.0292951 -1.4035314 -0.44613665 -0.6232615 
-0.07823825 0.39025328 -0.9126848 -0.5852132 0.8330436 1.3876771 0.8426677 0.26266125 0.6275142 -0.26110038 
-0.36989352 -0.80167687 -0.24650261 -0.53625745 -0.21799606 1.2597357 -0.22078325 0.471488 1.9493564 0.3209241 
0.33385268 0.04737394 -0.9020338 1.3406221 0.10168746 0.16405815 0.111290246 -0.8167952 0.5123365 0.16219078 
-0.24663958 -0.13935098 0.1563547 0.3602839 -1.2782286 0.28418088 -0.81417674 0.5171046 -0.10458688 -0.2162103 
0.059703015 0.017581172 0.1034059 -3.731339e-08 0.19202422 0.59620446 -0.13030417 0.10585246 -0.5079461 0.13170435 
-0.22866163 1.094091 1.0530757 0.13581233 -0.51392496 1.4095486 0.71018296 -0.64524275 0.3972016 0.20384574 
-1.6935072 1.3004284 0.40414274 -1.7620928 -0.81513625 1.1255593 0.010106862 0.97305995 0.43181813 0.8142478 
-0.09589508 -0.6687227 0.042431187 -0.09736858 0.492601 -0.64573455 0.6653208 1.4607266 0.6670158 -0.56530637 
-0.16851711 0.6299484 -1.2429105 0.20785965 -0.8298472 0.9490513 -0.0136465635 0.128283 0.94370955 -0.6466622 
0.5409455 0.67272544 -0.8140272 -0.4912119 -0.5460114 -0.120380096 1.3439264 -1.4061853 -0.58153063 0.16526829 
0.17485826 1.8086171 0.014488122 -0.82932407 0.44127265 -0.05552761 1.0082864 0.5978617 0.07061341 -0.30293584 
0.56978667 0.1808836 0.8955494 0.41572535 0.87518805 0.61065453 0.57195425 0.44892687 -0.29697466 -0.06277042 
0.27337793 -0.46238017 0.04583212 -1.0088074 0.22801152 -0.2767709 -1.241579 -0.22198918 0.45273075 -0.60736024 
0.003763598 0.5578199 -1.3535675 -0.011307742 0.79347533 0.4042931 0.673426 0.20291808 0.578706 -0.15712114 
-0.09907078 0.9279175 -0.13429634 1.2697372 -0.84094363 -0.76068217 0.6929446 0.40132874 0.96514326 -0.58035135 
0.71656567 -0.26775563 -0.7932754 -0.087996356 1.0441934 -0.6550585 0.3078412 1.3813503 1.1753945 0.70318776 
0.0830676 0.016769316 0.058705855 0.3395198 -1.2456418 0.8880519 -0.24632393 1.0781355 -0.2430953 0.97033525 
-1.5314977 0.38050172 -0.48806012 1.509446 0.3081522 -0.88447475 0.18185684 0.9325697 0.94282496 0.03545414 
0.06421849 -0.10176299 -0.050026275 -0.101287425 -0.17451854 -0.5931605 0.08942201 0.011436407 -0.22714148 1.396362 
0.19567657 -0.03505906 -0.22757216 -0.66399866 -0.45789355 1.3433812 -1.0627731 -0.6943931 -0.99903935 -1.0738474 
-0.371489 -0.32723197 -0.423915 -0.3186302 -0.7932158 0.9226504 -0.006639448 0.4340359 0.4348756 0.09713333 
0.6022708 0.35275066 -0.36211467 -0.8239564 -1.187811 -0.1527724 -0.548894 0.35337272 -0.015632914 -1.3325415 
0.06741335 0.77942926 -0.38996947 0.16890268 -0.5111884 -0.1503058 0.49865568 0.9485367 1.1254717 -0.49141783 
0.42165238 -1.0710369 -0.3482309 -0.25944766 -0.87971205 -0.7021985 0.0708255 0.5577061 -0.2080181 0.3558816 
-0.48758635 -0.8466905 0.6168417 -0.6885392 1.2851795 -0.8869092 0.094505 -1.3364704 0.08277641 1.5575151 
-0.27403766 0.12925328 -0.30007526 0.022894576 0.05020953 -0.59571266 -0.3249593 -0.2377657 -0.05454184 -0.26752415 
0.42924085 -1.127701 -0.23621078 -1.0236949 -0.7801076 0.4298827 0.20433174 0.24845865 -0.47878602 -1.6296618 
-0.93983305 0.087906346 -0.5234205 0.5134389 0.7960749 0.09179882 -1.2175872 0.83956915 -1.0617093 -0.37621805 
-0.57785666 0.171278 0.33689496 -0.37561828 0.43704107 -0.933266 -0.68933547 0.97311497 0.40414715 1.2157431 
2.0901928 0.032005828 0.6422039 0.7776573 -0.43557966 0.9180111 1.2604815 1.0026234 -0.35377464 1.4835218 
1.6103489 0.2702852 1.1692828 1.7456102 0.566775 -0.24968398 -0.28275687 -0.4606427 0.48825374 -0.07723436 
0.59242463 0.6069737 0.9667055 -0.47149524 -1.5271155 0.5322662 -1.4419056 0.75667715 -0.1082949 0.022654064 
1.0017226 1.3605907 -0.109224625 -0.9931953 -1.8761451 -0.7371008 0.41175374 -0.44506112 0.12041074 -0.56232846 
-0.6063449 -0.59682614 -0.7300523 0.25961185 0.053751554 0.5636045 -1.0545799 0.36826202 0.31622973 -0.5504238 
0.016250173 1.7228144 -0.08147463 -1.0948935 -0.0040976517 -1.4306821 0.9929435 0.9092596 0.49508592 -1.8411057 
-1.7710601 -0.7658159 0.17357007 0.73533416 -0.75380766 0.5846615 0.6171055 0.39296886 0.63741976 0.22497495 
0.11719902 -0.926009 0.363248 -1.504102 -0.3786164 -1.2995063 0.1240107 -0.17609103 -0.4095518 0.6594314 
0.0678482 0.5724599 0.0023851797 -1.2043334 1.3681792 0.7002966 -0.86063725 0.15341687 -1.4338814 0.10381582 
-0.2799667 -0.51827323 0.46503893 -0.38115382 1.1785578 0.5972443 -1.1967944 0.23726739 0.7282178 1.2111744 
-1.2579973 -0.6472221 0.74520564 -1.3918436 1.0402981 -0.012043134 0.42360047 0.73608696 -0.74849665 0.071839675 
-0.584795 -0.15861483 -0.30041775 -0.49496382 0.7672187 0.9974563 0.07681982 0.44698867 0.90052783 -0.4330859 
0.41775808 1.7133281 1.7499301 -0.624468 -0.8615153 -1.4039263 -0.37248802 0.65133226 -1.0772781 -1.5643964 
0.0097294245 1.4999975 -0.4029493 0.95746857 0.7053454 -0.7419559 -1.5483886 -1.1642898 0.2842623 1.0941759 
0.19110902 -0.057874512 -1.256144 -0.84978116 -1.3586249 0.8371458 1.1436079 -0.045851454 -1.1697083 -0.89518404 
-0.30923915 0.88843155 1.4305263 1.3327941 0.19774531 0.94929874 -0.8285755 0.7288195 0.32083786 -0.0937336 
-1.0213381 -0.36732545 -0.6998326 1.6786007 -0.7421793 0.8159792 0.18393412 -0.22342168 0.94485074 0.100957274 
0.37206477 1.1684587 -0.20407674 -1.8095759 1.0056297 -0.46358463 0.64084244 1.0472655 -0.19066755 0.52928865 
-0.09232321 -0.011739504 1.0639282 0.0629695 0.12351744 -0.44187424 -0.6663836 0.06856406 0.8076311 0.21764053 
-0.0642051 -1.37554 0.1615538 1.0070101 -0.9567812 0.34717155 -0.47512162 -0.01592201 -0.61618125 1.7218713 
0.7069477 0.2258356 1.083323 1.1673536 -0.15542927 -0.7777034 -0.36425367 0.88126737 0.5576787 0.023016792 
-0.9092399 0.94518137 -0.39259616 1.0279737 0.103428066 -1.2195414 0.769065 -0.32933307 0.25640744 -0.8283968 
0.76050055 -0.17124282 -0.6747336 0.45679227 -0.07171382 -1.2324178 1.5201435 -0.35668194 -0.36552358 -1.3821323 
-0.98954195 1.1301388 -0.8355785 0.44294304 -0.39857623 -0.8458 0.26833147 0.5972382 0.62172526 0.39654595 
0.47963974 1.0058938 -0.55298144 1.7251267 -0.2530611 0.09826943 -1.3777572 1.4476217 0.11657864 0.7773669 
-0.62182593 1.5264232 -0.41750818 -1.0837699 0.37792978 0.89697987 -1.5170268 -0.09952795 0.38578567 -0.22488476 
-1.1779441 0.40863073 -0.69863695 0.10452871 0.018234804 0.9176066 0.5513647 -0.38879693 1.0402445 0.8640742 
0.49966475 -0.3852399 0.047653005 0.18891782 -0.026349343 -0.20369495 -0.70956606 0.46816912 0.3657254 1.352904 
0.33581746 -0.5475205 0.52140474 0.39300206 0.084472805 0.9935587 -0.6976311 -1.4073608 -0.18053575 -0.7931603 
-0.7913618 0.60882384 1.7084572 -0.553183 -0.914821 0.017654175 -1.0161325 -1.2771841 1.041927 -0.9001766 
0.80904317 1.5639604 0.20348416 -1.5161586 -0.31541777 0.6582474 0.35710996 -0.3831465 0.557107 -0.60096544 
-0.053353153 1.0099356 1.0876564 -1.5044258 -0.7892456 -0.04632131 1.3940895 0.04739474 -0.4247494 0.5275016 
-0.99596786 -0.7867805 0.2023577 -0.6381231 0.93935126 -0.5841073 -1.2314126 1.1040196 0.13430962 0.14943238 
0.5174616 0.7768039 -1.4921253 -0.41320214 -1.0267226 -1.7875497 -0.3333797 -1.0703315 0.34122434 0.25341207 
1.0041002 0.008441974 -1.1003989 0.6765794 0.008863576 0.30221903 -0.5007664 0.88493115 0.61031926 0.84656894 
0.013278052 1.0279361 -0.9222816 -0.182809 1.1009164 0.7535115 -0.37712234 0.38664103 1.1676615 1.0150087 
0.020781312 0.18552135 -0.41396874 0.006099383 0.23161553 0.0005144508 -0.20017546 -0.63365257 0.5872552 -0.608857 
0.33799526 -0.2215509 0.12339627 0.6716635 -0.5672681 -0.155503 -1.493768 -0.28835705 0.532117 -0.47479457 
-0.15614548 0.3261053 -0.42570505 -1.2998194 -0.39598984 0.6700122 0.17721939 1.306387 0.13823803 1.4276354 
-0.6166533 -0.4198763 -0.81198245 -0.2263199 0.60361046 -0.47424608 -0.77336025 -0.99454457 -1.2747364 0.5702002 
-0.2573067 1.1674583 -0.52479637 0.28033158 -1.1543622 -1.0651177 0.1746384 -0.27508146 -0.8750898 0.82264364 
0.75340104 -1.0587186 -0.5358377 -0.6719065 0.5450273 0.7761385 0.47446644 -1.2560273 0.7583386 -0.15882064 
-0.44279417 -1.4878441 -1.1387324 1.1098034 -0.4869827 0.079028286 0.23719409 1.2652622 -1.2300813 -1.1846385 
-0.25012165 0.09948795 0.051177543 -0.5604176 0.7601488 -0.9295146 -0.39135525 1.0120795 0.035584617 0.600111 
0.1736853 0.11162539 0.07036249 1.3334585 0.049114645 -0.34115285 -0.0009925966 -0.25971732 0.09161071 0.6399353 
-1.8335402 0.79318434 0.6076037 0.09159845 0.5924483 -1.3584543 0.419175 0.25800046 0.24820225 -0.210498 
-0.062802866 -0.9940266 -1.7364807 -0.54251564 -0.056241885 0.24791406 -0.591324 -0.16213581 0.30932274 -0.4106232 
0.17181978 0.5233363 0.9029484 0.13658479 0.1478511 1.6325858 0.26894286 0.15317202 -0.23715115 0.23905335 
0.078708135 0.21375677 0.45548302 -1.0024276 -0.49728376 0.044621862 -0.37406912 -1.3511426 -0.26542184 -0.9684344 
0.6100365 -1.1631029 0.57837296 0.025132027 0.0316688 0.11953486 -0.1183178 0.44057283 -0.024547547 -1.4437914 
0.62580836 -0.5169098 0.0034371777 0.17055322 1.2398741 -0.44208604 1.5030688 -0.08098004 -0.2656614 1.0927907 
0.4723854 1.2996494 -1.231798 -1.2291446 -0.7738717 -1.0333428 1.4165082 0.28840402 0.25462162 0.47662953 
-0.16436896 -0.44476548 -1.2005956 -1.7310768 0.86092776 -0.06882504 0.42935365 -1.6125389 0.089098275 1.3140701 
0.6454956 0.58229345 -1.0964254 -0.018033963 -0.13995838 1.5386392 -0.83736515 0.024228577 0.521762 0.9293279 
0.89726233 0.102141984 -1.3128809 1.3618883 0.23578304 0.19547373 1.5770295 1.2904748 0.24344042 -0.71608865 
0.17382544 -0.2784602 -0.065563194 -0.851416 -0.4521772 0.09196734 -0.7265724 0.19114576 -0.3093238 -0.2875865 
-0.023906732 1.1990134 1.2752153 -0.33793437 0.15847817 1.7880752 -0.9900643 -1.0321436 -0.15916227 -0.15648445 
0.45614028 -1.4188526 -0.031843048 0.1969585 0.7274116 1.512953 -0.059726264 -0.44835186 -0.2839271 0.3032438 
-0.30947766 0.417608 -1.5627805 -1.5029671 0.41419995 -1.3046737 -0.60476995 -1.468103 -0.30148098 -0.96781176 
-0.09662544 -0.910568 -1.7745523 -0.00976325 -1.4832358 1.250147 0.5034489 -1.209111 -1.6138912 0.3925556 
0.7536123 -0.009966705 0.5799712 -0.8624839 1.1471791 -0.8581039 0.4901816 0.57260114 0.4344614 1.1606609 
-0.3603005 -0.28074315 0.655293 0.6924953 0.6805056 -1.196926 -0.33810762 -0.25466084 -0.0021939122 0.6450881 
-0.56618524 0.65236264 0.0076642465 -1.0838952 0.112792425 0.7303405 -0.7229417 -0.57782423 -0.80868435 -1.1575855 
-0.8636742 0.038278557 0.61113083 0.97352624 -0.32462895 0.99344635 -0.10659739 1.1223766 0.13405888 -1.077617 
0.30302688 0.12914473 -0.37396264 -0.12421927 -0.8629864 0.42028698 -0.7036757 -1.158968 0.12751374 -0.38597867 
0.041665565 0.5703837 1.1875325 -0.23327963 0.13394286 0.9446206 0.5108053 -0.95553255 -0.077465594 1.1661917 
-0.19898784 0.6129393 0.9410074 -0.29354587 1.1600958 1.4418019 -1.1403592 1.0861114 -1.4061024 -0.673579 
1.058895 0.61981493 -0.15832676 -0.2523047 0.76635695 -0.14079586 -0.7497704 1.8522627 1.1428254 0.65977603 
-1.3184363 0.4223159 0.8802248 -1.0847793 -0.7596149 -0.0019993808 -0.90176225 0.61071146 -1.4239267 -0.24923874 
1.3757366 1.3113725 0.043669544 0.17993157 -0.6326546 0.400845 0.98159 -1.366425 0.60267484 0.22037575 
1.0932745 -0.8404257 1.1544651 0.45876682 0.6031725 -0.078131065 1.1388012 -0.4188182 -0.29908687 -0.007873216 
-0.08915373 -0.050039448 -1.5481726 -0.045993537 0.1868899 0.65521836 0.51943165 0.06512501 -0.10315427 -0.27621672 
0.3648934 0.36817843 0.29498872 -1.8302792 0.44155556 -1.2663928 -1.5556008 0.55216366 0.11219134 1.0084778 
-0.77756554 -0.9891527 -0.95131654 -0.91709584 0.4740214 0.14360952 1.0630883 -1.2828544 0.0376949 0.32209444 
0.987757 0.7972569 -0.47710943 -0.49399182 -0.904158 -0.20792444 -0.52633977 -0.25075147 0.8485258 -0.99442345 
1.005156 0.35599342 1.0537198 -0.4066096 -0.48740542 -0.6591545 0.39662796 -1.0616537 1.102915 0.5766398 
-0.31621394 0.30298382 0.36313412 -0.82825196 -0.96846175 0.35102594 -0.25089526 -1.231019 -0.88658714 -0.17925124 
0.06865108 0.13922101 0.05892506 -1.1576937 0.010781838 0.36800486 -0.13526447 0.9565851 0.5816977 -0.043326344 
0.26847252 0.5754448 0.07091917 -0.63196766 0.6486928 0.65294456 -1.2463894 0.44588378 -0.920768 -0.23294175 
1.081604 -0.3032216 -0.73904926 0.888678 -1.3271909 0.21477851 0.16752617 -0.49593335 0.94371694 -0.10147536 
-0.8773654 -0.6287698 0.036295615 -0.6493398 -0.4706952 -0.10257935 0.33957684 0.29476315 -0.15609059 -0.099344656 
0.56912386 -1.1631255 -1.2129024 0.17298497 0.043119337 0.18081234 -1.390187 0.31020486 0.011972117 -0.7694021 
0.51936626 -1.8307071 0.7266599 0.68869185 0.66180634 -1.515185 0.59434307 1.4197379 1.1220348 -0.044514596 
0.8035101 0.8327694 -0.4842966 3.972856e-05 -0.5577145 0.23614042 0.048921224 -0.76336306 0.95708734 0.14659871 
-0.32416445 0.50927883 1.1074668 0.19118097 0.79705906 0.75203276 -0.5637864 -0.26465398 0.59744287 0.5376461 
-0.4678426 0.89213246 0.88752794 -0.0039040651 0.92315006 -0.32483315 1.6803346 0.013708875 0.88179106 -0.17923331 
0.119980045 1.0248119 0.18898551 0.58739805 0.11732256 1.6232228 0.43257236 0.43183255 0.464081 1.4249614 
0.16915841 -0.46086267 -0.35686925 0.35342464 0.82796645 1.1645932 0.228519 -0.7113102 0.24893329 -0.14953925 
-0.31854403 0.9781672 -0.0018219434 -0.19751528 -0.65762323 1.2288833 0.54556453 0.1455133 0.45866132 -0.4491229 
-0.84781235 -1.7042863 0.9991328 0.17682634 1.0942005 1.0657773 -0.8569957 0.3515148 0.271247 -0.16617541 
0.9065984 -1.5965654 1.0572656 0.6221651 -0.437577 0.059058204 -0.21046479 1.4968299 -1.117746 0.8155679 
1.1771634 -0.308971 1.357023 0.70735294 -0.43635726 0.17422427 -0.21181217 1.3914404 -1.2811142 -0.9602329 
5.61532e-34 -9.2202344e-32 -0.017454354 0.005294142 3.0030154e-08 -1.9865772e-33 2.5219127e-10 -4.146971e-06 -0.0006643519 4.7083877e-06 
-0.78965807 0.0352863 -0.3562208 0.97311944 -0.20974682 -1.1033196 1.3751209 -1.1248226 -1.0606943 0.17805006 
1.0179155 0.3673593 -1.050933 -0.06777984 -1.2196136 1.122747 1.6802582 -0.5620975 -0.5766315 0.66366076 
-1.1729487 -0.46880475 -1.3664165 0.50847185 0.6972003 -0.28388396 0.006780861 -0.33641556 -1.1598569 -0.14852093 
0.23655558 -1.080475 -0.22521184 -0.092942625 -1.0352653 -0.42841485 0.047202148 -0.077213526 0.5320772 0.3568198 
0.39959705 -0.5909725 -1.0920365 0.17275219 0.015748855 0.56856066 -0.47787142 -0.9005303 -0.6380463 -0.03473817 
0.7547168 0.45280507 -0.98161036 0.3931586 0.2281156 -0.05194044 -0.9278467 -0.9820036 -0.37233883 -0.7245677 
-0.9436097 0.9054078 0.7340978 -0.2523692 0.30460998 -0.88880837 -1.3325182 0.27587152 0.9002258 -0.060830895 
0.5788863 -0.5619333 -0.5484789 -0.62430006 -0.040458217 -0.60362065 0.11844741 0.17776348 0.49232444 0.82066345 
-1.0443448 -0.16000406 -0.35504296 0.19514981 0.06490118 -0.024509775 0.23760526 1.0940974 -0.74311787 1.1042192 
0.75496656 -0.22941448 -1.0050522 -0.9705697 -1.288053 -1.5822421 -0.1233384 0.08044892 -0.22247955 -0.8389194 
-0.9036539 0.011009547 0.25666174 -0.4973687 0.549172 0.37854257 -1.199333 -0.016567176 -0.45383593 1.3032542 
0.92603683 1.7151423 0.8486552 -1.5841223 -0.19591998 1.4625746 0.0615175 -0.41155154 0.313761 -0.71052164 
-1.1322277 0.29631147 -0.029065888 0.2719959 0.61693835 0.5725723 -1.0963322 -0.055108014 -0.5169648 -0.8957877 
-0.30424684 0.22544923 0.23800918 -1.3713356 0.53024226 1.4486011 -0.5802559 0.23335223 1.7199842 0.6379047 
0.15081729 0.5424263 0.36359745 -0.16502239 0.60735214 -0.22577578 0.64245796 -0.3414781 -0.15719534 -0.037433006 
-0.7215964 -0.64507043 -0.19187146 0.56577665 0.42625585 0.05374858 0.8268353 1.258926 -0.5743503 0.4109133 
-0.09210242 0.37561858 -1.0442874 -0.13581556 0.11090489 -1.1014081 -0.42333156 -1.1910659 0.7830242 0.43563852 
-1.2689062 -0.7111392 -0.29310623 -0.20998852 0.5549211 0.7131642 0.4582563 0.9649341 -0.033055704 0.22180128 
-0.40323332 -0.83018464 0.34040532 -0.6077345 1.0162201 -0.027205849 -0.24963866 0.8486973 -0.7349161 -0.72204226 
-0.82013553 -0.25599048 1.0636817 0.24406317 0.945572 0.6587629 -0.0042564096 -1.1677326 -1.6433872 -0.49361327 
-1.004104 -0.28998956 0.76549524 0.66245127 0.01776561 -0.7430167 -0.87484896 0.13906685 0.23980488 1.0593544 
-0.38736212 -0.024703367 -0.37812617 0.64228255 -0.66373646 0.49554154 0.9569989 -0.2593424 1.3088673 -0.15777142 
-1.175059 -1.2161297 0.24027675 1.4414264 -0.1257136 -0.8199637 1.0694774 0.6494246 -0.31780118 0.20451216 
-1.2094846 -0.06213524 -0.61932236 -0.77086455 0.71985346 -0.7298454 0.33714372 -0.7405112 1.0929713 -0.08798717 
-0.8605903 -0.31320322 0.7203455 -1.9300913 -0.2771403 0.27994037 -0.4043006 0.9688379 -0.9306126 0.41901517 
-0.57331437 -0.4780382 0.07578626 1.5028301 0.41193867 -0.15335463 -0.35631913 1.3619969 0.5732106 -0.56319356 
-0.14911485 -0.0033875061 -0.37066695 -0.090501115 -0.064575695 -0.1417244 0.33026785 -0.1342257 -0.10466966 0.04254316 
0.6330942 0.93270487 -0.75942165 1.2066948 -0.7965682 0.24807654 0.9135103 -0.16434006 -0.4862434 0.23982593 
0.3040079 -0.9574689 -1.2483723 0.5569122 0.16348925 0.002672617 -0.035138477 0.22580148 -1.2351282 0.5736664 
1.0922239 -0.9165116 -1.4352804 1.6268696 -0.36883944 -0.8342008 -0.18946765 0.7381887 -0.23458774 0.61835593 
-0.40554914 0.22174545 -1.8161259 -0.77126247 0.30841896 1.6294535 -1.0100619 -0.46204427 -0.19334891 -1.0834593 
-1.31999 -0.031465754 0.066531554 -0.025047528 0.8216477 -0.54109544 -0.38377225 -0.7015164 0.47873512 0.2177713 
-0.20552495 0.8437206 0.46380654 -0.6912442 -0.05917572 -0.99755967 -0.9233521 -0.208032 0.19346806 0.19275564 
-0.20044419 -0.010008975 0.90313447 -0.057509996 -0.11313619 -0.014094601 0.28435227 -0.95750976 0.16421065 1.1595123 
1.446471 0.31327048 1.7572124 -0.7277483 1.3159502 0.12770453 0.42331913 0.07863497 -1.0611717 -0.1685438 
-0.5225758 -1.1361707 -1.3631943 -0.7802092 1.3020269 0.111547865 0.7989942 0.42170534 -0.89429516 -0.26695988 
0.3424547 0.5825783 0.67559797 0.17587447 1.324714 1.4955914 0.14195944 0.05603273 0.32990715 0.34557474 
-0.2918552 0.04346895 -0.15945978 -0.80240285 -1.5386069 1.3189789 -0.024844697 0.2523981 0.31621048 0.6693733 
0.3784665 0.17875898 -1.5115356 -0.82235575 -1.074873 0.5314747 -0.38928738 1.2248203 -1.1421931 1.1004084 
-0.13869002 0.7904362 -0.57907337 0.4737011 1.1653907 -0.07685057 0.057763346 -1.2337296 0.73999435 0.84263784 
0.28926653 1.7415859 -0.45405382 -0.90352464 -0.29003692 1.0032936 0.90677667 -0.17711689 1.3550683 1.1745219 
-0.57246745 -0.8897986 -0.507187 -0.7509869 -0.89815414 0.22723375 -0.45198888 -0.4654856 -1.0654678 -0.7379894 
0.32782513 0.016325098 -0.26065478 0.0107788555 0.26671204 0.39195025 -1.3174199 0.15152282 1.294259 1.0771098 
-1.0445127 -1.1824228 -0.6136271 -0.263232 -0.091030315 0.67275035 0.53560567 0.4019499 1.7958418 0.49305123 
-0.8166757 0.14364897 -0.51525444 0.40958232 0.38121194 -0.4867471 -0.90079474 0.16827929 1.4146073 1.5387152 
-0.41032147 0.36812863 -1.2954872 0.8725029 0.6659704 0.69773 -0.009934964 0.38957405 -0.4791612 0.122667335 
0.5678877 1.3823824 -0.10358356 -0.4647249 -0.96613574 0.19513619 -0.38170326 -0.7761324 -0.7910214 1.3384781 
-0.07776996 -0.075243704 -0.37793508 0.5120195 -0.43370175 -0.29416227 -0.0059772725 -0.66869694 0.0030278456 0.019454608 
-1.4331977 -0.014261434 1.5889838 0.77288413 -0.838772 0.4107747 -0.37609634 -0.70999604 1.1464202 -1.5196575 
-0.45020568 -0.23418547 -0.22461885 0.22914404 -0.1908213 -0.09322722 0.008806822 -0.1797256 0.16379182 -0.014756962 
-0.8431124 1.3210372 -0.2607244 0.24247465 1.5033004 1.1140534 -1.1412392 -1.6542093 1.2871412 0.7122348 
0.10594235 0.51213676 -0.80943656 0.49363607 -1.2289355 0.6653734 0.38477716 1.5398592 -1.4330446 1.3852419 
-1.0262983 -1.7836732 1.1600634 -0.58185333 -0.008903079 0.607977 0.8416779 1.2823526 -0.37019396 -1.10613 
0.6084755 0.046007037 -0.070159525 -0.9801734 1.1662728 0.68305945 -0.4409021 0.07529097 0.42833677 -0.27567148 
0.8385973 -1.1016163 -1.626738 -0.6293504 0.38236842 0.2835136 -0.5512069 0.72890586 0.7437745 -0.8966592 
0.4676843 -1.2883793 -0.48855346 0.15800454 1.3399866 -0.5062722 -0.26265123 1.3013364 -0.0784326 1.6001389 
0.18583168 -0.08495695 1.5995455 0.6312833 -0.10258326 -1.7288094 -1.0500472 -0.695984 0.16482879 0.65545595 
-0.5801292 -0.21846448 -0.7393029 1.4047068 0.9045263 -0.96454746 0.7627842 -0.28215316 0.59131837 0.49685833 
-0.13774912 0.46948186 0.24924044 -0.21232909 -0.83956605 -0.5661277 0.8672805 -1.0340734 -0.66916627 0.40472248 
0.55999786 -0.83881557 0.21733195 0.054755542 1.6810863 -0.00507353 0.2961696 0.60048294 -0.60569274 1.2248702 
-1.6908518 1.1418611 0.6181389 1.2449992 0.6076859 -0.93834347 -0.80077213 0.2829305 -0.7402626 0.51194704 
1.1114631 -0.09605208 0.1595166 0.46654296 -0.29091817 -1.0069143 1.3515601 -1.4976349 -0.19485687 -1.1424739 
-0.74054605 -0.6876301 0.19653794 1.3682196 0.029312734 0.33272862 -0.26747665 1.3669666 0.17591691 0.8938233 
-0.15351848 -1.6437272 -0.78428084 -0.47845143 -0.048610877 0.14787966 0.36353874 -0.28347456 0.46621412 -0.81733155 
1.0150001 -0.20480396 -0.6303299 -0.9346783 0.121621266 -1.0016611 0.011097428 1.1187238 -1.1791948 0.1259941 
1.2823023 0.6312614 -0.3653538 -1.0651364 0.4409106 -0.55616295 -0.46651557 0.34453815 -0.92874885 0.8639107 
1.5891839 -0.69785035 -0.9823749 -1.3832617 -0.038043573 0.39024907 -0.5084043 0.22905807 -1.2992586 -0.069783814 
0.086888336 1.3543097 0.33885834 1.1919718 -0.30249068 -1.1101928 -0.021253143 0.08204295 0.9943517 -0.73171586 
0.8189981 -0.74136436 -0.6480675 -0.59254044 1.4503256 0.9222447 -0.083618544 0.56271845 -0.69830865 -0.22632311 
-1.8126413 -1.5489424 -0.8256814 0.21718279 0.19894509 -0.09210129 -1.7364761 -1.0588343 -0.060626976 0.7694375 
0.5151375 1.508817 0.55308694 1.0731182 -0.8218459 0.7204002 -0.17005545 -1.0875641 1.3368237 -1.0842464 
-0.13481426 -0.0065501924 0.28124583 -0.011402307 -0.0032088351 0.72977597 -0.4157845 -0.0163808 0.003697731 -0.061642572 
0.95234656 0.7159068 1.3869907 0.7477548 -0.24608018 1.7041223 -0.010189491 -1.0263759 -1.7443593 -0.79004467 
0.7384269 -0.8542972 -0.29009786 0.24450924 0.44550762 -1.0993129 -0.38170832 -0.3620835 0.049904093 -1.0616711 
-1.2755834 1.43062 -0.44351715 -0.37924522 1.0530633 1.006649 0.6518463 -0.52545446 0.9783513 0.5350338 
0.045729406 -0.86064965 -0.042591993 0.5342865 -0.277255 0.90897024 -0.6148216 1.6001053 -0.56003207 -0.5522669 
0.20257077 1.1769632 1.4248008 -1.4848409 -0.501792 -1.5365436 -0.12361918 0.5208411 -1.2236291 -0.05633058 
-1.9832361e-05 0.020620078 -0.011975021 -0.019576691 -0.02027385 1.250694e-05 -0.0054798536 8.251304e-32 0.007901081 -5.3281476e-11 
1.1177206 1.1540917 1.5708708 0.15367134 1.4134634 0.71708804 -0.24333835 -0.4348132 -0.0058566076 1.1679164 
-1.4037473 -0.09397995 -0.9218112 0.13420342 -1.16024 0.7257075 -0.5615679 -1.6348522 1.8279366 -0.31789804 
-0.25236034 1.617717 -0.27803716 -0.56780535 -0.45170486 -0.8425381 -1.2639138 -0.60499454 -0.0021443588 0.53735787 
-1.0456328 0.24493684 -0.16919866 -0.1930151 0.43384728 0.18538658 -0.88844323 0.13320938 1.4077034 -0.7489137 
0.06640328 -0.14526927 -0.14570998 0.017595274 -0.5915019 -1.5020514 -1.1860324 -0.9883355 -0.3175652 0.118741356 
-0.21630533 -1.5213705 -0.7879811 0.16005433 -0.32806456 0.9197899 0.3489856 -0.1851422 -0.23663543 -0.2878604 
0.76661634 -0.252686 0.5350156 -1.6202657 0.5975316 -1.0045532 -1.1104175 -0.28398797 0.38724047 -1.3873215 
-0.51445425 0.31660417 -1.7682232 -0.48958495 1.4878548 -0.7550249 -0.834784 -0.27274957 -1.2930083 0.15996619 
0.20891683 -0.92316127 0.18853769 0.90601194 -0.70184904 0.4272298 -0.04930021 0.5175266 -0.14734602 -0.01537596 
-0.45000342 -0.93951035 -0.74514604 -1.2696648 0.75960976 -0.93905115 1.4869659 -0.3916622 0.10302317 -0.27193075 
-1.0221134 0.900118 1.409064 -0.5771151 -0.1555589 0.22322278 1.3729773 0.25104776 0.03232888 -0.558038 
-1.2281274 0.07536557 0.1869599 0.2230482 -1.3482454 -0.9094844 -1.0416859 -0.17254737 -0.16471665 -0.69934285 
-0.40259257 -1.4616117 0.38094667 -0.036464997 0.5964967 0.49961165 -0.31843707 -0.97835344 -1.2049086 0.867907 
1.2019014 -0.39756382 -0.12872067 -0.019139856 0.75074047 0.21702251 -0.5625264 -0.89587665 -0.09270257 0.2130782 
1.1666176 -0.52782756 -0.09595583 -1.1891063 -0.24972053 0.3886167 0.046513997 -0.7529874 0.77682376 0.3058584 
-0.57731766 -0.86502874 -0.55383205 -0.08973262 -0.05422601 -0.48724636 -0.25697738 -0.36995167 -0.64009666 0.899168 
-1.3115542 -0.15755764 -1.2613435 0.14281148 -0.00014347812 -1.8334723 0.7557659 1.2137333 -0.505895 -0.5538621 
0.8159289 -1.1077374 0.9040385 -1.2471879 -0.52895683 0.58310354 -0.6140334 -0.017850054 0.33260104 -0.8362315 
0.82223874 0.22693004 0.615825 1.3428038 0.26718533 0.002731715 -1.6600174 -0.9115871 -0.69675666 -0.7742729 
0.6091622 -0.054609347 -0.6388613 0.1355598 -0.23072332 0.8220068 0.4733006 -0.018156152 -0.2424689 0.136341 
0.08036478 0.32474542 0.14441767 -0.7966558 0.7839563 0.22729458 1.1099328 0.29621345 0.016217668 -0.046280958 
1.0146846 -0.8845682 1.0523235 -0.56698155 0.04737381 -0.34879908 -0.42166555 -0.04222807 0.6594505 -0.35987338 
-1.2072906 -0.0005150217 0.6140079 -0.48008105 -0.3223756 0.37899008 0.22500497 0.09298586 -0.8364556 -1.1555467 
0.35082817 -0.78736424 -0.23427024 -0.5259392 0.2731987 0.8989146 1.1939126 0.22359422 -1.2624558 -0.46739125 
-0.0039998903 0.00048413122 0.0002723902 0.14785957 0.013337477 -0.0075287945 7.2861597e-09 -9.570233e-05 0.026635842 0.087849945 
0.32085901 0.34545502 -1.8259181 -0.57273203 1.1867312 -1.1301404 -0.0076349494 0.6514368 0.9814949 -0.5662516 
-0.031684007 0.1936626 -0.09822489 -0.64391214 -0.016164877 0.072668485 0.5275178 -0.43475977 1.0178308 -0.21251644 
0.33576944 1.2772626 0.47980782 -0.5366049 -0.1144011 -0.38744596 -0.26147035 0.6377929 -0.10261155 -0.19428982 
-0.6767604 0.91890055 1.0830789 0.41102985 0.45252863 -0.21599153 0.60907924 0.73385787 1.1998188 0.6290744 
-0.36797214 -0.18963163 -0.45387676 0.41106147 -1.9063938 -1.6134018 -0.65718997 -0.8319184 -0.016509058 -0.26295057 
-0.47676188 0.610677 1.2764143 0.78851336 0.5139338 0.40249068 -0.6025834 -0.41852596 0.28093073 0.43960872 
-0.9954276 -0.34316126 -0.24659608 0.9083603 0.15600371 0.7256483 -0.10153543 -0.2956539 0.29292667 -1.2511126 
0.32136318 -1.5613465 0.06120825 -0.5295644 0.75726044 -0.6256898 -0.2005881 0.097911336 0.6849318 0.10196721 
0.0712058 0.7605902 0.7133596 -0.5929846 -0.8813726 0.026294298 1.6848749 -1.4164516 -0.63442194 0.60924387 
-1.1287346 0.29947188 0.5968017 -0.3359755 1.6635786 -1.1338898 0.20199575 -1.0152752 0.5431009 -1.3695414 
1.6389334 0.23131078 0.31921464 -1.6208735 0.9204171 1.0885723 0.33881003 0.42451385 -1.5574653 0.2149656 
0.228736 -0.25646067 -0.45003638 0.14022806 0.5900622 -1.4904317 -0.8163211 -0.79686934 -1.2500185 1.4094566 
