1.5696415 -0.38478896 1.0354255 
-1.8605355 -0.4790362 -1.6700888 
0.038745053 -0.1692583 0.73431075 
-0.700704 0.6897938 1.1883887 
-0.67613804 -1.312803 -0.8972542 

-1.4414866 0.9863217 0.9303135 
-0.75782853 -0.06928899 0.29159522 
-0.49999645 -1.4942245 0.360211 
-1.003994 -0.64386135 0.44932044 
-1.0535693 1.3397058 -0.8731473 

0.3723234 0.67443854 -0.72145796 
-0.16256803 -0.510578 1.8101884 
-0.25732955 -1.06105 -0.3608471 
-1.4421796 -0.8754996 0.6426962 
-0.96559244 -0.83297086 -1.2763023 


1.6719017 0.9486239 0.90315557 
1.5650331 0.6392438 -0.09014857 
0.14578742 1.3951187 0.08334591 
0.35084748 1.1723387 0.088292286 
-1.8144766 0.46638313 -0.62367696 

-0.07911196 1.5390316 -0.3259669 
-0.6660768 0.44899595 1.1731097 
0.5835604 0.89894134 -0.40748242 
-0.66540754 1.4648664 0.14252979 
0.2050171 -0.09320639 -0.47844797 

0.9420221 0.05900314 1.5308945 
0.23640907 0.7024868 -1.1294985 
0.074304804 0.7590524 -0.5269561 
0.67790943 1.9063098 0.17162251 
1.6168741 0.70595086 -0.4823004 


